booster[0]:
bias:
-8.57757
weight:
3.61356
0
0
0
3.0928
3.08621
0
6.02129
0
0
0
0
0
0
0
0
0
0
0
0
0
0
0
0
0
0
0
0
0
0
0
4.32611
0
0
0
5.14255
0
0
0
0
0
0
0
0
0
0
-817.978
0
0
0
0
0
0
6.48264
0
0
0
0
0
0
0
0
0
8.25752
0
0
0
0
0
0
0
0
0
0
0
0
0
0
0
0
0
0
0
0
0
0
0
0
0
0
0
0
7.01408
0
0
0
0
0
-9.24798
6.49292
0
0
0
0
0
0
0
0
0
0
0
0
0
0
0
0
0
0
0
0
0
0
0
6.71395
0
0
-34885.2
7.50154
0
0
0
0
0
0
0
0
-32.2696
82.1145
0
-21.3838
0
0
0
0
39.203
0
0
0
0
0
0
0
0
0
0
5.9447
0
0
0
0
0
7.59778
-2324.33
0
0
0
0
0
0
0
7.68532
0
0
0
0
0
0
0
-17.4868
0
-26.1802
0
0
0
0
0
0
0
0
0
5.78423
0
0
0
5.63194
0
0
0
0
0
0
0
0
0
0
0
0
0
0
0
0
0
0
0
0
0
2630.35
0
36.0027
0
0
-160713
0
0
0
0
0
-52993.6
0
0
0
0
0
0
0
0
0
0
86499.6
0
0
0
0
0
0
0
0
0
0
4.20913
0
0
0
4501.48
0
0
0
29909.2
0
0
0
0
0
0
0
0
0
0
0
0
0
0
0
0
0
0
0
-14.8197
0
0
0
0
0
0
0
-8.64378
0
0
3.88585
0
0
0
-8.2347
0
0
0
6.33051
0
0
-45250.4
0
0
-12535.3
0
-8.11097
-9.10046
0
-21.7064
0
-26.9686
0
-17.397
0
-7.75362
0
0
0
0
0
0
0
0
104.919
6.16043
0
0
0
6.51254
0
0
6.04649
0
0
0
-156.894
0
-16.0102
0
419.394
0
0
0
285.771
0
5.08322
0
0
41.9023
0
0
0
0
0
9.7122
-7653.2
0
0
-9.3362
-10.1825
0
0
0
0
471.873
8.25012
0
0
0
0
0
0
0
0
-7.62662
0
-434.127
-9.51339
0
0
0
0
0
-8.26935
12.2891
4.95289
0
0
0
0
-147.762
0
-7.85755
236.118
0
5.53705
0
-8.26315
0
443.413
0
0
26.986
0
-7.8466
7.45871
0
0
7.53936
424.123
0
0
8.05748
7.68311
-8.3494
1468.91
7.85272
0
0
0
0
0
0
-9.68687
0
-57704
0
-7.70095
0
0
0
-7.86059
-8.70627
19.6808
6.42947
-55.954
-9.30986
0
-0.710352
0
-7.88267
0
0.663862
0
-17.199
-10.1266
0.209339
-30.2354
280903
7.28031
-67.8754
165.126
-9.0521
0
-8.86978
-10.4889
2776.08
0
0
0
7.21131
0
-11.7742
0
120346
599207
-45.535
10.2139
-1.02157
6.0057
28.5725
0
-8.86701
-8.45008
-8.99591
0
0
35.6741
0
-83156.9
60.103
10020.9
0
0
-35.1948
-26301.9
64.7125
-10.2253
0
253.658
25.9791
12539
7.86478
53.6389
-8.13425
-9.2856
62621.9
-8.03042
5.50408
-7.48101
-1002.85
-10.403
0
-0.566991
4.36572
-472.701
6.34507
25.4876
0
-12.5915
-9.79806
0.139613
0.656256
-155.799
10.0279
8.27535
-9.895
-9593.49
197.395
0
163.922
8.28452
0
0
0
-17.2127
23.9028
0.394915
8049.06
3987.4
-95.764
5.72675
-1282.79
-7.8925
256.585
-123.807
-3.2936
6.5673
0
-8.37076
893892
30.0366
-109.217
1412.79
0
0
16.8214
3.96126
-10.8018
4773.57
-9.61538
-112.632
-289.908
23.2557
52.3929
-16.928
-18.4221
-9.46467
0
-2.55452
-38.4138
37.9748
55.6187
0
-768.212
4270.29
-611.45
-1120.48
-21.4132
0
-6255.06
-8.11893
-31.5059
48.9169
0
7.66639
92.5587
-8.05353
0
0
0
5.67178
-15.2452
0
-133.371
21.1435
52.3
-131055
0
16.7503
-20.3762
0
1.95087
7.37766
-235.087
-43.5755
0.856261
2.98476
-7.06348
-45.0021
22.5727
0
7.87435
-1.3621
-11.7228
-8.80041
23.9216
-10.3225
0.410954
-10.0627
-8.13956
0
0
-7830.28
-8.97824
4495.07
-10.9719
-8.04698
-13238.3
64.8014
39.2562
101.244
-7.96675
0
6.86116
-9.53117
20.8524
47.4468
45.9229
-102077
-4.55786
127020
-262.7
111.609
-39.9451
-17.6609
6.05703
-86463.6
-18.0578
-0.364332
338.955
0
95.0983
95.6863
-160506
0
-9.96042
-10.5263
72.5321
0
0
-9.95248
6.99335
-9.27868
36.8239
0
1.98324
-550.994
15962.4
0
-18.6641
9.04996
-210.5
109.671
0.540286
-67.0916
21.5251
-10.4479
6.21454
271.027
-22.3374
133.21
0.337479
59.1075
-80915.1
3378
0
-10.7887
25.629
-72.9693
0
38.5522
-1047.6
7.77422
7.21347
-140.372
-33.4857
-0.340698
0.313204
-276.202
-32.9904
-7.98021
0
0
3.14138
382.671
9010.45
-2.79254
0
-13609.3
-18.7126
2024.62
1579.09
-9.52047
-72.6305
397.253
0
0
-124.434
0
-29.9357
-250.125
21.7697
-42.6252
-476.157
-9.11217
-8.60081
-3.40853
0
-2389.43
-77.8895
-32.6782
-34864.4
10108.3
-149.963
0.308221
-326.478
-43.5993
-43928.1
-27.8425
-21.9458
-74.3157
-13.1475
-9.00529
2.35143
-1.47851
2832.74
-97.525
-16.3308
-1688.03
4.59492
22.4578
-11.2036
-9.0115
50861.4
0
-9.79872
-459.168
-13.9236
139.27
-3291.92
-8.98456
-9.25643
89.9535
-292.798
229.596
0.720107
-60.6316
0.468782
0
24.5758
-6073.74
-9049.41
64.4152
-9.63334
0.086789
29.0125
-3.20298
0.295872
0
28234.6
18.2606
-4.43279
88.9349
0
67.1929
8483.83
-9.09732
2.11379
-12.547
576.151
45.8035
53.2768
-14.8489
0
-4.75862
-80096
-3.78841
-126.717
0
-22.2672
8749.25
20.2182
-31.5749
1334.44
10.0219
2.29074
28.677
8.385
-6.8179
-709.098
13.982
-15.9049
31305.6
-66.2641
-9.37627
-30.9042
-8.66179
-118.981
-42350.9
-9.61865
744.467
0
2988.46
-4.1422
68.2271
-8.47981
-8.81238
-3.27098
-148457
-50.0617
-13.2423
6080.02
16.7054
-0.529325
-27.6394
96.4435
-22877.3
-316.47
-0.71248
-312.001
-2.79096
-191912
-21.2699
311.133
0.933584
-9.34721
65.4547
-41.1987
1759.33
-182.494
-9.80666
0
-13.9834
-5052.05
-0.965445
43.4893
-10.9415
0.0826928
-11.723
2.1281
-35.5264
1830.82
2013.68
-18.9357
-51.3447
0
-7.43016
-37.6573
-0.697869
146167
12.5758
695.562
-9.26296
1877.16
-14.9639
-51909.6
12.9774
-8.88512
4.33096
0.0857761
-35.4956
141.189
5.1935
-268.617
-8.85461
-1522.57
5.88545
-1215.65
42.6133
-28.2242
-1151.68
-12.449
0
-34.9883
-0.133306
-139.822
-3.29509
-9.00943
-33.3916
-410.863
0
-8.63431
-181.114
-50810.4
8.64925
-21.4504
-12.997
3655.09
0.0588368
75.3356
-100.845
-9.48373
-61086.9
-0.76686
1725.65
-116.761
78.9029
69.6313
13.8411
635.518
-3275.49
-7.6442
57.1856
150.114
2.9662
-8.9963
6.3773
-10075.9
-1410.57
-9.0991
-8.89525
0
8.31858
21.6561
0
513.19
-33310.3
-94.2412
17.3003
47825.2
2281.74
-842.133
0
-33.0082
17.6054
0
-27.7316
98.5492
116.062
0
-165.409
-136.743
466.271
12.3732
0
3255.05
-138.922
0
-164.123
-8.88845
103357
-9.93865
193.197
-66.2552
-14.2923
-4.1539
118.34
34.8955
-6769.75
-18.1146
-10.3797
214.893
-13.4929
-177.862
-8.89152
-24909.6
0
59.3895
93.7069
-1918.33
186.18
-716.375
-1408.07
-8.8918
-12645.4
641.387
31.4684
4.03711
19340.3
-109.22
-7.66374
23.9747
-15.9851
-53.137
-3005.77
-422.899
-101.597
0
-14.6616
0.399112
-60.9342
-100.957
-23.1028
-9.48377
0
119056
-11.4924
0
156872
0
-16.1239
28.9919
-116.051
-816.659
-1.89516
-9.46261
-73319.9
601.516
51.7269
0
0.565918
65.7019
134.067
-12559
-22.3936
40.68
0
0
-14.8449
-29.0345
-21659.8
25.4498
-10.34
0
8.55027
-12.0562
203.569
-9.34721
-9.6952
94.8929
-181.186
-9.891
785.641
11.0487
-2.50523
86694.1
184.896
-325.378
12602.8
679.139
0
11318.8
-13.6119
-346.685
57.6983
-10.4146
-454.917
2.35383
-14325.7
23.2304
172.159
-20579.2
-8.51754
0
0
14.1894
20.542
-129.379
2.58022
-86467
-9.01366
0
-32.5897
8.98304
-25.1125
-85.6226
6.83113
-278.606
-130.58
-27.2416
-9.72753
-13.6141
-3.45608
2.49573
0.244926
-102.622
1.61114
0
-18.225
-5.81126
23.3622
-60.7588
-1557.26
0
20.4952
-14.7683
-9.68615
27.9069
20.4337
-27.2779
-45.6192
0.198287
-2.44249
-5.38377
-20.6882
0
72334.8
-8.86049
-245.292
-21.1962
-12.0593
-930.72
-187.892
23.87
658.423
-1432.4
-46.6339
0
3.72052
-9341.1
-1074.53
67290.5
-281.789
-17.6814
1.20863
0
334.728
-1292.03
36.2045
-850.286
-151.927
134.444
39.101
-9.98923
-9.23701
-9.45072
0
0
-10998.1
-9.76341
-50.4197
0
404.985
-10.8161
17.0571
109.992
-21.9648
124099
5.37526
-9.68439
5.32804
41.8111
-12.2157
3.40116
16.2102
0
50884.9
-1929.7
308.332
-69.3563
0.231315
-11.1919
-0.261735
-17.0822
11.7671
0.217094
0
0
6.93985
228.643
48505.2
-6.5009
-14.0133
-9.84442
0
4.76517
-47.3301
2.08039
-2967.21
22.0979
29.201
-5593.74
0
-21.8957
-6229.29
-5.04532
-73.2851
-22.4528
26.7039
-1957.12
-85.2259
-9.55233
-0.255784
-169.842
-23.9485
0
0
0
-23.2935
553.44
6.98871
-15.2797
-0.254005
72360.4
-28.5183
-465.342
-13.6435
512.234
0
830.591
2215.01
28.2976
9.8969
-2109.74
-2022.34
-112314
262.353
0
0
41.7
158.982
-13.4398
-121.71
14.1473
-7.46703
-968.687
71.4615
-24250.8
9.9057
-37.2406
3.08927
-2.17795
-0.0459613
30.1359
405.997
2.5891
-1742.36
0
20.6338
2.45787
-1753.97
8271.28
-57.4675
-5.90002
0
3.08736
-714.264
-594.446
-18299.8
-483.256
-1278.01
-5344.37
0.462968
-646.213
-39.3985
-38.6644
-10.4808
-3.57036
132.032
-0.195275
0
-8.10436
-249.785
11.7314
19.7646
-19537.2
-377.662
-9.31426
-28.0175
-10.4997
257.032
-151.042
82260.9
58.5634
32036.1
37.1534
5.25254
68.3542
-5.18017
-366.089
37.9584
-2.05242
-7.88731
-58.0984
-81.1903
-18.4554
1195.08
17.2868
-2058.35
0
-7.00148
-1612.62
0
-18142.5
-1510.76
-10.8771
251.303
-2.00307
-303.504
0
-426.346
207.6
-8.25529
4.71586
-30.223
20.6352
-0.316254
7620.73
-12.3881
-10.3867
-10.2251
791.6
-0.250815
-11.4474
0
31.895
22.4878
0
33.7445
-299.06
-11.0793
6.83006
-35.6168
-31.2904
-22.0705
-3.81324
26.017
32139.8
-13.0603
-10.0676
-13783.7
289.143
-2353.32
0
-9373.71
-7.11133
-28.1483
27.1136
127118
-133.897
16151.9
-32.4797
-9.98018
-20.0805
5405.56
-17.3422
-13.7781
-111.56
-869.318
-60.333
7.91245
-222.493
1.9903
-0.0212113
-2.64621
10946.5
-13.008
-69.0888
-75238.7
0
-42.0992
-0.614485
67.853
0
-15.7092
-10.6359
-15.8666
0.804825
-44.9288
-33.3609
-7.5342
-2414.73
-6.60663
-31966.7
-9.06354
-10.8276
0
3610.69
-151.082
0
-116.932
-3884.84
-33.1498
49.6051
-155.398
11220.8
36.1439
435.757
-0.0767139
-0.214156
165.85
83.8741
1.91507
0
-18.1438
-6549.19
-1.62742
57089.3
-921.635
-198.188
-6.64378
25885.2
5.53904
64.3275
7.53924
-12.7997
-57.4131
53.7156
-12.8873
-357.984
-1.09708
-7.73128
-10.1474
-10.9907
-0.590687
-3691.92
-338.882
787.522
-790.166
5603.83
91.6869
-36997.3
0
-15.5284
-12.5874
0.0341665
2.63858
-30.8124
1.14228
-7005.11
-864.72
-21.8773
191957
1042.57
-10.1328
-186396
-275.54
-2.58233
-5.03806
-11.232
-59.5871
12.7704
1.19707
11.7135
-255.123
8.87118
62.8222
26.3812
-24277.7
30518.3
18337.8
0.118547
345.054
-1258.74
-139.395
50896.7
0
3040.72
-36.056
337.664
13.0998
-3.38094
-2294.18
125.429
-524.083
-1389.05
0
-1.9462
-16.5412
123.501
118.874
-184.036
-1682.97
-10.6817
-37.8436
-96.7275
25.7011
13.9157
81849.6
-8396.6
-36634.4
0.355884
-25.9964
12.0194
-26274.8
-561.648
-64.02
7.30403
0.221215
6153.76
0
-11.2106
827.012
8387.09
479.495
28.4798
-72.2847
546.347
-1106.11
7.72031
173.421
-14.4322
-519.91
-206.342
30.2645
-1450.69
-34.0061
-12721.6
-9.1999
-348.329
-414.727
414.704
1.95365
-12.4424
7.88718
715.75
29694.8
-54.2366
-854.91
-10.3867
-216.333
-56.4232
-15.1413
-28.4168
-0.321038
-15.9677
0
0
-574.184
577.854
-0.530142
23.6736
-0.448104
-12.7556
-11.4062
-17.4064
-456.323
436.02
41.7862
-4048.67
-131.932
22.9595
-2804.83
0.874979
789.937
-14.4645
3206.23
7.47896
-12.811
-545.111
27.411
32531.6
-98.2899
-3529.69
-1.35895
-8.16619
-81.5038
0.36162
-187.421
-8.79215
-580.396
42813.6
0
-83676.2
8.57757
-153.763
-379.123
-8.36711
-4667.43
-0.867349
-5160.94
162.243
-29.8979
786.123
-144.789
85.8994
-93.9536
-1707.17
-11.6848
-38487.6
-16.0252
1.44193
0
33.6585
0
1174.69
0.137873
13.7313
-8.68869
-13.5037
-120.128
39.1745
-222.799
376.357
0.296019
-148912
0
-0.499453
0.800951
593.552
-0.127628
-26.1547
1999.65
17.713
300.387
-81.9922
-13.6766
-8.63027
0.878995
0
8.2382
-9.79681
-53.3058
-72.1871
28.8072
26.8706
-19.4969
0
-2968.13
6.45273
-9.18908
54.464
0.0629651
3.83021
190.19
-2072.15
-22.1543
5282.21
5541.31
-708.361
2101.5
-10.1495
-105.014
0
20.9424
-482.563
-853.747
-28.2877
-178.304
-10.8022
26.5243
41.4199
-91164.7
143.548
9.79731
-12.0887
-18.7153
788.565
-6.41862
-7.15568
61.7142
17.8816
-1612.34
25.3353
-14.1488
2.06822
-500.452
-58594.2
-60.0844
8.86501
0.042987
0.294079
0
-13.5969
322.999
12.7307
-36.5805
-1.20493
-39.8475
-49.454
-17.5417
246.245
-245.168
0
-25.5652
-26053
15.5519
-68.0919
-464.625
176.689
-0.171235
36648
0.332631
-87.8927
-7245.81
-10.5059
-10.4664
1.00509
0
-22.6423
4.45483
-9088
-28403.4
-23.4065
0
16.6243
1.26068
-43145.2
278.288
-50.6091
311.494
0.90194
-33.5193
4295.51
7.85829
5010.67
-178463
-2525.47
0
-10.2288
-60.8445
0
-12.0471
-9.33699
-12.1829
20.9497
124.414
-0.281659
-137.638
46.1968
-1513.31
-1.36965
-99.8041
-57314.4
-129.649
-106.648
-2010.19
0
-10.2411
-23.9986
-468.178
-418.828
0
0
-56.8122
-7.15749
-9.87055
-48.0379
-2.31881
-9.78076
-1.86965
-21.3444
-12.2907
14.0355
-24.2066
1.53205
-18.6567
-27.689
7.6627
-0.544473
-9.05237
0
-5.33411
259636
-126.834
-51739.3
5814.63
0
199.036
-1972.37
-28.351
-100.755
-668.54
-10.7609
-116.133
-9.08543
35.2833
24.2533
-0.944048
-44.8672
17.9311
0
-47.1196
27.5169
-119.506
-3.64714
-118.057
1.42663
-39.3057
123.939
-7.78779
-22.0032
16.9836
-6149
-8.77725
-2100.23
0
-2352.57
-12.0297
-83730.3
-5.81575
-54.8094
-117.367
-20.0136
3.96422
-7.28462
-131339
-33.1028
-16.4364
-7486.14
-1507.25
-30.4356
-8.78582
-2452.91
-12.2178
-46.4756
0.0555193
-181.756
-91.7323
0
16.6247
-31399.3
-7.60857
-2567.49
-7.83986
-25.7594
8.4155
34.0679
16.5463
-190.252
31776
-24733.1
3254.37
-463.722
73323.1
-10.8193
94.9509
-89.1643
-3.90601
-15.8898
57499
-81.6208
19.992
-19.2717
0.00808696
751.586
-1840.33
-42.3536
647.455
-34.9807
-57.0965
-1737.09
-1306.64
13.8414
-106.229
-5.8901
-14.3647
-355.331
4236.99
-26.4654
-7.09664
-4338.35
-251.43
14498.5
-10.455
-29.3525
-225.028
1147.69
-8.23717
-20.2844
7.26101
-0.656684
22.1182
-2039.88
-16.1796
-15.8961
-4040.57
-162.416
11.6394
-8.97441
12.4383
-1.35346
35.7864
-795.279
-755.446
0
-13.7754
-0.386792
-3482.71
-26.0282
-14.2574
21.5821
79.7295
-8.6552
2317.78
-14.5241
-38.1578
-12.4466
20134.6
-4984.03
-35.9097
-6.73758
2.45425
31.7197
-300.135
0
13.6495
2145.28
10.2979
-94.9805
-1.52777
-8.29507
2321.32
0
18.3906
-77.5311
2.01551
-0.314918
610.966
354.435
-6.40932
0.959239
-91047.6
-35.2209
-0.476787
-3.37042
-20.1681
-165.957
-4.07813
-10.9839
-66.0177
-82.6577
-3309.2
-389.766
-562.605
-12.0418
-70.567
-11.6429
0.092527
0.102366
-30277.6
30.9639
-53.4691
-4492.47
-13.753
-23.7006
-256.906
0
140.713
4446.36
-63.9425
360.163
-8.89289
2.71622
-0.356284
36.6656
-6.22774
-17.9518
-0.410358
0
2256.66
-0.918789
-0.0636045
-33.089
0.848071
-10.535
-363.463
9.94812
37.5729
96.495
13382
2.72373
-0.268663
2.21608
-10.5336
1.22078
-74.0393
-1136.07
2.14374
-25.6273
-3834.22
-337.464
518.04
-267.963
0
-1062.69
-11.359
-1812.06
-0.132584
-1729.69
-27.9115
-19.7259
0
-32.977
84.788
0
-16.0451
-8.41057
-2.5557
-0.46705
19.1969
7041.52
1.58138
3.39052
-3549.46
-17.3571
-5403.7
106.545
-461.99
-87363.9
-152.357
21.3644
1.40553
5.28784
730.517
-61.4391
19.3341
-27.8683
141.437
-170.867
-223.643
-140.245
0.872914
4113.97
40.7966
-13.3916
29.7134
-12.5542
-0.725566
-83.5638
-137.678
441.381
39.1566
-69.3656
-4.27814
-1.99902
-259.298
-1.86331
-8.00358
63793.7
-28.3572
-0.273886
-87.9385
-673.984
170.038
-27.1126
0.313391
-37.6886
335.223
4.19765
58.5642
54.6868
150.936
-1.72374
-61.7666
53.8907
0
9.75155
222.902
2.16361
-226.089
89277.4
5.41177
-70410.7
-4407.53
-16828.6
-11211.1
-7.71756
0
0
-233.198
1.51679
22782.3
7.42279
-27.6357
-34.1881
-74.5955
-22.4184
187.245
-11.7931
-48.6271
-327.802
35.7498
-6116.6
-23.7969
-161.34
-878.89
-52.3869
-655.05
-34.2015
0
-6457.14
-67.6932
-10.3208
-8.97082
0.0131893
-0.886458
3616.62
0.668088
-799.37
0.26762
1021.94
-4962.19
413.161
26.4663
11.4345
-3451.89
-43.041
1.93652
-32.7628
-16.8373
21.0102
-263.015
128.357
-141.336
3996.69
72.8195
-9.74932
518.012
-1658.27
0.256837
0.212236
47.9851
-13.6199
-0.739767
-7697.43
-1.83558
6165.98
-68.5412
-17389.4
21.5489
-62.0931
-20.3054
3.45082
666.74
-25.5627
-0.905392
-15.1516
-12.1088
-58681.2
-10.0667
0
-19744.4
-134.891
72.4743
0.12285
1.38496
0
-11632.3
-68655.5
-1.09766
-10.6365
-2114.31
1026.82
-1.82701
-8.54954
-11026.9
-32.6103
16116.9
1.32829
-16.4653
35.3046
3157.51
-10239.2
0
0.282927
-23.1154
-23.7936
22407.2
0
66346
-26.0497
-67550.7
13.2416
-15.1991
-9.96172
-9.79537
0.36009
-10.7854
3.38838
517.782
-11.002
-2306.35
-230.702
-163.989
-1.50186
-30.2133
-9.43304
-82.2603
-6.50808
-25.1631
-246.417
0
0.757262
6672.08
1.12999
21.6091
3.09655
-6.67817
0
-105.615
-136.985
8227.87
-9.87428
-41.2577
916.454
2188.47
2269.7
-9.46229
0.814171
0
-2320.25
9802.12
-43.7621
-17.2007
-90.0788
-15.0354
0.374377
11.878
-10.5662
-390.507
-8.95148
-15.6566
-20.1895
-1.12625
0
-42.5529
-4.51075
-0.242564
-18.2346
-10.654
4398.1
3.57179
-22.4124
-24514.9
-629.299
-4933.87
-72.9079
174.316
41.3488
0
28.4656
-0.387303
0
-177.765
-30.4405
4.21805
65620.2
3.03816
4.24838
-9.89433
-44687.4
-2134.13
33.0362
-11.644
-0.261651
6.34649
-7.62523
-51409.6
182.877
9.95655
-1.60666
-305.346
-49371.2
0.370369
-22024.1
-3469.15
-26.4007
0
-37.4482
-10.8311
-60.1687
-0.984629
-59.8036
-127173
-16.3813
-1274.17
-161.653
323.182
-17009.3
-1.56847
7.80114
-9.1669
-13.9923
-6.69483
0.727595
-83.9309
0
2.67249
-84.781
-2.29935
6.21795
0
0
-3207.05
22.1346
3310.03
-129.214
-173.525
-22.4331
44.4255
1189.46
-413.836
54.5218
0
9.85786
-1.36397
773.263
-175.539
-21.9722
-138.726
44332.5
627.49
-542.038
-10.0332
1.1071
0.00502968
0
42.3288
-0.0146076
-35.192
-3.13963
-1.41705
1197.06
258.992
-1744.94
192.494
9.07996
0
-0.412505
-9.34721
-12.536
2.71289
1.96255
2.63895
17.2039
-31605.1
1.08431
37.2657
-21.3302
-1139.58
9.86319
-40.5625
9.53973
-836.68
24.6883
-4376.36
-9.6475
-1.46331
-5.03521
2.98692
-751.502
236.379
-26.6274
-0.54222
-8.73838
38.2476
0.557888
30.3673
-21.8438
-2146.05
-10.2567
0
0.362384
-4326.24
-21.1003
-68.5423
-0.0341252
-25.6995
19.7247
-30.7284
14348.7
164.181
-1.01249
-26.7003
85.9374
12.1938
-7.2026
-0.316075
-1.26752
-19.6768
333.384
-18.0996
-14.767
4.0681
-8.99709
21.9251
10.0707
2399.64
0
0.68821
0.228496
0.0149341
0.596094
-0.176864
20155.7
-23.5213
-198.906
-27.6731
10.3857
-30.767
-20147.9
-22.3924
0.601468
-125.094
-4.45374
-79084
0.0884283
-2086.78
0.00554554
3219.99
17.8724
-0.533159
-3083.77
-3423.11
0
-13.8734
-92.5804
-179.183
-44284.5
184.084
53.9439
0.697478
-3039.71
-19.8185
-46.796
-12.2468
-18.2486
-1999.16
-915.942
-2404.83
-8.25747
-3.80766
-806.471
-7.24094
-434.209
-4.91341
-213.991
-14450.8
-11.6902
-13.9373
-0.766304
-0.371388
-220.083
-17277.6
0.711279
1.51343
-26.5182
1.84785
-2299.33
-6.58019
5.96046e-08
-8.75951
1.20439
18.3691
0
-0.922048
-30.8595
0.287265
-10.8076
-173.469
0
558.796
-97791.3
9.1172
-16.643
-89434.1
-1213.02
-18.8292
-5.01416
-48.14
-31.0559
0.214321
-9.67692
-68613.8
-185.961
0.525014
-4698.19
-0.440988
-10.0108
2.15607
-60.4269
-1.65388
-137.359
65.4789
-0.821206
-15966.2
-0.397496
-3.17844
-590.783
-3.9189
121.31
-8.83405
-8.13409
5.06006
0.0553539
0
-640.206
-0.153641
-52.8535
2071.9
-113.885
0.00292504
-5540.27
150.872
13.734
-51.5767
0
-168.136
-18.5835
-66.886
-3816.95
0.516119
-5124.31
4.44757
26.1417
-3.64692
-8676.35
-8.28607
0.42198
0.206625
828.732
-10.0701
179.159
-21.8831
-16.8104
-42887.1
2.17264
-11.8726
-721.413
-879.83
-170313
0.214101
-9.52632
4.42095
57.0671
1.50004
121.796
-62.8205
-13149.5
-1176.7
-17.1791
-36.8273
-65.5988
-0.567872
175.066
0
-129.441
0.19128
-1.80623
-6.95958
23.8162
-695.827
-1405.08
-11.2436
14.1039
1.66715
-4.17321
1075.55
-1204.56
-1.87877
-0.61831
-560.192
-12814.8
-40836
0.917239
-6.72667
-2104.5
-102.988
66.8219
10.5635
-0.152636
-9.85407
-0.648967
-35.7884
-0.292491
1.36886
-12.3488
0.723406
-0.917279
0.0830158
-6546.13
-13.7682
-21.386
2120.86
-82.4142
0.251373
-23.626
-1451.32
-145.775
-31.1005
12.3683
-20.879
0
-15.5767
-89.8155
-34252.1
-10.1912
0
69.9182
0.25447
0.298331
0.381136
-3244.93
-162.029
32.4942
-0.266114
-8.8076
-19.7198
-31985.6
0.973345
38724.1
-6762.02
-60.5555
-5246.02
-19.2275
-10.0091
1.12267
-0.530988
319.529
-27126.7
0.177653
-1992.15
-0.992132
-26.6799
8862.39
-887.558
-4.05364
0.762234
-0.730911
1.1424
-718.401
-1553.66
0
-110.876
4.10139
-143.549
-51.1265
328.803
-1.03562
0
-1.76346
10827.3
-70.8059
0
0
-32.2089
-4349.93
41.3096
1755.4
-11.8691
0
0
-10157.2
0
-179.944
0.446624
-7.78301
-10.813
0.576414
-90.6523
12.116
13.4497
-16.3783
-1.58397
0.419866
-3000.23
-14.1449
-3.04209
-11.8006
1.84563
-3.14359
-13.7719
-2.27176
-13.4214
21.0816
-5488.18
-74361.4
-0.763231
-154.975
-7643.23
-9.1587
-116.246
-9.59591
-0.986683
-17.6571
4.14972
-11.3799
-12.3559
0.576333
-73.6687
-1.00781
-3321.5
-5475.61
-9.44834
-4.68254
-91.4488
302.082
-0.495131
-805.313
-13.6648
-0.626455
-0.410287
84.7718
-26568.4
-18.8891
175.842
-36.5754
-8372.57
53375.2
-2.56306
0
-3075.69
-11.7349
-3.29166
0.511748
-19.3364
51.1725
374.614
-2232.91
-5.74748
-8.6557
0.237434
-1.82865
0
-14.4812
0.924331
-15966.5
-9.04582
-1503.73
-30415.1
-4614.64
-3.76212
0.615639
4311.46
-1899.98
-12.5798
1.31919
-26220.9
-81823.2
-0.537802
3027.2
0
0.0314719
0.143215
-4455.77
-18.1647
-0.0598679
-0.87097
-54.5827
0.479459
-11296.2
-77.6305
-597.923
-590.203
-4.15028
-8.70605
-8.29507
-27741.3
85.7414
-9.9013
-457.542
0.699396
-19.1896
-10314.4
0.44747
-15.7568
-13.1428
0.254007
-9.34721
-10.0847
-1748.19
-11.1315
1.45476
0.0940386
-91861.4
-9.22636
-513.933
-6005.03
-54603.6
-30.6814
-59.816
-56.0776
0.130193
-40.2862
3.85912
3556.77
7335.1
-30.237
-0.0818186
-4.25604
-5.24487
-15.3715
-5.60002
-10.3831
-8145.99
241402
-74.1274
-69321.7
22.5682
-14.9887
-0.253553
0.239173
0
1.18881
0.0829347
2.76688
0
-94237.1
-294.096
17.2128
-709.261
-327.44
0
-14.8861
-0.693646
-4.71908
253.087
-91.3265
3.71701
-0.98925
-24.195
0
0.630105
0.333357
-84.1204
2618.69
0
-9.63688
-291.412
0
-13.162
-40.9599
0
0.951915
-6.92036
0.364632
2.50152
4424.97
-67.3585
112.984
-1.11453
-279.721
-9.86361
-18.4991
-115.956
-24.6039
5.35614
1.90721
36.8651
-0.00866586
10.5383
0
-802.455
4.6099
1.85737
0
-207.257
-625.904
-12.5393
-15.594
-9.77227
-9.43393
-16.0041
-41.8184
8.5858
0
-21.7954
-7123.35
-39.6782
-16818.6
-10.7765
0
-128.388
-78.7392
855.474
-71880.6
0
-10.788
-6675.01
-10.3658
-15314.6
176.177
-161.271
0.192714
0.98377
-3.05974
0.243992
-11.2197
-8.59756
-0.718081
-13157.9
-8.6123
11.9592
0.13541
-0.68915
0.856195
-1.31722
-9.98843
2.14913
-15.688
0
-11.12
11864.7
-12.2941
-0.97926
-2793.47
-4.02079
-0.723326
-0.088901
-0.233304
-0.44257
-7.928
75.34
-2.37891
0.594039
-19.8632
0.472211
-12.3906
-129.847
-0.74145
102.383
-8.93543
-2479.73
-0.769093
-13.4216
-487.032
-13.7907
103.193
19.9159
-32.1343
0
-3139.89
-10534.8
1.26998
-18.5897
-17.1036
-16.9918
-2.13468
-20.6305
-33.3639
-8.2701
-24.8513
0.25788
-3.05723
-0.594573
2.42798
0
-0.158521
-198.511
-0.993824
-156.107
-32.1359
-3660.1
-9.86593
-0.30048
-0.954278
-0.648062
89.0784
-97.7729
-14.732
0
-256.971
-17.4943
1.53179
-0.710279
-11051.6
-4092.92
-0.643123
-4471.43
-0.722747
0.743729
-8.01496
1.44827
-148.792
-23.6583
0
4099.11
-6048.35
-73202.9
-14.4173
473.384
0.0887961
358.206
-33.9819
26.3388
126.293
-1.87086
-0.247442
-17.2044
-0.329026
-19783.7
-16.2603
-199.062
-866.722
-50.6884
-1165.43
13.9445
-0.387069
-25686.6
0
-487.177
42.9334
2.14493
-8.14899
0.263787
-70645.8
0.747826
-429.863
-917.056
-7.92019
-1961.52
-7.76797
-351.966
-8.94393
0
-617.816
0
0.447169
-11334.3
40.2981
-0.114489
-3089.98
-18024.8
-0.206374
0.0911217
-14.7582
-1.66994
-732.379
-1.38513
-20.5176
-71.4764
-565.11
-6.38917
-237.171
-19.2895
0
1.99223
-2.01168
-23.8106
-107.311
0.0704616
-1.2023
-513.793
-13.9373
0.00870055
-31.681
0
-12.8477
-10.1154
-1182.75
-1.45917
0.212992
-28.83
9.19716
-17.2602
1.04271
-19.4195
0
1.83338
-12201.6
-1.57294
0.700804
2.992
-2.33916
0.0935533
-1.97633
-1723.97
20.3197
-43.5507
3.05705
-14.7323
0.295843
-187.993
0
-1.06254
-4.8573
-8.91078
-14936.4
-142.937
-19.9504
1.40374
64118
-8.87227
0
-0.34454
-21.6665
0.525014
1.21981
-478.193
-357.786
-2679.67
44.3659
-9.26766
-26141.4
-12.4854
0.768611
-1186.97
1.38899
-501.31
-91163.7
-221.336
-8.75348
2.18191
0
-366.964
0.614754
-0.390854
0.262195
-1138.84
-1154.45
0.345832
0.532457
-15.6335
1.31718
-1.11213
-383.3
8420.2
-4.32898
-8.29919
-249.584
-583.398
-15.0141
-4984.03
381.154
-16856.8
-4.63471
-3567.63
-10.0146
1297.77
-1.25549
-1651.84
-9.92998
-11.6344
-15.2818
-0.0500942
28.7725
-0.257742
-8817.82
-10.2752
0.203934
1.05059
-4.54796
0.796592
-32055.6
-9.00684
-869.142
-12.4019
-1.53721
-11275.8
-492.927
0.47796
-336.728
0
-8.76003
2.23823
-8.99387
-8.68178
-34.5667
0.219229
-13.5491
-3387.31
29.133
-74.5176
0.0856367
0.869859
-8.75378
-28.1615
-0.472479
-2.38951
-96405.7
-8.06005
0.627507
-19.571
-1.51222
1.07118
-0.548409
-18414.4
-14721.4
-11.8538
-1.3174
-200.982
0.104231
-786.893
-8.65315
-5.71889
14.9668
-1556.21
-9.59521
-18.5965
-1.04369
40.3393
-12.8601
1.8964
-68603
-34.839
-13.1034
-712.154
-12.0721
-34.7596
0.394797
169.773
-12.0166
-8.9192
0
-4.32603
-1366.95
-5.00601
-449.688
-18.7483
1.89865
-1.85168
-39.7779
-9.88383
0.395624
-316.245
3.71019
-45.6789
2053.91
93.8818
-9.39584
-10.4094
0.350299
-0.289414
-0.43516
-23.6058
-332.19
-5246.02
-0.0513762
-30.8558
3.87051
-9.24906
-735.451
0.438747
-28209.6
0.177653
3.22311
-5.10894
7.61677
5.34258
-14.7867
0
-3.63448
5.67218
88522.8
-1.76344
-19.8702
-4259.3
8.13306
27.8718
0
-9.14305
-30.5007
0.998413
-213.87
2.06079
-1064.48
-150.784
-2010.21
-11122.7
-45.5024
-6561.76
-33.9163
-52.7703
-22.3095
1.96924
-87682.2
-15.7581
1.33694
-29314.1
-15.4908
0
1.60311
8.97483
-3.11902
-20.7203
-5132.53
-20.3656
-0.602953
-3.15207
0.876665
-21.1618
-10.2195
-11768.7
-13.3719
-24682.8
-3.81005
0
2683.78
-6.663
-0.207474
-13.8128
-1.44257
-10.434
11.1311
0.383471
-283.046
-2.75062
-5.77642
1.23763
0
-5824.64
-0.874046
-0.518445
0
0
-17.2755
-1239.59
-11.6824
-107.469
0
0.240366
-526.347
-3.80156
-12.6255
-10.5275
-3.26639
211.367
-27.9702
-0.341293
-19.9728
-19.9933
-0.896046
-0.160397
0
-0.408601
0
-0.370127
0.117919
-24606.8
-67.0421
-11.3888
-75.8182
-4.1067
-1.89129
-25535
-1989.12
-1.1918
0.831445
-7.47583
-27.9982
-29.7784
-146.52
3.14255
-37674.2
-19.723
-458.593
0.718813
0.761757
-36.8989
-26.3536
-2178.8
-2.40777
-3121.5
-3778.46
-0.849512
-16.923
-5.66538
-3.43812
-7.82158
-4.56092
-7.17732
0.118833
-12.3089
-98695
-19.1112
-20.8176
-8.81171
-1.64883
-3550.96
-13.4157
1.42338
-8.61753
-8245.44
-0.93894
-8.29313
1.26068
-3334.41
-27.2061
51.4119
-53.5503
0.249587
-1.20997
-16.834
0
-32.2277
-4.02783
11.4716
-13.5564
-60233.5
-583.267
-0.941013
0.616854
-20.3552
0
-24.315
-1.04094
-0.25608
0.604892
-0.57408
-3.13544
-6.91833
-11.9848
-10.3133
-0.262492
-0.153252
5.14952
1.661
4097.26
-17.9224
-35.5428
-1006.97
-38.0994
-31546.8
-5.91249
-1152.64
-0.744088
-28.8519
31.6886
-1.15698
0.0215902
-0.768846
-6.58189
-1.98687
-12.1117
-41.0471
-8.00514
-2161.74
-27.4855
-38722.9
-0.563968
0
-74509.9
0.786023
0.606357
-1.56984
-10.3999
0
-0.144254
1.95192
0.0240424
-50.8392
-33.802
0
-41.3067
-1.47817
-1202.3
-23.8436
0
-1.01912
-4.71885
-2.08511
-10.6463
-27.1824
-21889
-134.835
-15.0644
-5586.27
-57.8529
9797.16
4.12817
-19.4195
-3319.92
-8.59394
0.700018
0.0439262
-858.244
-2.53634
-1.26844
3.85564
-18.1305
0
144.143
-5514.57
-43.7823
-0.48263
-19.2748
-20541.3
-2.49111
-9.34721
0.0438746
22.5791
-12.1405
-0.243995
-9.34721
-50198.7
-4405.22
2.13894
-0.0752951
-18.3708
-0.89911
-1.65273
1.21328
0
-1.68329
1.16973
-264.067
-61.2914
-1857
4.14865
-35.4053
-6623.03
-0.464397
1.3717
-116.028
1.09687
0.175199
-1958.65
-1.65327
4.76027
2.57766
39888.5
-24.6004
-15.3691
0.760851
0.0589175
11.4787
-54.6366
-3.63388
-44.3389
-26283.9
1.94843
-14.4707
0
1.2007
0
-16.8998
-0.239211
-18.2529
0.193514
-17.7732
112.84
-36.2862
0.271637
-2.46147
-1.47073
2.47024
-513.666
-21.7583
-8.55165
-39905.8
-32.7805
0
0.0190586
-26.8221
-27.2028
-1506.02
0.294772
-0.206589
-23263.8
-72.0949
-4417.39
35.3335
0.158712
-3644.42
-1394.38
-1.55193
-101.858
-45127.1
0.452134
-20.1895
-9.65437
-0.322528
-15.8891
-1.71633
0
19.3429
-9.67623
0.232217
-0.633658
-8.70414
-7091.25
0.236698
-30.9315
-0.592244
-8.83243
-16.9306
0.063314
-54.7487
-23.352
-47.7731
2.35234
0.119767
-58491.9
-1.38464
-27.1183
22.2933
-2352.35
-0.292841
-35.5482
-0.124279
0.2174
-835.782
-1.83754
-10.6231
-13.9838
-67.5969
-1.75043
-45.9359
-14.4887
1.52331
-0.831676
-23841.7
0.571839
-11.1006
-21.1701
-1.64657
-15.0565
-3524.18
-12.0306
4.33049
-8639.44
0.279631
-0.378659
-1265.62
2.50376
11.9339
0
-0.477758
-0.376479
0.0705342
-15.4714
0.501757
-0.228007
-0.499688
0.357865
0.103175
-1.06012
-0.994085
-887.579
-12.867
0.858032
-7.90211
-58468.8
1.60132
-0.468128
-3.90359
-60648.7
-92.6481
-504.424
-3.23115
2.43689
-42.0615
-3.01909
2.32644
0.840078
-93.6801
82.193
-44.5804
-8.48155
-4.83299
-5286.87
-191.782
-1144.64
-77.6095
-0.589807
-0.571936
0
-11.5141
-0.609887
-2.33698
0.753099
0
-15.8884
-10664.9
-5160.18
-464.17
-2.87126
-56.763
-19.3004
-11.0496
-4673.78
1.60439
-5.97286
0
-18.4919
0
-13.0766
-57460
-91.3594
1.41
-1.93335
-0.437595
-28.1047
-29271.3
8.20332
-3021.28
8.46067
-0.0152282
0.648068
1.89713
-22.7338
0.00374401
-11.2373
-28.0874
-0.0351543
-13.2141
-5.70354
-0.75202
0
6.91192
-20.5967
-7.85522
0.914476
-20263.2
-65742.6
-0.644064
-0.904452
-1.18517
-10.2907
-6457.14
16847.8
-5.1697
0.999403
0.174018
0.207662
-16.7828
-510.513
-821.581
-1.05141
-40458.3
-13.2897
-3.3008
-2.05237
0
-13.7752
-16.4209
-7.66646
-14.3053
0
-2276.96
-5.70763
-27.718
-3.19907
63.4449
-5204.8
3.27868
-777.222
-31851.4
-1648.12
-9.74932
0.139284
550.095
-1.23009
1.50165
0.0283678
-4.46706
-15266
0.323793
-16.4729
-57834.9
-10.4404
-8.91598
-5.98134
-81222.4
-6.27026
-6.75786
-31.7361
-25.5878
-0.713678
-2.33741
-194.056
-4494.48
0.317125
-0.169826
-44.8033
0.325417
1.0815
-81.2344
1.71416
0
0.12285
-9.00877
0.618456
-0.663997
96.3864
-12.7453
0.701999
-2331.54
2.95082
-12.3568
-9935.54
0.79427
0
-20131.3
-14.3537
-3.89921
-10.3999
9899.17
-22.1236
-14.9799
-10219.6
0.519589
17.5676
-12.0492
1.79228
-9.59752
-1.43382
-4179.64
0
0
-21883.8
-14.3039
-1.62247
-58.6395
-17766.2
0
0
-29.9382
-0.156155
-0.115006
-9.35108
-0.301096
0.198775
548.81
1.33748
-9.1187
0
0.168775
0.0317366
-11.9461
0.772973
-0.136114
0.066881
-25341.2
-41.5993
0
-61912.5
0
0.443039
-8.65025
18.8569
0.560347
-65308.5
-11.8332
-0.321162
0
-86.957
-2.55112
-52.7113
-0.0180318
-0.709992
-85.0695
-13.5737
-2.18249
-9.39194
-82.9538
-52.2371
-12.4845
-70.2175
-1.85575
1207.92
-73.4314
-39.7409
0.111351
-27.5077
-15.8071
4.12817
0
-16060.6
1.59247
-17535.7
-0.495335
0.830796
-2.98023e-08
-11.7892
-10778
-1367.08
0.247536
-43.5507
-51.5988
0
49.8142
-14.8779
-6909.32
-16.6431
44924.3
32.4969
-0.507125
-0.199826
1.2808
-14.8844
-0.632243
-0.480801
0.22789
-14.2452
-8.42337
-45010.9
1089.36
-2463.53
-30254.8
-16259
-0.101457
-10.5228
1.05935
-3.13532
-1494.42
0
0
-43.5434
0.791253
0.580451
-1.07442
-19075.6
-9.99164
-6.71018
-8.82491
-8.46069
-2.78091
-3236.58
-1140.33
-78.5873
-4.0891
-8.99081
-19330.8
-11.4272
-7.17457
68.9848
-12.8478
-17052.6
0.456523
-29.3007
-1016.05
-39.6144
-38.0664
-1.25256
-0.513947
-294.052
0.412006
0
-14.2706
0.435725
-0.552328
-56.9426
-3215.72
-19.2007
1.27196
-0.0185599
-2.17342
1.05588
-0.288209
-28439.8
-1.08645
0
-0.332597
-2.31934
-32154.6
-79.5448
-8.74345
-143.408
-0.409688
-8.28056
0.832492
-0.87154
-30.6814
-175.421
-39.8904
-11.9507
-4.94537
-0.103369
0.45772
40.2429
-9.11755
-0.927974
0.283924
0.430641
-0.515677
0.114645
-4.61616
0.135123
0.103555
-6025.28
0.824839
-0.720609
-43.5953
-2235.84
-5.55436
-207.889
-9.22156
-3.20714
-25.4945
1.79594
0
1.19948
-38.4754
-4.76317
-9.41395
-11.2041
0.719673
-1.41737
-2.34084
-0.2174
-8.79076
-13.9606
-6.49225
-28.2913
1.69266
-15.8125
1.59943
1.37085
-14.5664
-2.12978
-0.963528
-87.4164
-1.28784
1.05291
0
-37.0172
0.229431
-0.229431
-0.686419
-1.13061
-0.341794
-0.278316
0.317241
0.178757
-10.774
-794.894
-0.0133679
-11.0861
-3.20836
-13.0157
-21.8511
0.975334
-14.105
-15.0735
-11.8738
-8.53067
-0.156155
3.9889
-16.1801
-0.150144
1650.7
-104.358
-58468.8
-6.45926
8.05404
134.659
-277.417
-9.75122
-15.3459
-16.6411
-5.13538
-26.3471
-0.0534894
-22.0707
-8.97171
0
0.351687
-2.02438
-79.1483
-2156.58
-2.31317
-7.77346
4.12817
-2.53569
-17.4199
-87.4499
-20811
-0.0450773
-174.275
0.590455
1.67472
2.74354
-13.2676
-43.5507
0
-11.1581
-6.51741
-14.9443
-11.6141
0
-29.4884
-1522.6
-12.1405
0.0964592
0.50519
-0.349475
0
-9887.55
1.35821
-25655.8
2.19009
1.88737
-5.96293
0.623094
2.00288
-29.9667
0
-3086.7
0.0986999
0.0802614
0
-11.9916
0.137114
-2.53934
-992.194
-2.47652
-8.14397
-47.1732
0
-1.284
-0.901632
-64372.1
-0.117578
-86.9577
0.98645
2.78418
0.985998
-9.89242
-4.71951
-9108.08
-22.5662
-22804.7
0.7023
-1.67199
0.324044
-25.349
0.680499
-46.2111
-12666.8
-53.5864
-0.272621
-5266.26
-0.276761
-1.45117
-59.6344
-23.9222
-8.34333
-0.74145
-0.985054
1.2391
-8.59404
-29.2659
-6.09942
0.758261
-11.1965
-16181.3
-0.222812
-18757.7
-8.99808
-9.71877
-184.66
-0.989623
-0.890664
-16.3142
-12.6859
0.69351
-42.3906
-0.515167
-4496.28
0.650827
-1.19311
0
-1.56834
0.680466
-96742.5
-1.89918
-0.307515
1.48336
-5.57174
-17.8232
1.76278
-0.563194
-9341.1
-1.02203
0
-17140
-116.97
-0.634716
-265.533
-647.925
0
-1.12562
-802.536
-0.691857
0.886585
-31.3867
-128.129
-6.58924
-1.17849
-0.321908
-1.31344
-0.881578
-7.16293
1.74043
0.769556
-8.74357
-8.88608
-1.53096
-6.98039
-14.779
-0.475031
-16.1921
-2.55715
-8.43049
0.46035
1.05669
-17.0604
-46937.7
-9.51186
-189.493
-9.62566
-16.5896
0.261727
0.198332
-70.6662
-25678.2
-11.0934
-4.6004
-42.356
-84076.4
-8.87131
0.419122
-4.93038
0.109862
0.609468
-0.357649
-0.582267
-0.255139
-75.68
-22.064
-580.842
-1.73989
-8.92223
-0.904241
-8.81481
1238.33
1.01386
-21.1821
-10.082
-10.4609
-0.0668643
-459.815
-31114
-11.4472
0.399867
-0.394137
0.0240424
-1.89462
-5.86336
-10.8037
-163.839
-3.22547
0
-15.676
-17.8199
-10.6282
2.76427
-1.45738
-1201.18
-0.775642
-2.54731
1.79029
-5824.87
-3.12017
-0.0109291
-1.46256
-98.0843
-4.40709
0
-0.083179
-1.63345
-199.178
-11.6871
-10.5234
1.64779
-19123.3
2.39756
-2828.04
0.508185
-10.5289
-0.34312
-0.380894
-95443.2
0
-78.6381
-0.223885
-9.78728
-8.52353
0.527262
0
-1.31906
1.13739
-3228.74
0.35214
0
-10.9917
0.326594
0
-1.35481
0
-3814.45
-20.9103
-5.83188
-13.1852
10.8957
-8.84377
-40827.5
1.78836
1.10912
-27.3972
-0.287067
0.666476
-20.4814
-25117.4
-1.99108
4.55781
0.516265
-511.998
-103.484
-1.88402
-9108.08
-15.5562
0.316181
-2071.05
-11.1499
-10.0505
-9.85267
-1785.8
-4113.5
14473.3
-0.620041
0
0.769741
2.51914
-1.63929
-17908.8
0.2077
-10.6514
-2.18983
-2.88174
1.07913
-0.74145
-8.62189
4.1457
-1.77178
-0.246036
-6.14818
-2.27389
-7862.18
-59540.4
-11.1965
1.16463
-10.0042
-49667.5
-0.0957864
-11.5155
-0.228493
-71.3909
-1.25897
-13.1385
-84.3072
0
-10.5213
-27.7697
1.86685
-1.96616
-1.56834
0
1.15583
0.257503
5.479
0.483462
-17.4614
-7.34745
-11.7934
1.44583
-1.02203
-23.0523
1.48399
1.14859
-0.240281
-0.2174
-2174.2
-8.61876
-5.63526
-0.192994
-0.108615
-108.004
-8974.84
1.80073
0
4015.45
1.48971
562.162
-4345.72
0.867131
-48.8448
-8.74357
-9.48493
-78.4266
-46805.5
-71.2651
-0.237812
-36.6705
-41468.4
-40.2675
0.935959
-93.6729
1.56831
11.1048
-11.9572
-0.0311922
-9.53654
-0.0593534
-9.35108
-7.06653
-9.72602
-7.97852
-28.1599
-1.81416
0.142147
0.0792345
0
0.0408553
0.367712
-84576.8
-74543.2
-10.8246
-10.3263
-11.8859
0
-9.79143
-56613
-0.250478
-671.942
-4.64498
0.368823
-3.27463
-3.45832
-1.21617
-124062
-10.5128
0.518245
-9.73727
0.216949
1.40385
-3.80766
-10.4404
-34276.1
-1.93106
0
-15.3472
7.23948
-13.5538
0
-4.17975
1.02803
-1.26855
-17542.5
1.33727
0.510246
-517.157
-50.5876
-28827.5
0
-30.0893
-61.0122
-0.703744
-1941.91
0
-3.42393
-44687.4
-30.5278
-529.999
-23.1511
1.79472
6.34649
-16.0041
-223.701
-1.18278
-92501.2
0.450445
-14.9683
-0.798088
-18.8203
-201.809
-0.782889
32414.7
-489.101
1.47916
-0.97589
2.9072
-0.97787
-20.3244
-0.8399
-1.6015
-2053.05
1.54708
-2.21136
-32.0246
-9.66952
0.184402
1.14888
-48.0677
-52.3463
-8.85913
6.46263
-0.0138554
0.852289
-118.007
-26.9338
-15.0941
86180.5
-2.29201
-14831
-188.236
-15.4853
-0.975251
-63.1343
1.15631
-17.0833
-17322.7
1.0557
2.48399
-19.8658
-10.6503
0.731697
0
-51.253
-8785.03
-0.55273
-0.65793
-1.36397
-0.00461316
-9.00817
0.897869
-17.3541
-0.0259495
0
-19.8541
0.803101
-2.57764
-18757.7
-25.1001
-9.68501
0.919846
7110.02
-4.02628
0.504053
-19.3227
0.931089
-15.2887
-0.499771
-12.6316
-9943.03
-8.27731
-20.1726
-0.558708
-12.8207
-771.448
-1.76418
-26.1702
-1.56834
-115.442
0.379692
-12.8576
-11.1202
-8.54956
-34.3478
-29428.2
-113.457
-1.02487
-0.195644
-6879.92
-1.09377
-24.2376
-1295
-1.64251
-16.6887
-0.380831
-4.69289
-2.39932
-96.7825
1.32829
-1.40603
-10.1168
0.251178
-5737.08
-1.33579
-0.0789454
-96.6614
0.398627
-2685.13
12837.1
-0.358979
46.4136
0.0191779
-0.0107492
1.83188
-1.13892
-0.342014
0.570837
-72857.6
-11.668
0
-0.476098
-48450.1
1.20283
-8.8338
0.50916
-9.14405
-0.0651748
0
-0.292328
-15.4484
-2.46907
1.18899
-10.6398
-0.294725
-11.8678
-14.3771
-9.12917
0.163358
-10.9354
-0.831444
-0.387921
-0.571972
-9317.08
-656.04
-9.67731
-74591.7
-8.54403
-32.154
0.168059
0.252871
0.197151
-7.05726
-0.714992
-10.4682
0
1.26725
0.812459
-13.8176
0.717102
-84844.2
-17.3003
-7.84245
0
0
0.668195
-30658.1
-7.78627
5.05065
-46861.1
5.67218
-11.5353
0
-2839.73
-542.416
-0.36253
-6838.5
-37913.9
-18.1022
0.498522
-17.2877
2.49744
-0.688219
3.05695
-0.484809
-37.9971
1.47893
-1.84821
-1690.85
-5.93212
6.72503
-72.8238
0.659363
7.56711
0
-24.1431
-9828.87
2.49894
0
1.19209e-07
-43.3145
-22.4691
-2.84157
-0.199024
-1.81541
0.618072
0
-3969.09
-0.900939
-1.02535
2.01545
-3.49678
0
-8.77256
-20.5898
283.728
-0.962245
-0.88208
-53315.7
-23749.5
-677.063
-6.22644
-11.2186
-0.207474
-11.3298
-17.3663
-12.9356
-2.06875
-0.380358
2.92294
-1612.34
-9.34721
1.00571
-0.775134
-0.0560547
-25.6953
-89.1859
2.18204
0.18928
-1246.11
-10021.3
-3656.95
-0.739188
-6962.73
-0.580451
-30.8522
-4.4835
1.13933
1.89973
-36.7995
-17.5935
-8.22776
-0.528347
0.891842
-14900.9
-10.2835
0
-8396.6
0.0378937
0
1.06437
-26.5307
-27.6135
0
-571.409
0
0.789003
-168.651
0
-0.938357
0.12186
-19.723
-24.6388
-8.82593
-19.4584
16.7696
-11.3423
-0.290184
1.6788
-0.618183
0.717476
-3.92122
-72935.9
-0.122058
-0.626737
-0.668021
-8477.51
-1.09496
-8.40096
-4.77848
0.926215
-11.3115
-33.0723
0.270242
-16856.7
-22261.9
-10.0539
-11.756
0.353354
-9.34721
-109.709
0.735878
-0.0292898
-12.3898
-34307.2
-58776.3
0.26534
0
-1.76162
-17018.7
-55.132
-0.164157
-6.67567
0.845524
-17.5221
0.113802
-24.3267
-0.596779
0.140105
-0.349134
-0.503738
0.0955974
-1.60497
-17402.3
-40802.8
0.607477
-0.566255
-4.73311
-0.367739
-12.7824
-7063.3
-23678.5
-0.096339
-0.601548
-15.084
-4034.53
-11.1448
-9.87881
0.85035
-21.6912
-47571.7
-0.233631
-2.06442
-2261.16
-325.554
-1.91385
2.44985
-9.78958
0.955472
-9.87158
0.647536
0
-242.588
-21.1298
-0.226127
-180.311
-8.55361
-8.89336
-4.15782
1.43197
-14.7545
-0.382814
