booster[0]:
bias:
-6.24887
weight:
4.27493
-2.83939
-356218
69619.4
7.65879
6.09308
1.81404
8.4413
0
-3.12043
0
1.1692
0
0
0
0
0
1.48838
2.12497
0
0
0
0
0
0
0
0
0
0
0
2.57857
9.05871
0
0
0
8.51537
0
0
0
0
0
0
0
0
0
-2796.19
210539
0
0
0
0
0
1.55364
8.93996
0
0
0
0
0
0
0
0
0
10.1015
0
0
0
0
-12.2654
0
0
0
0
0.530277
0
0
0
0
0
0
0
0
0
0
0
0
0
0
0
0
0
0
9.17297
0
0
0
0
0
11.4105
8.99377
0
0
0
0
0
0
0
0
0
0
0
0
0
0
0
0
0
0
0
0
0
0
0
8.04018
0
0
10.5829
9.34267
0
0
0
0
0
0
0
0
-230.304
8.76928
0
182381
0
0
0
0
41.0265
0
0
0
0
0
0
0
0
0
0
7.72537
0
0
0
0
0
8.78413
-477742
0
0
0
0
0
0
0
7.81023
0
0
0
0
0
0
0
-0.59519
0
29903.8
0
0
0
0
0
0
0
0
0
8.32361
0
0
0
9.85543
0
0
0
0
0
0
0
0
0
0
0
0
0
0
0
0
0
0
0
0
0
2024
0
184.889
0
0
-401.413
0
0
0
0
0
227.971
0
0
315.088
0
0
0
0
0
0
0
28.4683
0
0
0
0
0
0
0
0
0
0
7.46745
0
0
0
268.278
0
0
0
355.435
0
0
0
-2.65131
0
0
0
0
0
0
0
0
0
0
0
0
0
0
0
-28.8185
0
0
0
0
0
0
0
-9.59665
0
0
7.39838
0
0
0
-8.54532
0
0
0
8.42691
0
0
-9.95287
0
0
-50.1855
0
-7.30615
-19.698
0
-4.3748
0
-38.3751
0
-3.87097
0
-80.7634
0
0
0
0
0
0
0
0
-6.87198
113.153
0
0
0
886248
0
0
7.65526
0
0
0
10.2189
0
-130.897
0
29.5597
0
0
0
99.8176
0
10.712
0
0
106.361
0
0
0
0
0
-22207.7
-64.7531
0
0
-16.0129
-4.84404
0
0
0
0
-205.979
8.96978
0
0
0
0
0
0
0
0
-137.093
0
-9.58008
-18.4409
0
0
0
0
0
-22684.3
14.564
746.756
0
0
0
0
23.9302
0
-6.18324
514325
0
7.75112
0
-6.84127
4.36862
-928.798
0
-17.5583
641166
0
-5.97533
10.2026
0
0
8.8907
55.3402
0
0
9.43194
8.00442
-9.82875
-21.6397
8.84225
0
0
0
31.4293
0
0
-54.2046
0
6228.2
0
-4.98156
0
0
0
-118.591
-9.93667
28688.3
10.2723
-11.5524
-28.4452
0
-0.481588
0
-6.3647
0
-0.454225
0
-623.235
19.6301
-0.136725
-6.44388
229.81
103.987
-54.9547
153.559
-10.277
0
-15.5714
-49.1801
-44311.3
0
0
0
8.97081
0
-324.298
0
-134.881
640821
-3016.18
7.45315
-7.85748
9.38932
59925.1
0
-10.557
-44.3116
-11.3227
0
0
1031.83
0
-4025.04
-264.333
173.905
0
0
409.953
8.92411
-264884
-25.1962
0
41.3883
9.00906
7.61681
-22721.7
2252.8
-7.81415
-14.8061
427.644
-7.1985
131.464
-5.21013
6.32285
-37.4551
0
0.631158
-257639
-28.9352
8.27869
630.625
0
-294.414
-18.5858
0.693344
340.543
-184.225
-1762.78
7.78913
-38.6046
-15264.5
-28879.9
0
235213
7.29136
0
0
0
-726.716
11.5322
0.324577
-16.5955
7.10575
145920
7.93599
8.29436
-27.3923
-120.864
-8.63145
27.4786
8.45832
0
-10.7135
534.96
7378.97
78567.1
53449.8
0
0
-62.9594
-805.207
9.8101
9.79709
-18.3895
-2.62205
-23.9371
76052
3272.57
-665.792
-980.539
-52.7983
0
-5.78124
9.31684
224979
-125.382
0
-259.132
25.0235
-39.439
3345.77
9.51114
0
101608
-8.6033
-97.8022
29.1714
0
7.74312
2670.23
-5.77422
0
0
0
7.99736
-700.737
0
-11.1157
35.2794
81.7197
-1387.49
0
190332
-1421.55
0
1.44279
8.84356
8.27584
-65.7426
0.331999
-55.757
-39.045
-572.95
785.454
0
-1611.97
7.70405
-35.9971
-20.4738
-153.274
-32.0915
-14.1401
-155.209
-7.61594
0
0
-55.6269
-18.3728
-255.457
-97.8398
-2390.69
-13604.9
-33.2866
132.322
1416.69
-48.3719
0
-41389.9
-84.105
328.197
-45451.6
37.7212
-5704.02
0.83811
8.8769
12999.3
47.1287
-74215.5
-274.603
-29.2713
980.396
-879.888
0.260659
97.1853
0
-18318.2
-43.2956
265.58
0
-42.8822
-238.11
-20.1839
0
0
-120.463
6.28847
-15.7763
1995.14
0
-204.575
-2232.26
39.8526
0
-724.053
3153.94
9893.33
197404
-0.293292
-16.9499
236.758
-128.308
8.13855
70.8499
151.278
83.0173
-0.957329
92.2247
-9.76657
-98.589
0
-125.45
-15.4666
-6959.98
0
49.1126
-6498.46
8.93509
8.40031
-10.4792
-1552.73
0.029684
0
46.2879
-1835.61
-6.1945
0
0
4.56626
297.181
4609.64
10.6771
-245.637
-1908.13
-0.67651
36.7625
4634.1
-19.6083
-43659.2
215549
-26.3456
0
-16.5094
0
-8063.23
-49935
41962.4
-12169.4
-14.0415
-66.9674
-41.9569
151.765
0
22.7117
-28527.8
-3722.1
-24.9758
83.7469
-10.3807
-0.747689
-27.3686
-9.91567
-20.6633
-1073.72
-722.228
-129.163
-266.085
-67.3206
0.598367
-0.0389364
-30.1487
-9.34653
-24.1363
134.945
133.349
167.917
-294.58
-124.671
-13471.1
0
-89.2227
-9.34313
-266.804
322822
-15.9759
-11.0244
-49.7712
-40.6012
-10.7875
29.1284
0.656788
-10108.3
0.450459
0
44.738
-13.8023
-23.4345
164.807
-44.0283
0.266624
25548
2.04153
-50.8327
0
55.832
-3616.2
-162.946
-50.656
0
27.2177
-17.8769
-13.1269
0.687292
-257.415
-14.9791
784.119
-163267
-28.9378
0
-53067.4
-23.4324
-0.878895
350.476
0
-1363.39
8555.7
11597.8
-3063.18
213.829
563.292
-34.0612
80.0855
8.31005
-8.12097
-289.118
34.3646
-463.004
30.0119
-4395.46
-557.086
3.32949
-10.4192
-10.7323
-109.084
-1975.92
42.0032
0
-66030.1
-0.119312
104.681
-10.7003
-10.672
76.6276
-8.91523
-657.51
-566.395
7.59445
263.322
11.0325
-132.508
90.368
-24.5923
-8.18373
-96.8394
-8.70339
0.35222
35.7609
-3019.94
-181.294
-2.00579
-16.092
704.941
-1462.03
40.1883
-2.16539
-41.8924
-12167.8
155.307
44.7197
3.40463
6.35383
-2.60855
-0.979909
-7.51493
0.07415
-2756.91
141.623
38.6114
-83.0621
-8.84827
-2920.29
-44.2873
-2600.31
1.07314
87.8747
27.1958
-3.05653
-38.4641
33.1765
-721.605
-16.8497
32.6262
-8.34148
7.27722
0.124339
199.888
-20.706
-217.654
-74.8031
-12.7871
-19.8504
190624
-15.0473
109.594
2.59025
-23.5337
-110.228
0
-15476.9
-1.01109
-8364.98
0.373752
-14.5297
-81.1677
-13.4102
0
-10.306
628.959
31.2015
5762.66
9022.57
-111.313
163.072
-1280.28
-11.0182
-204.064
-68.3532
6.71627
-70.1844
23992
-48046.5
80.7759
603.442
6.04558
-50.9699
10.1002
50213.4
-21.5074
542.152
-624.014
-20.1748
-489.649
-6280.91
-11.2312
-13.2635
-12.0571
0
-32.5787
-56.5687
0
-60.7933
-15.8333
-61.5703
58370
161.87
40923.5
-63090.8
0
15.7271
26.6703
0
-1974.94
-3503.67
24.8138
15677.5
-90218
24.9242
657.396
89893.2
0
-156774
-9.54335
0
-1.88653
-33.7576
42.773
-20.8988
781.976
-39566.1
0.64307
-28.8471
102.081
24.963
18254.5
-6.86856
-62.7518
2082.71
58246.4
-9.95605
-40.2928
-34.8395
9168.36
-16.3915
92.3447
-24.266
54.0088
-11.3133
18.2134
1642.55
200185
51992.6
176.911
-758750
87085.2
-32.7956
-8.54706
35.6692
-620.612
-4359.91
-15.39
-10.4417
-613.7
194129
-671.944
0.0931067
-78469.4
10.569
-6531.65
-23.9914
0
109.256
-201.924
806.676
138.609
0
-547.04
2007.31
-14.7011
-11.8129
-6.14552
-20.2005
81.1804
24.4804
3602.46
0
-5.04704
20026.3
-20.6973
-114.095
-1502.46
23.2617
0
23292.3
-45.4119
-252.812
-1166.39
6.11713
-566.53
0
18.5594
-2.24571
-16.5524
-10.9848
-20.2859
-10.4927
-68287.8
-20.582
221.61
-667.775
5333.77
137.371
20672.3
153.862
-127084
-119.383
0
-171181
-49.2004
12.4519
-44019.9
-148.764
-20.1606
-370.76
-18.3145
189.932
0.080332
-161.207
-77.5457
11205.2
0
1.48995
-218.728
-10.5515
3.00301
-12728.2
-19.2626
0
-3624.85
584.652
-56662.8
142450
5.51166
-11.7138
-426.538
-2950.48
-31.5745
-18.5621
-60.0349
94.8295
0.469291
-11.2524
-262.553
628.555
221.436
-24.1866
1036.26
-68274.1
-13.0476
0
7909.9
-1652.58
-57.1929
464.6
-16968.2
-9672.97
-272.326
0.924131
1302.75
-1222.04
-7.05594
0
-10.7911
-47.9432
4.34631
-3028.33
-7.87966
-41004
-9.45393
-1467.39
-239.625
-21.9209
-1174.89
0
-6.67914
-66.512
-22.3565
4.50519
1990.56
-30.3752
-70.7172
0
-16.5374
-8246.32
15.9584
-9.42702
-135.423
8.58462
444.056
-242.539
-24.1128
-43.6535
0
19280.9
-68.5632
-1.00862
11.5326
0
166.004
-130.456
-6.01769
-59.2856
-1551.08
22.2902
7.56435
-39.9874
-200.265
53193.9
17.3979
5.33591
38557.6
0
5.79305
-30.034
221.277
-12843.1
-439.818
-1.4322
0.52012
-72.148
-1348.53
96.9111
0
0
1143.24
-28910.7
-372.846
-9.77616
-30.7948
-27.288
0
209.876
-14783.4
-93.0783
54.5315
3.03601
96.384
-67.4771
0
-483.584
-10.949
0.929707
-7459.99
-53.9205
-968.044
-11.4679
-864.462
-77.1494
-0.0826243
27.2312
-569.929
0
210.433
0
-3082.57
2399.91
-94.4613
-410.525
0.667999
-1689.06
-191.262
-63.2282
-17.8977
1679.61
0
114.122
96.3592
-1870.58
-45.0945
-12.6367
-15.9997
-0.376565
319.648
0
7.62258
25.253
66.2461
-169.544
-51.7288
1319.8
208.306
-13772.9
47.304
-2021.07
30.3493
-12.1351
36784.2
-1.15875
1.75296
43371.6
280.266
0.312679
-2.99794
0
28.9825
268.568
-43.2071
5.49031
-15.6984
-54.7537
0
-310.503
-9.82377
-7.33199
190.558
-269.527
-14487.1
-32.3771
1.06627
-52.9042
-4204.14
-34.2717
-32.8906
30.7888
75311.4
1.68772
0
485.199
-310.335
37496.5
17898.1
-67.522
-57.4147
-39.3967
27.3073
-270.417
35.6122
-91021.1
10.6666
-134.753
-44.7502
2721.73
-1300.25
-996.742
23.6005
32.4002
22.8836
251.347
-6.98481
-12.1731
-10.1231
-297.157
288.355
-54170.9
-28.6362
15305.5
111.377
-431.157
0
-67.2091
-22.4116
7.89622
39.9738
-2.79396
-20535.5
0
900.356
33.8806
-53.877
-7.11838
-13.4226
4.64062
-1305.17
32.4233
-167.07
-27.6613
-71.5491
196.532
-0.508425
-8.24539
0
1249.98
-135.624
109480
18.6702
-21.5798
-22.8575
-15.7207
57.4174
-182.559
-6025.25
149.126
-796.62
16.107
-80.321
-94.3268
-16806.8
101.189
-31.9728
0
1264.14
0.436771
-1609.55
43.4211
-97.7433
-118.542
-1313.58
-4789.69
-105.415
-28.9174
21.1999
-0.164765
-31.1058
-71382.2
-46.3626
-192.723
99.6883
-14.2999
-30.2454
-1.6253
1.16962
-5.49249
-20.5219
-70839.1
-13.0549
0
-3485.81
0.487888
73320.6
0
-28.9735
-111.63
31.0416
0.572905
8473.61
-31.9392
-810.421
-13.2324
0.813342
-24.7346
-28.8356
-178.8
213817
-32.1917
459.611
0
41.6504
-8.06754
-483.887
818.941
-40393.2
-4.98693
57.2922
-2.09086
-2706.27
-5.89778
-10.0471
25.4477
0.609565
0
-502.512
165.835
-2.30227
-149.187
-205.316
1078.67
-426.751
32.1146
-37.6463
-107.714
754.136
-31.778
-13911.4
26.0426
-29.8956
-11.6352
-0.190749
-15099.2
-104.307
-55.7639
40.9538
-17.2967
-42.338
117.076
-19.3834
-6.0607
554.623
-63.3616
0
-399.113
-115.539
-0.885942
1471.69
-685.255
3.96473
1.62016
-38.3377
9.56398
18.2042
-71.2492
-2671.98
29.1962
-594.305
-0.534696
-38286.6
-364.194
-11.1633
114.284
-8264.13
-8207.34
-7870.08
8.19357
32.8966
-20.9976
-17.4708
11.0453
38.2787
2.82978
5.74152
-17.1299
-12.3111
31.7271
0
-2501.14
-471.372
1289.45
24.1842
-29.4033
-19.2779
11.8476
-31.681
-15.0593
0
33579.3
39373.1
38913.3
-10.8836
-10.7084
-18.7821
-125.577
-23.4824
1719.27
27.0795
17.0236
9333.9
-34.9773
-20.3095
0.892407
-275.456
-35.1424
-11.1024
-11.3891
-22566.6
-19.7035
-0.198105
5.19673
239.003
-31.7656
-35.5359
-4.47798
-2.99135
-3.16154
-10764.2
-3.47904
-123.083
-20.5204
-50.1031
55.2053
-16001
-48147.6
-2.70874
-13.9009
-6482
-31.4799
-13.5309
-39.594
56032.9
-80257.4
-3.66874
-213.166
36.4448
128.984
-24.1076
-2749.88
-10.1702
-22.3449
-31.9471
-27.4507
-261.057
-24.3059
-118.862
-636.684
0
0
-16.8457
-3227.42
0.935846
-254.086
-98.4029
-11102.2
-39.2981
-140.989
-21.1777
-12.9587
75595.4
641.913
-193.465
47.436
-10.8234
-0.0356024
-182.82
-476.981
-324.897
-14.7988
80.0903
-311.348
156826
0.320319
-10.0369
384.083
-1.21598
-49034.7
231.201
0.249869
-9.40892
-33.2123
-17.654
569.573
0
-4.80169
5.49031
-10.5061
-0.739366
37.1411
-70.3087
-0.962073
-3.72852
57529.3
-513.887
-7.04724
-4.71137
20.78
-5517.58
-10.7584
-174.202
-31.5533
374.018
84.9675
0
28.6631
-6776.01
541.568
-13.2848
43.2143
-41.8394
-54.2243
35.1207
-49.8126
-12.4483
-63.9139
-13.5307
11.5636
643.871
-107.808
0.366848
-60.251
0.101528
-56.7108
31.5219
94.0718
-205838
52.9052
-697.497
-34.7412
-2.41562
42.3483
96.016
-40.0453
-9868.71
-8.79282
-22.3496
274.316
-1036.45
-359.703
-16.7428
2889.8
379.016
-271.267
236.1
2.81683
3390.33
-0.626726
-85.4366
76.4788
-27.7618
-11.8843
-11.3729
-50.1705
-85169.1
0
32660.5
-284.533
-211.798
-18.2309
-42.8811
-11.2648
-57439
-393.606
44.8479
864.879
-17.4671
-6.48145
-14.812
6501.52
-81.9104
-157.315
-9.56209
3698.07
-11.0016
5.05623
-5.85565
-2.45933
-10.334
-30.9314
81.9455
209.38
0.220828
0.663364
0
-366.374
-12.8104
-1.03645
28732.3
-5.13655
-1769.8
-10.6153
-633.772
-513.274
-9.46206
0
-134.64
-28.3218
-1.65191
-35323
-10.8875
-4.17073
-0.750841
23.6407
-0.0811414
-4251.5
-19.0394
-37.3163
-3.76008
-0.3002
0
-5.30949
-57.2365
-93785.9
-72.1501
-75.1537
-83.091
-5.95381
0.940513
-9.33235
-2.03066
-74.1099
1225.72
-2953.68
-669.93
147.992
-1656.96
4.07902
-79871.1
-7.94932
0
-31.5745
3861.01
62.2357
5.36962
-81.7722
-884.899
-61.715
16.1217
1.28358
32.0766
-39.3834
-19.0693
5.24517
-8.80656
-69.7612
-11339.4
-23717.7
-10.1521
0
3238.39
-724.811
-9.70247
-70.3209
0
0
-17.6792
-5.32708
-42.3501
-9.3926
2899.94
-15.5655
-16.8289
-25.93
-208.465
-5.59132
-5.43504
-0.506414
423.233
-7.84535
-40.8368
-3.08523
-11.5309
0
-8.73952
-1213.26
137.38
-47.5224
-25034.3
0
-27.3886
-11.2068
-5341.19
37075.6
-13.45
-22.4423
466.355
-23.6217
28.043
-53.8709
197.659
-10.4574
798.21
842.064
-9914.8
-57434
-34264.5
-0.475741
1851.96
-1.1729
150.94
-319.648
42.565
-24.8194
4.83412
-16.2444
-38.3591
-12.8678
0
144.1
-244.389
-1.92428
-6.1416
-864.211
-5.15943
-34.4695
5.47815
-58.2335
-98.1262
-2306.84
-28.7679
-15.1052
-12.8582
-479.091
-24.0074
-13.7549
-24.7678
-84.6313
0.131238
-9.04741
-140.798
41832.5
2040.32
-60.78
-43.4069
-29.72
-12.7679
-85.4211
-792.268
-59462.1
-113.499
18015.1
-96.4907
1827.75
9.17091
-48.8969
-53.098
-37.5234
4711.15
30.4977
-51.2814
1351.62
23.9953
75.422
-37.5549
-13431.7
-15.5745
-99.1748
-11.9843
-517.269
362.799
-396.218
-79.4677
-8.42999
-68.5782
-1284.26
-28.7962
297.416
-13.2588
-10.7328
-5.48046
103.816
73.0329
-21.8552
-4608.76
38799.8
-32.6493
3.83603
-70.3394
-21.344
-75.069
5.23843
-2.70641
1.4275
30.6094
-20.8558
-68.1697
-687.391
-5049.18
-68.9596
-18.1774
-35.0368
-200.427
0.261168
18.8042
-14.5388
-15.3944
106.821
-47.7841
-1.44235
9144.12
-21.6812
-21.3188
5121.45
-15.3175
105.865
2287.93
-29.9686
-9552.56
-86.632
-91.9528
-30.5647
-5.3049
-1214.65
-0.381975
3163.23
-133.503
0
13.0799
79.0024
-86.1171
-0.641455
-5.20969
-25.7338
1989.23
63.0121
-167.937
2145.48
-0.78144
-0.187369
-10163.3
1552.38
-1735.17
2.40782
-52.012
23.0622
-0.988127
-9.55241
-11.371
-70444.3
-133.485
-74.1692
-9.59133
-21390.2
-17.9296
-13.2986
31.2218
-74.6551
-9939.68
65.9184
-0.175888
11.64
-63.0936
-2.30399
-4923.44
-16.1869
-16.8067
-67816.9
-26.8528
54170.8
21.217
-30.3775
-3480.24
1188.64
-44.9088
-0.153888
0.0745661
-0.420085
2.36783
-1477.94
-12.1568
0
19.3426
-2.0119
-0.510857
2469.04
0.882088
-13.3388
-15.2419
-2415.22
-18.8149
-150.038
16.5679
-2.59262
28.774
-21.6608
-12.2596
602.15
-17501.4
-18.4084
-0.156425
673.949
-28.5159
-8.98579
102.584
-13.4386
0
-14.3076
203.213
-31.1409
-2.65479
-0.0154176
-4.93426
-1745.15
0
-171.49
-159.691
0
-17.5848
0.010471
334.791
-2.12072
-5622.53
348.823
0.586673
-119.737
-4628.18
-156.517
-17971.7
-5.82893
-9.07329
-10646.8
-238.478
77.4842
0.696531
515.43
-37.7603
-1036.68
-328.125
-72297.1
-169448
-10.2713
-9.88029
-351.828
1.22629
-13.2062
15.3073
-24.0524
43.4829
-0.278442
0.755408
-8.40359
-17952.2
67.2035
1.20181
-83.7557
3.5954
4.96017
-10.288
-3.09177
18713.8
-84.2154
-38.5026
-1.81947
-47.9668
-2056.3
309.587
-25.8082
140.05
-41232.9
-117.104
2.64786
-28.3977
-93192.5
-5425.94
0.894541
-25.3577
4933.42
0
388.273
2558.86
6.62879
-41.9995
34.6874
-20.7382
-17.5744
-9.10459
-28.0707
-9.58785
40833.3
0
0
33.9436
-1.55756
5.86338
-28.2019
-13.6377
-38.8035
-978.711
-52387.7
4.3823
-10.5898
-4377.27
1.53694
-1312.93
-19.9388
-67.1005
-10.7386
-6055.75
-9349.98
-9.61881
-5572.17
61842.8
-50.5759
18.0843
-1654.95
-18.5693
0.106646
-0.106646
1289.89
-3328.79
-7.43335
1.31954
28.5844
-87.76
-117.683
-4.66469
1.57413
-9.23787
-67.1547
-8.27745
-48954.6
-10.8992
-54.1262
-98.0015
-11.3081
-48851.3
-6.67186
-1821.07
-11.0071
12134.8
102.186
-4.17193
14.8848
13.3439
1429.92
-0.679926
-52.7257
227.377
-85.565
-40.4519
-20.6202
124.973
-5.08641
-38.0708
0.312415
8.17589
-20.5075
-92.8245
-14985.8
-6.9429
-67.2092
-71.1582
0
-78.5522
-11.548
80.3486
-0.0412547
-0.841294
0
-411.798
-50.2158
-20140.5
-12.4477
-14.1282
-45.9729
0.46101
9.05684
-15.9701
-29207
225.924
1.94102
-50.5182
-2421.75
-31.7714
-19.5728
0
-73.5991
1.29149
-39.6074
-70.4217
-44.6425
-230.661
-32.5283
-20.44
5.71384
-112.236
-43.3969
-27.0036
-0.0631027
-26.5527
20.2348
-39129.9
-43.0506
-28.0752
-13.1276
-90.2705
1.59955
-1322.22
-84.7896
-35795.7
1039.86
-10.7162
-19.0478
0
-0.489012
-81.4195
0.189019
-2.57186
5.27254
-9.74869
0
-363.45
-357.437
-5.48076
151265
-6402.64
1579.42
-8.67958
-955.349
-37.135
13.1109
0
-882.939
-63055.7
-0.61481
11.7906
-61311.1
-8.85539
-0.679145
-7.37529
-16.0151
-8.75197
-18.7709
1025.89
-10.0133
-4.62675
0
-102.932
22.0073
111.056
-19198.8
0.88236
-430.195
-2360.5
-3631.03
-45.7232
-10.8356
-65.3521
-41.0664
10.3416
-16.6976
32.3907
-0.639059
-53.0671
0
-31.145
-3114.49
-24.2068
1161.76
-10.3293
15.2757
-46.5776
-18.2309
-39.8688
31.1508
-96228
-2.19321
-1.97288
0.885236
-10.4803
-3935.88
62.4895
-7.42277
-82284.8
263.813
0.669497
-9.33034
-11.2995
5.97447
1819.74
977.185
9.62078
-44504.3
-1277.85
-9.91914
575.229
-149.164
-19.5857
-2358.5
1298.25
-35.4755
-2.03252
-6.68935
-15.1136
-1468.24
-2.61418
139.248
-18.6754
700.484
-4.90884
-25882.5
197.697
-24.8148
0
0
-16.7733
-24.5901
150463
-9.71004
-15.9593
-2.74416
-23.5676
-2.15863
-16.3725
-1206.06
-26672.5
537.947
2.68833
-2.21679
0.157956
19.056
-14.701
-177.532
-14.6957
164.583
-40.8289
1.15698
2.73221
19.5907
1212.97
-3110
-5.07365
-0.170542
420.687
27.0591
-10.3834
-13.7084
-30.8075
-375.533
0
-1.3486
-32.0719
-12.6872
-1.05035
-0.988127
12219.2
49.8567
-13.8106
0.44841
103.583
-49.2901
-14.2258
-29.5404
0.866757
-402.053
-10.9751
-11.3419
-14.7461
-24.1669
-0.121843
78.579
-2.8455
-13.761
26.0935
-5.14568
-2909.56
-98.0725
-21.8897
-13.7709
10967.7
-21.372
2518.6
133.151
0
0.0382328
-92.7813
-66.8185
-45375.9
0.107784
-19.9259
-9.04661
-33671.7
-980.862
-10.7824
-22.0425
-32.2497
-402.642
2.56705
-37395.3
-1.68036
-2903.65
-11.3001
282.264
8.90514
-49.8005
3347.42
-50.5847
-2.18858
-32.2866
-58.181
1203.45
0.332728
-8.59763
-11.4213
0.0586914
-0.508461
-13.5967
-18.9484
8642.55
-14.7562
143.85
-795.16
-13.3059
-18.4483
1.91531
-10.3263
0.281783
-14.0165
-2.13997
-18.4603
0.131426
-21.4357
-227.546
1.47186
-13.1239
-33.0471
0
0.810521
59.7123
-19.5546
-23.2043
5.07255
-123.327
-0.597809
-11.842
-27.387
1093.92
-17378.6
-61853.4
-15.4886
-482.867
-9.85539
9.28328
-0.144254
-4518.94
-387.184
-22.8398
-0.857563
-7.91742
-23.3704
-25.3433
-48.8947
-2.46605
1.12847
-85.5721
-461.773
1233.79
-5.67793
-45.7516
36.3838
-124.024
-39.7856
-4.07021
-127.435
1347.83
-246.73
0.734524
13.9414
-4.07815
1.65132
-830.784
-8.70014
0
-1.30259
-9.21431
2575.93
-42.7993
-22.6536
-17.1162
-48.0652
-4.8262
-2.67008
-27.1485
-3534.86
-11.2927
-57.1834
-13.6444
2.4808
-8.03101
1.76653
292.033
0.757381
-8.67404
-1.49552
-94317.9
4.65308
-0.0383999
-56.6434
-0.22974
-312.146
4597.19
3.39387
-311.319
-24.0663
-0.631087
77.6419
1.20015
0
-15.5427
-1322.65
-109.443
-1341.93
-13.7341
-504.344
18.0541
301.027
-10.8046
-467.648
0
-6.01094
-34.2488
-10.2123
-18.0824
-1.48619
-26.4912
5.50255
-12.7294
-9.3647
-39.4332
-38.8025
113.104
414.466
-540.696
-39.8644
233.909
-17.2396
-72.6605
-25.3099
0.077547
-37.298
-279.721
-15.2128
-249.631
0.460417
-33.1567
-727.567
-7.47473
-832.748
-1.46941
-9.85296
-10.1742
-20.4059
1331.88
-53.0459
-9.57328
-4.9101
-36.1978
0
-31.9347
-15.7737
-0.707631
-105.635
40.7699
-63.4971
-19.4533
-24.0549
-2.3887
0.739513
237.601
52.4251
-10.6113
0.050685
1.2102
4446.48
-7.97819
-14.5512
-0.133097
377.031
-9.3565
-16.5922
-1.28887
-277.829
-127.028
-23.2799
-859.054
-11.8105
60.642
-0.478217
-14.5797
-9.03716
0.571925
-14.2276
-24.3812
-24.6963
-38.2216
57.7874
-136.262
0.23873
-14.8209
-43.6481
0.603247
-630.323
17929.2
-19.4247
5703.54
-19.7969
2768.65
-22.9843
-30.8263
0
-212.399
175.057
1.37297
-1.40092
-15.1303
-10.0506
-442.459
-16.0778
-39.2185
-141.947
-28.2594
0.011576
2371.44
-35.3202
99.2246
-15.1468
-0.546199
-38.2472
0.656184
-24.9576
-210.847
-50.1089
0.359983
-11.6113
-25.0905
-1165.86
-45.201
44.8585
-59.7606
0.142234
-1.37689
-0.540961
254.828
-17.7237
-10328.2
-61.6075
-60.8317
7.14151
-72.2436
43245.5
-0.165388
21457.9
-15.6769
39.7692
-14.9064
0
-59.8044
-241.691
-89111.6
-18.1344
-3.74728
-8.97486
-24.8244
0
-13.9919
0
-10.0697
1.36602
57079.2
-31.3713
0.597607
-73.2996
-3.67212
-12607.3
-91.4016
2.40368
25.9782
-32.0719
-34.7592
1271.33
-3.57891
22.6267
-0.790943
-9.38434
26.1412
-23.8724
-2.51929
-31.2859
-35.9348
-18.2153
-68.3864
1291.91
-20.5103
216.558
-515.637
-2.08697
-165.897
-3.25591
-39.6111
-43276.2
-0.0630178
-20.6291
1276.27
-20.2066
-25.1269
-23.846
252.208
-9.32262
-13.3535
-1.54718
-17.3278
2909.1
1507.1
0.631387
83.2493
-14.4988
-286.061
1234.61
0.153929
-18.2343
-5.19109
-1.42472
1.23165
-12.7115
-38.9262
-14.4311
1.03144
-1.22325
-14.4626
-168.684
-28.631
-44.1027
-27.7838
-0.505873
1.62197
125.55
-23448.5
-131.671
-40.817
-16.0563
-14.6182
-16.7751
-9.49962
-6.945
0.169855
0.791252
-22.034
2582.83
-21.8504
-11.6355
-78.3948
0.405235
-464.203
0
-1.72047
-0.19829
-12.7743
-39.6948
-0.926424
-0.990473
-9.63316
-1.51883
-33.4787
4.46569
-15.4627
87.2747
-0.784359
-13.7754
-17.8964
-9.6133
174.505
-11.9439
-14493.9
-0.388084
-28.8306
-16.9062
-0.475787
-11.5581
1266.53
-0.791459
-33.2925
-43.0391
-12.7123
50.4142
-2.85609
-27.2259
-31.858
-20.2552
-12.99
-1046.24
-20.3104
-27.7587
-6.1582
-10.1725
-1.20033
9.53379
-555.988
-4.56939
1308.71
1.58181
-0.0138845
0.515425
-3.71458
-18.0058
-55.7472
1.34428
-17.6854
44.1552
-52.2807
-60.7803
-339.202
-33.7116
-0.131171
2.53117
0
939.403
0.216582
2222.58
789.865
-4578.63
-36223.9
-12.0345
-14.6076
220.885
-70.6625
-43.6394
320.529
-5.76339
62.9572
-482.869
0.886342
-946.625
-81.0763
-95.9474
0.0318688
-13.4953
-96.2189
-54.3585
0
-8850.97
-1496.01
0
2262.43
-0.225405
7.57049
1.85575
-1.85575
7.73139
41329.6
-13.104
-240.33
-12.6984
-6.65222
-63.4518
-34.8714
-181.783
-96.038
-13.8137
1.1978
1.92787
-43.41
-0.234258
-22.495
0
-60.1247
8.58772
-1.57493
-2.3521
-85.6161
-25.6897
-104.463
-127.827
-33.6293
-16.7428
-46.5776
-5589.53
-30.9908
-70.6757
-39.1746
-14.9619
-4.36276
-10.7067
-46.807
0
-197.431
79.4757
2.29495
-24.1695
1581.51
-60.9189
-10.6497
-13.2074
45.4922
-310.081
-14.0007
-100.539
-2.80441
-2.90522
3.48861
-14.3994
-22.6413
179.377
-27.2064
-11.534
1.37882
13.6426
-0.474617
1.69781
0.0392548
-32.5926
0.315805
209.481
-24.9338
-17.6017
-1.60656
-681.358
-0.0905477
-72.6721
24.6313
-0.151833
-0.790877
0.372172
-2.37132
-1428.55
141.381
-1.82596
1.11406
-308.6
40.3246
-20.8444
-80136.4
0.0105864
-2684.47
-20.4117
-28.6053
1.35552
-4.75309
-19.6783
-134.892
-9.19874
8186.3
-34.2789
0
-10.69
48.9028
-1303.72
-2793.12
-302.85
17.4909
-7.24868
-60.39
-6.87512
0.519511
-9.8115
7.26951
-7.56046
0.702771
26.7667
0
-0.227155
-161.252
-1.68381
-47.2787
-62.5327
-9.52456
-17.2801
-1.14848
-8.50183
-2584.63
-69.9376
-1.8902
-64.2471
0
-10.77
-32.4948
-138.423
2.56741
-144.538
-29.255
-0.375105
-18.3237
-0.0725614
2972.17
-34.2627
-0.264004
-13.1869
-25.2412
-17.6365
-9.25934
-16.2122
-22.0206
-48.2215
-2.52263
1.06289
-35.168
79.1512
-450.692
1291.3
0.513285
-0.422719
-10.1776
-1.46432
-13.063
15.5534
-12.7051
-24.1111
43963.9
-48.1362
-2.93536
12.3883
-27.521
2.18825
-13.1142
-9.22434
12.486
0.0859483
1.63367
-39.6903
0.62619
-0.281215
-131.814
-33.6441
-17.6854
-19.3912
-20.3504
-30.7129
-6.28553
-6.10436
-0.129472
0.621659
-32.0719
-13.4773
0.297575
1650.24
-14.4874
0.327459
-1.08898
0.653945
-666.1
-10.0397
-8.60523
-18.5839
-3.77506
-7.66121
-962.506
-8.88318
-30.4977
0
-145.869
415.141
-355.534
5700.13
0.89113
-21.5916
-247.961
-138.779
-2.40973
16441.8
0
-33.5641
-195.488
-114.095
-61.9383
-3.43552
-10.1866
-11.4688
-234.449
-9.78023
-32.0719
0
-4.75049
-10.1402
4.50981
7.34781
1290.2
-5.58546
3.36418
-1.24725
-11.1242
467.057
-358.431
3296.89
-1.25421
4.64187
-0.289797
2.47186
-1.34835
-0.618376
-9.67985
-10.8614
7969.58
-9.93591
1.8128
3.6739
-11.9223
0
-1.96547
2.36876
-0.545453
-0.802868
-11.3663
-2.8971
-12.878
16550.3
-29.0029
-11.022
-20.6703
-0.605645
-166.233
3.00235
-16.8918
-74.1667
-5.19685
-15.4283
-8.73701
0
-9.13416
-3327.45
-33.584
14.6721
-27.9898
-22.9275
0.455409
-0.492126
-9.03472
0.450852
1292.13
-3474.86
-1295.09
-4.04145
-33613
-8.65692
-11.7112
-19.3449
-28.9861
-9.36157
0.182252
-3.26695
-35.5831
-10.8147
-38.0188
-0.0636032
-17.4755
-22.5395
-40.6415
-3.06269
-0.403915
-7.09064
0.0673489
-13.5662
-18.9021
-2909.58
1.22391
0.0285995
0.626549
-15.1538
-22.8348
-39.0083
-43.4224
-26.3746
-43.9649
-13091.2
3.8131
-38.0494
-28.5657
-16.926
-1.73561
-59.38
470.404
-1.0972
-6.27332
-64.7893
-67771.1
-12.1882
87326.4
-0.173606
1.11562
-29.1559
-3975.96
-0.597679
-0.347176
-9.41159
-0.406672
-0.168753
-90.7038
-2591.21
-5.68419
0.927923
-15.137
-27.4452
-18.5512
1.0406
-18.4786
-0.562816
-12.2106
-20.2192
1.81344
67.727
-41.7582
-35.4508
48.8168
0.665701
1144.47
-1.37009
-238.925
-38.3216
-30.3752
-663.758
-44.4712
-6.60351
-17.111
0.123098
-23.1925
-2.66514
-19.2248
0
8.17103
-31.4795
-161.203
-16.7144
-30.8374
-2821.13
13.0934
-109.445
-31.2805
0.011576
-13.2335
8.22232
-288.445
-60772.3
-266.578
-38.3328
-13.9759
0.984092
-60.6678
0.970023
-1.51546
-37.9951
-82.3411
-18.8265
-307.942
10.7074
-12.82
-300.022
-0.679178
-11.3446
-1.23639
8.90186
-7.21149
-385.072
-7.11096
-9.58309
105.924
-246.422
2.40876
-153.687
-4.86606
-881.475
-4.64262
-12.0661
-200.665
483.008
-29.7886
-10.9089
-1.42831
-33.4054
0.13714
-92786
-17.3623
-24.2099
-98.7973
-20.1457
-10.2545
-118.524
-18.8151
-4.93403
1.65388
-23.0168
-43.4608
3.43928
-10.0416
1012.94
-27.1
-3.84086
1.07225
-4.85999
-25.4369
-60.8262
0.718347
-4.47876
-6.67187
-2.03317
-16.0306
-795.376
-41.2487
-17.3125
-23.0066
-11.7323
0
-0.551636
-11.1825
-0.0957081
-15.4669
0.488665
-214.281
-158.839
-15.1391
-17.7809
-3.24485
-3.22583
-0.739292
-27.3592
-37272.6
0.76004
15.3964
0.409639
0
1511.5
-42.1629
-9.19691
-94.6297
-179.917
-3.45593
-35.7907
91.2327
-42.7344
-38.9143
-58.7298
-9.74046
884.655
9.20552
-30.1417
-1.18242
-1.50903
0.845494
0
-1796.65
0
-30.8147
2546.27
-13.509
-165.02
-3.84962
1.99882
-13.894
-1.33117
-19.3372
-12.388
-1.34411
2.76706
-42.049
-21.7211
-37.0141
-35.7768
0.162861
-14.9915
-26.6555
-12.6667
0.661135
0.475204
-80.6339
-0.553727
-11.9976
-1.03896
-9.74061
-24.463
0.88674
-44.1061
-23.9043
1.46585
-13.5718
-8.54476
-0.792043
-11.396
-43.8882
-770.231
0.0618457
-10.953
-24.3812
-3313.81
-9.87595
8.90512
-0.114209
-51.7971
-32.5291
0.524549
-43.1107
-0.0825191
-15.3593
-20.152
-69.2486
-714.911
0.0597426
-72.809
-12.9069
-3.56667
-63.9249
-2.94544
-4.0816
-10.9501
-17.5961
-17.2653
0.250281
0.600756
-126.017
0
-26.3388
-0.39329
0.429884
-0.121102
-0.228891
-0.232946
-803.2
-33.8363
-32.3262
0.579353
-2.0304
-48.0603
-3.28043
-2.90364
-13.06
-65.363
5452.71
-27.9103
-8.13348
-2.18275
-51856.3
0.645897
-640.621
-9394.01
-1.53234
-959.778
0.0529406
-4.48809
-0.408003
-31.8233
-351.842
-50.2554
-43.5882
0.162102
-11.1365
-460.024
0
-30.1254
-0.110003
12.3495
-12.6579
-19.1309
103.567
-5.42624
0.5
-79.6256
-34.7301
-20.5994
0
-12.0938
-54316.9
-15.4537
-305.578
-7.24205
-4.2704
-2594.99
-2.67456
-4222.85
-295.552
-285.94
-43.5414
-73.1376
-35.7412
-3301.42
-1012.12
-19.0388
-26.629
-135.265
428.808
-0.587689
3.60855
1893.62
-2.69481
-0.635062
3.7448
27.7765
-21.5924
-711.235
-12.4052
-14307.8
0.473054
-1.29928
-21.7067
0.645095
-55.4041
0.61988
-21.1862
-17.6898
-0.876576
-9.39282
-206.549
-9.61761
2.16055
0.16558
-62.4902
0.419923
-0.329926
-7967.44
0
-0.945045
0.111743
-22752.9
-23.7671
-13.9313
0.131346
-20.8515
-45.5499
-0.575631
1.68772
-495.542
0.498681
-0.328277
-9.94577
4.58546
274.606
-1.86154
-289.231
-12.0289
-274.937
-5.59177
2.33517
-259.814
-16.1134
-1.15988
-211.412
-74.8407
0.0723992
-3.5669
0
1.02137
10.8385
-20.2117
-8.18633
-105.796
70.4164
-23.7312
-2.15657
-27005.3
2547.12
2.13967
-42.4865
-26.6176
9.00718
-19.7061
-21.5964
-19.3372
-14.8943
-8.82883
3.23387
-139.305
-6.53842
-21.532
-11.0157
0.90301
-20.84
-721.263
-12.3457
-12.2913
1.55263
-29.8626
-2005.89
1.15352
-20.714
-39.5267
0.121973
-22.337
-28.3431
-0.160594
-29.2036
1.89433
-1523.3
6.4102
-98.6892
-0.965628
0.346134
-23.1948
-23.6797
-0.55794
-1.28128
0.465263
-14.6872
-12.0045
-1.1126
-3334.33
-0.0753492
-7.91848
0.807276
0.519154
-27.0121
-2.30386
-28665
-1.71997
-335.015
0.167731
-171.102
-0.901012
0.515563
2035.27
-26.1904
-12.895
-2.84509
-14.4989
11.879
-10.3717
-13.5554
0.106747
-0.662559
-27.8905
-0.943075
-21.2055
-1.66715
0.613881
-37.3799
-20.1672
-25.3782
-0.458086
-27.7943
-1.19209
0.484359
-89113.4
-0.486377
64168.7
-308.494
-946.508
14.6771
-2903.64
5.88437
2903.53
-1.02385
-0.964762
1.44794
0.769732
-2.2279
0.153927
-16.1016
-103.238
-0.625657
-47.571
-12.924
-1.98953
0.678498
-58.4257
-20.4674
-8.22314
-271.221
-1.2564
-31.0514
-9.17972
-0.962756
3.5954
54566.6
-6097.38
-62.374
-17.015
-44.5008
-9.12194
-23.4662
-135.584
-2826.64
-8.47517
-2.51955
-116.138
0
26.2773
0.0992281
-0.0999121
1.90118
-39414.8
-34.5216
-13.1505
-22.3558
-226.932
-19.0491
-1832.69
-53799.5
-29.442
-13.9242
3.7944
-484.484
-300.218
102.1
0.411973
-7.72822
2.19048
-8.97112
24.8605
8.98772
-0.722287
-4.94234
-13.0225
-34.3706
-12065.6
-1306.67
1.0232
0.45968
0.0878017
-75.6048
0.0861038
-23.4038
-39.0605
-0.193767
-2.97625
-16.8854
-0.78434
-7.19046
-9.56217
0.88331
-8.80353
1.85758
-10.4236
-14.6084
-1.81721
3330.3
0.402593
-57.9502
-28.0249
-2.27027
-27.6776
-4.17533
1.92576
0.715323
-0.244404
-161.24
-14.2236
0.527673
-13.7633
-35.9593
-36.8759
-1291.04
38539.2
-213.742
-70.505
-7021.33
-2.50983
6.56065
-71.526
125.902
-228.038
2.09494
17.0897
-62.4369
1.31176
-21.1094
-26.6333
-19.2442
-31.0854
-1201.48
-15.4329
1.55452
0
3.16794
-11.2004
-2.01798
-1.5743
-18.078
-9.57853
-24.1564
0.418281
0.0191925
-13.4936
2793.25
-0.0601923
-43.5266
-2.45733
-242.817
-1.70621
-130.129
0.113388
-0.259938
-1.9978
-90.9089
-15.6147
-0.159037
-842.024
1.51396
-0.485306
-0.216179
-38.1923
0.157467
0.34479
-0.341468
2.72768
0.557699
-46.505
-0.442815
-11.2205
-2.18366
-0.347541
0
-118.892
3.09078
0.208406
-27.7943
693.343
133.46
-23.0704
-56.6341
-0.422094
-5.31642
-31.9027
3.95797
-28.0737
0.519793
-31.1467
-38.423
-13.2876
-0.424768
0.0475163
-0.180908
-2.7648
-16.651
-19.5268
-57873.4
-36930.5
0.634123
-0.351164
-25.1326
0.552202
-0.631513
-34.1903
2.25779
-64.3755
-122.113
-0.431713
0
-33.0129
-0.0129602
-0.103372
-1.32563
-317.708
-43.0812
-23.5827
-45.3433
0.144254
0.240804
-11.3497
1.90647
0.368457
-32.0719
-25.8706
4.11128
0
-37.6463
-243.553
-17.0508
-3.8822
-4.6942
-93.0288
-7.83524
-5.07189
-17.5837
1450.91
-35.3077
-595.739
-699.69
-8.73899
0.802256
-70.8313
-27.8984
-3.04069
-0.517272
-243.193
-2.49097
-33.0897
-12.1158
1.58187
-98.7973
1.819
1.37161
-1.63546
-152.581
-522.673
-156.144
-145.584
-28.7962
-15.9206
0
-148.163
-152.415
-15.7727
-57.3144
-542.021
-2242.12
0.178784
-1.56837
0.823682
-48.7882
0.748111
-1.01115
1.03281
-10.0478
-45.5763
-23.1825
-262.228
-12.7644
-21.22
-306.45
-3.63296
-37.5298
2734.54
-0.733187
-176.998
-4.36153
-19651.2
-0.266815
4.10446
-2.93172
-33.8373
-57.4787
-13.9339
-4.55713
-18.7615
-161.207
-1.04569
-22.6634
-26.1004
-34.527
1.71572
-24.1307
-76.2834
-26.6547
-188.284
-36.5101
-933.143
-38.6384
1.50154
-0.767184
-85.1288
-2715.31
-200.902
0.842007
-1.13224
-220.482
-1.47451
-9.83422
-27.143
1.60151
-1.47747
-28.3823
-73.3913
-27.8881
-0.505873
1.06267
-0.630495
3.37986
1.03551
-36.5226
-1820.23
0
0.150612
1.4318
-0.553546
-37.1317
-14.3136
-5211.61
1.57843
-66.6163
0.299855
1.44939
-32.0719
-528.789
-8.07509
-46503.4
0.717174
-0.814413
-0.855737
-6.95082
-33.1781
0.0175878
-45.8338
1.51393
0.175355
-2.02311
-3.05279
-2.32038
0.773258
-352.374
0.884949
0
-12.5515
-80.0856
-1.96426
-164.819
-0.766037
3.09828
-35.2339
-1.45166
-14.2005
1.13108
-21.0969
-0.535016
-138.063
-36.8283
11.6037
0.625579
-4.76581
0.339672
-490.436
-32.906
-2.93965
3.00507
0.70683
-4.95269
-0.0675119
0.101919
-12.9384
-2.24287
-1.32377
-36.4624
1.13045
-0.895829
-5.72547
-13.8577
-0.577699
1.01747
-6.79047
-0.325796
-0.221239
0.0165515
-1.03025
-0.0667693
-35.3142
70.3706
-0.559088
-0.147422
-1.46228
-0.344693
-257.414
0.011576
-14.3329
0.721813
-39.5931
-92.8377
0.077769
0.63053
-25.0715
-0.350713
-1710.94
-53.1053
-156.654
-7.43271
-107.163
-2336.39
-101.048
-114.643
-297.048
-15.2758
-30.1315
-160.557
-2.03232
273.213
-17.4367
0
-2.279
-9.47669
-87.5996
-915.514
-5.25473
-11.5047
-2.43927
2.59642
-30.2213
-8.45284
-9.1372
1.1825
3.53092
-0.206893
0.477231
-2.97561
0.984729
-60.9227
0
-90.7598
-8.14951
-11.0457
-68.8184
0.678716
1.51349
-302.571
-43.597
1.43845
0.0591456
-1.69021
0
-186.856
-1272.1
-25.4557
0.221033
0
-1472.64
-2.33012
0.853517
-2.13965
0
-41.3941
0.570605
0.565731
0
-18.0774
0.676622
-0.938855
11483.7
-3.75177
-123.858
-63.0588
0.715719
74.2405
0.631483
-48.8194
0.309707
-485.418
-1.55699
1.09766
-2.00491
-12.9818
-1715.05
-111.684
-21.614
-25.6172
3.16932
-0.482967
61.5585
-12.6754
-2.32705
-169.747
-80.8541
-27.0959
0.0723992
-10.2349
-1.4583
-28.4095
-255.477
-25.2695
-110.095
0.719746
0.169693
-17.1212
-22.3457
-16.5388
-2.11596
0.28338
-56.8373
-12.6789
2.53253
-53.7281
-62.5489
-14.1089
-16.0592
0.955231
-0.883624
0.175417
-20.8108
13.3253
-121.476
0.346417
-20.2033
11.9418
-0.185417
-4.50495
-0.945923
-0.661394
-29.7778
0.460375
0.44611
-10.4738
-4.37249
-21.9971
0.291526
-1.37311
-23.1948
-0.942641
0
-22.2005
-164.917
2375.08
-5.78799
-343.837
-1.83797
-1322.41
-137.25
0.672656
0.841299
-22.0158
-3.12102
-8.91907
-0.214899
-0.131715
0.255001
-6.07648
-1.60765
2.47852
-0.347541
-41.0204
-60.9738
1.3557
-0.260863
-47.6188
1.65853
-30.2264
0.2215
-0.863678
0.310189
-151.291
-42.2838
-29.3569
-42.8921
-581.436
-29.8099
-43.194
-0.398362
-0.339474
-76.5518
-75.6559
-12.5698
1.54347
-59.9898
-21.3524
-24.9317
-49.7994
-0.782177
0.78772
-1.28137
1.74326
-2.12305
1.18107
-6.50664
-0.248473
2718.81
-1.59421
-55.4996
3.7242
-64.9733
-853.947
0.980195
-27.2525
-45.3434
-20.4744
0.57952
-2.56535
-27.6026
-10.7836
0.203661
-35.0833
1286.22
3.71312
-2883.78
-10.893
-44.2737
-72.8534
-4.32068
-3396.29
-85.9482
-892.757
47.1211
-3.54178
-16.4458
-2.75694
-0.399962
1.38397
-29.9586
-4.86145
5.08249
1.31828
-67.6131
-2880.2
-3.47181
1.10537
21.3121
-0.116862
-36.43
-11.6584
3.16032
-12.2176
3.01785
-1481.42
985.446
-231.67
-18.1212
0.376551
-41.9398
-106.794
-1070.3
0.0887485
-1.07285
-26.3459
12.1194
-658.711
1.46201
-1.46201
-122.549
-0.233043
-8.86107
-2.6694
0.084105
0
-1293.26
-6.04451
-31.0255
-12.9829
-24.498
-10.5564
-2.05962
-17.9653
-59.1586
1.91513
0.866584
-1234.28
-0.420098
3.17139
-208.135
-11502.7
0.409639
-3.20986
3.50676
-232.811
-2.52532
-3.06645
-21.112
-15.551
0.854378
-24.1363
-117.814
-34.3013
-11.1481
-78.3712
-47.9611
-133.924
7.4341
3.38272
-8.83609
-2.13529
2.47284
-162.735
0.431954
-20.1975
-0.0999572
1.03019
2.82964
1.11714
-61.2462
6.4604
-241.286
0.158984
-11.6459
-51.0699
-24.1751
-75.2022
-31.9732
1.55478
-26.575
-35.1583
0.87936
-25.7649
-14.2525
-4.21485
0.0693095
-45.1886
-11980.1
0
-54.9224
-29.0943
1.10529
-1.45532
0
0.522542
-0.823019
0
1.01665
-80.1065
-20.613
-5.79786
-23.4097
0.824645
-1.92818
-13.3803
0.39852
0.1599
-0.255465
0.153262
-39.4249
-21.9955
-1.68997
0.480156
-0.602279
369.216
-18.772
0.0371042
0
-1352.92
-0.667527
-85.5157
0.641299
-0.328092
-13.5689
-110.228
841.245
-129.411
-60.5897
-3019.87
-0.27518
-155.077
-13.6126
-6.34411
0.908159
-2.15525
1.02217
0.0783531
-25.2635
1.50223
-46.0985
-0.35633
-65.7246
-8.1115
-43.194
1.21999
-1.50516
-0.391902
-0.643897
-1.26506
0
0.673682
0.475035
-74.7263
-11.0201
-21.0996
0.0410708
-27.3141
-31.4681
-14.4446
-26.9901
-0.276125
9399.95
-65.7525
12.3435
-16.6479
-13.3689
-2.56054
-31.7314
-18.0154
-143.749
-39.4156
-1.63728
-1.95238
-2.85575
-1645.49
-164.844
2.78296
7.24411
-21.1574
-10.3805
-6.81429
-1.56581
-5.42265
3.73947
-2.55216
-12.1898
0.138144
-1.28039
-847.737
4.66707
-19.4092
0.444969
-68.1849
-13.0171
0.737938
-68.4315
-30.2126
14.4424
-11.6584
-57.4906
-132.282
-5.9922
3.76373
0.942377
-11.8553
-35.7465
-0.435386
-50.881
-0.882714
-30.9786
-1.63909
-27.0258
-3342.62
1.46201
-47.2926
-90.6226
-2.20837
-1.88019
-0.887778
0.63386
-57.6514
-0.764356
-0.198872
-32.0719
0.0812767
-11.7277
-27.4382
-42.1795
-0.185948
1.54616
-175.627
-2.75013
-48.8667
-1.02419
-4.0395
-1.22458
-131.586
-24.3717
-59.1138
-14434.9
-1.08097
-75.9509
-40.4447
-996.231
0.484756
-13.227
0.244485
-103.761
-32.2842
-0.0586297
-3.77489
-38.3493
-11.9881
-2.05912
-2.13529
-50.2309
-14.664
-1.21276
0.627548
0.240385
-1.86276
-11.4297
0.222841
-70.1143
-1.95234
-24.697
-9.88779
-1.64563
-0.974573
-26.6177
-33.0707
-67.7506
-1267.59
-436.969
21.2246
0.529011
-32.8677
-1.46074
-45.5562
0.877786
-33.7419
-45.5047
-1.03731
-9.78793
-70.9839
-4.82061
7823.06
1.15352
-30.3993
-0.60017
-353.613
0.878012
-12.7925
-2.74466
-39.9227
-33.5315
-25.6876
-458.736
-3.44794
0.634978
-15.7647
-1.82824
-10.533
80108
1.74585
-76.7476
-0.370503
-116.467
0.153262
-0.796615
0.465905
1.77692
-16.9681
-0.938099
-47.3447
71.3436
0.0882365
-519.601
-0.362716
-22.1289
-86.4602
-0.470431
-15312.6
-0.0891078
-0.500463
-25.2473
-1.38372
2.68331
-0.158051
-91.585
-2.33794
0
2.96501
-24.9744
-1.31991
-18.2454
-1200.62
-31.9987
-1.11292
111.786
0.769732
-43.194
-46.3865
-0.0660882
-16.7409
-944.917
-6.05127
-28.5143
-28.4532
1.14872
-83.8357
-0.445506
-12.962
0.492548
-34.7328
-10.2697
-62.6182
-9.66499
-37.4431
-10.1659
-1.91288
-1.01986
0.65699
-16.9894
-0.7625
-6.25077
0
-1.05537
1.05857
-82.7964
-0.0748094
-65.2255
-20.5722
-503.646
0.0572619
236.122
-0.220897
-1438.34
-2.0407
-158.151
-418.647
-1.19897
-6.30628
0
-44.2499
-173.242
58367.5
-274.813
-84.4586
-747.338
2.51616
-5.86721
-2492.72
-1.39837
-3.26603
-0.18577
-42.3975
4.17005
-4.58574
-1517.9
-2.87996
0
-12.2473
-2.95905
-35.2731
-84.8087
-68.4051
-85.2315
-2568.51
-4.02361
-2547.92
-6264.04
-54.2864
1.83515
-2.43832
2.53254e-14
-4.56161
0
-38.7787
-1.90625
1.40185
-3.19518
0.913917
-34.5903
-24400.7
-51.4375
-7.93237
-2.2427
0.96936
-52.5652
-16.6413
-98.3964
88595.3
-12.1251
0.0850281
-34.7036
-11.0431
-11.7844
-0.240282
-1474.53
4.99333
-19.2192
-23.896
0.444876
0.334673
-1.2495
-90.1944
-34.028
-3.50226
-0.449631
-127.248
-28.9578
-31.3748
-1.44747
-18.9941
0.448462
-22.7401
-3.62671
1.12191
-121.963
-49.5732
-38.5209
-14.7004
-0.769333
0.307531
-47.6065
-37.0109
0
-27.8746
-0.811622
-1.96119
-0.153318
-26.8746
-2.9854
0
-2.77126
0
1.66503
0.162432
0
0.782493
-0.907256
-17.6869
-8.75737
-11.6872
-27637.7
-825.526
-86.6147
-0.392785
1.6217
0.220886
-1.4104
-2.39609
-16.6408
-1.70706
-1.53982
-0.93277
1.12817
1.28542
-11.9474
-890.078
1.06267
-31.8572
1.72514
1.20555
-3.35486
-30.3934
-21.8818
-15.9993
0.876024
-34.3065
-43.2523
-0.880834
9.34018
-112.036
-59.929
-16.0705
1.67068
0
1.37257
-770.529
9733.49
0.502343
-110.321
0.373403
-2.11316
-0.000186443
-0.162058
2.75448
0.234928
-0.234341
-0.0971538
0.722224
0.835154
-12381.1
-20.5075
1.4789
-0.154674
-1.43552
0.498465
-6.25578
-18.9494
-24.4234
1.02853
-2.08486
-10.454
5.12276
-26.3282
-25.4161
-4.71404
-17613.8
-20.4627
0.344392
-1.07513
-37.2996
-58.3407
-1.13556
-1.71724
-16.5929
2.34053
-19.3616
0.0745661
0.957329
18700.2
-5.58538
-0.907033
-31.4231
-30.3674
-54.9994
-24.0772
0.0986994
-32.007
-2426.23
