booster[0]:
bias:
-5.14027e+14
weight:
-7272.54
0
0
-22035.1
6506.67
-2.17279e+08
-148506
8438.14
0
1526.88
0
-171019
0
0
0
0
0
-85922.4
-9771.71
0
0
0
0
0
0
0
0
0
0
0
538.178
-349.224
0
0
0
14967.6
0
0
0
0
0
0
0
0
0
15734.6
2.09755e+08
0
0
0
0
0
5003.66
11675
0
0
0
0
0
0
0
0
0
-563470
0
0
0
0
1.86138e+06
0
0
0
0
7589.38
0
0
0
0
0
0
0
0
0
0
0
0
0
0
0
0
0
0
161.937
0
0
0
0
0
-52.9284
-358.799
0
0
0
0
0
0
0
0
0
0
0
0
0
0
0
0
0
0
0
0
0
0
0
-439627
0
0
-377.981
526.266
0
0
0
0
0
0
0
0
-67.6016
-541.479
0
-57834.2
0
0
0
0
211365
0
0
0
0
0
0
0
0
0
0
3.25987e+06
0
0
0
0
0
6051.37
114.926
0
0
0
0
0
0
0
-1207.81
0
0
0
0
0
0
0
-1090.42
0
-650.693
0
0
0
0
0
0
0
0
0
211.735
0
0
0
102557
0
0
0
0
0
0
0
0
0
0
0
0
0
0
0
0
0
0
0
0
0
1564.33
0
529.771
0
0
-425.396
0
0
0
0
0
39.2439
0
0
41.4102
0
0
0
0
0
0
0
391.254
0
0
0
0
0
0
0
0
0
0
1523.95
0
0
0
236801
0
0
0
238.118
0
0
0
1445.51
0
0
0
0
0
0
0
0
0
0
0
0
0
0
0
-130.711
0
0
0
0
0
0
0
-101.764
0
0
1523.99
0
0
0
-376.469
0
0
0
2294.81
0
0
-794.482
0
0
-173.86
0
-151.199
-55.19
0
-1194.15
0
-2941.59
0
-300.251
0
-63.2076
0
0
0
0
0
0
0
0
1471.96
-223.809
0
0
0
-561.121
0
0
1468.19
0
0
0
4229.86
0
-1487.55
0
825.62
0
0
0
111.628
0
47.5508
0
0
447628
0
0
0
0
0
-982.631
-63050.8
0
0
-23.5841
-13.6624
0
0
0
0
33819.5
-95.3988
0
0
0
0
0
0
0
0
-3438.17
0
-450.476
-52.3473
0
0
0
0
0
-56355.7
1176.76
20985.4
0
0
0
0
164.039
0
-123.498
304.023
0
-2923.29
0
-143.582
24.8614
1423.75
0
-386.038
355.801
0
-5959.23
-3147.38
0
0
-51.5138
415.16
0
0
-238.173
952.27
-67.1096
-1849.74
313.439
0
0
0
56.3033
0
0
-6.78295
0
21201.6
0
-3768.08
0
0
0
-7130.82
-87.7654
48.6699
-1100.65
-74.3604
-76.3296
0
0
0
-37.0378
0
-0.205313
0
-4209.06
6.46434
-0.713857
-9740.38
738.438
2603.47
77.6552
44.9788
-1252.04
0
-207.076
-5.33732
10186.2
0
0
0
-290.738
0
-863.428
0
-269.206
-7043.1
-53.9733
-17.1486
-2.02283
-62.8792
188.496
0
-51.8511
-283.671
-44.0005
0
0
39.7164
0
1092.11
-46033.9
31.2483
0
0
1130.83
367.644
43.6032
-19.0356
0
1013.05
-325.19
-152.887
-1283.86
-326.23
-36.6515
-20.6348
230.9
-65199.3
-644.512
-40364.2
62.4132
-0.472792
0
0.234644
-233.821
-40.3107
-1073.03
392.727
0
-25.1281
-136.15
0.100936
-1111.12
-594565
47754
-59.62
-19.0263
10076.6
-70.5727
0
9237.31
-30.7181
0
0
0
-55456.8
-6607.39
0.242791
4.26118
-9.42786
45.0041
-35.8292
106.546
-88.1704
246.868
-164.631
-1076.65
-97.4667
0
-5.69243
2665.33
-1395.51
-147.017
3330.92
0
0
130.713
-44134.8
3471.6
1808.76
-38.3766
-1217.3
-69.4872
-37851.4
71.6684
-1807.05
-28.1271
31.3062
0
-2.80516
84.0399
32.8721
11.098
0
-76.5437
811.96
-76.3352
601110
-1.95538
0
498.614
1707.28
-112.577
95.1921
0
-208.511
156417
-455.975
0
0
0
1384.96
-33.545
0
-930.271
-7.68676
-18.1016
-79.4311
0
-207.306
-31.7419
0
1.8399
170248
3526.66
-109.428
0.460684
-346.664
-14.0082
-131.549
5156.63
0
11.0092
-11.1325
-3.83966
-146.794
1408.67
-20.5597
-3689.48
-2.95155
-140.241
0
0
-4273.97
-57.3858
-17280.2
-0.591852
-6247.62
-46076.4
665.979
28176.7
108.724
-1184.93
0
-2890.63
1401.8
64.085
69.2816
86.8031
104.304
0.73066
-7738.08
-7.49635
78215.2
592.655
1477.03
-1322.76
197.647
-4644.47
-2.84237
479.892
0
42907.9
-324.576
1.65521e+06
0
-5382.18
-2.09458
72.7591
0
0
-5.34358
-41.8276
-153.943
118.924
0
-74.4872
-69945.2
26.9643
0
-60022.7
42.765
8496.89
65.5379
0.643731
347.124
35.751
-6.99179
-239.887
1527.19
1459.89
-525.264
0.810018
81.5663
-70.4957
115.697
0
-2.19185
25.9419
-47.5415
0
1513.53
817.119
-1294.01
-292.439
-386.262
-38.9529
-0.810508
0
-75198.1
-26.3504
-1.35597e+06
0
0
-1084.59
11249.8
-20.48
-2.94889
-541.939
-76.6076
1.26827
153.944
6384.2
-20.3502
-204.617
70610.3
9548.23
0
-2225.4
0
387.667
-422.514
215.01
-68.8636
-748.452
-131.678
-12.2281
-22.077
0
245.213
-169.931
-68.2687
-15.9646
31.4313
-176.857
0.784697
-3101.6
-89.1909
-2084.55
-31.3504
-33.4646
-7153.63
-12.1844
-60.2166
0.807496
0
-81.0942
-227.431
-7.74752
493.257
-2098.45
93.7223
-616.214
-9.61602
-9159
0
-4.63264
-1024.56
-173.645
3331.05
-28882.5
-111.671
-28.1656
81.8003
-595.972
51311.4
-0.192207
-77.0955
0.452834
0
40.9746
-6569.8
-46305.6
-361.996
-0.821958
-0.332198
-484.239
-8.87786
-14.3348
0
288.545
111203
-343.612
360.009
0
55983.4
-206.172
-154.972
1.49141
-7.16278
-494.138
-19266.1
-97.2229
-2.28892
0
-41.5567
-252.525
4.03533
77.5638
0
-36.3717
56.5128
82761.7
-47.4931
27.5273
62.2192
-2.1564
5708.01
-126.892
-516.448
-471.868
24.2504
-377.316
79904.9
1061.99
-367.859
5.51581
-784.919
-1014.22
83.8794
8564.38
7834.71
0
72.4616
-0.256063
65.0499
-46.0757
-147.866
12.6884
-168.415
-23.8972
-27.9588
159.033
-23885.6
12620.3
-215.06
1546.35
-12.6727
-1059.71
5.58466
-256.296
-0.215761
-7.64298
-29.6863
-49.6427
2.27355
-17.3434
111.135
-40.3735
705.534
1.98627
-12.7778
221.294
0.779641
121.031
-0.561571
226692
-9.47413
-0.28174
-1843.03
0.470408
-36.6198
50.8283
-7407.19
-5285.54
-29800.3
10724
-80.5211
-61.873
0.332533
260.065
194337
-4.94978
-44.8587
-166121
-25.9592
-36.5109
28067.9
-231.673
-36.3941
-0.737125
-265.43
68.5437
199.185
81.8191
-164596
-3629.74
205552
-73066.3
1955.38
-66.1808
-65725.6
-380.979
0
-40.2366
0.857436
-84.0172
-4.87216
-640.468
-33.5078
-9.05942
0
-70.578
7875.52
-15.1784
-89.2633
16.8794
-2.39548
203.182
15.8603
175.061
-1570.18
-32.4606
-84.4479
0.411694
3097.29
-103.413
149.422
289.239
33.1002
2630.3
-6.03256
64.2378
17.8179
163.849
263.965
-381.515
52.2328
-233.238
-1000.51
-76.2359
-33.2809
0
-15.1156
44.8321
0
-325.215
-5048.69
-73.3904
592.815
-262130
8336.35
-219.468
0
311.703
3244.1
0
-32.1392
1972.22
35.906
124.097
-634.183
-31.9411
1466.57
96.1464
0
1544.13
-232.297
0
-20.2242
1482.46
11119.4
-22.3674
767.647
-178.882
-62.2808
-1.08277
930.295
3419
-98.9388
-189184
5378.43
257.766
229717
-381.157
-15.902
-96.4833
8773.02
14.7787
7521.97
-11951.4
-184758
-952.503
138.604
71.0885
-7767.76
138.46
14.4269
4726.37
25.8123
-217.446
46313.3
-19.1534
-675.112
-55.8505
-4915.34
-620.263
46068.9
302312
-873.436
0.085693
-165.947
317.318
-65.7339
-73205.9
0
683.088
-2.06958
88190
-26.2154
0
-116.994
1.27442
-415.938
-310.909
-6.23725
-94.1259
25476.7
-99.4738
10133.7
0
-0.149437
160.26
-0.266418
-18.7674
-41.6368
1869.83
0
-35521.7
140.373
-31.425
4967.65
0.293889
-132.864
0
146.037
1.78513
5472.64
-179.404
-69.7079
9197.53
-620.671
-72.2429
14.7504
18.1586
30.9855
894.923
38.6284
12093
-9.96757
-59876.2
0
-93189.2
-99.8479
-6.01633
51.2508
-0.243111
-590.863
2715.72
-3742.41
192.155
-13.3659
-90556.3
-9.93664
10.2588
0
167.189
0.330321
-382.624
12.0739
-5342.38
1350.21
0
-96.9067
1003.33
89.546
-17553.7
-272.004
-1009.25
71814
-1.54255
-31800.3
-7471.1
-20.8487
-77.669
-7.24233
-144.071
-4.78472
99.2779
-51.3805
-113.56
31.7454
-137.925
-4857.42
0
43.986
-1523.21
1485.64
-102255
13.3211
-56.8651
-174.461
-0.941382
-2.7915
-224.169
-11.6796
0
-103.031
-6.89582
-32.9711
-30.652
6167.6
-495.756
-216.932
-62587.5
-2310.78
-191.585
-40.406
0
-0.0909052
-311.887
-2473.65
118.413
-20707.4
-15.3167
18.1258
0
28.8676
-260.347
-13149.7
-119.184
-14.1095
-27836.9
498.475
-265.399
-17.0143
-16.0771
0
329173
-6911.41
-8.87365
21.3241
0
21.9498
-18.29
15.2117
-4.82661
-44.9302
12.2589
37.3707
-656167
-5.41117
24.2076
109.918
-1211.06
5.41592
0
-64.2913
-4622.52
15579.7
-130.414
-262.077
-3.3375
-0.277112
-176565
-5.40845
-43.253
0
0
152.176
156.018
-40.1013
0.258188
-4.64208
-1.72591
0
94.8947
-86.0811
-15.7798
-11875.7
-387.254
116.122
-182.946
0
-517.241
-2584.14
-8.2656
-74.6477
18919.3
1058.17
-1010.03
-25.6075
1257.77
0.645336
-190.582
-28.6058
0
257625
0
-47.5193
21.8613
-18.8458
31.5037
0.374775
2092.05
-16.6691
-35729.5
-11.5487
63414
0
-6.98364
-66611
-3814.01
28645.3
-8848.12
-7470.45
-0.455431
0.862877
0
0.653429
-3.0598
137.983
-0.685724
-1811.88
6.37981
-115.131
18078.4
31.6795
-197.643
-61205.7
-82223.8
837.241
-38.1027
-17366.2
421.603
26337.5
-1.36846
-355.665
0
42.635
7035.58
-25323.8
46755.6
75236.7
-81.8219
0
-15.545
-1469.16
-10.3997
-677.366
73869.8
-1278.59
-10715.2
-1.19586
-18.6961
-64.9597
102887
-33.9786
-1.21621
26.1112
-0.583973
0
-27.8188
-22.1108
262.595
125208
-26842.2
-17.5325
-13.1052
24.143
-16.0681
399.744
-74.335
363.585
-54046.5
144.96
19.1872
7.68364
14313.6
-9.01821
58.7231
279.575
-12.7038
9.17482
-249.993
-213.876
-16245.4
-36.1733
-2867.69
-6028.11
32.7756
-10.8954
30.3441
0
-561.583
-1894.24
937.205
44637.2
-5.19234
-209.713
0
23.6943
46.1317
-62402.4
24433.4
-8.92273
-0.854241
-25.4157
-2.70868
-6.96074
-3495.53
-7.84793
-51.3517
-94.6403
-43.1302
0
-23971.1
264.003
392440
14.2462
-10165.3
-3.89855
166166
8.28114
-1732.43
-36.0951
-1.08057
-37.0335
-114.616
-4.01419
-6901.75
357.954
33.1172
-20038.7
0
-273.251
-4.24722
-48.6774
-1.51131
366.063
-385.552
-88.7915
-45.0838
-5.05471
-1907.76
-62000.7
-3.54595
-0.691829
-152.494
82.2369
-10.0493
-0.0217611
-451.645
-32.3032
-1.56061
26.3369
139.259
-18.4971
-351.886
-23690.2
0
-62.3005
-0.0985822
311.872
0
0.884454
-6.00661
-3.64768
-1.18257
-2259.73
-364.462
-3.1631
-1357.74
0.195982
-2.25608
-31.1927
-0.318298
25510.8
-4505.67
-9166.72
0
-10.6068
-2516.46
23900.3
-7.49389
-504.445
2083.18
20890.1
15.1639
-5.59061
2.12201
-25.9937
7117.04
-1.55947
0
-3.92907
-24.8533
31519.7
23399.3
-25415.3
-1.39255
-6079.46
897.053
3070.8
-82.7606
6.74629
-33.0747
-55.3111
33.7229
-13.641
-684.318
0.469543
-8.79791
1487.8
-9.97548
17.0875
-14052.8
1.88273
10.7405
-0.8529
-2351.58
57.5949
-101.519
0
-35.9415
-26.4795
-0.15195
3.01005
-31.9113
0.125598
9.19341
-1089.09
41.3671
-0.162964
1316.2
1488.42
-47.2009
-119.8
-1.26079
1683.88
-1.87577
-2175.29
178202
251.889
43.3912
34342.4
8.01659
36189.6
-8.14335
-18171.5
19.5742
-4027.07
0.803361
-5.381
-959.647
-166.43
-16897.7
0
596.485
-21.6015
16536.6
-235.206
-4608.38
-317.301
141615
-329.335
-50.4486
0
37.5933
-75.9495
1769.9
7031.3
-144.489
-748.713
-239.454
-3.00886
-955.801
5.55485
4137.6
1620.64
-209.905
-653.766
3.42183
-483.273
4535.52
-33.8407
-2639.48
-79.9755
3845.35
-0.820124
-42.375
35.2842
-108.046
-13.9217
-11.7943
1157.33
12.3754
-443.931
-142.967
-8.14501
318.249
117.794
-5.68352
-11618.5
-4712.7
-97.9335
-31468.2
-64.3351
-17491.5
-5501.46
-766.239
13.1611
1251.32
-6.75604
-4.89882
168.615
70.4235
25.4194
-63.9832
-684.856
-47.5564
-0.0140235
-1.35703
-18.41
-428.081
-13.0932
-13879.7
0
0
-91.9346
-272.289
-2.25746
-140.865
-8.14006
84.998
-31364.9
-866.012
-2123.22
27.5467
59.9943
-82.7199
-636.716
-518.549
-2925.84
-14.6962
4.6938
-142.091
84320.1
-27.7813
25.4097
-52.9939
455.006
9.75335
-287.826
11.4655
-1.00406
-4829.23
-18.5351
-18.7807
-190.29
-54951.6
-1284.46
-63523
0
-288.145
-93.0249
-569.725
-44.4267
12.1435
-7.0438
0.0912917
91.9855
34.4292
-3511.49
-3924.2
-259.999
15.2922
-188.516
-8527.44
-4832.11
-41.9978
-7.21593
13.8237
0
8.32876
-15.0766
-7484.82
3.72533
12.6338
-331.915
-128.341
-25.0692
54.4451
-334.605
-13405.2
89.1545
-11.5854
-6582.57
-26.3352
-0.975711
-140.026
0.822303
-13.186
181.675
-348.633
137.111
27.0117
-398.341
-214.449
-0.110612
21.5419
42.0324
-9.00186
-107.634
-182.366
14048.2
49.4862
-32.3124
-143.086
-8287.95
1.57804
-1.35884
-116490
0.207595
-4.58393
68.5161
-75.7017
2.41448
4577.44
13.871
-23970.9
-4.1587
-45.1202
-739.554
0
-12.66
-55.8715
-28480
-3.95948
7.50141
-25571.4
1484.83
369.444
-22.7453
25.677
114.783
30.709
-2851.63
146.474
-30642.7
-19.7084
210.889
-33404.6
-31.2339
-173.481
-15.441
-3.02768
-1074.65
-4.14077
371.46
2.61227
0.393099
1.15817
0
-109.941
-33.9886
-10.4111
2.1162
33.2691
-44.3703
-56.7935
-31.1124
771.083
-3304.06
0
29.3861
-1292.11
5865.28
-82.3461
-82.288
-7.79623
-0.0150601
17133.7
113.327
-98.1588
-595.476
-535.162
-135625
-15.3433
0
-233024
8.92857
-134.85
-475.522
-14.3997
90.9099
-29.6971
-1.48266
-115.564
15.815
-800.602
13.3092
-16.0858
-74.9989
-1.79444
50.6826
132.005
-336.116
-1013.1
0
-13678.9
13.7815
24720.9
52774.1
-6.98729
-21.5953
13047.6
-10.654
1.10715
4263.52
-6.99441
-1140.32
0.22503
-300.59
-13.4365
-48.1465
-217.635
-9246.29
0
74.6164
-31.3121
-187.047
572.137
0
0
-759.597
0.397147
0.113691
-74.8192
-9.52899
-66172.4
-1.61659
-2900.95
99.3205
3.36682
-14.5229
5.72538
-31.7918
-44.7502
-111.193
-3.08194
-15.2466
0
-17.8599
2805.71
-11.3724
-470.939
-992.726
0
-86800.6
-577.486
-733.258
-3.05417
-1042.25
-19162.1
979.198
-10653.5
163.673
-553.671
-3.05869
-45.3533
2.31465
407.815
-45.2343
21.631
-98.727
-4.83038
0.077732
0.604
83.0036
-210.039
576.47
-28603.3
608.425
-10142.2
-4.18704
-10971.6
0
-7.00614
-3.13443
-3.8729
-11.3913
-95.5914
-152.959
-234.469
43.528
-3879.5
-42979.9
-169.757
-2153.42
-317.568
-23865.5
-92.2646
-49.2938
-7676.34
-75.0561
-685.994
-0.385619
-240.011
-11.7843
216.809
393.628
-71.5508
-2633.91
-3523.61
17.1417
-32.3665
9.67342
-47.1061
-14.2025
372.373
43.8505
-2268.59
1155.59
79.3984
-244.11
-6636.02
10.3407
22.6946
800.268
-365.047
1178.06
-32.6363
6169.02
-25.5541
-66.957
-4.88595
-35.9005
-7.60937
5.16951
-29.6068
-11502.9
1030.59
-16.445
-171.08
-138.611
20615.2
-20.5299
-2227.83
1.90619
337.469
-8.67482
-10.1836
-39.0649
11.2441
-8.57937
21.7437
13.0044
-3.44109
-2.68266
43.4717
-4.50761
0.987465
-44.7547
-9.25503
-73.627
-20216.5
75228.6
-318.176
3.38295
-34.7135
14.2444
-9.50735
29450.1
-22109.6
-592.479
-49.9745
-2510.76
0.794416
-12.1828
0.59043
-23.2506
-127.178
135.319
-26.6336
-4202.6
-74159.6
656.401
-4.82653
938.154
-2454.33
-125164
4.68426
0.850194
65.2527
36506.7
0
396.958
-337.241
0.746212
-10.0547
-1.04663
-31499.7
22.2739
86743
68.5317
-128.905
-1.06452
5.72905
-22.9315
-3786
-14.3546
3.67232
-59.7554
-493.9
1.1792
91.4994
-10.7141
-1169.72
-77.9305
-18.9229
77.4847
-143.255
-1274.05
-384.028
-16.4289
-7.1557
-92.3015
68774.4
-15.1065
116.432
-70016.1
146.528
-46.3432
-3690.73
-70183.5
-92.7354
-734.663
1890.99
1655.66
-8.77703
-58.8193
1244.1
-29.9674
-0.700576
1.19831
-59.3078
-4.90029
-37404.4
7.08553
0
-217.156
9.53668
-0.227274
2.56954
1.28104
-15.0893
-706.027
55.5934
57.0925
-170.707
14.9028
89.38
47.6942
-21.7458
-157.796
7100.93
-58.1686
-19921.4
-22.6658
49.7077
-28.2562
-131.397
363.761
-111.943
0
-1037.6
-8.67209
-161.808
-7.02529
6.73163
-3.37091
-1111.79
0
73.023
71.2725
0
13529.5
-500.724
-25.0917
-0.84042
-70.3975
-27.1613
0.394758
-5.37116
-55.4945
-34.7208
3.87813
5.71522
-222.306
-16.9603
-62.3405
-1971.07
-12.8784
-5.60437
-86473.8
-237.072
-16.7899
1582.78
18.9849
-854.864
-4497.31
59.735
0.232062
-10.4597
-18.0894
-9.02992
-1.62559
-32.9783
-0.775496
-6.20818
-331.981
43.5836
-21220.2
-130.699
-1.58762
28.9575
-108.122
-0.420373
-238.417
418.305
-8.10445
-0.417169
-1661.6
-221.081
-16.4343
-9333.16
6.96531
-28.9884
66.635
-143.217
-88.1264
-13.0837
-2644.38
-1.4562
-1495.07
13731.5
0
5.84239
0.665473
29.1895
-103.325
-58.3497
-103.9
-15391
-3702.95
-35.2759
-15.0148
-2189
0
0
-237.706
-0.19811
-0.0423459
65.8452
-0.0463048
-15.1978
-21.6506
-115.059
24.0325
39.465
-115.763
0.114319
-5.58815
-3896.33
2.78888
-151.636
28683.2
-95.1745
-70.3977
-18.5035
-20.3256
-46724.6
82.9516
-31.5232
-0.044631
-7.40981
0.469901
4480.09
1126.06
-2556.74
0.767843
11.9072
-57025.1
-130.3
-150.811
16.932
-74423.1
-275.512
8.88226
-491.608
1482.39
-10.7776
-10.9857
30.2997
-1291.75
-0.0409056
-471.033
-212.702
14.0315
-1235.96
-0.224306
25.4323
0.575478
3.36813
1.53826
104.77
6.85218
26339.2
-96.3702
-12.3234
15146.7
20.7661
-17000
6.81098
9.41551
-11460.7
2.06502
-30.1546
-13.5743
-12707.3
-25.9452
0
-15.9633
-1114.02
-8.88654
-0.0134256
4.73466
0
2247.71
-12.7893
-64.3253
-9492.06
-824.828
29.5055
2.50141
10.794
-886.37
-33.4273
61.2534
0.105908
-63.6468
34.8454
233.008
1484.53
0
-1.03425
2792.18
-354.411
23.7327
153.934
3945.5
-4.50603
-6138.63
4.76496
-101.222
-238.73
-1968.7
-1.55883
-41624.1
4.19027
-847.99
-6.96893
-7292.68
-34.152
-2.97096
-59.1735
-47.7645
57.3896
-180.225
8.92257
0.434984
-44.5239
0
0.625307
496.82
0.405914
0.136499
329.783
-16.0702
0
56.8354
-171.768
93.8875
-81.2856
-36.4477
-4.75046
18.7653
-257.014
-4.07129
-277.694
0
-98.9128
125.295
-7.37546
-7.72354
-159.339
-0.412758
-0.151307
-938.081
-2472.86
-334.372
-160.761
-32.6428
-4.13141
-4.79231
0
-15.2257
0.938639
-2.22231
-8.12355
14.818
-2909.48
-54.3051
-202.2
-7329.12
-462.474
-76.6066
-2.43716
-28333.7
-33.9424
26.795
-19.4512
40.3097
0
-14.3816
-1919.38
-2294.43
2395.89
-6.69692
13.8742
-485.717
-17.0519
-1965.97
68.2131
-615.49
-47.0798
2.57305
0
-2.76897
-13.9883
2932.07
-2.01745
-3201.16
102185
-2.13777
-36967.3
-4360.1
359.989
-243.819
-17.5256
-0.146539
-103.05
20.6915
-193.303
-154.231
-26.6947
-146.816
-38.3372
-13.8486
-889.897
-0.57172
14.9936
-8.42573
-14.0754
-501.905
21356.1
-20.3112
3.59382
5.41351
47.4569
-51333.5
0.853956
0
0
-156.911
-48.7183
-19796.5
-4945.62
-109.276
-2.71499
-13.5672
-125249
-8.77877
-87.5527
12.6507
4.78403
2.18948
89.5023
2049.68
2.35134
-629.795
-6.90664
-94215.1
230.106
-184.17
-5.73246
1.9049
-6.36793
1.35285
-20.7154
-1706.29
-1.89149
-4.88516
-145.984
9.59773
-437.319
0.729953
-11095.5
0
3.38453
-68.4012
-41515.3
-15.1755
-3.49533
2842.07
-10.3957
-20986.3
0.856166
-6.31051
-15.1085
-2177.15
21.5996
-0.986316
-45.4369
-614.431
-7.16383
-16024.3
-154.332
0.539438
-238.169
-1.75815
-0.806993
-621.879
-12.7458
-114.166
-8924.31
589.154
-3.69557
-193.183
-2098.28
-48.8079
17.4911
0
1.19902
-739.871
95735.2
-102.744
0.577479
-34.3032
2800.26
-85.1332
-43.6187
-1.02391
8.94606
2.46361
-84.7445
-8.38691
-57.6163
0.734381
0.47206
-40.0614
-5.54736
475.8
-43591.2
-422.212
-366.802
11.93
-15.1254
-65.3112
-241.349
0.519835
0.839654
-2.90539
-18.9602
-0.147481
-42.1586
-29.8217
1525.59
-3.935
-3.94128
-35.2792
1233.06
-84.1364
3.66504
-295.785
3.06045
-361.159
0.0417605
-16642.5
-1.13538
26.3311
47.3737
-0.795637
-14490.5
-3041.09
0
-38.7051
-77.841
-294.232
-27346.3
26.2652
-34084.8
0.7628
-146.278
-0.736302
-38.3006
45.1799
48.2696
-3784.5
116.3
-4512.43
-28.3125
-3.26121
-160.1
-1.46347
-103.201
4.01487
-89.2246
-26.844
-48.2714
-22.5334
-0.769379
0.759163
-9.07841
-3145.97
-0.322225
7.76918
-46.6181
2.4594
-6291.63
7.43631
2.93042
-6.02441
-0.377841
3.72159
634.652
48.4959
-124.788
-0.112506
-49.2069
-3.46445
0
2.44094
-3.85678
-9.3625
-21067.7
-7270.6
-23386.3
-1.35405
-27.2337
-130.837
499.152
-500.723
-100.597
-21.7363
-6027.21
-1.03017
1.43889
2.62139
5.6226
0.0875773
626.945
1637.78
-125.317
6356.16
-3.78463
-3079.5
0.45907
1030.18
-133.566
-3.4879
-5.1576
-20.5663
-9.81628
99.3851
1.03619
0
-8843.48
1.19537
-12.4344
3501.82
-483.339
-49.8991
74.3543
16.0038
54.4725
-50.0119
0
-94.1489
-48358
-115.632
-3634.15
-4.27129
-5437.99
57.1628
182.785
0.00327695
-304.663
-33.8305
27.4042
-10.0704
-63.7886
-9797.2
-61.4761
-7.30493
-27.9371
37.1629
0.0719656
-4.10216
-15.6373
-25391.9
360.747
-0.381556
-0.159548
-33.5885
-36.3814
-2182.42
-22156.1
-530.574
-21276.1
-10268.6
-69314.9
-93.2564
-47.8256
5.82676
494.265
0
-5.37126
1.20203
2.56057
-2919.35
-410.542
-94.5401
-25.0274
-8.14501
-12.0163
0.215093
32.1283
-43.3923
-376.923
0.331763
-3.0432
218.282
-429.608
-5.57418
-0.381366
134.827
-2796.51
-137.733
-159.074
4.12983
-0.680816
-81.2735
0.102379
-39.452
41.9678
0.403156
-1093.91
-47.5977
-1.51556
-7.06876
-10.9264
-8.56641
-66.9624
-25225.4
-91.5355
-0.287329
-2.40029
-20.9692
-146.946
-30.4036
68.6199
-12.6429
-937.58
-310.711
21.1269
-3570.48
-181.538
0
3.14731
22.7082
-0.5617
-3.80518
-1038.92
-166.735
6.83791
-25.6148
-157.698
-3.39677
-119.571
0.814987
-91.9558
-25747.2
-36251.3
-29.9219
-26.1638
-217.052
0.295419
-8.47907
-10.7528
-10761.8
-0.663441
-754.323
13.6577
-1470.47
-21506.6
5.18025
-17.7414
-0.478034
-4.08301
-0.516045
1767.05
-6498.92
-44378.6
225.177
-6.58199
-2.2577
-148.973
-5.84085
-2.9926
4.79036
-22.0755
3901.81
0.464671
0
24.9069
-47529.1
-8759.54
-99.335
5.93462
-36.866
-13.5071
0
-115.095
0
-112.931
-2.40663
12666.7
-29.8391
1.20125
-7.33957
-44.0067
-18.2559
1481.42
-26.1557
189.265
-3092.29
-47.0418
19163.9
-10.5866
2.70586
-87.5573
4.57184
-394.025
-208.064
-17377.2
-6.55676
-6701.49
-36.8691
54.347
2.04847
-27754.1
157.761
13746.6
0.462288
-27.118
-1673.74
-1937.3
-634.195
-1.02682
-11.7983
-17.9512
-3162.06
-1.20183
-2270.11
-1.37142
-867.457
36.2719
0.336284
-120.277
-9.08532
6.10435
1.27741
-8.22534
-1109.51
-28.2927
-7.03007
0.0746461
-197.315
-922.804
-0.145348
-3.13101
-242.269
-5936.95
-5.00535
-3.39753
1.15667
-71.8588
-1054.77
-33427.2
-54.9942
-17127.1
-0.486999
-1.01848
-4.60095
-9.50181
0.626056
-62.444
-4860.07
-1924.19
-22368.1
-12.225
-7.53393
-0.54325
17.9867
-11.439
12.8087
-40.5534
1483.95
-126.401
-11.9936
-13.003
0
33.5517
1.12454
-190.669
-6.09111
-4.26066
19.7869
-27.7441
0.048432
-9.89203
-5.17231
-5.48324
-94.618
-8.27731
5.99387
-259.895
-554.22
-91.8705
-99029.4
-105.965
6.62791
-5.88159
-1227.18
1.18114
-5217.43
7.54732
1.12123
-14.872
-1197.22
-375.376
182.445
-0.763455
21.2344
-82924.9
-216.954
-694.69
67392.1
-23.9059
-121.659
-0.0185001
30.5568
0.29785
4.36339
33.5744
-33.8577
1.55803
-565.273
0.320265
-61.1143
-3.93882
-31917.5
-8.06275
-8.85779
-4.35782
64.9516
-657.186
22.7657
-0.0941769
-11.7076
0.0013237
-8.98255
0
-3.95384
0.396716
1.42813
246.76
-214.918
-248.832
-5.78749
-4.41412
-200.522
-1.48306
-17966.1
-48.1334
440.019
-437.271
-35.1174
-0.583154
2.64753
-34.3176
-1.86724
-4.01599
-0.159648
25990.4
-15.2991
0
-1692.91
-73.2593
0
501.422
-31.8061
-26.4988
0.659196
-1.51494
-6.59738
-494.898
3.96836
-81373.7
18265.2
0.200368
3227.04
-6587.75
-1.93921
-7.84339
-8.90424
-1.34789
3.239
-450.212
-6.84376
-125.099
0
-145.417
-9.62272
-0.353773
-7.79786
-95.3062
-1781.91
-1115.26
-3215.76
-0.137674
-4426
-8.46818
1.92972
522.069
0.581137
-13.2408
-162.417
-36055.7
-7590.73
-1893.77
0
-146.561
-36.2587
0.109729
-13.5109
35.348
-28.0874
-473.038
-35.2022
-10.6791
-3.04062
-5.53993
-98.7476
-0.723655
-0.716665
-33.3906
-2108.27
-38.336
-3.25098
-396.978
-4.29212
-15.0233
-15.2814
-1.25612
-1131.59
-0.312505
-192.707
-0.361166
-10.0749
-17.101
-32.4997
14.7673
3.21296
0.722013
-7224.71
-0.881608
-89.6894
9.48322
1.31878
-34.8817
10.2349
21.4777
-3.38427
41.8316
-50.536
-1.06215
-26.3636
-369.954
0.166302
-40.9356
-82368
-6587.76
0.116108
-63.396
-1105.18
-57781.4
-105.075
23955.9
-2.64974
0
-1731.73
-24.5049
-1.10696
-8.95549
-6.28685
-52.2631
-2.81626
-140.934
1.68995
-314.05
-325.056
-8.22083
-12.5796
-1.03071
4140.1
0
0.962418
-128.352
2.3025
-34912
989.462
-38806.2
-52.5124
0.74731
-40.5686
37.459
3018.8
-0.261403
-67.0843
0
-1635.81
-15398
3.92914
1.78095
-21.2501
-663.299
1.72799
-0.785261
0.623701
-8.24395
-0.406314
-0.510904
-1.44114
-138.078
40.9732
9.49844
-12035.5
-812.397
-6.6867
-8.77471
0
36.4525
-10.5813
9.42564
0.173552
-0.356938
-0.1091
-10.8918
-0.0439911
-5.61709
-7168.54
-27.5582
-94500.7
-44.7146
-14160.2
-7.86893
-4.44549
-26.6305
-15.8203
-445.222
-2179.65
2.23762
-79.1156
-14.5994
-31.1822
-0.851021
-22.4103
-82208.9
5.75486
-12.8961
-27831.5
-847.663
-34.0295
-24.3572
-2941.07
-2.37491
0
-65.1979
-164.852
-5.46684
-61.531
-76224.6
0.0162414
0.27121
0.943568
90.8821
-3422.41
-14.1016
-21.1007
11.5406
-428.736
40.5113
-12770
-31.0465
0
-3.99947
-342.032
-35.2165
18254.7
1.73236
31.1558
-5.99712
-31.6862
0.00730133
-620.552
0
-14721.7
-5721.15
-4459.93
-0.980162
-1.5581
-9.80545
3.45219
-130.581
-0.186628
-4.95517
0
0.877163
-6631.5
6.68638
1.53881
19.5152
-38.6458
2.69514
1.26079
-26.5447
-782.82
-2175.29
-29.9551
-4.6656
-539.835
-6.10151
-3.13823
-2.04216
-0.772009
-463.984
-9518
1205.39
-3.16238
471.018
20.6972
-1936.74
0
-1.3212
4835.53
0.0693855
-9.49883
-838.818
5.51089
-2122.26
1.9103
-9.94711
-71.4679
-1628.87
17.3052
-44780.7
-1128.59
-756.049
-3547.14
-21.0488
-109.171
-152.27
0
-8.81621
-27.8952
-0.803421
-21.4124
-19.7553
-158.329
-0.285454
0.110909
1.77784
1.19022
-0.712925
-0.617489
-22.8861
-4.06684
-6.12281
-369.779
-294.671
-15.0467
-22.4595
-106.933
0.137836
-9.65811
-1015.32
-10512.2
2022.26
-0.553998
-1802.05
-15.2104
-12.4367
-5.00902
0.319676
-1.33417
-0.336463
-5564.45
-8.86592
-13.9391
0.622441
0.0398866
-0.620196
-12.4903
-4.8366
71149.5
-71.7451
2.50442
-1493.59
-2045
-130.632
-5105.45
-16.2476
-6.8234
-0.499345
-27.7168
-11.3059
-2.07398
5.43847
-10.2352
-1107.91
-2.5092
-18.8736
-3.18853
-0.449894
-44538.9
2.4574
-2.92366
-0.083298
-206.504
10.4898
-0.0857679
-103.109
-47.2145
-2.82359
-1137.41
-1616.52
-36489.2
-13.503
0.775747
-12726.7
0.313428
-455.193
-150.429
-168.586
255.728
-119.452
-4.2306
-5.96041
1.53371
1569.97
-2.63281
-1.8643
-23.1159
-36518.5
7374.77
-1038.35
0.823837
-59.1557
-0.293999
-1323.92
-40.8401
-85200.1
0
-50.8394
-88788.6
-20882.9
-753.569
-20.1731
0.596041
-20.0006
-15.8648
-46.9486
-0.284718
-14891.8
0.523399
4.08334
-318.736
24992.2
-8.86432
-60589.7
0.137462
-1.2021
-43.0367
-4.75336
-73.5082
-33196
10.6491
7.96652
11.9188
-56047.9
-9.35927
0.626987
-53629.9
0.784528
-0.455871
-3.15156
-0.0712554
95.7903
-18509.3
-0.897456
120.554
-2.46481
96.4011
-2.64795
-58.7836
-1.51879
-571.62
-4022.58
-508.441
-31.072
-1172.06
-8.55139
-22.8262
-1.53354
-2297.93
-161.541
-3484.05
-59.7554
0.184163
-0.232963
-70704.9
-84.3781
-7.07821
-18.9217
-672.397
-20.907
-0.0255341
-20782.2
-2.76618
55.4703
0.51539
-13.6656
-8.58743
-49.1552
-92606.6
-1.13079
42.1369
-613.436
-5.28941
-7006.92
-46.3582
-26.4628
-22.1331
-97.0155
-17.7487
0
166.965
-8.29886
0.100718
-6302.54
-539.796
-27.1596
845.619
17.2685
-3937.71
-3.22494
-3.09684
-3.49631
-28.6903
-7533.66
-1061.43
-5.55326
-0.766446
0
-20.2053
-15000.4
-5.16035
-4314.87
-4.80708
24.6038
-30.7486
-0.291598
1483.79
-7.55769
-12.6951
-1.44329
61.9634
-93.8747
-7.97942
-5.33884
-8.28673
0.87764
0
-14.841
0
-196.069
-4.71016
-5349.65
-223.595
-1166.96
-46.9558
-7.55953
0.401052
-3740.34
-930.881
-0.283067
-1.07093
361.649
-2.61031
-35.3274
-67114.3
-27.5022
-1727.02
-1208.18
-1.34238
-0.418501
3.05998
-307.078
-5.31235
-9.08555
0.707113
-9634.75
-8817.53
-0.283364
-5285.54
-24.1193
-12.7058
-15.598
-1.01083
-163.36
-9.16896
-28.2275
-68.5766
-0.71644
4.34932
-116.036
-5.51313
-275.888
-2730.9
-5.02479
-38285.1
-17.4718
-25.2659
-10.4419
-0.0250441
-192.441
-2792.35
-83.1264
-9.58314
-1.56896
-25.0786
-11.3344
-67.6188
0.552097
-24.1838
0.482378
-9.59985
-109.336
0.77658
-0.183464
-14.3558
-11.409
0
-3.99131
1.21002
0.552854
-1.91144
0.869785
-4.14471
0.660831
-36.2248
-4.06162
-7.55779
0.284135
-17.1322
-0.661166
-6536.64
-0.159547
-20862
-565.545
-9084.07
-6894.95
-21.9071
-2799.34
0.420629
-64.8167
-3747.93
-0.0955342
-0.806539
5.05121
-12.0783
0.863144
-15.0821
-43.3576
-7.94641
-55.8577
-1520.34
1484.62
-5.21398
0
-39.8363
-0.0449151
-1.24506
-9.01486
-8.31707
-604.572
-7.93413
-1.63151
14.1646
-22579.3
-9.5264
0
-16.0967
-2.29207
-571.303
-2622.4
-303.475
-1.27885
1.25072
-2.94626
-20.1139
-17234
-3.27126
-87.8779
-272.645
-24.207
-12268.1
-510.91
1.82013
-35.6258
-33613.9
-1154.54
0.46643
-3.50401
-85.4711
-2.4041
-15.6855
0.0884902
-25.261
68710.5
-214.211
-1292.77
-3.19153
-8.02016
2.58
-2103.72
-1.61488
-95853.4
0.257209
254.717
1481
0.14719
1483.72
-130.374
-7602.8
-0.0298061
-3.41483
-8.22354
-1.34449
0.334944
-1203
0
-7.03514
0.0286455
1483
-89.3375
-3802.97
-4.04268
-11348.6
-36338.2
0.48036
-0.881593
-57.7546
1.96589
8.98723
-36573.6
79.9309
12.8708
1.34025
-5.72693
-5.98775
-17.626
-0.0629408
42.6651
702.783
-157.219
-0.153796
-147.918
-8.40734
-1.24258
91.6745
0
0.85328
-1.45412
-14496.6
-5.06116
-11.4345
12.1329
-268.069
-13.3987
-23.625
-11.9332
1.30804
10.476
-1470.1
273.627
-67183.8
-12960.9
-5682.67
-6.51055
-21.5418
-328.177
2.12082
11066.5
-13620.9
-6.82029
-1.2631
-51823.9
-52.6689
-1664.21
4.01463
-0.339917
2.33713
-33.6261
1.62189
-13.9706
-2.46128
0.284362
859.749
-0.274097
-12.9218
-41197.8
-0.425974
-5.85525
-0.0603706
1483.82
-0.268524
2.99818
-32398.3
-4987.54
-1.20453
-7.53422
0.0400825
1483.81
-63715.2
1109.89
-37.985
-15.0181
-28.6578
1.31556
-58.2268
-7.07351
-0.709644
17.9212
-0.625399
-110.771
1.5412
1.3071
1.42007
2.03752
-1946.15
-13.5997
0.97973
-16.8978
-1233.96
15.5605
4.41164
-4706.02
-128.324
-4.9845
-34958.4
0.144254
-3.9402
2.34321
0.792799
-3.21061
-2111.39
-167.13
0.0557526
-6.16597
0.144254
0.0653939
-823.669
-0.545307
1205.82
-11.5534
14.9927
-16.78
-7.37768
-6.68123
-4.1533
-0.53516
-0.516586
-0.712484
0.299745
-0.668109
-0.356162
-4337.34
-10.8109
-25.7581
-7.99962
1482.28
-1.08822
0.832148
-9.30793
-5.90425
-7.33122
-156.046
2.03919
10.7304
-8241.83
1.37992
0.981567
-19.1431
-38.0275
5213.95
-585.629
-3501.19
-5.08089
-70471.8
-13124.2
-73.2242
-1147.15
-67.0222
-33.7704
0
72.0354
-2.4884
-6.47527
-1.30484
-26.8253
-21.4326
-84.7564
-14.7004
-44.5348
-38.5103
-85592.7
-1075.39
-8.53213
-6587.75
-11.7884
-39.2373
-5.82425
0.216179
1.37006
-5.33472
-1.87007
-1377.31
-501.161
-37.0617
0.257209
-17.0738
-368.725
-7.23054
-2137.35
4.18111
-0.165136
-0.0238264
0.0494803
-14517.8
-1.34449
-221.311
-112.411
-1129.73
-0.783839
-11.8105
-25.3239
-17.4534
-334.799
-0.34604
-5.04968
-16.853
-11.0048
-78061.2
-14.725
-0.0321325
0.466377
-5.51873
-5052.87
-43.9428
-8.99976
-0.622554
0.309752
39.6429
-4.18378
-12.4377
-4100.76
0.85328
-69.1065
-14496.6
-20.6039
4.85052
-340.348
-124.724
-112.783
-59.1441
-8.91265
-35.1856
-1600.14
8.82726
-75235.8
-432.353
-7.81449
-67184
2.36724
-6.17103
-15940.8
-1066.46
-39987.2
-6.00347
-0.260373
0.844902
-1.2631
-1.52401
-4.56309
0.158025
0.920083
-37.9377
-20.1902
-3477.99
-13.2241
0
-72727.1
6.42959
-106.923
-9.23702
132.49
-53.4717
-0.35452
-21.3906
5.14577
0.187368
-0.268524
-14.1244
-1.32902
0.754757
-26.1483
0.209077
0
0.59769
-8494.82
-0.575004
28.4957
-0.277807
-48.5775
-0.10842
-10.6942
0.0358206
-1.56698
-0.454509
-0.166681
0
-7.07351
12.1512
-0.81824
-36278.5
-118.175
-4325.93
-5529.73
-23469.4
0.0792218
-14.1629
-262.516
-0.328871
-59.7554
-0.0575516
-33025.3
-4.93858
-9.84409
-8.98377
-5.98513
-0.180506
-12.7825
-10.0044
-7.66589
-15.0498
-32.9511
-0.222374
0
-6.16597
-56.8358
-0.158507
694.582
-0.394273
-1.54177
-6964.8
-0.139599
0
-59.7554
-0.665051
-20.1333
-0.120655
503.855
-16.6109
-66.4617
-15995.1
0.846453
-0.50768
-10932.1
-0.870643
0.0719029
-29.1586
-57.4975
-12.4408
0
-1.41019
-58.7803
-2.71162
0.148638
-127.773
-19.2908
53.3267
-2.32324
-80.0142
-31.9444
-35.9415
-68685.1
-22.1666
-1.66275
54.3497
-9.85774
-18.5958
-5.04088
-9.65512
-201.093
0.526174
-42790.8
-4.78195
0.485913
-97828.3
0.466344
-2.60401
4.50557
-11.1851
-1490.82
-87794.5
-7.09431
-5650.57
-889.679
0
-6.87494
-29.1821
-10.5587
-15.4695
-185.9
-11.7641
-0.92003
-1.82125
2.02197
-25.4231
2.02711
-87.964
-2.52307
-17.3638
-8316.78
-39336
1079.32
-10976.7
-114.338
-602.377
0.393099
-72878.5
-8.3249
1.36174
-2.91319
-3.27127
-2580.94
-0.173569
-0.890841
1.42378
-18.2391
-141.158
-10.2711
0.839129
-5.11437
-4960.62
0.0108847
-4.63662
-228.008
-1600.65
-14.298
-5.16987
-5.89276
-4.96924
-34.5388
-17.819
-1063.27
1483.65
-3.02017
-28.4498
-0.391958
51.5364
-37.8853
-4.17399
0.169245
-71.1191
0.148032
1.60366
-23.6157
-0.978155
-1114.88
-1180.08
-38506.8
-2.6149
3.41988
0.166287
-1131.97
1130.21
-22.6165
-87.4677
-1.12678
0
-1.89457
-0.0660433
35.6549
-9.2448
-19.4963
-9620.33
-15.1309
-27318.7
-0.83965
-0.665833
-59.7554
616.737
-1.05997
-3742.6
-9.64429
0.856166
-2.97531
-10.8655
-77451.5
1.38044
2.64023
-2.68542
-1.72009
0
-0.519461
-0.0788002
164.461
-43678.8
0.851998
-0.800886
-7.52555
-45.7805
-1.25104
-116.335
-21.579
1.52662
-9.08821
-154.281
1.27312
-55.0733
-85.2266
0.378383
-27.8632
-20.6088
0.0750337
-13.9293
-10.097
-0.287106
-12.6991
-8.16987
-8504.28
-46.0818
1.49133
-1.42135
-3.13462
-2.03693
-11390.6
0.703207
1.44632
-48.5635
0.779126
-329.978
-81.4502
-8024.24
-0.554285
0.211678
-15.8083
-12.8546
-0.311319
-0.147664
119.395
-0.363617
-1.53571
-44.267
2.94997
-1.03071
-21.1636
-1.4391
-18.3462
-0.36838
-7.23919
-0.209321
-547.584
-86840
1.56054
-19.1672
-0.409808
-0.00691301
-868.265
-46.7272
-3.97314
-12.0773
-0.535991
1639.27
-64.8457
-28.0015
-4.83345
-3.94084
9.67555
-97.2896
-0.785523
-123.066
-593.79
0
0.0591907
-2.83563
-37.7778
-18.6484
0.993936
-90.8277
-1.31701
2.98953
-20.305
-5.90525
-5754.66
-15.0559
-2.89819
-0.250848
-1.24036
0.149887
-20.594
-38129.8
0
-16268.4
-0.631838
-0.347191
-120.54
0.511658
-25.0338
-28.4209
-26.548
0.48627
-11.4795
2.69437
0
-62023.7
-18.0539
-16566.4
0.863426
-2.53419
-5.58434
1.43035
-4.28555
2.07196
0
-71.1639
1.00502
0.813076
0
-11.3752
-0.716665
0.512974
-170.435
-2.3253
-5.67029
-23.7826
18.5692
-5.35042
-0.845302
-44.3214
-0.259163
445.168
-1.51637
-7.59981
-0.4256
-530.155
-526.755
-26.1365
-10.5149
-1076.24
-2.11535
1.47074
0.192764
-7.01984
-18.3074
-27.2511
-14.6941
-46.22
0.445327
-43.8523
-0.351796
-84.9133
-41.9092
-176.725
-35.2598
0.68144
1.26898
-25.9205
-57.5832
569.466
-0.857271
-0.723822
-101.869
-492.227
-20.9233
-70.2786
-3.46956
-4209.25
3.5826
-0.486578
0.390704
-17.6611
-67585.2
0.665731
-31.1088
-1.59685
-1170.96
-95.2691
-0.895141
0.819911
0.694898
-1.93109
-1201.07
-0.163236
-0.52856
-2.83153
-0.152347
-12.1325
-0.435069
0
-105.498
0.576708
0
-9025.32
2878.18
-43.1092
-10.788
-3497.32
6.2118
-28.9379
-5.30946
-1.55883
0.415515
-28.272
-13.9991
-4.33315
-5.72144
0.780677
-0.510904
-7.3004
-6.35026
-3.53849
-1.14507
-91693.5
-109.168
-8.26962
0.031506
-603.295
0.830921
-11514
-0.6822
-7.91347
0.287739
-11.0323
-10.7124
-11.4331
-3.56728
-31.7848
-26.2131
-6.81852
-32.1692
-0.37929
-80.1628
-104.544
-322.501
-14.4391
249.852
-36.8321
-29795.2
5.09593
-20.0172
1.21607
-1.37852
-0.866738
5.38061
2.99424
-12.4706
-33.871
99017.3
-0.364096
-53.4086
-0.414558
-12.9254
21.5567
-15.924
-172.272
-28091
-92674.9
-1.70751
-0.276313
-32395
-1.21778
-6.50357
-13.8039
-20.764
-0.0684356
0.773297
-59.7554
-30.5913
-17.8883
-5.88591
-31.1438
71.2706
-4.08854
-33.354
-3.5729
-492.431
0.42366
0.144786
0.812621
-4465.52
-5.70731
-6.59726
0
-23.0726
-8.34666
-5.6009
-0.739575
-115.251
-5.82625
-3645.76
-56.6181
-33.603
-383.776
-0.449643
-63.18
-12.5099
199.369
-50.4387
-1.10787
-179.404
-31.2902
-58.1568
-0.607765
-11.2701
-75336.1
1.02937
-53.1437
0.747405
-0.899295
-1158.23
2.39542
-39.6388
-1.46541
-0.0958545
0
-2.37617
-2.1699
-4.17636
-10.6147
-2.20816
-3.11876
-1.21733
-6807.6
-28.5476
-2.016
1.53424
-94.2891
1.54878
-1.20298
-0.188399
1844.94
-1.4809
0.730833
-0.601104
25.0259
-6.68943
1.63036
-17.0788
-16082.4
-15.7454
-54.316
-33.8305
-0.899696
-32.0986
-462.148
-374.116
-720.58
1.32819
-0.342691
-13.1509
0.498849
-0.190601
-59.7554
-0.0675042
-3444.46
-0.533985
-1.08133
0.182079
-0.332609
-440.236
0.229127
-3.54386
-0.0868244
-8.58134
1.21907
-90.2205
-40.2373
-483.014
0.778051
-12.2498
-439.265
0.404763
-2642.37
-7.21847
-14.0006
-91.819
-58328.3
-255.757
0
-57.9188
-12161
-2.96145
-0.443801
0
-1.27267
1.16827
0
-86.9224
-36.6461
-9979.57
-7.17894
-4784.31
0.980919
0.062072
-1533.75
-1.78396
-18.1779
-0.0494504
0.0364152
-51.1158
-143.313
0.228258
-11.5515
0.468889
-18302.1
-10848.7
-1.05207
0
-150.313
-0.838485
-68.8114
-0.306675
-0.346672
192.302
-76.4209
7.47483
-100.307
-32.2273
-22.7365
0.662695
-13.8644
-72160.9
-19.1059
-3.77466
2.62912
0.644096
-4.57477
-0.593767
0.723032
-60.1672
-0.106608
-37.284
-16.467
-56.2311
-2.69057
-491.5
-16.6047
-0.147011
-0.366744
0
0.06015
0.130311
-45.1214
-7856.41
-4.07129
-34.3864
-1.02152
-11.9262
-126.414
-11.4768
0.832148
-205.405
-9.07414
-17.2479
-0.526531
176.785
1.43438
-22.1571
-41556.5
-6.65966
-14.0267
-0.519593
-6.55378
-4.51039
-85.0674
-38.8977
-6923.25
-0.0460116
-348.635
-3.34616
-1.44806
-7.152
-13.9028
-37.2158
0.660235
-25.166
-3.37492
2.53071
82434.3
-0.256063
-960.563
0.0607276
-454.305
-9.8622
-14.0896
1481.05
-62766.5
-2.89718
-59.7554
-2.55041
-17.7781
-31.4078
0.411597
0
-460.534
-106.417
-2.74342
-32721.2
-0.229362
-4.38098
2.01886
-16.2309
-99.2802
-1.26491
279.407
2237.55
-1.64152
0
-49.8832
-0.182272
-1278.32
1.67832
-18.216
-7893.99
-0.350093
-7.4178
-1686.36
-162.417
-1.01191
-0.403001
-62.8721
-1.16402
-18.5342
-505.581
-38.5173
-1.25008
-53.0926
-35.7993
-22.7414
-103.5
-24.1968
-9.46924
-18.3262
-301.394
-28.2821
-14.0154
0.389336
-1727.72
1482.06
-1.15512
-5.81935
-17.6048
-5116.6
-9.22404
0.0162956
-1.05778
-28474.9
-1.22665
1.1639
-0.581951
1.29743
-4.77449
1.45831
-27.8558
1127.86
-11.1521
15.8223
-0.628304
1.58133
-34.9946
-7.44702
-33.9707
-8.27517
80.9212
-55.055
0.754829
-11.5098
-209.659
-48.2103
-0.562094
-28.4619
-21.8245
-162.236
-9.86569
-44.8611
17.1786
-3292.21
-1.56499
-3102.32
1.41553
-6.3484
-0.31021
-9.27573
-26.1636
-0.160312
-274.62
-44442.1
-2944.74
0.907076
-19.7872
-1950.09
-1.063
-1743.94
-231.437
0.245196
-25.3841
-9.53171
-5.61257
0.0141085
1.91925
-0.491301
0.271817
-17717.8
-0.460458
1484.22
-7.07286
0.0150701
-183.785
0.21912
-172.43
40332.3
-1.88817
1283.94
0.496616
-0.257936
4796.29
-42.3358
-1.64233
2.04468
-166.918
-0.932187
0
-131.265
1482
0.277901
-8.57782
-5.41031
-0.345753
-134.395
-5.62627
-0.0598168
-69.8337
-59.5548
0.971265
-59.7554
37.5324
112.921
-5.08466
-1694.74
-1.07201
-12.5584
-0.578977
-22.4885
0.285619
-63.1176
-1977.72
-69.5224
-15.3397
-13.3843
-3.66464
2.42369
-7.0752
2.04201
-10.5695
-0.151733
-941.562
0
1.15272
-40.9807
-12.8871
0.542647
-248.372
43875.9
-2779.18
-9.39317
-127.818
0.0141468
-68.2614
-0.60601
5.31209
-1.60013
-4.56833
-2.46481
0
-47556.8
-4.57933
-1369.23
-21.0569
-10913.2
-45.5825
-2.82132
-9.38588
-31.0693
-1.43455
-0.258731
-16.4371
-2086.15
1.16524
-61.5979
-1673.2
-2.4042
4.97724
-30.1212
-23.829
108.08
-9.26442
-1073.73
-84.3781
-7.77855
-8.54522
1.34018
-140.724
-14.2682
0.73526
-6.12569
-5.96046e-08
-0.687615
4.70703
-57.3283
-9.1335
0.988803
-7.10739
-2.98345
-8.77513
-9.76504
-38.4818
-25.5735
0.104886
-0.617468
-12.627
-29453.7
-1017.59
8.9206
-18.8392
0.902094
-4240.21
-66567.6
-7340.96
1.45919
32.5624
-6.19354
-4.78072
-9867.84
-0.341637
490.418
-0.992013
-21.6269
-68.992
-2.53927
0.57667
305.05
-20.3942
-22654.2
-24.9678
-1822.83
-19.7567
-7.83227
-2.19399
0.197719
-0.769551
-104.644
-30.0177
-22034.6
-1.37092
1.57699
-65711.3
-2.1869
0
-6.24529
-0.959797
1.18035
1.93801
-14.4979
-24.909
0
-11.7555
0
2.71814
-16.0888
0
0
-0.0660433
1483.54
1.07555
-7135.04
-10.5506
-64.2486
-165.151
-0.418501
-28.5767
-2.49196
20.5675
-7.87575
-321.119
0.726816
-1.82102
2.26515
0.0152192
-0.722671
-5145.62
-72.0022
-0.439111
-5.83209
3.11123
-1.3773
1.11066
-6.46652
-9.4542
-48593.2
1.30804
-561.583
-78266.2
1.39479
-1.89186
-38285.1
-21.478
-23.7841
-90.7603
0
-17.5599
23492
-989.834
3.62226
-2.63828
0.674948
-0.852385
0.477957
0.154127
-5.26044
-0.687157
1.29308
0.141065
-0.24108
-14.3108
-284.6
-27.4305
-1.08309
-0.0754764
-11.7582
0.828752
-68766.9
-5181.4
-57394
-0.0788178
0.646876
-27.5788
-0.517812
-5894.7
-59.7554
-2.18448
-7352.52
-83.0858
-0.466746
3.4799
-9.13954
-152.445
-0.451787
0.730146
-22.1524
-1.56942
-9001.45
0.254147
-1.43538
-0.533002
-2.25652
1.14129
-4.25775
-15.3434
-15609.1
-154.03
0.979211
-30748
-40.7698
