booster[0]:
bias:
-123.448
weight:
-12.2505
30.2922
-65.1654
52.0904
43.9445
10.5751
-54.552
40.8393
44.0989
0
32.5053
-77.9474
59.3729
67.1446
70.5477
37.7654
45.5369
-109074
-46.8272
39.2185
91.073
74.1503
87.933
49.0368
58.4618
19.6766
61.5978
56.1098
67.2555
-3.82425
-27.4343
35.944
-19.3027
93.5767
111.466
52.2433
81.1962
39.7762
69.0048
65.2938
120.896
72.8198
45.0152
-27.8722
112.941
573.652
-403.181
46.1017
87.3361
91.0591
53.8974
90.9958
-262.659
67.1428
80.4235
76.2198
75.5422
29.9862
-19.0642
94.227
84.4242
114.862
79.6757
1.489e+06
85.9983
113.081
11729.5
-69.0886
0
78.5293
65.4817
74.0494
98.3884
-334.487
89.6684
44.1984
89.3528
57.4342
112.539
48.5519
48.9399
82.7795
-756.637
62.0802
376063
-263614
104.584
100231
578153
88.0021
33083.1
-26.21
72.9926
29.004
-55.9978
54.4541
3341.77
114.857
-646723
43.098
350532
-388.076
89.3965
27.028
-133.758
1.68407e+06
-184722
-544.16
67.694
129.163
50.9253
-1943.86
55.6372
78.2182
89.7957
86.0818
110.755
93.1237
-118.262
89.6771
43.5045
-1738.68
1001.51
-6.19905
454.859
45.3839
-129992
-5457.88
115.426
12076.5
209.753
87.7022
72.5536
-739.656
-1089.11
48.9121
-2279.34
48.7428
51.2388
1440.33
-57690.9
1043.21
114.45
648.643
-40198.6
38.953
42.8256
86.4832
68.3549
45.3052
1.25032e+06
47077.9
-87401.9
81.194
3.68804e+06
-74.645
-338.439
3.77825e+06
40.0153
-348.515
65.8352
49.2857
5379.01
-8321.85
91.3208
115.82
4886.68
1210.09
91.9474
-913942
59.133
1.311e+06
-220266
10669.8
-24013.1
-1263.98
93.5092
9397.62
-24398.9
-114.817
-979.414
90.2043
2.61131
-240.376
182958
3473.72
25150.3
-386829
-325.513
3.6758e+06
29.4886
-4534.57
545.198
996.464
-350854
344.609
13065.9
9.3735
157727
51.3088
1368.97
-163.346
72.2034
-17.3849
1605.94
122.206
-202202
-441448
317374
-779014
83.3315
78.1817
-227707
-7.65958
77.7454
-1506.42
11911.9
-289957
68.9146
-139631
-79594
-163736
-4085.43
90.1943
-37819.5
116.187
95.9438
571.361
-97.0694
-3897.6
411.972
-447082
-1123.59
295.906
109.217
122.678
-63.1814
124.5
4998.19
76.8791
-887216
134.763
363.746
-761.59
423.128
114.538
88.6906
121.94
121.787
47.5251
30.2815
6308.07
159464
5106.97
108.002
-400721
91.2786
80676.7
-68.3862
-73.0706
124.439
-6747.84
32.6927
-2.61972
566.247
2718.59
-2674.48
56172.7
-312.549
77.5219
572.808
111.856
118.589
64.8073
82.317
43912.1
935.791
-644.061
211.653
2316.87
-14462.5
-661916
830.021
76.8568
88.565
-1787.17
70.2119
122.632
2.19356
80.6518
-549781
639196
-50.2358
-313713
-245.863
27558
59.9193
1.41818e+06
-1662.14
-368.06
-12880.7
-110.923
-1053.28
-1768.05
-385.776
-12122.7
99.3833
-145505
138571
-197437
71.8346
-56214.2
457.4
-65472.8
80.9067
-237789
-5.41122
-37.729
70.5548
702.734
-2829.58
13699.8
-48029.5
549.982
45.1158
83.4199
448.527
-24.6594
15032.4
-281.861
0.355995
-416.976
4288.37
333.271
-49967.9
317.916
-36.2806
123.176
-2566.24
124.859
221900
189.051
47.3165
54995.9
43.5092
-121237
-23296
25424.4
1232.26
-546.151
1995.53
938635
-1931.68
-366.92
-4374.09
-1.91484
-123.043
-2591.01
-10.0311
122.485
-394.998
99.7989
3390.17
-5672.75
55.9805
96.2716
60.3674
-3253.48
40.2239
35.9935
-42963.6
3581.21
-261.165
-279.638
-7194.29
-9.02376
-525.804
-1.05638e+06
-105.546
304.656
622.986
123.367
-45845.5
-9.10114
-38.2892
78.9583
-2558.71
114.162
-155.579
383.252
-48.3118
7302.11
359826
372512
69.4041
-2187.4
-6.06472
3549.85
-219.196
755.971
0
4618.99
-286.107
-7132.67
53.3662
4146.13
59.4137
57.9352
927.844
-838.06
2999.86
66.4519
19800.9
-162.56
-56.4143
-983093
23984
619.405
-68738.2
41609.1
2898.74
5685.25
-67.7775
-1.08127e+06
144.177
-24.3867
-38469.5
14565
-40050
4541.6
-812.461
-20400.8
0.780595
71356.6
-4753.08
-1270.01
-8.61075
1.22569
-186.351
-199.217
124.908
1.11037
-485.344
-337.923
6.86693
-0.0565717
-5273.99
1597.71
21.1745
8410.69
44.6069
-31.3087
6307.59
-33097.5
-95.7914
-43.2747
-205384
-533.729
-1555.83
67.5645
67444.4
-366.839
-945.149
-188.391
-1363.06
-4602.7
-7675.25
-23.6408
69.6048
-613.866
138452
-314874
-7141.28
-142.245
363.818
-4138.28
-28.7483
122.917
2895.21
50.6153
3794.45
119.385
120.828
140305
-27470.3
7715.75
-37089.2
115.248
-82.3758
93832.5
-45678
24293.6
9731.17
-225.747
-185.07
-23.384
-207.432
30.3783
-2538.93
-3772.29
-12.5467
321.731
1.6704
-86.2543
-42.516
40.9334
85.3385
-51.561
-342.18
-299.655
0.253434
-347.512
-8.20768
9276.51
-373.099
-534.341
547.326
-15711
-64502
270633
52.402
-417.524
40208.4
-64591.9
-938.398
424.318
0.273871
700.414
-160.578
1995
23.2011
495.699
-132.913
288.747
-59548.4
71.0282
59.5894
-2844.27
-76.1537
56.5145
-7164.65
35.7411
-79549
123409
-1922.15
-200.488
9.97235
-35.497
-5.98174
-19.5942
-2419.83
-15260
74.6545
-3609.77
-1319.92
-1565.72
-14224.4
-74.2626
-10.368
-356.149
23.424
5968.28
6.70705
-43963.9
-66519.3
-43.4362
-6549.19
-45.6708
-390.098
3408.41
-96.3396
23793.1
207230
-581.53
-731.54
346.674
-1469.78
126.775
35.5466
-283.582
52.3494
-424.914
4622
-38.5796
275.576
-7242.49
-37.164
17580.4
-21.4561
-1464.35
92.7613
0.813352
-150.628
-286.644
-75.9575
0.633796
-575.27
-73.903
-9159.14
209.875
1048.2
-10194.7
-17709.1
-428.686
-34979.2
-6457.13
-907.309
-78191.1
-202.253
-255372
-1.64827
56.5728
-114.362
-4634.8
3.49254
-75.4505
-5075.06
94.8257
-678.423
1538.37
22583.1
-33.4475
207.007
-14.7387
-36.108
32398.6
-18901
153.6
22633.6
-3977.89
-27393.6
-10839
23.1855
39963.9
-207.861
-2065.16
279.76
-555.726
1.25122
55047.6
-1.20313
231.033
-35877.8
104888
-594.158
-57.9184
-168.77
-1048.77
-79.0808
125.331
-4051.24
-30.2884
-55.1117
6455.03
-54.4234
-1545.45
-926.521
726.269
-428.113
-1087.17
31.8948
19.3418
-4108.48
-0.473347
8521.98
11.8819
-184.457
61.3712
272.446
6.74872
10015.8
0.235895
51.9128
-0.0428103
32848.2
3224.56
-334.912
619.756
-7692.71
-1263.93
16284.7
-1556.88
-31846.5
76.1434
-59085.8
-1468.17
-0.0482239
0
-103544
-3908.46
-5586.06
398
1432.69
-35.9851
23334.2
5203.25
120.936
-761.431
226.431
-1.76057
267751
415.695
-1993.82
-17.0751
201745
0
78424.4
-10.5421
33991.9
7758.49
-75394.3
29.9844
-3302.42
-36.0779
-19.5491
-847.312
-59.7825
8396.23
-100.472
-49793.4
-7116.31
-47.7068
-77626.3
-681.002
-0.335881
-77.4498
-33041.7
-17.8565
-1980.52
-1298.41
-96.9182
-553.99
-56.9835
0.877082
0
60526.9
-8.85324
-17.6367
-8612.89
55.1058
-10344.7
-274.172
-25.1887
101.992
725.344
-64.4671
-281.455
-144.666
565.201
-20.4196
-188.049
-64.8274
-1428.79
-770.906
39.8612
0.545982
-13039.2
0.061299
69533.5
-785.648
-14.8784
-6.28001
-76.2139
-49.7017
-0.0176412
-34.7896
-1.228
-2056.92
192.267
15228.1
55447.5
-51.1106
318.92
10.4609
5957.05
893.997
-1916.6
0.253303
-56.1356
-56921.8
-119.058
17950.5
-52.9527
-1803.45
-1027.32
-12381.1
-2.69657
1441.99
562.531
-1174.94
2152.62
323.941
-3300.37
8197.62
-264.878
-91.5246
39.7249
-4494.26
-126.409
-34726.9
-6514.61
-600.145
6.85571
-6299.42
-680.802
3.36437
-6754.66
-9681.75
-258.637
416.822
3910.05
2929.65
452.476
0.498608
66.85
-93047.8
-3368.67
-82.592
1332.96
-31.7548
-314.336
64.7267
-3519.72
12341
-707.967
2998.41
-18.0711
-62.1233
43704.1
-689.461
-1.75207
0.873133
-1675.45
-109.177
-3.70526
-8368.51
64726.6
-42.5556
31.913
-38.6592
-4074.26
0
-119.59
11856.7
2.08205
-6389.27
-87.932
1.34761
-13.806
-0.785655
-14595.4
36.7428
20.548
-19.594
-2058.45
-44104.9
-22670
-508.542
1.45262
289.778
2.7873
-0.552213
-32.4105
-2081.76
-858.784
-21.428
131.975
-11421.9
496.41
0.140546
103.746
-71098
-1.27748
-96.0073
-14.947
-23.0491
21.0864
-9.61275
180405
-0.471944
-30.2814
-62.903
22927.3
-2050.83
-53.6499
-3046.18
1.21597
-46485.6
-41.5624
120869
195.144
-310990
6.13617
-62123.3
268.717
22.4853
-252.35
514.667
2.61375
7.32609
-30593.4
-56.6394
-3.4465
-4.35037
-14590.6
-281.777
6146.59
-336.979
-5352.43
-71.0216
-28495.1
-19.531
9.50595
9.93565
38.8237
-29.6453
47.7107
-512.359
-18.0964
-528.479
-6.36346
222729
368.517
-59.2438
-118.495
-1310.91
-17.7779
-294.542
36.5295
-84.5139
73.7241
-84313.8
-3510.65
7.66691
-21.657
591.783
-273.766
-70.0804
66.0536
0
-92887.8
-533.853
110.644
16979
-96548.1
4300.37
-1621.76
362509
5.1152
-51.9813
4483.31
-3688.5
10643.9
-90035.4
0.626024
-30.0598
273.75
91.8511
375.713
-857.653
-87.1772
596.643
-74.23
-20984.8
-23.536
-28.6251
0
-6.00108
418.661
-21.2853
-293.954
-416.653
22817.8
119.076
82.6955
-77080.6
52.7546
-1230.58
165.78
48.1131
-19534.9
191356
-968.54
-12578.4
-22.5921
-11.9259
-44.2594
0
-24784.1
-668.238
-67804
34.4057
-8667.98
-12292.2
-102285
110.267
-135393
0
7875.88
-12.9884
-533.224
-3337.42
-45.9942
-12.6803
-1.65063
-926
1605.61
33428.9
25979.7
-12.8806
1.24653
-32894.6
-3.47608
-63.6749
-1314.6
3.28302
8695.55
0
-1.01771
-962.478
-4782.26
3.12959
-3153.6
120.238
5308.25
4.49266
2869.88
-23.3897
-18.4131
-7516.21
-43939.7
-114.31
-8.72411
-73.0816
137.068
14.9294
54.6774
1478.91
2857.72
29111.2
3458.06
-1191.54
-313.208
3002.1
34376.1
-179.03
-60899.2
218.371
-14.7512
-26.6918
-122.677
-43.9705
-42.0909
0
-460.616
1.98967
5082.16
-22.3539
-10.1091
114.504
-53.6381
36174.5
-20704.9
-1220.9
-197.538
-162045
742.817
-11.9841
1034.71
-65.45
-32.8225
-15.2487
-21.8412
-14300.2
-6.99865
-527.316
-1.43219
0
-747.998
-80.393
526.731
-2578.5
-25.8202
71.7414
7279.96
-752.416
-111.158
-13.0057
-62.761
-30168.7
113.439
0.0112578
3077.41
-13.5425
1.97115
1372.97
-27.5552
-25.8747
939.694
-4209.02
-368.387
-13089.1
-42820.7
-8875.38
39.3595
-11.8802
-4577.44
-89.0263
-51.2314
-43.4301
-28.2051
1269.12
13.3465
-22.7662
-64.2379
18922.9
62166
-46.125
-5.54673
-19.2228
1133.96
758.441
38.8589
4.86319
-13130.5
96921.5
14.401
0
-14.0212
-160.986
-14.5149
-66.6216
-85.8664
-98.6533
27.6105
241.444
-2168.03
18.4588
10.9693
-38.2259
-2.71665
29.456
4.83546
-42.0687
268.997
-1630.85
8.95549
-14.8054
10112.8
-45704.2
-18.8762
-26.061
-0.252483
24.7453
-857.787
-1.17161
19.7349
-438.238
-76.8342
1983.47
35.0418
7.98535
-33.027
-26.387
102.532
73.5766
-55970.7
-77630.6
-440.031
12340.4
67.3084
-25.768
-4156.88
-829.277
34312.5
1.39783
-6786.33
-4863.39
-16.8682
-15.31
141.357
-27.289
1.79712
-299.92
-2136.01
-13.8728
0
35.6225
-1400.59
-17.3145
103.342
-601.72
0.878977
-647.23
258.977
-110849
-583.631
14.5759
-24.6393
-85076
220472
-1853.39
14.1797
-17.3508
-15.4577
0.165143
488.182
10.9228
7.85477
142997
18456
-178.737
-32966.6
9068.23
181.465
375.182
17882.5
-87.803
-12.0764
124.738
1245.74
-6.97932
10.0915
1615.97
32.4193
-4.05453
-1.0909
105.703
146.976
-3.5976
-29.6918
104.096
34.5311
3241.6
-63.0354
279.085
-841.276
127.671
6663.73
-19.9033
-1728.65
-16.9996
-0.529685
-8.7508
-3868.5
-107.756
-3389.56
-162.847
57658.2
0.90072
34473.7
-20.3412
-4.07888
3974.65
5.96917
-14.275
-286.408
-90.4672
3.39761
-294.202
89.1729
-400.503
-4343.25
10133.1
1.24192
6156.23
120.583
-193.122
53046.6
17.9891
-32.0747
-23.4765
23.5108
-9.97672
-26273.2
-472.087
17133
28573.1
-15.2837
0
11.3539
11.9374
2452.17
-26.9092
-13.6126
15.4298
-99843.1
1.16526
-41435
-73.9883
65.4729
22.1693
-58.1885
119.91
-1.05077
19.7353
-1.40541
21.2347
-25.8708
-44.399
-1229.52
35.5908
-1.02887
-107533
-356.358
319.365
-71063.2
0
820.509
-8231.81
-19.3318
0.374931
-23.6465
440.336
-380.809
-15.1502
-199.965
-2.88098
-53.4219
-98.4099
-63.9963
-453.874
-29.4991
-68.0155
-308.779
-66.1729
-2621.85
81.8116
16350.1
-37.7454
3375.71
-3386.87
-138.481
-58.187
-505.216
-172.783
-32.4476
-14976.9
-343.445
-1351.36
12.5609
-57985.6
110.357
-0.718799
26152
-19.8698
-95.7148
-67122.6
-17.6206
12928.8
-12330.6
0.136376
37.231
1892.3
-98.6071
-142.022
-0.0265826
0.403547
-310.72
-3129.01
7.98304
-16.0798
-8.68152
-24.8675
-32.4831
-244.474
0
-6310.85
-256775
-60148.7
4289.51
-8.30792
-27.5081
5431.38
-10.2793
-248505
-27.2405
-44.5792
2289.15
-654.458
-217.475
1.20455
0.230397
70319.6
-8.39316
-1057.98
-72.0518
-1994.65
-16542.3
42059.5
-71.7029
161801
112.144
-193.468
-56.1942
-15.9249
-11937.8
10921.6
-26.7432
-11.2947
0.0421441
10.8158
-216.077
-42.8913
1820.44
-15.2445
-24.2826
-178.433
-0.538916
-11.1401
26.4711
-33.2771
93.067
-24.1635
-319.153
2.91912
2.46239
-75.7081
-0.958109
178.669
-46.5507
9.74793
-27.9085
-1659.19
-408.287
1187.04
-50177.1
0.032568
-9.57923
-186.342
-13.0543
-5532.46
-2.39313
-31.4223
-40.7515
4.36733
2397.83
-5.40503
-13.9212
448.357
223.671
1.12201
30.3775
-161.603
-57813.8
97562.1
-19472.4
-36777
37.2896
18241.2
-1.17592
-1.21431
-29.1015
355.671
-13.2998
-37543.6
4620.7
1179.98
-262.205
229716
-97.0883
-45268.3
-9.61828
-122.022
-5534.45
-1.784
6436.73
-307.048
157400
-19.5156
-38.1265
0.174874
-333.241
32.8629
-14.8665
-13.0882
-26399.4
0.105173
0.163365
-16.0078
0
-26.1811
13307.1
69.0272
-59469.1
-182.699
0.887826
-105.9
-20.3795
29.8156
497.171
-16.1749
-9.96822
-10.1213
8.86005
-24747.9
-11209
-18.4129
-14.2102
-20.0786
117227
-1825.46
-172.505
-333.844
-141.841
142182
25.1253
-14620.7
-11.3626
-32.1298
31.0557
-3.21359
-347.483
-86.7956
-20.3101
-434.998
-9.6127
61.8909
-34.91
183.609
2.44324
11.7279
-4.29959
-381.077
-39.8236
4.55852
-12.7578
15.5908
44.617
-57.0718
-27.1435
176.477
-13.0666
-177.33
157.601
-487.647
1066.5
-3030.57
77554.7
-112.85
48.6796
-0.57624
-20211.4
-1724.49
-1.51138
68.5173
-209.28
-228.516
-9.83356
-20553
-18.2931
-60927.4
1092.12
7099.07
-138612
-10.8206
4.64848
2603.62
-117.429
-2.18953
-76.066
-214.523
-4485.84
-18.6379
-33940.9
-400.133
-75561.9
-14.4289
-492.814
-32.3756
11.6664
-272.384
-15.3694
24.9661
0
-16301.9
-9.75818
81.7821
-41.7493
-20.4345
179.175
-250.481
-6020.27
346.872
51.408
-58645.8
0
18.7439
1.03571
-35659.6
-0.0749857
-50.5132
15.1058
-2442.48
-151.178
3.19249
-921.841
-32.7802
0.245615
0
-3.63996
-33.6209
-38846.9
-59187.3
-33999.3
-246.166
-1240.19
0
-15.8706
52.3964
-3.7946
-135.391
43.3647
1.38638
33.157
57.0846
-17526.2
4.65229
10.3819
-73.3808
1.433
-19.4609
-46560.3
15.5724
88.5705
-136413
-15.3668
-107.817
88.8561
-9.06474
72.8836
-77.1671
17257.9
-8884.62
23.4803
0.341244
-34.2993
184382
-10287.2
2.24528
-32003.7
41662
-44711.3
0.0639389
-1866.95
-2.54619
-15.4295
-72.1763
108.106
1.88022
1.23281
-0.726953
57.4719
-314.698
-50768.2
-175.014
31.1064
12.0291
-3748.11
-70.5026
-974.574
-856.574
-8.95233
2.58193
-7723.27
-28.9175
17.5227
-100.186
-10.9529
-16.1255
-1.74164
93.259
66.6363
-54256.6
-4983.36
-25.0839
-2096.72
-179.2
58.1596
-339.663
10.9009
-16.2255
-17.6059
-142.821
0
4.21698
-0.52184
-22.1454
-35427.2
-20.2996
10.2549
4.6612
-2848.44
-1.68884
35.9629
238.84
-3.11184
-65347.3
37.7564
-40.2919
-15.6331
0
-135378
-3.90097
-661.798
-19.6069
10.2969
0.760672
-4796.56
14647.5
-75.255
0.470149
-1004.57
-28.7277
-1594.2
-5331.34
-10.6802
-3665.43
214.121
-374.077
-9673.08
2763.03
-6.58407
752.125
-9.37326
-1.38592
-60.643
-19042.4
-1.568
-45.9742
-2.33351
-23.7279
-2835.26
43.6016
-124.245
3.9097
-322.592
-9.80351
576.556
-54.4219
-10.2189
-3.28762
-156.287
17790.8
-241.045
-45.9345
-3427.27
-13196.5
19.4324
-97.0472
-32.5441
11.2055
-16.9399
-26.1048
-231.959
-61.1142
53.0341
35535.8
83.4838
-8620.51
15.5582
0
-16081.1
85.5007
-92394.8
-85.8342
-9.60058
0.210216
-536.442
10391.2
-864.935
-55.2778
0.108425
-13.9033
-26.9813
-20.2117
96444.7
-25249.1
-255.604
-8.64142
-186.256
-581.144
3.1472
-1027.49
60.8215
-72.4268
-45114.5
-2611.77
-33.952
-30.5908
-3703.51
-3915.55
-59121.1
-19.791
-54.0203
-47411.3
-0.0316097
-88.8755
3.40891
0
337.213
-22.4532
-27.828
-15.6801
-5.70801
-322516
-23.051
-36.4431
289.63
1138.29
9.00826
460.14
25.3415
2181.33
5.9222
-95.3421
62.3486
13.0966
-41.8775
-10.4224
15.7541
-652.544
25513.9
-37.3199
42.0208
747.086
-14.837
-17.9701
9.43657
-2777.02
502.779
-42.8744
-185.397
-3.01328
-80.7807
20.1963
-13950.8
-12.2622
107.612
-4.25906
-13.6385
-16.4586
-131.799
33.825
-17.9192
49.0816
27571.6
-15.8024
-37.0723
30.1143
-3.08844
-1.87678
-609.313
-49829.8
-97.6721
-679.37
-3706.97
-31.0115
-133.118
-18.0834
260.186
-81.784
-59065.6
-17.6317
-14.3516
0
-3.16213
0.681387
-134.764
66.8629
35.1886
2.23003
233.295
-44.1877
45.0016
-21.355
3.66067
-26.0915
-34.2095
-34.839
2.78474
230.125
3.31169
10.8275
0.0504332
32.1467
38.1925
89.5285
-90.2092
-28.8249
-3.08727
-80.8178
71091.5
0
-66.8916
-3450.81
-0.806723
1432.97
-39950.5
-440.342
-1.83763
1.15601
-10.6329
-15.3026
0.667879
18.4434
108.862
-12.3902
135.814
-57.3799
203.127
-9.1517
-32.9742
-33906.2
122.107
-14.0817
-10.017
8.751
-6.29946
-8.63196
-28.2722
-40491.6
-3325.46
-19.239
-16.7757
-173.4
-8.21634
0
25.769
1461.58
-17045.1
1479.33
-37.8437
1.03638
4.98359
9446.48
-32.2558
-1738.02
62.9246
83.9726
207411
25.472
-0.432623
-6.45728
0.818189
-68.3512
-53445.5
-0.150823
-1.6402
-6992.95
90904.7
-86.1997
11.7892
-151.276
58.8512
-78.8703
-9323.34
-16.9381
-0.766565
16503.7
-33.7518
-660.173
2370.64
-7317.43
-11117.5
-13.2433
-19.4645
-13032.2
-4.42828
-13.1451
-257.902
-986.601
59.5065
-2803.5
15.1883
-17.5699
-1069.33
0.0656437
-630.39
-0.138196
-316.62
19.2145
-0.00513798
6.93989
-557.55
-4789.07
104.742
-84.3902
-10.3948
-983.002
-7089.73
-10.3522
5.87103
-8.04006
-165.969
54.2811
11.4313
-23.7202
1007.5
-429.687
-1223.03
-138.974
0.762893
-6367.84
45.2195
-20.3292
21.4927
58093.1
0.422101
5148.66
-19174.3
12.641
13976
-57.403
-3.17684
6.62548
-14616
-1.39116
-2917.66
3.86187
-168.4
2.31395
-19634
-11.9411
-94.5648
-1838.66
-3.29823
-2075.74
-200.073
39990.5
-64487.4
-25.8776
-963.014
1.07585
-295.19
-7884.95
-617.985
14.5412
3.62698
-15.7049
-665.858
14.2499
-180.239
-57.3303
-49.0663
-24.4064
-69663.2
-14.4646
-12.1924
14292.8
-56.7894
-9.26515
13123.4
39.9123
-4.21375
-1.67503
-3073.79
-21.3867
40.0656
-166068
-30078.3
-0.989418
-10.5841
-3512.55
-18.5954
-622.255
-51.33
-4801.04
-9.7542
49.7911
0
-43.228
8.08463
1528.78
-80.947
-83.4649
0.766337
21.4128
1463.93
-21.0087
0.0663646
-24.0384
-29.5929
19323.2
17244.9
9.90211
-13.5094
-18.7397
15.5496
-22726.6
-18038.1
27.2397
-924.997
186.608
-630.727
97.3526
-37470.5
-1160.7
-3263.92
-835.698
-162.759
-4187.01
2791.41
-1.11934
-102.675
1038.16
28.01
4.34698
-736.997
-92.3995
-57.5489
3759.79
2.856
-53634.5
91.0539
-24.6742
-27.169
-198.384
-41.4438
-28.0454
-27.7633
5.55616
-50.3368
-1013.58
-68.7598
1.66992
-0.730373
-383.951
-43.8539
-31.0561
-2.04986
-10.5151
-11.8619
-285.6
-1.80062
87.6265
-9.23908
-16211.2
13.863
-1.3284
-35.9252
4.04578
-18.6302
-28.5487
73758.9
-0.404376
-201.302
-35.414
149.585
0
-157.235
-27.9839
-27.1711
-2.03014
-272.509
-34.8314
-24.6969
0.0241458
-98.5718
-37977.4
-13785.4
-35.279
-16.3367
13.3996
-217.735
25.0117
-2518.42
-54.3398
-36242.9
155.484
-38.571
223.547
-4.82076
-1.07157
-36.2018
1.14549
5.09641
-11.2404
-32.3828
-19.8253
1.44972
134.398
-7.11159
38.8705
-1044.84
96.5259
-7.09597
45815.7
-15.2664
-55.4008
-7259.28
-9.31153
-1840.96
6.33099
98.0988
-8419.39
-4.19617
1.13874
-25.8648
-24.8031
-12.1672
-32.8447
5.10224
-79.6988
-3.44792
-3.77464
-32.0002
11440.7
1.04076
138.907
1.19618
170316
-895.352
-102.342
-234.452
-152.434
-17.252
-44005.8
27.2947
232.755
0
-12.6507
0.554717
-21.3551
1.48619
-48.5858
-4.39747
9.52557
-2.6441
44.0019
-44.3204
-70.3975
-1246.74
-181.398
-11.928
-6.68832
-1.51496
-0.709946
-195.156
-1255.81
6111.24
8.5488
-331.404
0.159561
3788.4
-21.5318
-9.58917
140.6
0
-166.133
-0.0498448
-154.43
9.69348
-82115.4
-382.08
-32.5169
-23.3275
-14.746
14.5685
-15.3522
-0.351862
136.737
-12.1214
0.341526
-0.535887
-8.59275
-3702.4
0
8.51404
-26143.8
10.1946
-3.95544
107.473
3184.48
-21.436
-8964.03
9.94105
-9.77449
-17.298
-3.02954
-627.61
-14.7433
-10.9663
-43.1773
0
169.003
-0.0112244
12424
23.3932
-6.27903
-16.3393
-0.335682
-259.21
1154.16
-27.1841
6.39862
0.310522
0
134.649
2296.41
-4975.86
-38.838
18.5346
-12.1745
-239.39
-13.9574
-4.63633
-35.1774
-28.0745
2.67985
-169.842
-24.4517
6.89454
1.36099
6983.04
-11.9686
-14.895
1.98775
36.1085
-73.2235
-19.029
55.4934
22.5676
-46.7712
-10.9081
231.677
-20.0969
-46.4143
0.0322293
70.8687
-1.53149
-6.04921
18.2577
11179.5
2290.05
-33.6594
-365.397
232.819
-4030.37
-17.2819
584.685
-0.318354
1858.77
-0.356317
-15917.6
-14.4791
-53853.2
0.135029
-12.3252
-6383.66
-9330.74
-72.127
206.688
-2755.59
857.41
1414.56
-1.4141
-7.46454
0.469627
2303.78
-0.170707
-10.5705
-1791.83
-39.9464
415.384
-76.2769
177.159
-14.9191
-29.6701
0
0.514953
8.57759
54.0992
-81.967
0.351931
-215.004
-60.7736
-112.44
-329.245
150.714
-76.8458
-2748.79
293.708
-10.1942
-3650.24
87.1456
-20.2185
0.191678
-14.9147
-0.337707
-2.44749
-7.34719
-37.4505
-18.1234
-84627.2
181.128
-19039.2
-20.9205
-292.994
-33.4613
9616.43
-40984.4
1.18155
-17.0753
-1784.11
-5.78995
508.966
16.26
-18.2
-246.757
-16.8132
30.128
-0.144254
2.04828
-3073.21
2309.25
162.471
-4754.72
-16.1237
-77.1739
-49.7523
4.83336
-2.9973
-40.1333
-13.9637
-11.9314
0.583179
-2495.19
-6.06992
-11.3867
-2.78547
0.0068306
-23.2924
-4.07444
3.40255
0
-44.0695
-113.746
3.12132
-48.9307
-9.57203
6.12462
172.882
-10.7186
-8.43806
-69.4214
-32.902
-7938.76
-46.2826
-12.3487
-546.362
27.459
2265.68
-17.4065
-1067.88
-21.6211
-2.83861
-85.9007
1.39318
11.7591
0.608115
-3669.36
185.266
-9.31224
807.018
-0.443939
-15.3231
0.858419
311.297
11.8022
3.81108
-7.99902
-23.9209
-10.5416
3325.73
-0.517017
-2.6756
-14.9188
9.41722
-7.49716
-61.2032
-9.26573
46.9958
3.90387
224.189
204.6
-884.531
-11459.8
-39.9719
-40.1282
-9.38958
-20.211
0.272574
-24.2455
-34.7831
0.504824
-5097.81
-47.1015
-15.174
7.23062
4.04503
-348.119
-19.3589
-19435.5
-34.6699
-41.7848
0.566654
-1.55449
-15.6472
-3.44716
-10.1913
-305.098
0.386675
-54.3484
-3.84445
990.495
-25.9705
-27.6995
-8.56569
-18.4624
33.848
-1267.1
-21.199
-53735.7
-0.644742
-63.6549
88300
-94.8842
0.56204
-1.69792
-46.6986
190145
-18.3417
-24.2647
-86.0766
-3.68951
1.73929
1228.26
492.436
-146.544
0.106391
-0.358558
-79.8696
-19.8134
-10.6472
-2.06282
-48.6803
-9907.53
-16346.5
-6.60631
-3.82031
-40.5843
-17.657
-5.21441
-95371.5
12.0924
-0.357582
-21.4124
-0.411937
0.00703585
84.9678
-54.3234
-36.2517
-238.382
-24789.1
-174.953
-0.80743
-5.63354
-25.5453
-55.8993
-37.2478
2631.52
-11.0229
0
-21.0514
30.2931
-72.5016
-44.0117
-46.2907
5.42802
4.13743
-0.0185943
-12.2344
-13.7394
-11.4619
8.547
0.121266
-32.5265
-23.9139
-137.087
-1.63646
20.7208
-49.2715
-22.095
-14.1208
-13.9829
-66.274
0.726791
0.701392
-110.421
-12.0117
-0.199428
-6267.28
-9.64168
-159.262
-9.37209
28.3967
-228.084
-0.0093433
-2293.16
-0.559441
-20.9484
-44.2559
0
3.9253
298.828
1.28089
-255.69
-53.8556
-0.550281
0
-3.22068
-1286.02
-43.2892
-5730.6
0
-22.0689
-22.7216
-269.581
1205.38
-18.0544
0
179.091
-28.204
-90.0023
-9.27678
-2.74913
-2618.85
-212.553
-0.435566
-307.758
-5.56806
2.34347
-12.6007
3790.16
-4.48488
-11.8016
-19.9581
58131.8
-20.184
-23.5119
-6.15124
-1.07924
-10.0462
-10.5742
-12.9713
-60.3095
-26.9022
41.536
-66565.8
2.3785
-17.0318
-96.7644
-16.4164
7.36073
-44.1694
58453
-33.6402
-5.09339
-21.6562
-805.439
-0.901728
-22.0082
-18.8997
-27.507
-21.1666
-9.7634
52.4861
0.654212
-27.851
-6.81451
37.2983
1.48707
-25.8034
-12.7001
-86994.3
-13.8585
-2.49385
-34.18
421.885
1.40577
0
-24967.2
-100.046
-14562.1
-0.427375
-7.9622
-10.0825
-13.8349
-19.5135
-7.29845
-32783.3
0.174831
-0.70871
0
-15.3042
3.05254
-49.9981
-31.8355
-9.22717
-23.4363
-15.3253
-24.3767
1.32673
-9.92635
-18.5966
5.85635
-2.19683
-43.1239
-32.3168
-28.3369
-31.3664
-14.0987
0.500356
-0.00407243
-32.4194
-83.6317
-11.4127
0.840304
-94.8037
0.083811
-24.2389
-2.32297
-86.1969
4527.19
-0.883255
-138.147
-35.1944
-61493.8
-8.49049
-14.6816
-5735.5
210.444
-28.6243
-11.5595
-0.654165
-28.5079
-9.0704
2.49566
-32.0479
-20.1403
-22.7648
-114853
-1.53295
-3.74254
-37.562
-29.1105
-11.4474
-824.352
-43.982
-26.6364
-4.48005
-9.3288
-0.746191
-901.037
2.39896
-36013.9
-41.2015
-20.6863
0.0218226
-8.06923
-774.425
-2838.84
3.99145
-69.7222
-44.0326
657.043
-3950.37
-87.949
-14.4118
-25.923
0.199642
-49.8295
-21.8281
-1.65648
-0.00337061
72.208
0
-992.543
-7.82983
1131.21
-0.734558
11629.6
0
-35.5701
-0.973207
45.7397
1873.04
-7489.15
-0.226614
-9.81932
-119.567
0
-3.39969
48.4864
-6977.04
-301.881
-36.7442
-39.2824
-506.178
106.963
13.6892
257.85
0
0.642624
-2.47433
-9.86989
18.0151
-860.379
-145.385
121.634
-1.27035
-73.8682
-21.8185
-1213.97
-272.632
-214.1
-1.50372
3.3679
-1477.54
-0.418281
-32011
-30.5158
56.6468
-15849
0.623595
0
-8688.92
-18.8063
-30.1062
-13921.2
28.0714
-11.4293
-203.053
2.60115
23.6019
0
-58148.3
-77.1538
-16.2243
-14.9778
-6423.71
-1489.79
-2504.88
38.6195
-44.4437
-335.901
0
-40.2071
-16.4176
-19.7884
-25.0256
38.3835
14.1412
-77.0101
-0.276234
1.39935
-12.0668
-9.05791
-211.039
85.8761
-11.4141
-24.0994
-502.367
2.39833
0.240059
-1.41184
-0.69408
-27.6236
0.0663646
5.47378
0
-48.1646
-28.297
1.92825
-0.52861
-20.8205
-241.015
-227.358
2.26794
0.0642599
52.5159
-65.0027
113.202
-2.22353
4.64169
-30.1557
-1.06836
-16.2688
-644.694
0.410001
-17.3023
-37.7762
-24.8911
1.15358
-2.51854
-20.5739
-24.8297
-0.851801
-0.886941
2.79816
-1.07059
-33.2967
-81426.4
0.725282
19.8102
-29.1328
-7600.61
0.43729
-48.458
-2.34938
0.0228735
-115.987
-1.25355
12.9501
-17.8184
-18.9584
-80.0956
-12.7442
-420.842
-3.47986
-322.85
-8140.4
-15.248
-26.8287
-0.253744
52.8908
-0.0263204
974.962
-1.48744
-48.1433
-239.614
-94.9658
-36.6659
10.3044
0.590368
-35.9774
-30751.1
-1.68596
-1853.42
-1.25811
-0.529619
0.930074
-0.927725
6.14099
-30.1966
0
9.66595
-24.0136
-11.388
-22.524
31.1487
0.647339
1.89592
-15.9247
-29.8111
32.3692
-0.314888
-0.912978
-8.13569
-0.215696
-44.7301
-117.619
-18.9512
-16.8701
-888.699
1274.07
-9.25425
-9.09969
-33.066
0
-878.394
-13.1048
-85.2293
-319.383
-49.0391
-32.475
1.57735
-768.032
-1085.43
-5.07474
418284
-21.1702
-17.9437
-51.0526
0
-32656.3
0
0.381156
-34.5412
-4.45712
9.45578
-42.6231
-266.48
0.210582
-1.67506
-8.68033
29.5932
-1485.33
-0.979938
-66.7429
-28.3078
-18.4702
15.5951
-11.3407
-29.5439
-884.651
-750.427
28.579
-184.623
-1124.62
-0.0167172
-11.2022
-98.0876
-34.7953
-3.90484
-17.0967
898.579
-11.5251
-4.9701
-17.1572
-0.310414
-0.507541
-4.51921
-523.494
-3337.33
1.09594
-62.8062
-2.42284
-2.09875
-293.538
4.92417
2.73062
0.856549
4.38853
-1.46339
-1.60179
-14.0025
-113.325
-12.3803
542.787
-4.14776
33.4119
-47.4736
0
-0.823578
30432.4
-14.8667
-8.67062
93159.1
-2.16107
-1.92008
-15.2705
-102.312
-171.585
0.85481
-13.9924
0.0520335
-25.6912
-10.0851
-279.599
-10.3759
-1719.93
-156.807
-40.9798
-36.9566
3773.43
-44.7086
7.13323
-13.7454
-8.54653
-27.7545
-38.6734
-135.826
-51.3118
-38.4984
2293.66
-219.767
0.714445
-304.285
-22.1244
0.166527
-0.0458619
-506.696
-0.632639
-10.043
-143.328
12.7981
-11261
-1219.92
-27295
-12.3465
-20.1199
-21.3181
-82.465
-82.7415
-49.8584
-118.971
-35.6164
2641.16
-0.145429
-35.0017
-33.4971
-11.4086
-2.116
-0.561803
4.12151
-1.30829
-211.446
-24.9615
2312.03
-7.33857
-1.41444
0.143385
-34.6329
-32.0651
-194.495
-23.3523
-15067
-79.5199
-9.60967
-5.68193
-26.495
0
-0.308045
2.23624
-22.2214
2697.54
-18.2134
-6.10783
-9.0423
-23.4327
533.366
-107.159
-10.5737
0.722071
-14.9515
173.497
-0.29321
0.38994
11875.4
3080.29
0.514456
-67.7543
8.01178
-8993.11
0.640918
-12.8329
-59.2918
-14.4787
-0.57613
-15.9708
0.173029
-16.3932
-28.0728
0.985134
62007.9
-41.0068
-52.3585
-59.4204
1.41249
-17.1583
-1.80029
-3099.16
-39.3759
-33.309
-5.63321
-1699.36
-6.30585
-164.771
-2.49722
-65.6231
-4.61788
-17.7814
986.205
-22.5431
-43.0162
-389.759
-12.3818
-25.1723
2.92462
3199.66
-67.6981
-28.2243
0.0721268
-23.2509
169.36
-0.155299
-44.7864
-2542.79
-43.0095
-16861.9
-0.0344955
16.1413
-0.215968
-0.124701
19.9575
-26.3735
-0.378194
-6.76233
0.715288
-89383.7
-273.292
-1.06979
-96952.8
-0.531282
4.43775
-3.141
1.136
80665.3
-31.2406
0
-9.21223
3.25894
-18.0732
2.5486
-2637.17
25.5836
15160.2
-11.5584
0
-47119.1
-17.4107
-102.164
-3641.09
0.0873318
-17.7628
-27.9053
-33.4333
-26.4773
-23.2488
-44.5852
-27.0715
-23.9655
-185.995
-0.472512
-23.1214
-26.8338
-4.55873
-28.7585
4.2908
0
-14.3042
-2.73617
-2.39241
-55905.6
-38.019
-4.25704
-10.1963
138.17
-0.103993
-34.5217
-74.1796
-95.7934
-93212.5
-372.198
-14.8762
-0.345249
1553.3
-17.5502
-0.392229
-8.86737
-24.4646
-28.2516
150.887
4.5942
-83.5665
-1.80934
-4.33712
-1.34156
0
-14621.2
3774.82
-51.7631
-1.47743
-4.0027
-36.5055
-17.9552
-195.122
-145.857
0
0.134934
-20.5784
-15.9557
-159.27
-80.2522
-19.0973
8.43654
2688.12
-34.5129
-42.1086
-72.9172
-1377
0.312414
-0.267638
2.28174
-227.409
-334.573
26.0573
-19.2805
-617.691
-4.31614
-22.4549
-10.9987
-0.3715
-27.6948
-11.1319
-0.895442
-2.68723
0.504105
870.541
-176.674
-78.8492
-53.4092
-17.6867
-50.3441
-312.594
1.70155
-1.29147
-9.74562
-149.628
-9.3218
-0.189848
-11.367
-25.4791
3792.27
-82.9391
-4.21226
-5.90947
-42.7317
-23.3411
-0.895805
-7.58416
-24.2273
-226.206
-13.5485
5.00637
-13.5838
-0.959731
-108.042
-10.8729
-10.6903
-25.0285
-21.4952
0.260122
-49.2803
-0.688595
-13.4876
-39.6762
-41.3428
-29.6798
0.626688
-2.07771
-13.3012
0
-0.11737
0.0795889
-0.0220592
-58.7305
-41.4659
-208.613
-0.298119
0.876786
-12.024
-613.071
-17.5052
0.736554
-0.668545
-0.233602
-0.750746
-10.6334
-86.9996
-28.3302
-34.2423
9.32147
3.39387
-53.2974
-0.0696362
-0.000995577
-37.664
-36.7988
-25.5685
-137.552
-12.7331
-1.56818
-40425.5
-0.0106536
-32.8885
27.5729
-0.19554
-4.17648
102.95
-81.9108
-0.403112
-20.6955
-34.5278
-9.81096
-18.8716
1.59376
-10.1241
-11.7499
-470.717
-19.8111
-0.424566
8.59937
-9.96399
-27.9106
0
-0.144254
7589.88
-4.06073
-180.226
-3.40713
0.460934
-174.097
-2263.5
-44.794
-45.9626
0
-0.437787
-4.55973
-44.3253
-140.451
-66.6856
-43317
-9.84686
-13.7678
-67.602
-1269.35
-63.7811
-103.138
-23.4438
-30.0099
-19.8571
-1.9265
-0.656233
3064.04
-0.973137
3.83245
-0.165575
-3.24794
0
-2061.05
-2803.99
-2.53106
0.000765353
-9044
-4.05372
-1.50593
-30.3637
2.58341
-14.8618
-54.1617
2.11103
-15.7113
-59.5807
-12.0715
-4.14266
-1.60021
3.42666
-0.422671
-2.85345
-46587.2
-7248.42
0.347983
-0.723589
2654.06
-71219
-12.1789
1.0574
-132.789
-38.4912
-0.205455
0
-4802.33
-3.06663
-21.4233
-19.5435
71124.3
6.50432
-3779.5
48.4899
-368.17
-62.3344
0.606968
-1.63097
5.54977
10005.7
-1.77305
-211.625
-44.6884
1.77356
-0.236968
-26.8318
-0.491223
0
-16.6107
68.8365
-272.473
-7.15733
-20.0376
238.931
-111.194
-3.29102
-1.50793
-84.8541
-19.6026
-150.442
-53.7355
-13.2535
-38.8272
-35.5909
0
0.90077
-23.8399
-0.715686
-56292.3
70.8717
5.00146
-12.6608
-26016.9
-20.6236
3997.75
0.251297
3.33082
1.74017
-0.808007
-122.078
-36399.8
1.007
17.2314
-1597.93
-2306.26
-37.5698
1.14123
0
15.9806
-262.421
-0.22728
-3794.46
-43.7724
-100.572
3797.49
-0.457089
0.0522728
-22.1483
-4607.01
-1430.7
-134.787
-31.3748
-21.7853
-2.08501
0.712404
-24.2945
0.688426
-6.26594
-1.30173
-4.56142
1.93768
-8.57529
0.918566
-0.124259
60.8053
-3.41366
-167.914
-0.508448
-9.34525
14.0375
-7.13677
-11.8472
1.44983
-0.0485977
-46981.1
1.10371
-39.1502
55.7106
-0.0756735
-0.178501
-14.534
-25.6867
2.18131
-21.2432
0.558048
-1.92436
-6844.8
2.68725
-115.607
0
-1.71531
-6.26253
0.127032
-350.004
-2302.83
-0.0939555
-1.27903
-2.14461
-1.02386
-5.2581
-0.597747
-13.5535
-5.08562
-0.190834
82.1344
-16.0997
0.159756
-0.820663
-1682.63
-39.9065
-645.54
-58.3717
-2.41422
-0.825656
-59.2821
-1.06146
-2.72429
2299.47
-2761.74
-26.5383
-89.3737
-39.7755
-0.738228
-22.3936
-60350.8
-103.633
-73827.2
-1.55389
3.19038
-3.09279
-6.20186
-1.98867
1.25651
0.750864
0
-10.7292
-15.3022
-11.5319
-19.2627
2.18229
3.71255
-37.3646
-1369.84
-35.0563
-547.901
100.77
0
-89.8844
-0.311309
-11.2621
-5.20577
-54.5644
-1.0907
-5.28192
2.42529
-21.7754
-205.569
-24.8801
-68626.5
-3.72008
1.359
2.79049
0.218939
-36.8023
-0.0520364
-69.6482
-2949.54
1.97721
-22.9936
-11.962
3.17088
0
-280.751
-23.4557
-13.1694
-20.1531
-2972.57
-89742.4
3769.06
21.6253
-0.547272
-32.5169
-18.8316
-29.3359
-0.16864
1.84838
0.917601
-5.86657
-18.2565
-36479.6
-34.5725
0.907193
-59.6849
-18.6036
-1.54946
0.700688
0
-92.4912
-64.494
-84.7841
-15.4923
0
-29.0241
178.083
-37.0531
-2.14981
-2.05303
-37.0652
-0.0666006
-82.5008
-13.267
-11.1384
-16903.2
4.45579
-3.89412
-0.164457
0.372335
-1470.52
-10.3946
-10.6245
0.394939
-9.24632
-26.4301
-5100.46
0.641248
-31.5714
-10559.1
-0.493421
-3.50802
-26.9977
-68.9126
-91.169
3.21334
-77676.8
-862.98
2.32137
-2.34832
-8.83527
-51.223
2.44239
68.2723
-0.335521
0
0.421448
-29.5341
-4.24231
-2303.53
-0.64535
1.1148
-0.858076
-17.6279
1.18233
-0.796621
2.70034
-1.89972
-24.1356
-38.6666
-3.15721
0.588337
-32.3669
-92.281
-12.0934
-16.7155
-36.4745
-2361.08
-7.59739
-25.7333
10.9042
-19.746
-1.31801
-24.7124
0
0
-22.6239
-0.0821673
-3.02184
-2.33359
-26.8112
0
0
-14.8105
0.924393
-0.342114
-28.4255
1.14399
0.497573
-277.099
-0.802729
-34.4725
0
-0.0204384
0.655989
-66.6053
0.366379
1.92943
-0.728376
-28.4533
0.184906
0
-49.8775
0
-0.604636
-12.6558
0.282363
-0.246158
-25.6445
-19.7331
-12.2036
-3.25261
-40.2272
12097.1
-4.12582
-2.49024
-6.28758
3.18658
25.3895
-1.41601
-31.1204
-362.214
-207.859
-45.6236
-13.9897
-2.57769
-54.1974
-13.49
-244.925
1.12437
3.75084
-74.9098
-0.620525
0
-13.7377
4.03089
-70.4309
-0.015205
0.0910105
1.5301
-3.9021
-9.87775
-22.1683
-108.546
-21.5033
-4203.4
-2.97143
-588.299
-72.3509
-10.5087
-368.469
-49.2225
-52.6812
-0.799917
-2.84167
-0.435566
-14.1792
-2.50842
-3818.47
-4.07986
-6.14008
-19.5533
-13.9157
-78.6609
-12.509
-33.0395
-33.5342
0.0753912
-14.538
-0.81215
-1.0604
-7.64466
0
0
1.62967
22.9955
-0.0534554
5.1516
-176.008
-770.45
-152.115
-10.2977
-21.3008
-6.24379
-171.643
-40.6652
-13.5213
-44.2076
-20.7452
-36.7924
-30.1401
-6.17747
-2243.22
-14.7487
-65.0894
-0.700026
1.91282
-330.392
-353.609
-120.168
-34.4932
1.22299
-28345.4
-1.11538
0
-48.1552
0.92386
1.92453
-52.9202
-17.4545
-3567.39
0.144392
-0.865444
-224.701
2954.4
16.5759
-28.4421
5.51319
0.952183
-1.1944
-0.868215
-49.344
-950.909
-9.31367
-180.714
-6163.03
-44.7736
1.05278
0.288922
-17.915
-27.6531
-11.5396
-43.5424
-42.1979
-0.157165
12.8402
-78.6993
-46.8282
-4.99572
-0.480053
2304.69
2.49124
1.96729
-16.5492
-1.74556
0.564555
-72.1126
0.817769
-0.673515
28.3273
-1332.31
-10.8358
-1381.46
-1.17996
0.82688
-905.607
1.98182
0
-1.37001
-19734.8
-8.69756
-519.977
-119.342
9.51235
-3.29716
-17.4296
1.08112
-2834.67
-40.7365
-2596.86
-49.2851
-1.03424
-22.2958
-0.490994
2.05785
-21.5054
-5.9567
0.68035
-40.5368
0.47967
-0.15281
0
-11.1904
-0.407612
0.41887
16.2583
-0.323175
0.286988
-0.557751
10.9402
0.0496483
-2591.44
-2.00848
-0.107446
-3.07873
-12.015
-2.45871
-8945.34
1.67945
-72.4918
-0.224366
-40.0073
-63.772
-0.32116
7.20967
13.8178
-2.99155
-132.895
-8.52132
-33.488
-26.0709
-46.5295
-1239.88
-174.012
-101.788
-2.93927
-10.7769
-1.42493
-276.768
-1.00362
-15.6514
-36.2319
-0.0582785
-1.39116
-5.25949
-20.1573
-9825.65
3.80673
-176.392
-101.419
2.60956
-58.4463
-15.5742
-49.4112
0.920648
0.829629
0.224608
-2.77808
-1.73075
-40.0306
-27.798
-45.8082
-219.356
-11.6883
-249.786
-56.1685
0
-3.25757
-1408.84
-65.9217
-1.13357
0.874164
2.5034
1.36843
-19.8778
-0.363064
-53.0107
0.365178
-6.75181
-2.72917
0.572643
-0.748729
-0.1376
0.742157
-16.9372
-0.738875
-1.79567
0.63792
-67.2617
-0.823287
3.18917
2823.44
-0.744373
-37.1808
-832.169
0
36.7371
0.637936
-24.976
-0.0776012
-1451.13
-2.42653
0.789211
-0.841053
-12.5437
624.302
-25.5008
-23.7999
-28.0659
0.749284
0.356512
-5.41804
-13.2183
-60.2125
-62611.7
-152.834
-1.06846
1.66522
-38.4274
0.309378
1.21577
-0.453618
-23.3669
-30.3637
0.110695
-2.09274
-9.13901
-11.793
-15.9948
-1.23904
5.00146
-280.915
-131.439
-1.26048
-26.6208
-402.925
-73.0258
-7.81405
0.774843
-1.95064
-26.7831
-19.15
-0.346374
-25.8982
0.107103
-10.569
1.19579
-2.31362
0
0.509171
1.3249
-15.4102
0.0392769
-2.7176
-0.281409
52.0016
-31.6584
0.419384
0.156183
-38.0119
-0.817863
3991.29
-40.5653
-672.707
-7.72021
-5.37169
17186.9
0
-7.88513
-7.54474
-0.299867
-0.489523
-17.5857
-3.80814
-10.7354
-5.74293
-12.8675
0.89319
-10.7997
-2.86599
0.942894
0
-13.0372
-21.837
-135.12
-15.7236
-73.8672
0.158551
-23.6272
-0.0889073
-11.4375
-2.91599
-2.86324
-33.4564
-29.2728
-50.2738
1253
-19.1087
-14.6597
-2.02603
5.21674
-167.817
-23.9616
-32.2985
39.8179
-64.7696
-27.2604
-94.7724
1.08784
-22.1407
0.0103831
0.540464
0
0.892775
1.23878
-50.8754
-1.15779
203.328
-1.19499
-17.7465
-48.9469
-41.9596
-597.473
-84.1777
-33.7301
-57.4182
-17.2216
5.69363
-72.6582
-19.3069
-1.67401
-9.30357
-1.88013
11.6992
-0.392353
-95.0652
-164.555
-27321.7
9.89492
0
43.2217
10103.8
-210.509
-4.27597
2.55972
-65.3689
-0.672183
-1.98825
0.793661
-55.4185
-0.692616
-1.49133
5.39174
-4.78536
-18.0404
0
-0.991002
-2.11546
-1.79816
-12.5903
-22.483
-10.6088
-14.1263
-0.918886
-49.2856
-6.65091
-5.06946
-4.56698
0.0221717
-27.9099
0
-80665.3
-1.19522
-4.92747
-39.4665
-2.18265
0
1.51343
-0.643497
-35.0192
1.58843
0
-29.2114
-1.50986
34.5158
-18.8953
0
-11.1763
-10.1887
-2.89224
-0.548918
-7.24288
-14.335
-54345
-25.7039
1.96278
-170.159
0.192419
0.850403
-33.7518
-3865.28
-1.40727
0.909507
0.0566842
2763.43
-24.5707
4.46711
-23.7089
-12148.1
0.573169
-36.9664
-28.7919
-24.1142
-30.1564
-18.742
-27.1631
-4481.97
-1.06075
0
-0.707552
0.120255
-0.238911
-21.9709
-0.715257
-448.384
0.207878
-10.7652
-0.709119
0.582908
-44.0485
-4.1182
-0.151785
0.405065
-8.44547
-1.67079
-53.0608
-43.2295
-19.7392
-6.80035
-18.8573
-23.6494
0.408906
-46.4592
-4.2059
-1.67094
5.93735
-72.4588
-13.7085
-13.1586
-7.60679
-14.2085
3.56322
0.310522
0
0
0
0.435546
-3.34559
-1.50514
-21.7732
-2655.57
-332.691
0.322879
0.5551
-42.649
-0.367441
-3795.66
0.437186
-0.660341
-22.0359
-81.4874
-2.32305
-4.70873
0.810356
-131.594
-12.5101
1.22805
-0.1104
-148.758
0.0157107
-30.5107
0.217494
-0.706884
-59.8178
-39.1887
-2902.27
-1431.03
-47.675
-10157.8
-0.875067
-0.683051
-48.9042
-1.33091
-75.4417
-1.7196
-0.941385
0.685092
4.55116
-0.677452
-22.8447
0.407798
-33.6438
0.075554
-26.0811
-171.242
-10.644
-4.0974
-1.3438
0.967495
-1.6544
-0.871389
0.657621
-36.9248
-30.3886
-38.0477
-0.0729272
-18.4833
0
-17.9488
-104.726
0.0814067
-17.346
116.853
-2.18931
-2800.86
-156.491
1.34994
-19.5419
-35.4617
-1.8805
-307.893
2.48719
-5.78253
0
-94.6443
-56.2589
-3786.19
0
-14.5246
-0.533712
-0.437787
0
-60.028
-11.8074
0.881525
-34.3085
-3.45134
-1.51434
-584.638
72.895
-39.672
0
-39.2163
-6859.45
-50.9912
-19.6682
0
-13.5404
-69.2653
19.5386
2.63648
-167.984
4.11419
2.15341
-45.3261
-55.5425
-6.90695
-11.0811
1.66826
-70.125
-4.07177
-18.3106
-37.2043
0.475062
-29.8891
-260.667
2.22384
1.11367
-0.647333
-0.0306889
-11.7955
-3.11514
-30.8085
-91.0709
1.34522
-0.224869
-75.373
-30.6501
-3792.81
-2.39829
-11.9317
-28.9084
-23.5284
-0.588124
1.64797
-0.726953
-4782.47
-18.5823
-6.46064
-42.0204
-5.55746
-10.8749
-862.4
-74.645
-33.6115
-222.251
-1.81175
-15.9455
-36.2546
-0.486267
-2.86711
-44.4883
-31.6411
-1467.53
0
-53821.3
-38.0141
-7.2352
0.984165
-0.388917
-0.290763
-21.9874
0.715431
-117.738
-58.5569
0
144.278
3.75727
-89.9425
-21.6206
-13.3706
-33.9424
-1.36963
-61.1893
1.46886
0.99116
-14.8871
-2295.79
-25.4786
-0.311972
-24.492
-990.489
-2.80384
-4.73702
-86.3503
-34.3251
-9.74055
-1.11994
-18.3734
0.456379
-125.3
-0.195898
-76.3721
-3988.23
-13.7279
-7671.72
-102.825
-198.264
1.0769
1.50267
-12.9439
0.516393
-18.49
7638.88
-0.514181
-66.0636
-53.1513
-219.979
0.205189
-0.340355
-0.657889
-3.03444
-13.7258
0.633094
-22.3852
-5.55989
-0.0689908
-213.198
-0.157301
-20.2227
-22666.7
103.959
-11137.6
-0.460864
0.352471
37571.1
-229.751
6.77321
-0.538359
-65.8891
2.64737
663.159
-10.1463
-35.8782
0.16384
-42.8465
-0.0581651
-34.1752
-3.19641
0
-0.527956
-38.2534
-414.926
-0.907203
-15.3881
0.229486
-3.02348
-2725.36
-26.6253
0.0739147
-17.3613
0.324283
-0.390131
0.8027
-42.6494
-24.7909
-21.2595
-17.3154
-31.746
0.563637
-0.837961
0.883426
-0.672081
-4.43289
-0.53459
-23.4716
-0.397643
-0.351108
2.28477
-24.9983
1.51789
-21.3056
-15.4683
-0.116456
0
0
-247.555
-120.534
-1.49174
367.781
72.4435
-0.911476
4.17041
-1.32039
-58.6306
2.25463
-0.215736
-46.7815
-20.7721
-23.7691
0.788678
-11.2697
-0.604153
1.82574
-0.648393
-2.81524
-1.73125
-2.78495
-3797.32
-28.8933
-7.14385
9.0559
-65.9596
-5.88309
3.10438
0
-12.6037
-11.1091
-1.89258
0
-0.252304
-780.467
-49.4867
-16.1731
-2303.53
2267.09
-0.667159
0
-30.5873
-0.0846168
-2.40554
-3796.08
-194.57
0
-9.96151
-21.695
-123.874
-1.06491
-1.41762
-33.8392
-162.254
46815
-54.2679
-55.3736
-0.0558904
-11.7909
-42.7515
-38.4767
-0.00793974
-1.4998
-22.3602
-26.5648
-26.6579
-0.370349
0.626059
-0.0292733
-510.946
-33504
0.739798
-0.770758
-156.195
-19.4357
-18.5177
0.452671
-13.2784
-1469.02
-82.3519
-5.9672
0.458876
-16.0497
-24.7463
-37.2027
-9.47535
-0.664686
-2.18291
-11.8292
-19.596
-51.1396
-38.4511
-0.494413
0
0.544553
-164.361
-1210.4
-11974.3
-79.3131
-1.69198
-1.73199
-207.102
-3.71195
2.87861
-5.15089
-10.9802
-16.4913
-12.1524
-433.473
-93.5639
-42.7637
-1.18884
2.79958
0.067867
-0.910763
167.66
-30.6846
1.93566
1.7714
-0.915906
0.3245
1.04653
-85598.2
-11.5834
1.12358
-2.03299
-3085.5
-0.655778
0.825716
-15.1404
-19.0617
-25.4843
-0.565123
-30.6315
-35.1901
-3.73125
-3.03714
-30.3213
-26.4634
-22.1978
-8.62023
-1.40918
-8.76449
-146.328
-170.412
-0.222734
-96.8092
-0.177527
-2.73084
-2.33525
-17.5709
0.736714
0.68002
0.272816
3.47438
-0.600174
-21.0694
-34.4699
-84.2727
-1.66425
0.259731
-1.33029
0.0276828
-67.5419
-60.6606
-29.1253
-5.87388
0.431689
-15.2448
-6.75965
-29.022
-31.5491
1.02902
-5.67623
-24.9933
0.445181
0.200511
-29.2067
-0.542683
-47.3512
-1.07378
-26.3948
1.3772
-11.8975
0.14799
0
-312.927
-253.409
0.402912
-0.713599
-19.5906
-23.09
-215.335
-2.09542
-18.4283
-2.18745
