booster[0]:
bias:
-300.527
weight:
-45074.7
132.225
-107340
0
0
0
0
0
1078.2
0
626.343
0
167.655
-1.47436e+06
7.81635e+06
-12489.8
-2975.65
0
0
7037.6
4419.53
776.341
170.613
-4606.38
3983.9
5743
-1302.81
96782.5
-1817.46
1.75839e+06
0
0
27780
144.599
-3530.84
0
108947
10057.2
107369
143477
58841.2
1.76261e+06
71923.9
100836
-4.5497e+07
0
0
-16690.2
3174.33
-11522.5
1775.76
205.165
0
0
-625.339
-2355.88
-2.21481e+07
-839.609
886.312
-381.886
3244.81
-296468
-3.95059
0
-3251.08
-56276.7
220759
-398.414
0
173.19
1.69997e+06
2.0969e+07
184.894
0
5150.79
1309.29
3424.03
82.5253
267.628
758044
-15727.6
170.379
788.13
1.5009e+06
-42180.5
709.562
557.724
314421
641.771
-265.282
-615.388
-2013.63
0
566.27
2209.12
99247.9
280.081
-354426
0
0
860721
76.997
11001.9
-2.37186e+07
-541.346
2337.48
129710
204.463
273.506
387.212
285286
274576
8.32374e+06
10588.8
1803.24
6145.89
287023
-790.047
15907.8
7950
-1044.83
-9.97084e+06
865.912
0
-11358.5
21927.3
0
0
93304.4
-1.71397e+06
277.78
110407
358.923
-209.016
-349475
-9840.94
0
0
1446.54
0
-94344.3
528663
29785.2
6728.77
0
14391.7
-78124.4
-99.279
189.687
952.892
690874
542.089
-691.87
11939
5391.81
0
31817
8405.39
-19690
285.839
7622.27
0
0
699.208
4192.48
378.809
1.50074e+07
2023.45
-2005.11
272.604
0
1335
-6032.71
358.223
1179.39
2317.42
-26796.1
-7648.48
0
10198.3
0
-35364.2
2968.82
-446.416
136070
2300.35
11735.3
453.889
5596.4
-195036
0
4.79128e+06
-749517
539.026
0
6312.25
-2858.53
2785.36
283.705
-1.77784e+06
200.947
595.952
-553.992
1.41427e+06
214.045
208.313
455.963
-2222.79
-727721
1.15569e+06
191.072
-5025.79
4762.22
2286.82
-82697.6
-236537
0
488.807
0
-169.314
191.782
0
-173.285
-101804
1104.07
1096.88
-1015.48
0
-29670.9
9070.22
0
11277.6
-16434.4
1.73385e+06
1037.09
2069.93
-2342.24
974.914
0
793.389
-2.26108e+06
-13794.8
371.16
203.8
79626.9
3277.37
-712.891
4575.26
3353.46
0
211.023
1277.05
-38.513
0
159.928
29106
14422.4
0
-1085.39
-22026.5
1528.12
0
-2210.36
913.741
203.079
108.091
1505.48
97.0155
311.276
-351.586
6.01821e+06
-555.549
94552.7
17352.5
-73.9363
8.48876e+06
-161432
0
4487.59
4.11596e+06
2565.87
5015.06
410.932
239.711
-1.04299e+06
0
1.01575e+06
265.746
0
2887.48
-2.2791e+06
-291689
0
-2184.75
-1.04008e+06
612.801
0
311.568
228.84
0
-4843.68
7789.84
0
-24138.9
0
0
-313649
0
890.726
0
80698.4
0
-768929
0
-44.1081
1974.63
11844
-20091
68355.6
99.96
61380.2
180.901
0
0
-76322.4
44535.2
119927
0
172.454
594868
0
1.13069e+06
754.466
2047.83
0
648.398
0
1034.71
0
-13361.9
-300.495
281447
0
137.643
0
176068
-60645
0
403.184
2239.39
265.011
2615.86
126796
0
0
-142401
-709857
0
0
-2749.99
216037
-61781.4
909.902
0
0
5848.01
-21162.8
31438.1
360.515
4829.82
-735.995
1040.38
-894.184
0
-5508.7
0
0
16951.1
-234.575
-177.01
796033
788.374
0
0
0
1.62374e+06
-540.873
220.123
530.25
0
-14845.5
0
0
71.9788
0
82690.6
0
0
0
2643.23
0
0
-1577.41
0
0
490.715
184.339
0
0
79.3881
97.561
0
0
0
0
0
4955.76
748.106
16562.3
0
-5374.26
112423
0
102.231
0
291.015
0
2840.8
30697.9
11112.8
0
0
0
0
0
0
7630.08
0
-15651.3
0
347.196
0
22726.6
0
0
0
0
0
0
0
0
0
326.03
0
0
0
1925.77
237.889
-708.505
0
-967719
0
189.496
0
0
0
0
0
0
0
419.443
0
0
0
307.667
-41.0106
0
-44354.7
0
0
0
56237.6
41490.2
0
0
0
0
397.825
0
0
0
0
0
0
0
0
0
0
0
0
0
63.9527
0
0
0
0
0
459.011
0
0
0
0
0
0
0
0
0
0
178.803
0
0
-28.0856
2.82338e+06
1.17865e+06
0
0
0
0
0
0
0
0
0
0
0
0
0
896284
0
0
0
0
0
-3621.81
225.357
0
0
0
0
0
0
0
0
0
0
0
0
361.612
0
0
0
0
-4358.64
0
0
0
0
0
1630.89
0
0
0
0
39971.8
0
0
0
-2746.46
-470.158
-14560.6
0
0
-58332.9
0
0
0
0
-1949.52
0
0
102.244
0
0
0
0
0
0
0
0
0
597.891
0
0
0
0
0
0
0
0
0
104.092
-7398.44
0
0
0
0
0
0
0
0
0
0
347.04
0
0
0
0
0
0
0
0
0
0
0
0
0
0
0
0
0
-55.0107
0
0
0
-51916.9
0
0
0
-13992.7
89280.5
0
0
0
0
59.1702
0
0
0
80.8642
0
0
0
0
0
0
0
0
0
0
0
0
0
0
0
0
1930.65
0
0
0
-49852.2
0
0
0
0
0
0
0
0
0
0
0
223.81
36625.4
0
0
0
0
0
0
0
0
0
0
0
0
0
-1016.95
0
7210.38
0
0
0
0
0
0
0
0
9.43511
0
0
0
0
0
0
0
0
0
0
0
0
0
0
0
0
0
0
0
0
0
0
0
0
0
0
173536
0
0
0
0
0
0
0
0
0
0
0
0
0
32.3534
0
0
0
0
0
0
0
0
0
332623
0
0
0
0
292.238
0
0
0
0
0
0
0
0
0
13036.4
0
0
0
0
20414.7
0
0
0
0
0
0
0
0
0
0
0
0
0
0
0
0
0
0
0
0
0
0
-921.714
0
0
0
0
0
0
0
0
0
0
0
0
0
0
0
0
0
0
0
0
0
0
0
0
0
0
0
0
0
0
0
0
0
0
0
0
0
0
0
0
0
0
0
0
0
0
0
0
0
0
0
0
0
0
0
0
0
0
0
0
0
0
0
0
0
0
0
0
0
0
-670.668
0
0
0
0
0
0
0
30338.8
0
0
0
0
0
0
0
0
0
0
0
0
0
0
0
0
0
0
0
0
0
0
0
0
0
0
0
0
0
0
2053.03
0
0
-21.415
0
0
0
0
0
0
0
-79120.4
0
0
812.172
0
0
0
0
0
0
0
0
-17344.9
0
0
-504.344
0
0
0
0
0
0
0
0
0
0
0
0
0
0
0
0
0
0
0
0
0
0
0
0
0
0
0
0
0
0
0
0
0
0
0
0
0
0
0
0
0
0
0
0
0
0
-46.4128
0
0
0
0
23773.2
0
0
0
0
0
0
0
0
0
630.793
0
0
0
0
0
0
24199.7
0
0
0
0
0
0
-38.5714
0
0
0
0
0
0
0
0
0
0
0
0
0
0
0
0
9.11824
0
0
0
0
0
0
0
0
0
0
0
0
0
704.757
0
0
0
0
0
0
29.4477
0
0
0
0
0
0
0
0
0
0
0
0
0
0
0
0
0
0
0
0
0
-111.105
0
0
0
0
0
0
0
0
0
0
0
3056.53
0
0
0
0
0
0
0
0
0
0
0
-14.4454
0
0
0
0
0
0
0
-1379.9
0
0
0
0
0
0
0
0
0
0
9492
0
0
0
0
-17.4429
0
0
0
0
0
0
0
0
0
0
0
0
0
146.563
0
0
0
0
0
0
0
0
0
0
1122.38
21.544
0
0
0
0
0
0
27.9397
0
0
0
0
0
0
0
188.794
0
0
0
0
0
0
0
0
0
0
0
0
226.451
0
28087.7
0
0
0
0
0
0
0
0
0
0
-44.1139
0
0
0
0
0
0
0
0
6.13935
0
0
0
0
0
0
0
0
0
0
0
0
0
0
0
0
0
0
0
26.402
0
0
0
0
0
0
-9968.92
0
0
0
0
0
0
0
0
0
0
0
0
0
0
0
1219.11
0
0
0
0
0
0
0
0
0
0
0
0
0
0
0
0
0
0
0
0
0
0
0
0
0
0
0
0
0
0
0
1066.28
0
0
0
0
0
0
-27.8687
0
0
0
0
0
0
0
0
0
0
0
0
0
0
-7529.57
0
0
0
0
0
0
0
0
0
0
0
0
0
0
0
0
0
0
737.441
0
0
0
0
0
0
0
0
0
0
0
0
0
0
0
0
0
0
0
0
0
0
0
0
0
-346.341
0
0
0
-2298.74
0
0
0
0
0
0
0
0
0
0
0
0
0
0
0
80.8454
0
0
0
0
0
0
0
0
0
0
0
0
0
-642.897
0
0
0
0
0
0
0
0
0
0
0
0
0
0
0
0
0
0
0
0
0
0
0
0
0
0
0
0
15682.9
0
0
0
0
0
0
0
0
0
0
0
0
0
0
0
0
0
0
0
0
0
0
0
0
0
0
0
0
0
0
0
0
0
61251.3
0
0
0
0
0
0
0
0
0
-7187.66
0
0
0
0
0
0
0
0
0
0
0
0
0
0
0
0
0
0
0
0
0
0
0
0
0
0
0
0
0
0
0
0
0
0
0
0
0
0
0
0
0
0
0
0
0
0
0
0
0
0
0
0
0
0
0
0
0
0
0
-121.199
-140962
0
0
0
0
0
0
0
0
0
0
0
0
0
0
0
0
0
0
0
0
0
0
0
0
0
0
0
0
0
0
0
0
0
0
8.28005
0
0
0
0
0
0
0
0
0
0
0
0
0
0
0
0
0
0
0
-720.886
0
0
0
0
0
0
0
0
0
0
0
0
0
0
0
0
0
0
0
0
0
0
0
0
0
0
0
0
0
0
0
0
0
0
0
0
0
0
0
0
0
0
0
0
0
0
0
0
0
0
4.00163
0
0
0
0
0
0
0
0
0
0
0
0
0
0
0
0
0
0
0
0
0
0
0
0
0
0
0
0
159.133
0
0
0
0
0
0
0
0
0
0
-12.9683
0
0
0
0
0
0
0
0
0
0
0
0
0
0
49.4759
0
0
0
0
0
0
0
0
0
0
0
0
0
0
0
0
0
0
0
72327.8
0
0
0
0
0
0
0
0
0
0
0
0
0
0
0
0
0
0
-460.377
0
0
0
0
-23.8468
207.962
0
0
0
0
0
0
0
0
0
0
0
0
0
0
0
0
0
73.1838
0
0
0
0
0
-61.4861
0
0
0
0
0
0
0
0
0
0
0
0
0
0
0
0
0
0
0
0
0
0
0
0
0
0
0
0
4448.91
0
0
0
0
0
0
0
0
0
0
0
0
0
0
0
0
0
0
0
0
0
0
0
0
0
0
0
0
0
0
0
0
0
0
0
0
0
0
0
0
0
0
0
0
0
0
0
0
0
0
0
0
0
0
0
0
0
0
0
0
0
0
0
0
0
0
0
0
0
0
0
0
0
0
0
0
0
0
0
0
0
0
0
0
0
0
0
0
0
0
0
0
0
0
0
0
0
0
0
0
0
0
0
0
0
0
0
0
57862.9
0
0
0
0
0
0
0
0
0
0
0
0
0
0
0
0
0
0
0
0
0
0
0
0
0
0
0
0
0
0
0
0
0
0
0
0
0
0
0
0
0
0
0
0
0
0
0
0
0
0
0
0
0
-195.582
0
0
0
0
0
0
0
0
0
0
0
0
0
0
0
0
0
0
0
0
0
0
0
0
-2992.2
0
0
0
0
0
0
0
2459.1
0
0
-60.3943
0
0
0
0
0
0
0
0
0
0
0
0
0
0
0
0
0
0
0
0
0
0
0
0
0
0
0
0
0
0
0
0
0
0
0
0
0
0
0
0
0
0
0
0
0
0
0
0
0
0
0
0
0
0
0
0
0
0
0
0
-35.57
0
0
0
0
0
0
0
0
0
0
0
-131.009
-614.696
0
0
0
0
0
0
0
0
0
0
0
0
0
0
0
0
0
0
0
0
0
0
0
0
0
0
0
0
0
0
0
0
0
0
0
0
0
0
0
0
0
0
0
0
0
0
0
0
0
0
0
0
0
0
0
0
0
0
0
0
0
0
0
0
0
0
0
0
0
0
0
-44.2627
0
0
0
0
0
-46.9038
0
0
0
0
0
0
0
0
0
0
0
0
0
0
0
0
-37.2441
0
0
0
0
0
0
0
0
0
0
0
0
0
0
0
0
0
0
0
0
0
0
0
0
0
0
0
-7.66696
0
0
0
0
0
0
-11614.9
0
0
0
0
0
0
0
0
0
0
0.711221
0
0
0
0
0
0
0
0
0
0
0
0
0
0
-35.1259
0
0
0
0
0
0
0
0
0
0
0
0
0
0
0
0
0
-78.1459
0
0
0
0
0
0
0
0
0
0
0
0
0
0
0
0
0
0
0
0
0
0
0
0
0
0
0
0
0
0
0
0
0
0
0
0
0
0
0
0
0
0
0
0
0
0
0
0
4084.84
-384.817
0
0
0
0
0
0
0
0
0
0
0
0
0
0
0
0
0
0
0
0
0
0
0
0
0
0
0
0
0
0
0
0
0
0
-47.3156
0
0
0
0
0
0
0
0
0
0
0
0
0
0
0
0
0
0
0
0
0
0
0
0
0
0
0
0
0
0
0
0
0
-21.3066
0
0
0
0
0
0
0
0
0
0
0
0
0
0
0
0
0
0
0
0
0
0
0
0
0
0
0
0
0
0
0
0
0
0
0
0
0
0
0
0
0
0
0
0
0
0
0
0
0
0
0
0
73.559
0
0
0
0
0
0
0
0
0
0
0
0
0
0
0
0
0
0
0
0
0
0
0
0
0
0
0
0
0
0
0
0
0
0
0
0
0
0
0
0
0
0
0
0
0
47.349
0
0
0
0
0
0
0
0
0
0
0
0
0
0
0
0
0
0
0
0
0
0
0
0
0
0
0
0
0
0
0
0
0
0
12.7129
0
0
0
0
0
0
0
0
0
0
68.7005
0
0
0
0
0
0
0
0
0
0
0
0
0
0
0
0
0
0
0
0
0
0
0
0
0
0
0
0
0
0
0
0
0
0
0
0
0
0
-127.315
0
0
0
0
0
0
0
0
0
0
0
0
0
0
0
0
0
0
0
0
0
0
0
0
0
0
0
0
0
0
0
0
0
0
0
0
0
0
0
0
0
0
0
0
0
0
0
0
0
0
0
-205.282
0
0
0
0
0
0
0
0
0
0
0
0
0
0
0
0
0
0
0
0
0
0
0
0
0
0
0
0
0
0
0
0
0
0
0
0
0
0
0
0
0
0
0
0
0
-42.9675
0
0
0
0
0
0
0
-20031
0
-4.01108
0
0
0
0
0
0
0
0
0
0
0
0
0
0
0
0
0
0
0
0
0
0
0
0
0
0
0
0
0
0
0
0
0
0
0
0
0
0
0
0
0
0
0
0
0
0
0
0
0
0
0
0
0
0
0
0
0
0
0
0
0
0
0
0
0
0
0
0
0
0
0
0
0
0
0
0
0
0
0
0
0
0
0
0
0
0
0
2.5256
0
0
0
0
0
0
0
0
0
0
0
0
0
0
0
0
0
0
0
0
0
0
0
0
0
0
0
0
0
0
0
0
0
0
0
0
0
0
0
0
0
0
0
0
0
0
0
0
0
0
0
0
0
0
0
0
0
0
0
0
-2285.54
0
0
0
0
0
0
0
0
0
0
0
0
0
0
0
0
0
0
0
0
0
0
0
-36.2971
0
0
112.276
0
0
0
0
0
0
0
0
0
0
0
0
0
0
0
0
0
0
0
0
0
-37.1772
0
0
0
0
0
0
0
0
0
0
0
0
0
0
0
0
0
0
0
-31.0507
0
0
0
0
0
0
0
0
0
0
0
0
0
0
0
0
0
0
0
0
0
0
0
0
0
0
0
0
0
0
0
0
0
0
0
0
0
0
0
0
0
0
0
0
0
0
0
0
0
0
0
0
0
0
0
0
0
0
-41.2647
0
0
0
0
0
0
0
0
0
0
0
0
0
0
0
33.1819
0
0
0
0
0
0
0
0
0
0
0
0
0
-204.63
0
0
0
0
0
0
0
0
0
0
0
0
0
0
0
0
0
0
0
0
0
0
0
0
0
0
0
0
0
0
0
0
0
0
0
0
0
0
0
0
0
0
0
0
0
0
0
0
0
0
0
0
0
0
0
0
0
0
0
0
0
0
0
0
0
0
0
0
0
0
0
0
0
0
-6079.84
0
0
0
0
0
0
0
0
0
0
0.364712
0
0
0
0
0
0
0
0
0
0
-46602.9
0
0
0
0
0
0
0
0
0
0
0
0
0
0
0
0
0
0
0
0
0
0
0
0
0
-3081.43
0
0
0
0
0
0
0
0
0
0
0
0
0
0
0
0
0
0
0
-180.581
0
0
0
0
0
0
0
0
0
0
0
0
0
0
0
0
0
0
0
0
0
0
0
0
0
0
0
0
0
0
0
0
0
0
0
0
0
0
0
0
0
0
0
0
0
0
0
0
0
0
0
0
0
0
0
0
0
0
0
0
0
0
0
0
0
0
0
0
0
0
0
0
0
0
0
0
0
0
0
0
0
0
0
0
0
0
0
0
0
0
0
0
0
0
0
0
0
0
0
4.90663
0
0
0
0
0
0
0
0
0
0
0
0
0
0
0
0
0
0
0
0
0
0
0
0
0
0
0
0
0
0
0
0
0
0
0
0
0
0
0
0
0
0
0
0
0
0
0
0
0
0
0
0
0
0
0
0
0
0
0
0
0
0
0
0
0
0
0
0
0
0
0
0
0
0
0
0
0
0
0
0
0
0
-6.48723
0
0
0
0
0
0
0
0
0
0
0
0
0
0
0
0
0
-3.69643
0
0
0
0
0
0
0
0
0
0
0
0
0
0
0
0
0
0
-5.96203
0
-8020.72
0
0
0
0
0
0
0
0
0
0
0
0
0
0
0
0
0
0
0
0
0
0
0
0
0
0
0
0
0
0
0
0
0
0
0
0
0
0
0
0
0
0
0
0
0
0
0
0
0
0
0
0
0
0
0
0
0
0
0
0
0
0
0
0
0
0
0
-4872.83
0
0
0
0
0
0
0
0
0
0
0
0
0
0
0
0
0
0
0
0
0
0
0
0
0
0
0
0
0
0
0
0
0
0
0
0
-467.059
0
0
0
0
0
0
0
0
0
0
0
-6.22084
0
0
0
0
0
0
0
0
0
0
0
0
0
0
0
0
0
0
0
0
0
0
0
0
0
0
0
0
0
0
0
0
0
0
0
0
0
0
0
0
0
0
0
0
0
0
0
0
0
-16642.8
0
0
0
0
0
0
0
0
0
0
0
0
0
0
0
0
0
0
0
0
0
0
0
0
0
0
0
0
0
-393.641
0
0
0
0
0
0
0
0
0
0
0
0
0
0
0
0
0
0
0
0
0
0
0
0
0
0
0
0
0
0
0
0
0
0
0
0
0
0
0
0
0
0
0
0
0
0
0
0
0
0
0
0
0
0
0
0
0
0
0
0
0
0
0
0
0
0
0
0
0
0
0
0
0
0
0
0
0
0
0
0
0
0
0
0
0
0
0
0
0
0
0
0
0
0
0
0
0
0
0
0
0
0
0
0
0
0
0
0
0
0
0
0
0
0
0
0
0
0
0
0
0
0
0
0
0
0
0
0
0
0
0
0
0
-3.77487
0
0
0
0
0
0
0
0
0
0
0
0
0
0
0
0
0
0
0
0
0
0
0
0
0
0
0
0
0
0
0
0
0
0
0
0
0
0
0
0
0
0
0
0
0
0
0
0
0
0
0
0
0
0
0
0
0
0
0
0
0
0
0
0
0
0
0
0
0
0
0
0
0
0
0
0
0
0
0
0
0
0
0
0
0
0
0
0
0
0
0
0
0
0
0
0
0
0
0
0
0
0
0
0
0
0
0
0
0
0
0
0
0
0
0
0
0
0
0
0
0
0
0
0
0
83865.2
0
0
0
0
0
0
0
0
0
0
0
0
0
0
0
0
0
0
0
0
0
0
0
0
0
0
0
0
0
0
0
0
0
0
0
0
0
0
0
0
0
0
0
0
0
0
0
0
0
0
0
0
-106.149
0
0
0
0
0
0
0
0
0
0
0
0
0
0
0
0
0
0
0
0
0
0
0
0
0
0
0
0
0
0
0
0
0
0
69.7205
0
0
0
0
0
0
0
0
0
0
0
0
0
0
0
0
0
0
0
0
0
0
0
0
0
0
0
0
0
0
0
0
0
0
0
0
0
0
0
0
0
0
0
0
0
0
0
0
0
0
0
0
0
0
0
0
0
0
0
0
0
0
0
0
0
0
0
0
0
0
0
2.13196
0
0
0
0
0
0
0
0
0
0
0
0
0
0
0
0
0
0
0
0
0
0
0
0
0
0
0
0
0
0
0
0
0
0
0
0
0
0
0
0
0
0
0
0
0
0
0
0
0
0
0
0
0
0
0
0
0
0
0
0
0
0
0
0
0
0
0
0
0
0
0
0
0
0
0
0
0
0
0
0
0
0
0
0
0
0
0
0
0
0
0
0
0
0
0
0
0
0
0
0
0
0
0
-3.42787
0
0
0
0
0
0
0
0
0
0
0
0
0
0
0
0
0
0
-63584.1
0
0
0
0
0
0
0
0
0
0
0
-17.5445
0
0
0
0
0
0
0
0
0
-69.4135
0
0
0
-8.32799
0
0
0
0
0
0
0
0
0
0
0
0
0
0
0
0
0
0
0
0
0
0
0
0
0
0
0
0
0
0
0
0
0
0
0
0
0
0
0
0
0
0
0
0
0
0
0
0
0
0
0
0
0
0
0
0
0
0
0
0
0
0
0
0
0
0
0
0
0
0
0
0
0
-44.7762
0
0
0
0
0
0
0
0
0
0
0
0
0
0
0
0
0
0
0
0
0
0
0
0
0
0
0
0
0
0
0
0
0
0
0
0
0
0
0
0
0
0
0
0
0
0
0
0
0
0
0
0
0
0
0
0
0
0
0
0
0
0
0
0
0
0
0
0
0
0
0
0
0
0
0
0
0
0
0
0
0
0
0
0
0
0
0
0
0
0
0
0
0
0
0
0
0
0
0
0
0
0
0
0
0
0
0
0
0
0
0
0
0
0
0
0
0
0
0
0
0
0
0.343913
0
0
0
0
0
0
0
0
0
0
0
0
0
0
0
0
0
0
0
0
0
0
0
0
0
0
0
0
0
0
0
0
0
0
0
0
0
0
0
0
0
0
0
0
0
0
0
0
0
0
0
0
0
0
0
0
0
0
0
0
0
0
0
-134.223
0
0
0
0
0
0
0
0
0
0
0
0
0
0
0
0
0
0
0
0
0
0
0
0
0
0
0
0
0.428344
0
0
0
0
0
0
0
0
0
0
0
0
0
0
0
0
0
0
0
0
0
0
0
0
0
0
0
0
0
0
0
-2.89181
0
0
0
0
0
0
0
0
0
0
0
0
0
0
0
0
0
0
0
0
0
0
0
0
0
0
0
0
0
0
0
0
0
0
0
0
0
0
0
0
0
0
0
0
0
0
0
0
0
0
0
0
0
0
0
0
0
0
0
0
0
0
0
0
0
0
0
0
0
0
0
0
0
0
0
0
0
0
0
0
0
0
0
0
0
0
0
0
0
0
0
0
0
0
0
0
0
0
0
0
0
0
0
0
0
0
0
0
0
0
0
0
0
0
0
0
0
0
0
0
0
0
0
0
0
0
0
0
0
0
0
0
0
0
0
0
0
0
0
0
0
0
0
0
0
0
0
0
0
0
0
0
0
0
0
0
0
0
0
0
0
0
0
0
0
0
0
0
0
0
0
0
0
0
0
0
0
0
0
0
0
118.206
0
0
0
0
0
0
0
0
0
0
0
0
0
0
0
0
0
0
0
0
0
0
0
0
0
0
0
0
0
0
0
0
0
0
-4185.11
0
0
0
0
0
0
0
0
0
0
0
0
0
0
0
0
-1.77893
0
0
0
0
0
0
0
0
0
0
0
0
0
0
0
0
0
0
0
0
0
0
0
0
0
0
0
0
0
0
0
0
0
0
0
0
0
0
0
0
0
0
0
0
0
0
0
0
0
0
0
0
0
0
0
0
0
0
0
0
0
0
0
0
0
0
0
0
0
0
0
0
0
0
0
0
0
0
0
0
0
0
0
-1.28871
0
0
0
0
0
0
-44.1857
0
-6.22084
0
0
-5.6186
0
0
0
0
0
0
0
0
0
0
0
0
0
0
0
0
0
0
0
0
0
0
0
0
0
0
0
0
0
0
0
0
0
0
0
0
0
0
-544.541
