booster[0]:
bias:
-157.742
weight:
15.0504
0
0
-109701
-644875
-122.141
-243.53
350.371
-216.388
-21.4766
12386.2
-1402.99
-1049.89
-343.266
-5560.79
-227.797
-193.089
-2724.16
-142.849
-1223.13
-2480.96
145.12
1581.1
1607.44
1557.4
-28403.9
2217.94
39150.7
75.957
148.517
46515.6
-550.755
-2519.71
-621.469
1298.71
274595
-11002.6
-1594.56
12908.7
1.43148e+07
-7866
-84813.2
149.029
-672607
148.424
11143.6
-2179.2
272.577
-111338
147.912
336.708
-1774.81
-1.53233e+06
93129.5
-95560.2
-9241.16
-795307
65.6908
538.397
226656
45229.7
937.328
-87.7925
-365.513
148.397
-1164.7
-865.672
-162044
-726.436
2739.77
541.734
-549.018
-276698
-1778.02
2715.62
10161.3
-11081.9
-1327.84
2.53528e+06
65.0035
-469032
-2034.91
-110.067
-3473.63
-150.698
2.08955e+06
-430939
3467.05
-59120.5
378.86
-3229.51
-578.96
-854.88
-374.103
-79640.7
511418
1179.98
-323.631
-118.333
1.93317e+06
-123000
-7.78945e+06
2541.01
2350.68
3725.21
-1046.01
868.183
-7774.21
7659.82
-1444.29
4838.64
-293.686
-15308.3
1209.82
-562.8
-6356.14
466.689
-467.2
15301.8
1.19233e+07
-1516.35
-51468.7
-4943.44
1441.58
105656
-15732.6
15629.4
2033.84
-391.617
4136.74
245.222
-740.662
11150.1
-81035.8
7136.15
8797.12
1118.43
933.681
-2.2874e+06
-150.901
-477.673
29671.4
-1416.44
-916215
-206.862
30.9961
-156.148
-103.749
208.095
144.062
2.66234e+06
-6283.33
-1.38766e+06
143.538
-300.13
1944.14
-223810
-374120
-1794.79
-196367
109.62
10979.7
-2400.04
463.945
-195850
-12141.1
-211025
848493
1476.59
-55467.3
453274
-32295.7
-3.6535e+06
112237
167975
-108.778
40377.2
-2.51648e+06
81.1008
128.562
1422.89
12337.5
-2165.73
233.233
-764969
901.168
3.68557e+06
472.79
-1860.27
-27103.4
-828.129
3455.99
-2.05026e+06
1232.58
71672.2
2471.25
-6216.52
-1402.14
-11454.3
-97919.3
2032.46
111291
15.1048
-62271.8
-114990
107583
394106
889.509
738.5
-5509
3.12043e+06
-6402.22
1220.05
332.847
-411069
-10669.4
4112.38
372047
28.7808
3104.73
-88.6477
-5248.29
3097.27
22.8532
249.056
-891.765
-48.9892
635.207
127.569
740.187
22662.5
-213922
7152.25
157822
-10225.1
-1785.56
-109.103
589335
288556
25017.6
485.465
-253.418
139.495
648.21
-1136
-331.325
-31.9023
-489.704
-28669.8
86.4
3886.29
9304.57
-115.776
8653.84
-1.27553e+06
761.367
-1.06714
28.4553
1727.83
-48.1255
-1035.23
-234.655
-723.508
-604.603
7081.35
-318.292
210.067
-1.20575e+06
1.5898e+06
-413009
-24051.9
222.8
596.481
716810
-51.1604
18024.8
1242.23
-10664.4
569010
1319.99
25972.2
193140
689.497
541.447
33.2792
-1.09674e+06
345.236
67232.4
-61.1612
-1701.16
-11328.3
8778.35
-14336.8
24.3942
-921.543
17391.4
116.637
465.97
46151.4
-532496
3.65711e+06
-457.142
27653.3
533.362
-4369.64
-100223
79.7112
-5139.36
-12.6793
-803.496
-464823
-55950.2
61808.8
-2568.2
127.717
516.388
-420.459
143.712
442.543
648.752
11.8488
3253.6
-501.55
95518.6
-12388.2
-422.045
631.632
-64.255
42576.8
1484.18
-11368.9
389.163
8309.89
33599.9
159950
-157411
1.40179
-377.474
-79420.1
1378.22
137.231
995.052
9410.06
-1285.78
7.1887
-8.719e+06
659.027
518325
62091.7
-510643
-1.1079e+06
285.95
-10290.3
15361
-141309
-1702
3.76332e+06
-218.597
-0.753913
-88.4977
357738
-27761.5
746.294
-4291.72
-56291.6
34235.6
769.561
20885
248.812
8991.18
11912
1258.11
-2107.92
-9805.6
-184.186
-620.493
-360.675
-585.987
-239.034
324.02
-3.34682e+06
56083.1
-1013.48
-904.949
-1679.79
-82.5823
-275.723
-122228
10210.7
1375.79
24562
-222.425
5.1698e+06
334.739
7954.92
-3539.45
-22394.9
477.841
-24.2048
1913.81
-797.557
740.666
1415.3
-250480
706.639
-96081.4
108.759
107.828
6141.21
71492.4
-1.74755e+06
246048
57380.2
-1581.77
-229.895
14110.8
2409.94
349.791
3763.9
22.2559
20124.5
-232.669
-2.1786
98463.2
-13654.1
9704.39
-6519.88
-234.114
871.987
225640
-517.025
-6269.37
-0.224573
-736.416
-16072.5
-133.791
-1654.1
-0.0537245
-754418
-574.537
72.3345
0.160938
-10423.7
-22.4073
18100.7
-0.369355
-994.421
51898.9
7670.79
384.114
24.8696
-90.3108
24813.8
-966.252
-1035.13
1439.79
5815.17
-1509.53
240423
-1362.52
629.071
-20.8181
-85.9587
5942.72
1017.33
-54.9364
28700.8
-12.9504
375.837
256.368
-116.431
-2665.52
-37.1696
-3886.08
161.625
85801.4
6688.76
189.715
944196
-300.767
228796
17403.4
-23.4231
446197
578.093
-4279.04
-38514
1783.39
961.694
232.819
-465355
-11.8781
502.352
-2886.69
-340.272
-143.883
-30368
1786.08
-84909
579.468
-92555.5
249.351
1.76563
-2.0763e+06
-79.051
87402.4
427.225
1903.15
-371893
-22537.3
0.381466
-165074
92859.1
-208273
739166
-477.985
81.0747
59107.1
31693
78493.4
615.582
-6136.85
-132.617
-2074.04
-20.3689
85582.5
0.194775
-83.5402
8.24972
558.111
-14485.7
-229.434
-715.147
-668.618
-251.383
146123
-16601.7
465.684
-84290.3
11618.9
179.393
1090.8
98.1575
1757.33
227.128
141.728
2736.76
-1664.61
97.0505
-232.278
-2258.09
-426.034
27869.5
-37752.3
-26.444
-28.1013
4.35414
26631.2
-2.37456
255812
10427.4
3466.37
65.6298
7290.14
-89219.4
-247.367
13685.4
-599170
118.01
1.15722e+06
-506518
460939
4641.33
-1107.55
1954.65
38.5485
-387.415
-65356.9
3340.88
-279.488
198.767
-30.7929
9.25661
-517.994
313.11
-182297
-226.049
500342
443930
-5325.7
218.111
1.28017
972.107
551.536
0.881426
0.0392139
291.105
-38335.8
851.625
-791.676
1.08265e+06
147.433
76.5126
-2402.71
-1339.16
865.204
-27.4765
-122.242
-8.16182
-290.856
139.445
-189.716
-776.678
-7617.03
-25.0085
-36.8355
-2796.17
-12.5216
567.103
8033.27
751.221
9.91237
-6251.37
114.667
-21237.9
106.316
2947.46
87.2305
-129033
1.06826
1688.19
117.691
-2134.4
34.8497
-2541.19
-10149.5
16023.8
-225.279
-0.244531
20.0509
-1006.17
391.328
516.237
3399.44
451.112
-22745.6
-682.102
42655.3
31461.3
798.684
-30970.1
-171.802
-1683.84
232.42
1237.73
873.421
14718.7
-7.86317
-60.4873
-23.216
50.7755
161.672
2971.13
-0.382318
-12976
103.516
-6.08661
-861.717
2229.69
193.693
13.5479
0.837162
131.646
-3.79921
10972.1
69.2209
-15.8968
41290.6
-75.6063
19938.9
-352.713
-91234.8
106.573
75495.4
-248.548
-35.7395
-0.00562837
-0.135156
191.751
-725.797
-28288
718.093
1061.91
420.477
-1000.43
51.6085
451.706
66.3783
-48.9246
-32.9292
140334
19630.1
-214.672
-111.827
6325.96
-12529.8
-56891.9
-740.435
71.7665
1786.62
-402.257
34539.8
-80.1964
-1458.12
-11.4919
-5861.96
-35.0516
-149.928
-301.785
-178.722
-77.7784
-12.3567
91.9276
-139.788
2.31856
-1427.47
-138.41
-6066.4
-35.4582
-37.78
108.601
-18.6205
-40.715
0.63174
-0.27724
115349
-258.528
7.31767
-8489.34
214.492
-48.8831
-37469.7
-17.1033
-114.5
1.59801e+06
-12095
-1023.12
85859.3
1838.54
-25167.1
-222.687
-1333.63
7296.28
-876.138
83267.3
-12.2577
-82.944
0.229045
-86.6714
71434.4
-3072.16
-2.18639
80.3669
-16.6288
0.0280127
-118.227
-3.51615
-11.6287
-1.30089
-2775.24
-3522.46
29.7263
4443.15
-60450.6
656.315
-122.096
-915.526
-1.4616
239.812
187.138
210.029
65455.9
-12.0077
794.831
-40.6389
-97865.1
0.645934
70972.6
88.9435
-23317.8
94.0852
11.0051
-40.8158
-41.8163
-25.0462
-1.40075
72.161
-31175.9
-74.7028
1066.02
2825.35
-18.1311
3.31534
-4201.46
-546.329
6.03862
-479.645
-149.503
168.66
-45.1518
267.339
653.449
156.985
-2.27354
84323.3
-3870.02
-85.8766
-1.28003
7220.43
-266.386
-28.142
-83.4387
1656.9
285.273
-33.3843
41.2639
-12.3638
-903.169
-11.618
-143.671
0.253624
-870.087
-37.3802
695.174
0.816211
-71416.3
62.9937
-91.5287
177.28
7.24429
-365.652
2018.63
1864.95
28.9733
-0.749744
1136.92
-466.882
4.22375
-10.529
0.797281
-42.9829
345440
-248.227
-7126.11
-430.479
-55949.5
2038.97
-81.7363
-0.225669
43042.4
109.876
2.03863
-24.3993
287.346
-15.7747
-9.0665
83212.1
-1008.54
-209177
-7.95974
83097
373.127
424.582
86.3341
-240.445
-6501.77
-18.9185
-1097.34
642.076
0.947059
-10.1399
-9.92818
-72.6176
-92.8383
82.6543
-109.114
-1.35585
-81.1146
-34.5622
41265.3
445.892
-29704
341.243
3371.69
-80.7121
2720.1
-8.61558
-13.4589
18048.9
460.431
32.4296
-30.4953
52.1865
0.00214851
9975.13
-105.632
46.4749
7.49061
4489.15
144.859
-62488.1
15275
202.667
1545.13
55.8117
-28.8843
40.3339
-73.9573
-1145.66
-48.4199
-388.922
-11252.8
-1478.96
67.6128
-24057.8
-12159.4
-3358.72
-15.4757
-278.214
-1136.16
24.9135
-349.138
-607.603
-5.45955
136372
-2310.68
-32.6885
134.08
682786
88.5843
-2151.55
211.057
17578.6
906.968
6083.47
-35606.7
-323.123
492.128
-7.35127
-12.4518
29652.5
-118.402
1390.56
-210.865
6.60401
-10.94
-68.5007
-12.7167
1202.57
-510.227
-25.8704
48.3475
1895.39
-184.727
-7.97035
-7.6567
547169
544.233
-181.044
-9.79051
-192.454
-1868.31
16.9814
94575.8
37342.5
-303.171
-11.8713
2249.64
103.594
7.13401
5.76238
933.946
-25.4187
-62.1714
-4886.51
-663.277
-8586.68
8652.88
-25.3153
-0.660808
-166.575
7.30608
-70.5639
-8165.17
2031.11
2982.97
-14.6136
239294
1706.78
330550
-19.0992
57.946
-856.317
-509.447
-9.73222
-1049.55
113061
99.787
540.919
-1167.96
-0.240019
28.6066
10.527
-2425.92
-27.5297
-2.89313
134.352
1.55171e+06
-10.1826
-38.6833
-54.8612
22.4258
1.49109
31.7911
15.9146
-12.6893
26.9615
-9.93728
-280.656
-10.359
-313.101
-404.762
59.3811
-272.595
59.2652
1197
-2.1281
2380.76
-14.7437
250.85
107.774
2963.46
-85627.4
31.6831
-108926
-76.6952
-1569.23
71.2611
-662.339
30105.8
9.69364
-33170.2
-8.31161
144.374
-320.422
5.26531
-11570.3
-218.232
342.839
774.081
-60.7973
667.159
-51.8731
126443
-21.0862
343843
262129
-465.667
9939.14
-3573.69
-8.41949
-3917.82
-1626.32
-162.872
-3.61443
-127.451
-51.9426
104.316
3230.24
-15807.8
31.4339
-107.51
-10.0836
46.0556
12.4884
-511.125
-160.745
816.244
29.499
56.947
8.33562
-1.0048
-276.801
75.9601
-6.05983
76.108
-300.101
-47505.6
-1191.58
-36.4623
-17.9769
-1610.58
-179.127
-471.816
37.0731
231.106
-31.4374
109.165
-17.3119
-10302.3
-695.534
298490
-264.285
-8.72027
-23381.2
135.202
390.797
-23.0984
213442
-204.872
25.7491
-983.106
84.8502
30.0849
-83.8873
-19855.8
-271.945
7939.93
-28.6962
-5.40985
43.811
-4.01035
283.007
-8.65697
97.9632
-1.35336
-36.9429
1894.45
-1628.99
-393069
-2.02056
3878.09
-41348.4
6859.5
5204
-4213.38
18.064
-683.423
138.855
-95.2734
-24.3266
-0.496696
-0.0751791
-263.037
-232.034
34.6592
-20.878
-84.4032
-15171.8
302259
-17.3877
-0.402894
-8.46712
-0.724762
171430
-19.6992
-175.283
-16.8039
16597.9
-8323.27
28.8146
-15.5389
-26.1378
-25.9209
-4876.32
-4.72385
-73.7738
-4.33581
60.1928
-3611.32
65.6872
-326.791
6.50961
3140.66
-26.1506
7722.13
12.3617
-107.033
-32.4526
70.1274
-18.0879
-27800.9
10.0103
267.799
-150.516
62.7188
-109.191
30.3158
28.6365
0.412286
4.96192
3519.64
52.2538
-11.0312
-36417
-33.262
-1295.99
35.2828
1.69412
7.37881
12634.7
-11773.9
-70.6833
2068.51
-7.23614
-9238.39
2.6124
-7449.93
19.4848
-9157.35
192.274
-15.3999
-18809.2
-389.976
118.525
-0.921565
4.4031
81.9901
71.8305
-4618.63
-9.92766
-12227.5
-8.63685
-123.613
-6.2049
-4.50866
-496.238
130.161
-190.708
21.5153
-1814.37
-5219.88
0.143513
-94.1472
-63.0112
119.618
-107.262
-5.64394
52.5871
1.37907
645314
-402.124
111.71
503.05
-172.181
-18229.1
-6.32706
-68.4776
13766.8
-19177
71.7792
-281.319
-125.358
-15.5538
261.353
12.3477
-72318.7
-4030.32
-599.266
63.8251
880.719
448.416
1.01443
-131.882
-195.142
-24.2072
1217.05
1.98593
-10652.9
702.401
452.035
1509.76
14222.3
-9.31344
-76769.5
10.084
154.337
-3.94776
-303.457
-86.7397
592.982
19.4273
-5754.38
3.68096
-0.438835
45.9487
0.270296
115.858
-16.3258
-9.5639
-80.3155
462.991
-2.60242
-287.717
219.692
-620.009
107260
9551.96
625.152
-3602.87
-23.6676
-0.0814943
528.627
238.897
-55.6182
2.05314
292.59
-66940.7
-1976.55
-759.859
-53.7715
26605.6
-91436.4
-21.4786
-221.342
-2.70781
-38.9837
120.66
21.0423
301.052
-33.2419
-35.1902
6.51273
-8.47107
22.0082
2.6789
-11.1783
-78.2627
-84.5555
-532.353
3645.26
-525.121
20.7549
0.741067
-63.2365
613.09
-82750.9
-105.66
-29520.6
6.34579
-50.2659
-6.14151
264.696
-26.6444
-3.2721
-2623.53
1.47428
-0.528587
23037.7
0.589302
-95.5957
-1761.97
-2.80042
-10.2987
-9.15731
-14.7942
309.507
-626.854
-30.7773
18.367
-4.5279
-979.912
-36.2912
21.6943
-259.676
1501.45
424.7
44.1936
-17.5198
-26.3796
7.85112
94.2323
-0.693475
138.551
-39.4648
12533
2576.67
24.1084
-2714.08
89.4938
-39.4499
8587.73
31.023
-3099.4
-11537.3
-9.33382
-71.6056
-134.896
-10.7334
-891.785
238.941
-88.4782
-1262.38
-8.15234
4.04641
-1363.66
-18.3513
-16.6363
-23.6525
-0.723668
94015.1
-8.70862
80.6699
-186.055
-6249.28
23.2935
141.814
-24.353
-293.298
3.27468
-6299.03
150652
-1.93433
-107.54
-0.754546
101.29
-58.3509
192.979
1449.73
-12407
-15.1489
-202.689
27.4009
20.5385
75.7551
-341.123
93.1095
-2.32772
-115.881
1113.42
-534.228
1.14484
-89.9371
-2763.9
-184.768
27300.7
725.806
-421.26
31.5827
389.776
69.1164
-10.0175
-15.3045
3235.26
-511.595
-4802.68
123181
-91.0761
-8.24519
380.675
12198.6
-110.841
-1436.52
-50909.2
-12829.8
-0.684107
1084.39
71.2769
60.3898
-27916.1
-67262.1
-2.60302
-41.2166
-143.752
-9.60282
-6578.87
-395.942
148.773
-1014.24
6834.35
8.09928
-13.8047
18.8474
972.126
1706.72
138662
-51.1432
-19.9531
-23103.1
322.168
62330.2
357.727
-1377.2
-871.454
-12.0891
-774.391
-47.0569
-5176.96
-1110.73
-1487.15
92130.1
-1007.54
6.92659
-19.1996
44.8341
3700.63
-41.415
-173.505
-403.475
-5631.66
-20.3792
-30.2737
-19.5498
11.6581
-268.665
-398.302
-12.9805
-4259.8
-415.214
-0.799214
-3.97944
85641.2
-6.8648
-31.5754
-16.8859
613.338
-10598.6
-14.2988
-7.20607
2596.53
-407.217
46.134
-1302.42
-17.9294
121.036
-16.1026
159.152
-781.36
21.4826
-632.2
15835.9
25669.8
-528.688
-270.518
-0.804231
-52.6179
-2905.54
-8.07203
-185.024
-10.7765
-3399.51
18.5749
-1.78574
-11285.3
61.2526
-1159.8
-13.1551
105.19
-8.30236
0.0357867
-21519.5
631.047
-32.3713
-337.67
-12.5104
19.2262
-29.2905
-26428.4
-180.069
-29.1757
-16.7379
7.24948
649.043
41.2725
155.128
-20.9787
-13.5495
5729.47
-56881.4
-13.4416
12.773
6.74196
-213.216
5767.98
-1.7527
-30357.1
-20.5796
-13.9754
0.197092
88.1609
-4.83165
-15.8383
239.518
7161.21
-128.633
310.127
-18.6732
-14.2375
0.0963596
230.052
2.49039
-7.76505
-79.9162
-220.562
22680.7
20.9636
-16.5799
14641
-11.0057
909.085
-6.06831
70552.8
102.99
6.90961
-2.42957
284.399
64.9847
41.4552
15.2742
-27.9606
-15.4281
-2711.97
-83.119
1.90041
107.985
85.4037
-10685.6
-10.4359
-75.7166
-428.464
15.5776
77668.9
14024.6
-211.331
11.7715
-276.019
-9.21581
989.104
245.959
-584.412
25497.3
22.6121
-20.2481
-3.67114
-54.7856
0.268188
-80659.6
-9.61932
1282.67
12.4095
2.75557
0
18.5973
-20.095
-6.60189
-58.5681
26.9858
-618.642
-30.316
-14.3067
-28.2882
-17.1965
-146.035
-26.9173
-46.7668
-3317.6
-20.0513
-116.941
-188.888
-7.00028
-0.57748
67132.4
-1009.52
-202.747
-5562.2
-9.09882
-123485
0.419475
770.35
-5.83115
13.4024
-2183.86
-9.10377
-683.301
-4.28331
14.2483
2.98597
-801.215
5.26397
-11.7799
-193.582
-18068.4
-48.1862
852.114
81.6119
4.31387
61.9342
-29.2807
356.297
-8391
-81.7954
570.75
16.2246
-11.0184
-15041.6
-17.2271
2.32355
-1.98833
8.57771
11495.7
-2165.08
1.2787
-261.286
-9.08089
-65.5556
-366.302
-3594.19
-13.7479
6.90634
-40.7842
-582.901
-39929.2
-18.0647
52.6375
6.10323
1.21426
-12.3069
-110.887
-0.931808
-33509.7
-1.33856
-10.5019
-56.8958
-20.7202
44.8376
-2.42118
-1.47716
-4.51782
3.17398
-6.35719
-8232.83
273.444
-24.1545
92.6057
-8.87016
-8205.54
-5321.53
4.34461
-477.281
-137.968
-117.911
-9.58108
-13627.4
-9.52505
-71.558
-13.552
3581.84
-4.27949
2.59063
-9.00107
324.981
38.9948
-83.2515
195114
-53.724
-2.09048
-25605.2
0.263304
57.2145
-531.556
-7974.61
-30301.3
659.158
-8283.95
-10.2366
-1473.1
5695.33
-2623.12
-16.9653
-5340.61
-191.934
-34.0258
76.4796
1.44609
46.7814
1.85098
6341.1
-9.42375
-10.0005
-6468.82
-33.8915
-38.4192
-71.5534
-13983
-84988.5
-337.968
0.14449
-442.523
1083.62
628.458
319.495
-8.77522
-1518.17
-7605.24
-13.4705
187.254
-61.0082
-138.001
214.421
94.8087
421.952
85423
273.19
-1207.55
-44094.8
-15.5537
60.7251
-46.0779
22.4464
-70503
862.439
13.2855
10308.1
-82215.5
-192.599
900.667
-41344.7
-61.5552
39.7826
-3.05671
-143621
-129.519
-9.79883
36060.7
-16.933
-123.227
-28.4686
-2823.03
127.589
12.1356
6.54804
49.7618
-86.0324
285.214
-12024.3
3.27744
47.27
-87.373
-14.9845
601.619
-61.448
-0.196817
-91.8056
-12890.9
-53741.2
-15.4198
709.078
-25.0734
-6.53472
-9.32927
700.654
-37.2799
97256.5
-482.48
-134.568
52.8493
-11.0699
-1.32175
309.162
254.124
2.87624
136.146
116561
428.881
227.779
-9750.18
-39.5797
-12.051
17474.6
-13.1991
-73.5222
-156.279
3.04967
29.475
2.45473
121.537
1492.5
93.1974
-411.61
27.716
9.89392
-36812.2
-1.98865
470.529
7268.02
-115.179
2.42049
6.30464
-17.0946
214.878
-9.579
0.288619
-9.72115
2244.39
-1.87942
-6.32491
388.025
-4017.75
-11.0747
-3.27606
-37943.1
-80.6357
-13001
-485.775
1794.12
-2807.43
-88.0133
-24.6144
-8.27837
-1.46702
-8.40137
18586.2
-35.9565
-46315
-35589.7
-72.9909
-39993.1
166.034
37490.7
-0.900308
-46.6108
54.6097
-27868.3
7.63299
0.433557
24.3769
-7.88411
-33.3909
299.724
-706.782
87.5908
0.978735
-4.28809
6.27966
0.516227
-9.1149
-376.473
274.926
-8.11778
-60.3012
232.438
14.0566
1.22693
-10.2922
-32.704
13.6778
-124.674
-8201.55
-4.70525
-119.402
-12.4254
-522.441
1501.03
-443.672
-42.7321
-10966.6
6.94756
-16.6306
-3.13481
-10.4629
-23.1093
-16.3598
40.4111
-20.6357
7.87541
-21.3828
-455.029
-61.6375
-65.879
0.0813242
-14644.6
795.013
-2.01711
-39.4777
3518.32
-188.288
116.101
-18.3529
-1800.79
-64.8421
-57.3663
34.8722
-0.621347
7.49527
-1.56855
-4.48533
19.4553
-73.9013
44.8962
-1271.08
-76465.2
-1298.84
-0.230006
-11.6706
10.602
-10.098
-218.236
-3.34664
-0.696707
586.145
-404.295
24.3206
-108.978
6779.44
-129.454
79.6427
-59.6554
-1.6082
-9.97155
4332.3
-114.656
-215.669
-31431.4
-6482.73
11.2988
-11.0543
290.936
-33.6114
586.817
-2603.31
34131.4
-9950.98
-51.75
217.35
-9.96728
-97.4513
162.573
8.42377
-22.1275
67.1046
-12.4211
-13.7155
-11.92
-10.8222
-738.817
-3884.98
-2282.05
-6.52364
-114.141
34.427
-0.660711
-5.95153
415.635
-1641.45
-13.8733
5.52564
-2.5815
91.7535
97.0828
-87.2289
-165.798
0.273975
18048.1
-1934.2
850.659
-223.68
391.203
-32.5853
-725.291
-3.81978
4.3503
-8.98825
-107.048
49.3076
9.70024
-6.67448
0.319253
-1.08987
-854.699
-6809.18
851.757
6352.41
-15.0076
64.2806
-26.5288
101.911
-58998.3
-89.7058
4.21856
-214.449
-17.9677
11458.7
-69.3085
-896.104
-331.532
29.2904
128633
-7.63758
-0.865205
-59.4339
62.4197
-55.1126
24.2961
361.572
-10.0772
-3677.9
-2207.93
36.1793
-27.1641
-3141.87
-790.798
929.003
0.522096
-1653.54
-21.4298
-14296.9
-156.85
38.2553
-7.62765
-10.2232
-581.124
-66.414
-6056.06
-835.877
-11.8774
-238.349
-10.2682
61.1937
-56.2786
-32.364
-10.7992
-225.148
-280.476
-162.033
-1.14947
40.7926
-3951.49
-5230.93
20.4742
-92.55
-20261
6.4382
-15792.8
-9.54985
-74.4556
-29.3278
21.151
-9.70105
6507.38
-3.82754
49.9895
-43999.2
-663.352
9.83273
-32.959
-78112.2
-12.3273
-20.7532
-68725.7
1.94713
-25511.1
-5.67339
-42182.9
-33287.4
-4.63743
-1522.89
-45.8415
-22.7094
-288.164
-49.966
-57.8455
28.7054
-64.1555
-1.87572
-3366.27
-6.37079
-20.2549
19.3529
-179.487
-15.3419
-135.331
-23391.1
-0.158689
-626.66
-65826.4
-18.3744
32.0082
-336.318
-9.22409
-11.1225
-65.8437
-5.12781
254.297
-27.627
-675.745
-139.386
2.45575
0.0370566
-12.6267
-1426.51
-263.05
-74287.8
3029.6
-8.68774
-29.5088
0.825014
-10.7525
-8.11732
30.9769
229.48
66.0361
-21.9265
7.70195
-65.5215
-68123
-907.707
-142.06
-16710
304.786
22.4136
10911.8
-28.8121
17156.9
-1011.87
-37.5607
-38.3535
5536.09
139.966
-1.93187
2.85556
-85.722
-28.1204
-621.065
10.8366
-206.859
-6.05706
0.600237
3.79514
-30988.2
1361.37
2.76047
5130.4
-351.93
10.3279
635.583
-10.0505
-46629.1
12.4528
3458.7
-619.044
-10665.7
-4.56037
19.2114
-177.083
242.743
-27.8511
-1317.83
-22.4573
-63.1048
-2537.35
-11.2498
-34.591
-73.7387
-206.526
9.73161
-50397
-1.1897
12.2082
11.3085
-65.6413
5.99269
16.4018
-49.9862
39.9126
-1915.37
-146.99
28.3377
-127.888
-275.359
-9.19491
-15.3487
-18.7963
-920.135
21869.3
-26.7112
1241.23
3.63591
-1.56682
62.3049
-5.25526
-1572.81
81.7897
64.0165
303.564
-5.98374
387.178
-0.196091
1684.58
0.0522861
16.6057
-2105.22
-11.8727
2520.28
31.281
-7.27693
-14902.8
-4.79242
641.301
-37.6448
0.0338324
-9.40518
-5705.54
-0.257829
1.25544
12.0461
21.6494
-21572.2
11.4288
4.35239
-23450.2
-22096
2.78145
113.695
-19.7527
-505.162
-2.53613
-19312
-0.239419
-74.1675
41.9946
-0.427602
0.219917
41.9462
-5.03928
369.025
-11.1446
-14.9903
37.1393
-153.158
-3339.73
22.5392
32.3772
-39.6728
-4.90793
-743.18
25345.8
-177.172
-0.0923835
9.41571
-29.6833
-84.5866
-151.555
1.58358
-54.9673
-2.00898
240.097
-3.83517
-1173.83
0.482258
1.70426
-3.14139
5.27263
25.9853
-5989.55
163.381
-582.294
1.37066
119.19
-361.846
-38.4764
4.07883
5.71526
-0.142146
-5.2911
-0.668001
45.4423
-229.094
247.082
-12.9954
201.312
58.6574
-114144
-113.21
-55.6373
-303.174
183.337
-8.76308
-5.48922
-5563.67
-1.20031
-331.945
453.216
-5.68279
-2822.95
-45786.8
-529.602
-16.6813
-218.177
-235.009
-44575.6
-16.5892
-8.17244
0.309811
-18913.6
-4.01729
-32.803
40218.8
-578.537
-5270.18
-570.702
-14528.3
-26.4109
-1.92787
-12.3559
284.784
-37.3241
116.557
-26.9011
-2085.37
-5185.94
-265.336
-0.758301
-18.293
-8.97002
-6.05848
596.589
4.14218
-13.0441
-2.90359
-442.93
26156.3
-9.76735
-9.88226
-12.6617
-1.06411
-1565.68
-4.8325
-39.1469
480.414
-25.889
-7027.82
372.662
-566.221
-8466.91
1.24939
-63.7803
-686.549
-2381.08
-29.1222
-20.569
-189.221
409.384
-284.532
-16.446
-6.01922
-3372.93
273.927
-25.9216
0.88089
-7.23675
14.3331
499.588
2515.53
-81.7911
2047.51
-1.25813
-8.25341
-1.2062
-19.0564
24.258
-10747.7
-9.4368
-5200.76
13.6345
2766.55
-2.59448
829.996
-21848.1
-613.809
-778.682
-96.9771
-117.22
-1.81451
42.612
10.1185
1208.25
-904.038
132.07
-12.0557
-1576.23
-39.8408
-4490.57
-5.08947
-9485.77
-4.47774
214.256
2.24746
-10.5138
1.2344
17.5525
-11248.1
446.06
-6836.65
252.033
-15.4919
-22.0778
-10.8658
-309.106
-9.31027
115.886
-841.459
-46.0703
1.36815
-65.4124
-41.9128
-15.5782
-113.306
49.4872
-142.436
-32019.7
-1016.1
611.526
-246.363
-41.3774
7.8793
-23339
-0.527058
-3705.23
-0.743371
0.453786
-2432.1
8.91888
-50.8352
-2861.8
-16.3932
15.0332
0.015157
2089.97
67.5632
-337.296
-12.6744
1.79798
-12.0326
2.84947
-1588.24
2.99702
863.359
-1801.78
-538.112
2382.52
-11.0193
-99872.4
-963.752
292.55
-34.4066
-7.917
-1.145
-6659.74
1.52364
-5.4484
-17.3369
-1088.61
-23.387
-54.648
-59.3125
-38.3756
0.419468
-26.5677
-19.6859
3326.63
-102.142
-5584.41
-4183.15
-31.1291
-663.601
-132106
-10.3537
-29599.4
2.40238
-9.73619
17328.3
1.60174
-0.382351
-809.346
-176.233
391.553
-18017.9
-8.34651
385.282
-12.4234
0.892993
-57.1418
-7.82162
-7.22044
-17829.7
19.139
-12.1028
-0.678697
-17.2397
-15.1105
-8419.77
-0.208059
-1204.14
-12.6025
-18.224
-299604
473.028
-3.27981
-5.28494
-20.1994
-367.697
12.4305
-37.4073
22.7425
-9.35979
-1.51925
-32.8563
-80.4651
-8.39313
-222.622
-33.1479
-2.92089
4351.98
-1.42783
-496.522
11.3548
-8.37255
-2777.39
750.504
2157.05
-2174.55
-23505.4
-7.6702
-8.62329
-15.5792
-65.4126
559.618
46.7672
14.208
208.331
-52.6048
-7.31565
-43.9067
-88215.1
392.422
10.3967
-14.2128
-18092.7
102.922
80.5165
11.2323
-8.72247
-365.976
-31.4857
-62727.9
-6.80396
-37.9217
-15990.4
-9.07731
6.03131
-4.89652
-10.2232
-30.329
-20.0015
-3.42498
-9.38821
130.018
-5551.64
-9.31322
-7.11753
-83.3167
4.82862
-345.769
-793.09
-17.423
-11.0568
-736.781
-34.785
655.689
-1484.43
18.3209
392.596
628.253
-60731.1
-7.85557
154.793
4.15742
-1.27303
-85865.6
-43.9636
2.4952
-0.573186
-2186.09
-10.3666
-17.3472
-28.1608
-4.99189
4689.18
17.5963
-3729.09
-5.60712
-7942.15
0.131437
1.63313
15735.5
-11.5861
-17673.7
-21.377
-13.5678
-14641.7
-682.166
-9.57807
-456.407
40.5754
0.148782
-2.90142
18046.6
1.47559
-11.2683
-9.84009
-3.5328
-8960.74
401.996
-23.6844
-3.65424
-29287.8
-8.34892
-2.08487
6.60825
8.09801
16.3178
-16.7127
14.6176
64.7221
-33211.8
-3.65625
-61.0149
-9.07798
-42137.3
-2236.52
-17389.7
-539.772
6.29162
-19.8625
-7.68211
2.8812
-9.74268
56.9182
0.0498286
-11.1448
-29684.3
-4371.29
-4686.68
3.53764
-0.106093
-10.8215
-39.5167
-55949.4
-243.98
-69826
-12.3691
-0.175681
-0.064358
-0.807599
-30.5388
18.8044
1.68752
743.109
-2641.02
-156.942
-0.771726
1.37664
-22091.4
-365.397
-136.502
-8.92031
27.9635
61.9291
-323.658
-5.46595
-10261.6
0.868241
1.44401
12554.1
-11.7397
-0.947855
-3.47797
-0.0635963
-59.4897
-117.131
19.5423
0.59353
374.461
-2.4416
-7.64776
0.339464
265.683
66.1871
-151.441
-3.97744
-3.56065
3185.9
-425.009
-16.017
-5.47085
-20.7297
-170.041
38.7503
16.7911
-186.045
-18.5998
-4.4842
-11.5947
29.9548
3.2199
-1.92787
-1234.06
3.57223
-8.03707
56.3369
23.645
-30.272
98.3212
-33.7196
36105.3
-54.9249
-9.72138
-0.473123
1.38713
-211.476
4.96185
-5120.32
-26.3759
200.56
-5.73497
-0.391294
-776.411
-141.264
-1169.81
-4915.75
-3191.64
-556.078
-15.2801
-14.573
0.647011
38.2878
-7.84562
-5.52869
-7036.7
499.126
-540.841
-12.7127
-66.8532
-33.3156
-19.7986
1.87075
-13.7054
4.13892
-13.7365
-1938.47
-29409.5
49.6021
23.3526
227.964
521.903
-2.46765
1.9243
4.70956
-5758.75
-54341.8
1212.35
-1274.98
-54738.4
-0.34401
-1.8592
8.44198
-4.90226
-11.9571
-68957.8
-112.11
31.0318
3.65658
-17.9005
-9.08369
-1.07787
-601.074
-58615
18227.7
-0.282917
2.21811
0.117217
857.342
4.96498
59.6231
-1.89787
-17.5964
-175.437
-1194.16
-24473.5
-52.5694
996.314
-29026
-62558.2
-4161.74
-1.7555
-10.4786
-168.853
-3674.32
2.21838
25.0237
-4.37333
-5.2086
-2780.11
-18.1226
-17678.6
-257.331
-27.3723
20.8412
-15.4408
-10.9083
-1.13794
2.79148
-51.2401
-17.2422
-4.2845
-0.731583
7.6574
167.103
-6.58509
32337
-3.05951
-59.7828
-3.32892
-902.132
-34211.8
-8.58786
402.693
-13.3938
18.975
-10.6453
-38.1578
-1326.81
-1679.12
-8.37183
13.7114
-3.30206
-9306.06
-483.547
-379.979
-10.0296
3.67285
-2.02932
-6.27806
34.4801
-3.41191
-16.3191
968.542
-1504.59
-2331.92
-770.247
-14.4203
1.02523
-0.370639
25.7266
-2961.88
6.75157
-0.791671
6.42587
0.569709
-287.503
6.05763
-22.428
-8.97702
-10.4507
-1517.58
1.68086
22.8679
-23.8469
-3.55121
-211.074
8.58347
-4022.64
-172.998
923.149
-68.4049
0.195378
-14.2685
-1.82566
-77.9095
28.2212
-0.59243
-28550.2
-66099.5
-15655
-15.064
92.2541
514.788
-0.404455
0.198129
-8.47708
-2226.52
-13.6689
738.727
-22580.7
-1.13482
-0.69839
-426.232
-0.966241
-5401
3.97973
-45.6976
3.37508
-1264.73
-8.47174
-3250.03
-10.3077
4.70102
-862.885
-0.000234701
-38.0841
34.686
-0.287736
18048.2
-561.584
-5814.91
-6.56828
164.114
-45.1524
-2477.68
-43938.4
-6.17919
-1147.56
-294.891
-94264.5
4.66703
-193.815
2.296
-29.0747
17.4755
-260.033
-14.7353
257.268
-182.468
5.57661
-6.87371
0.253194
0
-19.0862
619.39
-2420.71
7.90615
-15.2338
-4.23659
-18.4964
275.436
-67.0395
4736.96
-1358.55
-1840.62
790.122
-8.80253
-17.8161
-236.134
-14.2029
1051.62
254.673
-13.134
916.061
-13.5589
-4142.01
-25.5379
-31017.4
13.5781
-7928.39
-10.1963
-29591.2
0.106216
-26381.5
-0.537546
-282.762
-7361.63
-11.1319
-5947.66
-25.3135
-38.65
-947.526
83.3641
-226.583
0.552668
-49.505
-70803.4
653.472
-4.56751
-1051.01
2.41721
-9.23867
-143.517
155.842
-2.63847
-26.3353
-199.715
-5598.68
-1578.75
-65495.1
-14.652
-7.98608
-404.639
-3685.16
-975.035
-55.6768
-1.30384
-3848.83
-9.07541
-8.10473
-0.365571
-9.91726
14.0992
-80.8619
-8.36802
-10.1015
-4.35267
0.0544573
0.707494
8.81473
9795.53
-10.4469
55.4573
-15.1576
8.82381
-1624.23
-144.89
-3.59496
-23433.7
14.0124
31.9077
1.80063
-53.0156
-343435
-0.911786
6.82367
-16.3817
-27418
391.99
-2171.01
-33.9067
0.659725
-1.82815
-28.4647
-0.992352
0.455493
-231.132
0.531439
-2.42706
-25.689
-2.63451
65.2815
-25.4382
-9083.42
-2200.69
-10.4325
-0.246381
-2866.26
-393.017
-979.911
-12.9572
-9.07827
-7352.71
-17.2969
-12.8471
-20.8353
1.50908
-74893.7
-13.7611
0.650803
-11.0543
-14.9395
-18.2789
-280.191
-1.3113
-6.50017
6.0169
-6.56719
12.8434
-8.78543
-0.398693
282.85
-2534.69
-2.05665
-53669.2
-9.78752
-5.54736
-6.78107
4.74185
-12.6088
-0.263352
-1442.9
341.872
11.9206
-4.43412
-11479.3
-21220.4
-12.8069
-6.94677
396.922
-4.54632
-15.8003
5.52456
-8.50816
-8.10208
-138.138
-21.8152
-27501.9
-2459.21
0.858817
-84562.4
-1.16646
0.258277
-3.38061
4.51937
7.08387
-3009.57
-2.14767
-1.3968
-2.39034
-2290.6
-9.57802
-17.8681
-30.0384
-23.7872
52.3784
-10.9356
-467.902
827.656
-4.72426
-64.7404
-194.249
-2821.43
-3334.51
-14.5348
-29.6749
-2.49457
-33.434
-21.4318
-27678.9
0.277948
-5.69582
-488.765
-14.5583
-0.663793
-2861.44
-165.757
-24.0039
-88.0624
479.672
-1.44814
-13994.2
-315.591
-10.5129
-0.571002
103.508
-42.3616
-11.6354
130.531
-37.1007
-8388.83
-16042.5
-49.7547
-10.1162
-132.418
8.50381
-137.435
-10847.9
-6.93053
-5035.91
126.058
-626.93
-4531.61
-6.63737
-11.2462
2.25078
-162.743
-508.49
-0.196928
0.210887
-1.0167
-15.2732
-291.61
-25615.8
13.8259
-27.2874
-34.1102
208.319
-57952.7
37182.4
-145.012
-8.20201
-3.51196
2293.87
655.398
-9.37603
-7.75477
-31.4237
-36.0302
3.85572
-0.349827
-9.4272
-18.8639
-1.56369
52.9962
-8.68667
-58.5098
0.565668
34.2511
-13.8977
395.865
-2870.22
-2410.72
-402.435
-13.9657
222.521
-6.93523
-30.9266
-532.676
-3.58385
-7031.05
-54503.7
-50.7791
8.49717
-0.360213
-3.38712
-24.3262
-1019.64
-2.92531
-1026.68
-3364.79
411.663
-1995.3
2.42182
-17.4878
-64.3647
-15.2886
-0.775352
-8.06296
-21.0968
-181.56
-0.762337
0.100954
-29810.8
-334.252
-3488.71
-139.95
-14.7967
-13.6736
-8.32185
0.115768
-8.48598
-0.510562
-14059.4
-46313.5
255.388
-64.3708
-5.62827
-70.3009
-13.7218
4.69314
-0.00725895
-2.1949
-8.48012
-65118.4
-12.7848
-16.4495
22.3374
-7.55283
-22.1245
-50767.9
-14.1966
0.117913
1.70513
0
26.9547
-5.83001
-282.548
-7.86692
-8.3933
-39.9053
1.03373
690.653
1.20376
-9.29132
-16.6324
-26800.4
-813.363
-30.0997
-444.358
-12.4333
-7326.46
0.070856
-39.0172
-32.1574
-185.184
-10.585
41.7837
-5.60684
188.829
-13.2082
1448.4
-28.0359
-16481.6
-15.8029
-105.455
-23.8764
1404.29
-7.99275
-0.657943
-8.2317
2.78041
-13.7138
-96.4307
-4.04283
291.142
-18.8246
-16.8079
-94253.6
3.79128
209.758
1.10165
-9.62426
-22.293
-13.6535
0.587209
-892.049
1.15168
-10.7237
-94753.1
-349.546
-1006.68
-10.1496
-9.49215
-21.5412
763.877
-12.5892
-12.0596
-10.7936
4.9719
161.554
-1.47846
-174.79
-2.76958
-13.5812
-395.424
-202.898
-184.176
-46117.9
-1125.81
1376.77
-3.49155
-14.5758
-1228.38
-1.38125
-16.018
-423.443
-53.1873
-4502.23
-0.829718
-112577
-13.5248
-3541.52
1.27429
-5.83893
-43.5578
-1.0767
-1.00773
-400.169
3.47451
-4.03444
0.0687587
83483
-103.203
-1856.98
0.0186003
-11.0169
-12.2965
-0.263575
-2.83443
-68603.8
0.0916521
2.81038
-11.0987
56.1671
26129.9
1.65647
-131.195
-6715
-8688.79
0.975248
-6.10895
-342.632
-7.28587
-3.36961
-105.351
-0.32651
0.00707482
0.848288
-59.1523
5.29327
-4.7761
-8119.83
-5.1389
-33.8531
6594.45
-11.7935
-19.3271
116.68
-18042.2
0.106258
-314.434
-264.84
274.377
-10.2089
-44772.3
-23.3644
-39.6757
-6.14536
0.83502
37.6401
-35.7237
-17.1819
-378.717
-2.11445
-27.148
21.401
-10.09
-3.29499
400.637
-43.5756
92.831
0.819502
10145.8
-32134.1
-0.52819
9.70761
-9.27393
-7.61803
-16155.7
-0.476145
-10.299
18.2677
-15.4085
-379.168
-15.9485
-52914.3
-6.19527
5.16222
-8.60498
-116.901
-6749.37
-31718.7
13.9017
1079.82
-33.2447
-16.8524
-0.48107
1.9599
-0.455872
-4.45179
-90.2372
6.65963e-09
-58.2336
1.34765
-59.001
-0.118287
0
-607.935
-24.7719
-153.728
-8.81621
-12.4307
147.564
-0.851182
-47523.3
-15.5349
-16.2563
-2007.11
0.634147
-60334.9
-162.647
1.53986
277.112
-10030.2
-11.5086
-11.8151
-10.5754
-0.161816
-7.75432
-266.08
0.392324
-39.6416
-14.8395
-30.1086
4.53462
-379.478
-4.1412
-8.19869
-1.33539
-8.88386
0.833923
8.09856
-31.7326
-0.43963
-26595.2
-16.0483
-6.69746
-9.74496
-12418
0.747951
-10.8224
-151.132
-25.5326
-2.98728
-495.692
-2.89864
3.56419
-87.6373
-0.15584
78.8394
-218.68
-110.948
-23.8348
-38.8811
-24748.8
-5.35643
-28759.3
-33.8502
-97.7723
-260.938
-10.8813
-16.4902
191.753
169.144
-547.174
-0.525184
181.5
-6.76387
-27801.6
-12.417
-19319.4
-20.5244
-33.4589
-92.5127
-4719
-11284.4
-394.401
-358.311
-26.3476
-73.2831
-18.2322
0.467103
-3.27262
-863.034
-158.611
-17.7301
-413.716
395.819
-61.3629
-57092.8
-218.021
-453.712
18072.4
-27.7169
-1.19881
39.2375
-15.9628
-141.508
-13.2668
-32.9489
-10.5195
-37.2275
-8.89885
-6.24977
-2.02425
-275.27
-8.62269
-25.4716
-3.34681
-25.8452
-1171.29
391.441
-1.38612
1.43397
-11.9905
-10.2545
-3.47323
-0.268406
1.07194
-1013.3
-5.03984
-6.04887
-23.3782
-16539.6
-843.858
-9.28913
-10.0266
-4.17916
-5.17572
-0.0348639
17166.1
-25.2156
-721.151
-19.9152
651.375
-14.1638
20.2121
4.88189
-11.0388
-1.94637
-9.6806
0.119627
-329.015
-53494
-3940.07
-648.339
-24.15
-4.19505
-0.545446
-2.04663
15.1619
-882.354
-6.51085
-1.511
-23.8462
-1120.13
-16.7341
-0.425888
-0.223199
-11936.2
1.56932
-26209.8
-18.5527
-22.3899
-39.8367
-0.224677
147.934
-11.0517
2.43654
10.7385
-8.94446
-16.9396
3.34305
-138467
-1.90162
0.295068
6.48901
-17.6993
-0.665385
-41.4527
0.170995
-0.272091
-1.39832
-18622.5
-9.00499
7.76624
-1.00135
-0.131859
-4.33004
-9.39454
-1998.51
-0.833657
-85339.7
-81.313
-59.9956
-15.36
-25223
-5.91007
-22.1758
-3062.3
-0.303099
-1.3352
-18.9105
-76967.4
1.19149
-3.21581
-10.883
-32.316
26.1327
-17.8032
-13.2366
-6.05084
-15.5031
-15.9357
-2.73882
2.94566
-19.3127
42.0572
-1.96601
3.85675
-4.2972
-13.8211
-159.326
1.6377
-1.03373
-9.49785
-20.503
-12.403
-380.194
-64038.3
-3.73265
-729.473
-28.9394
-0.361482
1.4729
-6582.6
-1.13826
-0.0545976
-9.86941
-8.42406
-9.81466
-52.206
49437.1
-8.75521
-92.9512
-19.6242
-6.42274
-2.28429
37.7407
0.862271
-67512.7
-22.2808
-22.3268
-47982.3
5384.88
-2.59892
-225.15
-9.63203
-5.47559
-1.6783
-6.30875
-77079.5
-3.67873
-545.071
-17.6509
-1.65326
-14.8786
0.200467
-558.243
554.768
-307.123
-17181.7
-9.4561
260.174
-16.0908
-34.7139
-18.0944
29.3348
-4.288
-5767.36
-31040.7
-48.4352
-125.939
-270.129
-0.268951
-255.536
-9.94159
0.162558
1.36966
0.362936
-10.956
-12060.6
-18.4479
-0.297647
-4797.1
-20.1111
-66199.3
0.0369065
-14582.7
-12.7223
-2.28149
-15.6644
-4.7903
-182.805
-3.26552
-16.9396
-1.05507
-18018.2
-10.9306
-2524.54
-5.29918
-11.5407
-8.6576
-2.17957
-36253.2
-2552.63
-13.4627
-9.14043
-9.05616
-14.2872
-3483.79
10.525
-23.4205
-73097.1
-46684.7
-0.662233
-28.201
761.729
-58.8895
-15.6361
-1.78069
-1.26701
-111.972
-4.73495
23.3165
-10.2257
-1.85575
-4.00844
28.2242
-18.251
-8.63714
0.117706
-0.611021
-26.1546
-11.0606
-2.98861
-8.47562
-213.143
1.05954
-21.7847
-0.697165
-22.6679
-1658.13
-9.06495
-54.5251
-11.1762
-66619.5
59.7503
1.21902
-1307.91
-18.2707
150.564
-25785.6
-4.75011
3.36408
-4.55181
-4.83293
-2597.66
-1.21636
-14.1079
-9.99712
-0.109436
1.01412
412.035
366.601
-7.47522
-9401.81
35.5366
-0.502888
10.8057
-120.886
-13.4788
-5207.29
-4.49669
0.220981
-13.2404
-2.51048
-2.12392
-9.13617
-11535.7
-2.98434
-10.2432
-20.0805
-3.44647
-13.5909
-1.20074
-11.0956
-34.2677
-7.28366
-1.10638
-23.3261
-10.0816
4.12147
-3.68287
-7.81456
-3815.75
-2.09591
-0.0875567
-190.336
-79.6533
-11.8884
-61.0695
-10.1539
-380.506
-0.302955
-2.56728
-5.7169
-410.856
7.99814
0.257803
-2.40706
-1.33512
11.9155
2.02568
-1.48252
-17.2381
-17.2061
-70.2438
0.925877
-10.1446
-38.4915
-11.1509
-10.806
0.463539
-51.735
-19.5703
-0.264959
48666.8
-130.328
-17.3693
-10.1637
-1.65819
-34.84
242.934
-36.6921
3.29277
60.5476
-0.669084
497.732
-136.505
-23.5368
-15.1181
-0.388106
0
-4.87263
-3.79105
-5.65676
-439.419
-11.6823
6.99332
4.23762
-1170.81
-18.1634
-1978.04
-133.058
-17.6946
185.628
-183.73
2.1897
-9.50308
-6.54185
-23.8893
-15.9771
-16.2831
-9.43075
-9.20732
0.171437
-17.71
71223.5
-68472.9
-292.27
-1229.46
-1.12277
-5.58965
-3.15711
-3.21428
-10.1471
0.152367
0.0513826
-147.881
-387.299
-0.19338
-11.7397
1.37951
-9.14499
8.40287
-21.7052
21.4549
-13.556
-0.623299
-4.55253
-194.328
-2.6714
-925.486
-77.8432
-12.6947
8.07176
-1344.74
-13.6868
-1257.66
-28.8952
0.504096
-1.55983
-1.14086
-20917
-4450.88
-12.316
-3419.26
-15503.9
0.672485
1.50897
-212.409
-114.75
-9.97606
99.8319
-7.96344
10663.5
0.287423
-26574.3
-15.1504
-2.21295
-4.34021
-20.9005
-8896.84
-370.792
35.3434
-8.61808
-7.16139
-19.6704
-2.31158
-1.82357
-3016.62
-60198.8
2.59178
-4434.22
-22710.4
-65.5912
-143.82
-393.301
-14.1798
-4.97534
-1256.75
-8.82757
142.415
7.88728
-8.26866
-0.00647816
172.804
-0.94254
0.380129
-31.2054
-29802.2
-25.3151
0.370426
5.33376
-1.27367
-3760.42
0.267278
-0.0757716
-9.43237
12.5452
-42.0537
-14.5032
-63.2951
5.3442
-0.656184
-224.794
-26.2295
-23.8287
-2.30904
-149.418
0.130782
236.131
-4.50046
-2.72131
-27.1326
4.44127
-50.5594
0.669333
-11.333
-1.69836
0.585116
-16725.1
-9.28194
-14.761
-0.785795
-227.514
-0.30475
-63379.6
-0.222053
21.6806
-5.10567
-2.94773
-10.9818
-10.3867
-37101.2
36292
-25.8017
-15.161
-16.1824
0.546827
-121.236
-11.5794
-10.5258
-161.537
80.5605
-7.68109
-8.72018
13.2365
-19.8739
0.556655
0.820169
-0.330979
-5.70017
0.114616
-2.34922
-2.58189
49.338
-0.501559
-8.20284
-7.71459
-13.2446
-80.6837
-1.60995
-32196.2
-21419.1
-79798.3
-0.496361
-15.7027
-9.70304
-1.32751
-2.02982
27.4738
1.11792
-387.107
-461.163
-93.1115
-71.4047
-18040.2
-12.9222
-29.1679
-32.4136
-21207.3
-2.04326
253.033
-14.2359
-2.14262
-484.711
213.424
-2354.92
-183.485
-0.501658
-0.391294
-0.873176
-210.159
-13.5958
1.16279
4.39898
-51.5743
-56844.6
-50.8094
-3.14379
-20.1208
-556.195
-59.7995
36.6253
-14.6719
-14.1628
-406.342
-5548.61
-369.682
8677.81
0.557438
-8.05244
-9.32325
0.946518
-69.3088
-290.277
34.0651
-53.338
-868.578
494.857
4.21799
-410.308
-27.6267
10.5582
3.68325
-13569.7
-6703.32
-3.49723
-14.6695
-17.7756
-8.61413
-7902.72
-18.883
0.812126
-61.6598
3.49826
-2.11919
-1552.27
-46.0239
0.946368
0.187582
-81.0705
-12047
6.94011
0.486929
-11.8043
-3915.31
-4.56541
-18.3972
-5.4357
-10.8325
-11.6768
-12.8185
-29498.4
-1187.83
-2.20053
1.51139
0.66482
-2.56269
1003.47
-8.73714
-11.3505
-39445.5
4.40775
-1.30667
-0.071798
981.863
-10.0713
13.1736
-87.3976
59.0344
-5.52879
1.01768
-19.4203
-7157.66
-50953
3.37857
-10.6807
-13742.5
-0.0269119
-10.44
10.3445
-4.02078
-11.6698
-9.73884
-52.7248
-9.47347
-37282.3
-87918.4
2.96546
0.212474
1.40668
-11.8426
1.74191
-0.49509
-13.6891
-43.9994
-2236.12
-0.551036
-9481.56
0.423504
393.101
-5.03708
1.77968
-7.15187
0.325212
13.0522
-23.4482
-7.64209
-4.29907
-9.43957
-14.7286
-44.481
-14.3752
-7.20982
-6.29881
-29.046
-7.95806
315.74
-8.3546
0.0366841
1632.87
-17.1322
1908.75
-138.258
-98392.2
-45.3508
0.0216799
-45.0217
-1144.6
-15.4999
1.47142
-3.07355
0.0666097
0.272884
-11.1137
3.19807
-62.7493
-0.346501
-7.40976
0.549588
-10.4202
-1.34253
-1.94049
-22.4257
3.78188
0.22422
0.702379
-4.87284
-16.413
-50.2539
-21126.7
-37.4167
-24.1393
-19.1251
-3.99685
-1915.58
0.31231
-0.254693
-231.636
-35.7604
-6.36396
0.791367
5.08735
-0.743704
-73.0788
-14.1768
-12.4817
-9.95904
-0.206326
0.113985
-2.5705
-10.5311
-31.6885
-335.549
4.01478
-18.1031
-5.03754
0
-3.76553
-18.5476
-7.40749
73.9596
-9.09945
1.93683
-44.0197
-40.1912
-7.66926
-5253.31
255.685
-9488.32
-752.074
-6.26954
-17.9077
-22.6903
-220.425
-23.0497
1430.74
-54.2702
-288.78
2.39229
-1.58931
-12.7818
-10.8399
0.143274
-10.3218
-23.3937
-18522.4
0.188475
-13.5031
-29.9908
0.412379
-28.5529
-57.6787
0.400656
0
-3.95785
258.504
-9.81664
0.0901081
-8.35181
-11.5096
-0.00249657
5.48315
-3.38891
-10.3095
-0.813782
-0.686884
-19.8869
-6.28628
-7.42415
-28.962
-6462.96
0.814256
21.1353
-11.763
18.9488
-260.361
-2.75648
-17.0619
-75.171
-70.1644
-5.71439
-5.98151
-613.052
-16.4934
-15.8403
661.16
11.353
-15.7129
-3915.06
-5.07685
-0.585494
392.914
-18520.6
-4.39152
-1013.06
991.246
15.7187
-36805.7
-16.0588
-2.76128
0.140321
-22.3197
7.5231
-10.2457
-0.67994
-21148.3
-51.1957
-9.16694
-382.385
-8098.45
-7.07381
-21.0571
-21.6124
-18.9494
-9.29244
1.27797
-12511.1
25.4644
-11.5167
-21.4515
-33.2466
-4.32094
-3026.65
-2.21001
-1708.9
0.480853
-1320.73
15.9651
-37.2637
-291.573
-1166.81
-6697.65
-12.3791
-258.222
-0.692813
-0.200698
-70212.5
-3.8119
-14713.6
-174.485
-386.726
-13.039
-8.03085
-7.07185
399.987
-26.4926
62.4755
1.04215
-2124.18
0.531449
-9142.88
-4.41668
355.853
-28879.7
-1.79431
-16171.7
-13.0775
-57.7426
12.755
-2.28433
11.9498
-54.2514
-14.8544
-2.86229
-15.8696
-12.4299
-3.61601
-1560.99
-9.76716
-6680.1
-28.0392
-10.6869
-18043.2
-12.2981
0.562048
-1.09379
-7.57473
-38588.3
-59.4333
-0.242267
-10.3218
326.505
-5.35679
0.242052
-11.2356
-7.97423
-13.6764
4.00071
-4.58985
0.582569
-49538.6
-46.6033
-24.3719
-10.8075
-110.471
-18.0831
-0.0322366
-0.671489
3.09161
-14.7609
1.0406
-17.0946
-0.885653
1.02707
-5.66249
-7.96769
0.411378
-10.0521
170.129
68.4085
174.632
-0.964095
-3.21302
-1008.41
-3.76102
-93.6502
-0.253631
-3.10516
0
-12.775
-1698.33
-5.39618
3.22656
-26.4514
-18.2922
-9.17969
-26.8557
-7.33281
-271.509
249.577
-0.845842
3.25947
-0.752114
-197.941
-336.737
-47.0382
-1.66014
-2.35194
-7379.09
-181.896
-2918.39
-565.873
-3990.67
-14.2128
-13.2176
-8.85486
-21.76
-115.989
-18.2058
-0.149185
-5.10981
0
-2.3138
0
-11.3129
0.22614
-895.547
5.71135
-16.1693
88.1
-523.161
-11243.1
-24.703
-1.53913
-19.8283
-53377.7
-4496.67
-35.2081
-10912.7
-1937.04
-8.73034
-1301.71
-72893.9
-9.69285
-129.881
-6471.03
10.6153
-55195
-8.19784
0.398314
-10.3822
96.4648
-6.12867
-25.6519
0.301701
-49.7163
-11.5935
-16354
-7.95016
-3.29624
-1764.06
1.63014
-46.7003
2.33026
2.47552
-396.527
-1594.7
-20707.3
-2439.41
-2081.04
-5.55797
-2174.98
-76.6942
-5.9257
-8.81778
-12.6542
0.378362
-1.28851
-3.37915
-32.9569
-77.1436
-15.224
1.1235
0.297363
-6.01254
-0.419636
-0.16868
0
-25.0064
-18.1301
-13.4226
161.816
259.619
-17.2359
-6.81382
1.70857
-2.55547
-2.44849
-3.0608
-67623.5
24.9349
26.8339
23.3907
-34.4074
-0.199841
-13.765
-483.494
-0.0272086
-4.1744
-0.372731
-400.93
-2.91626
-1310.56
584.507
-14.3335
-0.780108
-10.1645
-10.3925
-5.38517
-8.892
-1487.42
-11.7119
-12.7864
-9.95078
-222.919
-19.429
-78.4661
-46.624
0.495152
-441.362
10.9282
-11.9547
3.87542
0.49577
-3.2551
-4.99906
-4.78194
2.57881
-64.6212
-6.54817
-3682.26
-0.692569
0.446196
-4.06893
-462.976
366.618
-29.3286
-16380.4
-31.3231
-60.7596
1.54996
-39729
-14.2501
-1157.32
-45805.8
-1.066
-191.265
-10.2017
-1.94119
-6.70362
-13.1023
-3.33208
-0.694539
-1.87942
-9.20249
0.187367
-17.0115
-0.981173
3.40218
-1324.61
-9.14431
-7.39691
-4.3983
-11.364
-1696.82
-13.9149
-119.923
-61686.2
-5.14815
