booster[0]:
bias:
-92.26
weight:
7.77759
0
0
0
-1.8339
-12023.4
0
121.918
-17.3515
0
37.5823
0
6.05623
39.937
48.2891
20.7973
16.7441
0
0
-6360.53
82.9428
-11.2541
82.8034
41.6474
29.4702
82.1748
48.8061
-32401.7
46.0727
-2289.15
0
19.472
-7997.53
84.3004
72973.1
53.904
1149.09
44.0194
99.7562
-248.637
516647
67.4586
6278.72
-1196.45
12154.3
0
-4964.75
85.7422
186.137
83.7408
60.6002
8956.7
0
108.013
85.0325
84.437
-281.204
84.2209
-215765
338124
85.5952
-848.697
1242.71
314.787
-2636.68
282568
-5215.43
-146824
0
529.86
-350.918
46.9926
-8431.58
0
-334.528
44.7236
1.68153e+07
-122.573
105176
42.3334
247.59
84.1355
-11990.7
-14209.6
-9.80143e+06
3172.28
177929
471.223
-4125.71
83.2909
-975.861
85.0149
169259
-5964
985.659
-36892.2
-162.237
-8050.17
-4517.81
113.45
-522.111
84.779
86.4984
223.37
-56646.2
945.449
89.9985
1617.2
53.5184
290614
1939.54
136.189
-671.768
-943724
-341.968
84.5112
1044.54
-96.0594
8218.83
3377.18
12810.5
-467897
86.8545
828.696
-7566.31
56.5694
-825.387
-192.778
2032.02
-3.05346e+06
331.22
-20629.3
461.802
43041.5
87.1619
66.4603
-3866.95
89127
568.501
71.2712
11540.8
-51135.4
638.694
-2.2823e+06
60085.6
81.6982
-3.22833e+06
1001.23
-26961.7
158.548
-21534.5
264400
-2.22708e+06
6249.67
-505.766
-18049.8
142.926
-283809
122.179
85.2048
15778.7
4551.33
71.8329
99.8094
-458.797
-498206
1.07949e+06
639.284
-277.421
267.457
-73645
86.2174
-1086.16
-7503.41
-570.709
90.8273
-1771.42
9427.63
-11416.8
-158854
13510.7
-10521.1
-29470.7
74.8151
-152.038
1558.22
1.82421e+06
2522.41
2076.82
-57087.9
-11637.6
43896.4
-1.1019e+07
-1209.87
-68622.8
6820.49
88.0904
29185.4
6138.82
89.3438
178789
4181.06
86.216
87.4895
2330.03
92073.3
9961.3
-16748.2
-339392
-422.509
89.9368
89.1232
26239.6
301.081
89.8934
89.4522
2.21258e+06
144.22
75139.9
-617.592
275.006
-4556.41
92.0817
87.5753
121.915
2.82138e+06
98.6987
322962
92.7738
88.2655
0
45295.6
38917
622.262
112649
114.779
-1.11686e+07
879.677
921.119
87.0424
856058
-173477
694.11
-2437.82
-508111
90.389
87.0267
217.77
-198783
34.2698
-73193.1
207.486
-1563.51
-31.1388
131822
501.853
2747.54
52.6367
384.694
-275.692
2011.82
0
72.6009
1.52745e+06
9679.51
6869.26
263.824
147.422
5418.82
-6755.04
18576.3
-1341.98
2859.92
16320.1
173.212
863111
75427.3
-66243.2
935.51
-275.112
52632.6
145.465
15674.3
-4661.72
85.9914
-1935.33
-31346.4
1606.31
18.0885
-17803.5
233.866
184204
843.976
672.626
85.3159
2568.04
217.159
211638
267.362
-2446.86
2687.05
-3046.7
-425.226
1675.46
-172.667
-79223.2
85.8873
-13327.1
1675.38
-15303
-4151.07
-18527.5
1.66918e+06
-27193.6
50527.4
-105.579
-598.203
118973
5680.09
2724.77
1.7687e+06
435.775
-2037.16
12292.4
27473.8
85.8045
476.929
61.2689
-307.372
-11.2574
203.387
-9912.44
126508
5095.24
61130.3
3842.24
-362.141
192987
1170.75
1172.61
661.89
16167.7
-47.9169
4.75903e+06
227908
3152.82
405.153
140.444
-168.496
-360849
113.083
13185.3
-734.816
-229494
-52142.7
21183.7
-483.317
-52425.5
-0.9814
270.937
655.883
-153089
2437.08
9647.59
158.148
93.394
728496
1038.01
-102341
-427.496
713.387
19475.5
-64032.9
-315603
613.61
30438.1
-5811.08
5042.28
-652878
-51721.2
3.72833e+06
-3.29186e+06
-5321.33
46521.7
-27434.9
100.342
129.885
2831.06
-225.161
1010.36
-1489.46
-223.863
2.13677e+06
-237.245
108511
-114.159
-94.6809
0
604.148
2036.26
0
10111.2
156088
-281.547
932217
-120915
197.576
21091.2
131.343
521510
170.031
1662.92
436.857
-195.327
-365.186
15057.3
2.54311e+06
366.495
333.126
0
56845.7
-405809
-883.691
-3021.84
660.369
-313.918
-331417
-1.94467e+06
-5320.72
-388.51
-262.703
-346.4
1.10177
-1727.57
-326.815
-24107.7
163.598
0.549828
10528.3
-188390
7056.1
1.09275
1093.88
-5242.85
469.854
-0.412415
-352.977
71.2102
-2330.97
14956.4
9754.33
-101.438
-245258
-5983.93
-14461.4
1063.07
60990.1
-23.1952
7067.83
-288.364
-3133.8
-9286.7
-267.847
28463.3
84.1875
-275.831
-3176.89
-56.0979
907959
1.08027e+06
66029.8
-3062.99
-10.2463
-4444.41
143.296
6706.77
-55161.5
157.223
305.349
-1802.55
158.341
-26577.5
335.908
188798
3026.2
21563.7
-92.8519
8768.68
36.8153
-20766.4
61.1838
2.66973e+06
80.8031
-186.975
-207.095
-31.7725
-3230.9
-82233.5
-1829.18
2432.38
-104971
-102.392
1.87824
11402.6
-630.651
-70286.3
564671
-381211
-4312.76
-482.626
0.178411
-3720.68
46240.3
194.669
-280.018
-1675.59
-45734
60.959
968.029
381.637
-1424.72
-1734.31
-3575.76
-2001.03
-34985.9
78.0554
0.508091
48.2403
149.481
158.96
80.211
2140.26
-264.825
-70.773
-35494.2
-33.1624
471.519
11072.6
-12111.1
43.0925
-1726.33
96.0369
617.012
157.497
566.895
4854.33
-365.239
265263
-129.102
-74.7167
-147.832
-86.6436
-74508
2512.45
-30854.4
-12472
-6152.59
-347.968
-5.45444
7574.7
14806.3
72.5531
-859.788
66.161
585.401
-265.069
155.113
-1474.85
562.293
175870
-11064.8
199.141
421.495
-620.144
77.1339
11577.9
-17322.5
442.425
791.547
-79858.2
-3361.71
-30247.6
-420525
-150.247
-59.3748
602999
247.188
-206.839
-97507.6
-64202.4
3227.55
0.759024
255636
19190
111.857
0.467057
194.225
-269.137
-239.692
391233
42802.4
-146.219
154.132
-138740
-1850.51
-22672.6
-157.344
34185.4
-518.63
-362937
-20175
-567.547
-28.2887
-550.588
0.354854
-4155.6
-3935.8
-3513.39
56842.6
105976
98.4904
-156.754
2299.81
26830.4
-2581.01
258.905
176684
15.4489
819.325
229.554
-141.392
115.504
-7211.33
300.327
-6898.98
-150.806
624.063
-86936.8
2.6837
76.0507
-1226.65
-137.279
83.7618
-858.691
1865.4
-12966.5
-1164.61
73.1723
391.593
61912.1
-227.021
-611.52
-66139
-3.15437
153170
1.15267e+06
-2631.49
11.8036
88.4575
-10829.9
12.6092
-70.8886
-340.838
-0.663518
1655.37
24.6009
-848.484
286.006
-6.29606
84.8762
2.4236
0.0249811
50.2376
-3.63667
335.921
156.949
-2021.53
11334.6
-11.5858
11.1396
36.9247
-21.1035
196.449
12186.3
-37870.7
-26294.1
1.85492
0
234.301
-64052.2
-1142.7
45716.7
-25544.3
-122475
-202.121
1.02042e+06
6404.08
0
1237.66
-454.841
15163.1
3671.4
-283.774
-26980.6
72.0269
0
17171.5
-8108.96
494.741
-1637.45
-45.1705
151.843
-443.992
-19.7588
-42.8121
-15.9872
-57.676
1593.63
-18309.4
-13838.1
-47958.7
-83.2859
458.814
-24.4667
-1.38541
-48.2776
-17.2804
-46.322
-12393
-57082.2
76.8437
-8024.63
-238.287
1.18403
0
-68.1359
-16.8657
-273.096
4723.7
-36.4491
743454
-2567
2.78776
44.4209
6568.69
-199.39
-15269.7
-9114.86
317.579
-44.1511
-49458.8
-169.476
1.14023e+06
-43.0184
33060.1
1.32276
-62621
0.0709957
49.5454
77.6085
-32.166
-458.44
259617
-53.2231
-0.148057
660.124
-6.02552
-188.472
101.573
117.562
-224.422
-897.349
8044.31
-41.0371
7446.01
23.2705
-115997
0.572856
-880.56
-185026
95.0127
-3147.7
-159.636
-2823.17
-134.07
-40.9638
1.86009
-5945.39
36.261
-5249.6
-1.26497
307.097
-61.3621
42892.6
2103.57
1.66154
34799.6
-1019.06
-46039.7
26824.1
266.173
-10695.5
70.1591
-126953
-47.0553
98.637
-286.13
-489.788
-31943.7
169.896
1175.47
5465.56
31819.4
1.08073
532.639
-562.37
-19986
42807.2
98.3226
-8.20137
-754.203
-1506.84
13949.4
-103.044
-77.2398
140.721
-59.0885
-70445.7
10259.8
-205.551
0.296721
-3.08614
-37625
21.0922
-0.869856
-27.943
17186.7
-16.4601
-409.466
0.0527424
-586.476
0
-56.7988
28.342
0
137324
-7.07431
3.26973
-4871.15
-0.908691
-5428.34
57.2019
-35.9854
-74.7637
-245.447
0
-292.507
-101.841
-0.782226
200.48
500828
464.836
-175.144
213.627
-4714.95
-136.614
811.143
-38762.7
85.1099
-1.01237
-46.6644
-42.9093
-14.1246
74.1278
-140.789
-38.1666
-97904.1
-40.2798
33.4561
1.05198
-51.6339
-111.374
-166.174
-81896.9
-187.778
-19.4811
2.20575
-418.618
-76512
-14.702
221.171
-23904.4
661.957
-142.838
98.8959
115.042
-5139.76
318.464
-1.01471
-4914.5
39122.4
-115.877
-575.762
0.121167
-116952
-633.145
253.538
29.4973
-1.7934
-956.845
342.452
-432.384
51.1213
110.112
-10693.7
-1930.32
-74083.8
-9.44047
-39.4548
-3395.39
-2290.12
-3837.58
-79.3627
393.596
-140970
47179.8
-36.1992
74.1531
569464
-409.033
-18.9166
-1428.62
-763.133
-6.69964
91.9646
91704.9
-42868
-20409.9
21.7262
0
-17.0808
133.648
416.265
630.895
-16.4634
-192.524
-13.3766
119035
1.02349
-104.34
682843
-22272.8
1750.35
-30244.1
8.15007
2.16811
51640.4
34.1867
-136754
-464.226
7691.55
-23.2232
-460893
-4614.34
-47.878
-68.8575
0
-41.2152
845.197
-37.1547
-803.888
-110.581
147.458
22.5823
12478.4
-250.221
55165.9
184.879
48.9695
26.8386
61.3064
2.56898
-29087.8
-201.153
-37.8049
-16467.2
-3.27645
0
-44232.3
-2.68009
-16.4619
-28.525
-10.6328
-98.2352
-3848.08
11784.4
-65.9602
0
16687.7
-12.0601
-10.7612
-2917.93
-22.9281
-27.9441
1.13335
-449.542
1013
-912.832
107.875
184.474
2.11282
-3.24694
-0.271405
-243.734
-54323.7
-12579.2
24440.7
0
0.205192
-53474.6
2.21466
57.6156
-39.1808
1787.58
9.06303
-4.17491
183594
-30.3545
-43269.1
9299.74
-5795.47
-182.084
-1813.4
69101.6
19.8577
129450
20.4469
-17.2532
239714
-210.844
33.5629
-190632
-251613
-92.3844
-21744.5
-3400.12
-2797.27
7275.54
-44.0204
150530
-0.414012
-69.0406
-276.683
0
260.718
-317.619
-140.922
-5218.43
2.04505
-2119.12
421.339
-41.0775
-38.99
-3882.61
99.3215
96.1064
-37160.9
-13882.1
-23972.6
318.214
-92.389
-74.9597
2.6554
35235.7
94.4114
-27.1548
0.823394
0
15.8959
-2.41044
151.89
-3678.05
-31.1004
31130.7
19.3092
-66148.2
-764.345
63.4364
-640.017
26.9204
-41.7802
-1.73034
4.9804
-13.5476
-1.05686
-5.40098
20282.2
-35.1327
500.533
-20789.9
-23.8536
-59617
-100.134
34.8075
47.2501
-347.651
-71789.9
10286.4
0.373089
-32.8457
-70.3388
-462.79
-21994.3
-75.8691
-704.48
-890.485
-3872.59
-3.40983
-12.8022
-2652.64
60111.5
6.88094
441.273
4.03578
-65838.1
-176.86
8.04974
0
-523.611
0.887522
648332
-1.94328
215945
-216.532
45.6609
-0.330965
-84790.3
-7628.51
41183.9
-47.1991
-0.111895
67.3905
-139.629
-1595.79
-0.171818
-80.4876
2.20032
-22.0463
210.16
-73779.2
3.09073
-1.3285
0.0675014
-46.801
-81482.9
0.355883
67.8039
-419.641
22.9396
-113.429
177.93
-1.24856
-63.1996
-88.6153
8842.26
81.6631
-4645.22
-6.10136
75.8857
-14.3137
23012.7
-39.9393
-21387.3
-14403.6
2247.8
-4.55922
-545.346
-26.5644
-19.5772
-36.1146
15.399
-322.14
3.57765
15.969
-58753.5
342.075
0
-193.895
-47042
22.0839
-61.4855
-14942.6
1.79066
-9938.97
342895
93978.2
-93.7444
104.469
-405.46
4.44391
11.1958
-198.861
-7.43786
-32.425
-25.4517
-0.283821
-1.68508
4.73483
0
-35388.9
30.3587
-1845.67
-46.4113
1.23432
30.4982
-42.5397
32.9239
-75.3993
-6.85455
115.332
6.01746
18.2006
31.5878
39.5949
62.0775
0
504.84
101.229
-22.3702
5434.54
-104.123
-236.811
-1.76663
-7580.18
-3653.36
-0.879144
-18.6563
5976.34
1657.24
-67.8563
-128.138
-40.454
0.56155
1479.19
-854.643
-532.368
-112.84
165.319
4143.43
-0.123337
227.237
-1213.29
2044.39
285.196
828.13
-72.5535
-4835.06
-78.8306
1260.09
-45.9189
3.89881
-24.4793
53.4353
231834
365.503
327.745
-181.975
-148.022
-14.0158
172930
118891
-12.0617
110.457
-15.5379
-154404
-7610.05
77101.2
-15.8486
-49.7762
0
-10.0468
-2589.65
-0.225734
-56.597
-51.8861
376.812
-99.9283
-1.25441
-8771.06
0.665576
28536.5
135.083
-72.8835
-273.108
-1.42001
80.7971
-1.88799
-5.74878
-3619.1
-121.128
-72.9225
-1.73393
-4.259
-117.117
-42.1165
40.1126
43066
0
348.798
-19.4389
-121.166
-31.6041
2.41278
176.456
-142100
-0.491549
5095.43
-29.8516
-52.0562
-704.343
-103723
-52059.8
-132.159
-11.5936
-26.9619
-0.197966
-63989.1
528.702
42171.7
-62.3791
-1393.06
-11.4358
-17592.2
-194.501
2930.21
-249.262
-107.034
678.725
32226.4
-227.203
10.942
-135.762
165.297
-0.0589107
-8.26296
556.154
-54.9026
-14.0664
-20777.1
-1361.05
-24334
-2.80442
72.3846
-21.1643
-8.09002
-103.766
-6.71881
-1.42137
209.179
151.443
-15.0426
-43.3633
-191.689
-54.738
-48.1648
-2804.72
0
-215015
143.787
-33.3515
377374
-52.0879
-159.511
1828.82
-24.8061
59.5662
-13884.6
-10.0977
1.27475
0.0345733
0.911633
26.0906
-0.739596
734.119
5.97505
-565.072
36.0024
-42.0769
8.10168
-11.0415
-51411.3
38999.7
-352.296
108.563
1042.68
-44.5324
-5264.94
-470.041
-81.053
-30.7804
0.104638
-21.27
-52091
-115.741
193.26
-38.0099
-0.789483
-161.154
-0.443303
-18.5856
40.0067
-47.0336
88.3796
-106.918
-1592.33
2.16285
2.50685
-288.997
1.5167
-64.2994
-51.6085
28.1729
0.501064
-135.266
-975.407
27.214
-1254.92
7.69584
-35058.9
-2846.35
-36.368
189.324
70.5993
-3.12898
39.8128
3.63769
300.816
-16.5204
-32.5691
1065.99
-13229
3.08741
-83.8843
-22.1416
-22.6924
91202.2
1146.32
-8866.95
55.4837
-10.1209
-6.96815
-2.5315
-127.912
19255
-35.2571
-72251.2
20.2001
-14.7533
-833.873
157518
-66513.4
-5268.67
-37.0231
-96.344
-58.2098
-24.5621
7.80149
16025.1
78.46
-120.88
-51.1101
-1.83909
-772.745
2.19416
-52.3041
-38.1779
-230.013
-156.893
0.749521
12453.9
0
-76.5311
51.9043
4.78861
5104.57
0.882684
-387.903
-49.9861
-54.579
481.233
-9884.37
-6.88748
-76985.8
-21.5696
-4.42877
-9076.08
-82532.8
-115.066
-28.1065
-30.6543
-60338.6
21.7315
-0.202294
-9341.79
70.1696
49.6012
32.2023
-141967
-23.2417
-77.6277
-0.502149
-11.0557
-11235.7
-110.593
-165777
-3354.77
-77.7641
889.955
-11246.3
136.016
-1.28798
-3698.73
0.527173
-412506
-35.3539
-4.09799
-53.1452
-3.73036
-44.9596
83.6654
1450.13
77.4168
-33.1571
-15.8606
-32.8769
-4105.58
11541.2
-3341.99
-2.47469
-10215.2
166.1
-15.6798
-27.2101
9.81017
1.5742
970.118
308.579
-0.283182
-14.6098
-64.1329
-44.6653
1279.69
-8.84586
224.423
-204.019
-26.4863
-41.4474
49.7581
-46.7328
0.661173
-785.806
175.596
-174.914
8401.73
-3991.28
-5.14774
-119.965
-99.5628
-13169.7
-69.5985
186.585
449.212
-1239.67
6.07071
0
1693.98
0.502686
-921.814
-73.0991
-58.0052
-111.426
222.179
-22.4368
4644.9
-28.2286
57290.9
0
-44.8129
1.0143
7362.73
1.79679
89.9198
15.187
21924
-302.886
292.307
-28110.6
-49.1341
-0.602484
0
-1.68428
-49.6027
-240.411
-27.5879
4552.47
590.705
-31010.2
0
-44.9907
17441.9
-0.887391
-25328.1
-3.75458
3.28325
54846.9
-66.6512
-1.11159
213.014
-17.5498
-62.9661
19.1139
-22.2966
-18759.9
-0.546862
32.1765
-126.971
-117.734
-23.738
-6.48764
-60.3936
-829.708
-87.1042
1337.28
224.577
259470
438.369
-26.0336
352.353
109.16
-12.6679
189.37
-54.8547
-93.4795
160.625
-38.4164
0.853692
-28.0345
-93.2075
19.0382
462.244
1.18485
0
-230.939
-3777.27
-5002.21
-2.94457
1294.58
2.84024
-42979.4
-273586
-16408
60593.9
-23.9357
0.0455332
-65618.9
-39.7421
309.632
-50.6905
-24.733
-33.6215
-1.17545
46.0804
390.549
-20.8874
-45.2687
-50.4032
-60.9245
-1.09039
-8.66169
-21.8053
-4.53584
-33.7386
-49.1332
1134.27
0
-25.6404
1.73117
-47266.2
-18.9115
-453.029
-97.7627
-0.629971
-96279.7
0.936743
587.519
-182339
448.141
-17842.4
14.0008
-32.8826
21.2675
0
31.0346
-3978.35
-7376.47
-56.8725
-0.831731
2.64069
-260.507
-37.0579
-25.5651
0.403463
-16.7709
-156.559
-332.491
-35.5976
-25.7685
-84278.6
24.8166
-1466.72
-28.0896
907.521
-15.3765
-0.885592
-19.5852
-0.92407
-53.0009
-18.6522
-2.5761
-39.96
3.58715
-311.089
-6.26415
19.213
50.7687
2.46773
4843.76
-25.1014
54126.4
-2.43366
-66.7859
-18222.5
14.825
46.962
-102.778
-148.353
1.09554
170.727
0.893918
-44508.6
-28.3624
-6.62812
-533.475
-179.322
-10.5291
-73.7364
-108.938
-34.6668
0.968402
-1873.99
-4.51186
0
-62184.9
-46.4269
-211.177
-2.80274
17.504
0.64311
-45309.2
49.586
122.013
-48.2855
4.63965
-41.8384
-64.8734
-47.7503
2228.01
-16.8605
-2227.01
-9.44107
4.57372
-29352.5
4.58295
-57.0455
11.5187
-99.4454
-25.8556
-1573.13
-51.593
-22.9265
3709.8
-15.1043
-91.5455
-51.1136
-75.6762
-1.4539
-0.325948
-48906.2
5.5905
0
292.628
-52.8291
-131.262
-41.9682
-13.9679
-2009.45
151069
213.709
94288.3
-396.66
5194.03
-138640
187.124
-15770.3
350.951
-40.4409
29.9596
85168.2
7.93527
-104159
3.39219
5.92325
23553.2
-21716.5
0.132956
244390
-44.608
4.822
237.829
-14.7348
-20664.3
564.627
-715.923
-22.1533
-723.716
9.27807
-15.1192
-18.1994
0.587796
-9.24937
2.47349
56.1016
-30169.4
19.5006
-89556.3
-2.30943
59048.6
-1.68078
-92.3925
-96390.3
-4.4376
-0.339834
301.55
-139.008
-25.6473
-3944.84
-4139.96
-6.26976
-68.3522
-59.7171
3.75095
1.7744
14.1779
-52.714
-36.29
0
-70.656
0.991408
179557
-65.4593
123170
86466.1
1351.04
-11.9121
1098.5
-282.262
57.0586
-171.267
1745.2
-322.373
-375.55
8.23576
1.73419
-53.1334
-89.3267
-511.629
359.673
-419.587
2.11748
-237.028
-0.240728
-66.1532
42.235
0
286562
-13676.6
0.498538
-1.89057
-1986.2
25.6505
-459.609
-0.873415
-29.3315
8856.04
0.301495
-1.85801
-20.5708
-16.3387
5.18637
-763.615
57305.9
-19.2079
-96.339
-7889.38
-36.7932
-103.76
-12.666
-1.65933
3.57898
4.44289
-98.8314
-4539.22
-13.3208
-156.529
-22.3162
-40.4589
-54.862
0
-251.056
1.23812
-23843.6
919.601
-105.133
-97.0958
1.42257
45809
-0.00769287
-400.441
-1.19242
-20.3875
4474.84
0.0123175
0.6295
299.358
1.55213
-322.638
-3469.27
-14.0409
-172.811
2.22591
35.6157
-28.9574
1.24868
0.665383
347.01
473.853
-247.112
-23.2783
-0.571079
-186.168
-65.5182
-34.8364
366.037
-84506.6
-104.501
-89276.1
-1.89559
-66.0295
-3.32069
-2.50177
69.7348
-3446.4
64.6537
-15.819
5606.1
542.674
-24.4459
-0.607467
-610.33
-0.845835
21.9339
120.281
1.75724
-14.0762
-4.55137
-31419.5
143.43
-2312.32
-17.9231
123.353
-8.63614
37.6744
-0.0773258
0.300777
46.5452
179.804
-34.9348
-15.5058
123.098
-23.8876
-27.9193
-708.252
-0.666292
-0.704734
-1.64386
-96.6781
-5.11889
63.2696
-1.2096
-86.9291
-15.3167
15.4948
-6.22899
202.23
-3.20504
53.8606
-10.7678
0.0387759
6.04404
5.36097
-99.8944
0.531094
-60.6621
-24.4505
0.352471
101.195
3.11602
-16.3761
300.56
-103.419
49.5803
598.803
-265.261
-3.64937
-29.5444
-296.526
9.72453
475.249
76.1435
7.16982
2.04201
-122.945
448.84
-24.5426
-84.3029
-72.1394
-41610.1
-144.444
-2.8981
1.05533
-4469.45
-1.92311
-17769.5
7.00686
-23.2779
-6.72979
-88.5221
-45.8335
-2.64275
46626.5
-439.023
0.412893
-28.3599
-12333.8
4.8977
-4309.62
-7865.77
-51314.5
-20.1479
2.9964
0
-60.3517
-6.49259
-131.859
0.0792602
1.23803
1.80458
6.68354
-2.86076
-33.5071
-0.782745
-19.7011
-6182.87
-23.1697
-48.7592
30.2603
-30.5902
3.05331
2.35752
-13.4701
-85.3037
-1.01978
-7527.73
-46.0814
-48.4965
4.28381
-71.9183
-132.711
1.23861
-17.7216
-1.4085
-171.743
-13.2321
-9.24008
0.731128
-364.79
60.0823
-27772.4
-106.854
-119.084
50.8395
69.1531
0.495276
2753.52
-21.3466
-109.15
-15.5828
-81451.6
-15.69
-81.3641
29.1108
-2813.62
-109.85
-21.4807
-8.27439
2.39392
-2.88727
2452.83
1.68047
-45.7173
1.85259
-4307.93
-2725.25
-4728.43
1.18867
300.287
-20756.6
-93651.1
-470.86
-0.742092
-99.7382
-34.1277
230.809
-119.148
-59478.9
-2.05268
1633.23
-221.446
91.9238
0
28.4844
-87.5241
-23.1208
233.958
-253.304
-163.237
-56.2261
1.17367
-50.2961
-64.0305
-4.42556
-62.2702
-29.6966
314.121
0.000809789
-51.0837
-2883.01
-10178.8
-1136.26
-54.1849
-14.5853
-133.369
36.8364
1.56934
-31.5569
-0.966542
-448.435
-14.7479
0.258961
-62.8438
14.6588
-46.3417
351.385
181.772
-9686.98
13.1361
0.0273545
-206.367
-41.0031
-1.25271
-3.93792
12.1555
111.591
0.515748
-6.63997
-19.6154
-6.29463
0.686158
-947321
-91.951
-27.0542
-38.3774
24.3947
-0.0962437
-0.445984
-2.31141
-214.023
-483.448
-0.32028
-4.12947
-33.4828
-2004.68
2.51923
-68.9426
-751.432
-102.876
-212.307
-19.429
1630.4
-0.728929
0
199.132
-8.23101
22915.3
-2.15855
-62.1312
-63.226
-0.400969
-2.66888
374.952
-6163.22
-37.4799
4.97673
-203.964
-76.2161
0.127109
-1.46494
1.82674
-57.5455
-118.091
46097.1
-1.72246
-30863.7
58500.3
-1.53598
-62.3069
-1965.26
676.414
0
-77.6659
0.812226
-327.805
1.59984
-20.1648
-12169.3
-70.1085
-30.7873
-29.8972
9009.58
-45.0158
0.00269344
-0.833655
-14.8181
-7.90149
12.5901
-453.012
-3.17756
0
-4.69646
-18836
-1.79228
-10.3736
-13594.2
265.636
-59.2956
-6.45029
39.2735
-39367.3
-43.7034
0.882736
-2.8754
-388.094
-56.4968
-1712.12
0
142.663
-3.14294
-176.511
41.1878
-150612
-18.2175
28.0275
-426.699
2974.62
-112.305
1.86579
2.54219
0
-7.09308
-0.525204
-33.872
-3.45377
0.418006
-23.0667
-0.54334
-21.2663
-28.2138
-46.5887
-642.812
2.88179
-65.1579
-48.9845
-51.9638
2.13962
-12891.2
-6.4638
-177.505
0.880919
-13.3601
-156.735
-52.0964
46139.4
-180.243
-31.6208
-20.0823
-10029
-41.958
-35275.3
-1.3721
1.10891
0.882648
-36.0019
56.1246
-3.65891
-0.235593
-121.272
-7.25785
4.36529
60.4307
-49.5668
-31.2584
-3.12537
-66.9854
2.22446
-12487.7
-19.6649
-28215.1
-0.0319426
31866.5
32170.2
-51108.4
-76960.2
-1.65519
-275.975
-3.52602
21.9948
2.04313
-98564.9
-0.437569
2.93809
2.99722
3.5568
-3.95755
-26.8568
-149.072
-257.975
10.7535
160.617
12635.8
0
-0.464923
0.00964111
0.614178
2.42019
-0.260908
-13661.9
1.22275
-539.413
-125.061
-14.6568
-12.0794
-58189
-2.49133
-0.0695314
-13.0681
14.1434
-215.882
1.36042
-37.653
2.89248
-65.868
1667.08
-0.579957
-32.9877
-42.2142
17819.6
-5.43721
-559.031
-637.841
-148.604
-19.1748
-159754
0.300763
-39.5154
-6.06253
-215.254
-93.8316
-0.77185
-37.3925
-98.5275
-35.5025
-113.92
-1.85575
4.85572
-92.5563
-22.688
97.4442
-18.1113
-26.1413
-130.836
-35.225
1.02946
1.27756
-28.779
-638.76
338.851
7.0204
-103.169
4.25354
-31.2317
4.72817
-13.1717
-28.9837
1.83451
1.11843
0
-10.831
-41.9266
0.73629
-14.2061
-28.1051
-0.182744
-1.65652
-14.9786
-2770.3
-238.772
-70.7373
-44.6504
-26.2067
-1340.34
-108.594
376.747
1.39361
-47.9694
-62.0067
-26.912
0.122521
-0.565206
0
-0.151313
1.50109
236.935
1129.47
-12.7913
204.333
-0.444629
-39.7227
3.88146
0.649819
2742.23
-18.1504
-1.28502
-86.0946
-0.846535
31.1778
-0.976952
-26.2991
-50.1837
2.14732
-2.70282
-110.976
-22.4497
-2.32676
28.8782
-2.23916
-4.39438
-2057.47
154.523
-42072.5
-33.3491
-19.8712
-45.6739
0.432085
-199877
-2831.59
2944
-175.093
-552.116
-51.784
1.03932
0.502059
-2142.07
-43.2174
-54.5568
-120.895
-116.79
0.513867
5.7937
-24.5498
4.91515
-18313.8
-8918.61
0.826236
-34.1876
518.601
-3382.51
-15.9999
-37.5974
-26.8266
-70.0509
-136418
-78.7854
-417.565
-14790.6
-0.870334
90.2527
-376.85
-59.5688
-0.0379846
0.779798
-279.684
3306.74
-9021.8
-26.4329
-32.6834
-17.1549
-0.152315
4165.16
129.952
-56994.9
-8.47599
-3.45096
-118.082
-25.383
-21.3096
1.50748
-253.149
-34.6403
-463.243
-135.615
-1.50026
0.136887
-54.5354
1.04661
-56417.5
0.785121
-1.17222
-46.6011
2.30737
-0.0552993
-309.518
-20.2419
-78.8487
-15.1148
-2204.23
-67.4741
-0.370786
-14.4597
-38.7627
-231.653
-3122.46
-89.2715
-89.6022
0
-31.058
-8.47587
-24.9663
-38.6756
-0.236226
-250.237
-0.573696
0.318495
0.918788
-23.0016
-19.7326
-16.5922
-0.299744
-119.38
-0.44808
-50.7557
-0.0475242
-305.698
-146.014
12319.5
-38.4483
-9.11043
-50.3327
1.4709
-0.0628577
-5317.19
-51.9642
0.253909
-42245.1
-1.85318
4.22845
-7.70867
-2.28791
2.77156
2.07576
0.741719
1.66345
-23.6071
42.3924
0
5.44379
2.5237
24.7806
-1866.77
-5726.15
-3.67632
0
0.973956
-4931.9
-0.233517
-18.6121
0
-267.991
-39.2305
61024.2
-19875.3
-24.8502
0
261.846
-39.9832
-21.1575
-19.7508
-0.855698
-65032.6
-2232.06
3.39056
1.5572
-349.897
-33.4958
-49.6051
0.966658
-0.692821
-58.1126
-131.543
-2.09585
-4.8542
1.98256
-2.12842
-1.79922
-463.891
-31.941
-26.776
0.235418
-60.0787
-1.71534
44.7608
-1.67073
-43.157
281.986
-1727.03
0.304231
-71.1232
3.2265
-127.829
-6.42251
1.55403
-109.252
1.03905
-69.334
-15604.5
-89.6334
-5.49797
-15.4902
64.0855
2.42277
-42.73
-0.570219
-0.951425
0.758903
890.506
-79.4136
-60.4519
-572.263
0.887022
-79.9361
117.061
-0.225935
0.117951
-17.1596
-111.456
9.63732
0.0236682
-839.725
-17.329
663.955
-34.2823
-17.6966
-54.4276
-0.412542
0
0
2711.9
1.45323
-251.103
112894
-160.54
-70.8391
-52.7201
1.02722
-1.35486
2.07433
-130.433
-2777.62
-5.95325
-32.1196
-51.1752
0.205609
-561.116
-35.3856
0.673524
0.81396
-123.864
-636.363
-9.46618
-0.892002
0.0895206
-0.900973
-43.9995
2.25203
-17.2995
-95.1609
-3.4772
-3.09284
-67.5151
-59.4905
-116.525
-77.9907
-29848.6
1.73671
-77334.5
-53.2371
-2.91566
-38.7837
87.2975
1.18929
-28.5062
-57.6406
-28.1694
-23758.3
-0.356973
1.02127
-43.8978
-111.2
-21.4598
-81523.2
-82.4944
-23.6914
-5.24593
-52.4839
1.44505
-9.52866
393.538
-26725.3
-1.72179
-23.3272
-0.225223
-3.02367
-0.856981
-289.473
13906.3
-10.7849
-135.07
-1.18687
-296.32
-3867.48
0.0514739
-98.4351
0.180387
510.787
-31544.9
-0.427514
-0.460553
3.93155
0
-663.608
-8441.49
36632.9
-121.755
-41.2753
0
-74.3525
-0.227993
7.90206
34866.3
-4.70019
0.273497
-1.00877
-1.63882
0
1.10757
3.03454
47700.7
4.69076
-11.9837
-1.07846
-20.3349
148.191
-14.3503
-114.523
0
1.928
-2.18225
48.6142
10.0287
0.542154
-24181.5
-0.0734129
-1.59025
408.453
-132.937
-222.892
-138.69
-80.1638
0.0384266
1.69899
-105.819
-3.68542
-1408.03
-18801.4
-42.2154
4.48555
-2.99968
0
0.646678
-71.3708
-14.9843
-118.195
-12.3836
-14.3259
-23.9656
-10.958
478.438
0
-5.48101
-29.4338
-384.648
-28.6331
-33508.9
5.26219
-5361.33
-19.14
0.698705
-81.4428
0
-41.9422
-24.125
-415.827
-1631.73
1.19608
26.33
-3.12948
-0.895989
-1.03239
0.21264
-155.993
-42.8205
-21.7571
-18.1024
-66.4289
36.4126
-14.5936
4.5781
3.56269
-0.0986305
-32.2455
0.515001
-6.8751
0
-66.4617
16.6439
41.0483
-2.48713
-29.252
-39.0113
1.23803
-1.23803
-2.0311
528.464
372.366
3819.95
-1.66383
-0.741001
-607.746
0.839145
-56.4318
-82716.5
1.57561
-1793.24
-50.9252
-24.8602
-1.76786
-0.22288
-22.1777
-174.409
1.01095
80.0545
0.537943
5.07614
-111.385
-257.273
0.959323
-4.29164
-1.14824
0.154897
200.655
-115.21
-1.16393
-0.727654
-21.6639
-1.14332
-18.6427
0.701007
-0.424072
-4.65032
0.902341
-78.2871
1.98908
-7.89903
-36.8442
-101.596
-114.63
-1.30323
-4.42987
0.62626
16.3998
-0.303041
-173.401
26.6469
-33.4117
-110.816
1.1549
0.777663
-54.371
-11.207
-0.971902
1.10555
0.176653
0.801042
0.338079
2.81715
-1.07213
-102.38
0
6326.03
-83.6883
-17.4347
-4.92119
-1.54672
-1.52874
2599.22
-20.7585
-2661
2696.36
4.38108
-0.573036
-3.94594
-2.88858
-41.7154
-2.06644
-32.1866
-2667.48
-13.7792
-254.293
-10.8305
3.71903
-57.7522
0
-37.9919
-32.69
4.78329
-1.15591
410.618
-160.23
1.57335
-56.5367
-17560.7
28.0321
-63.0386
-38.3315
-28.0586
-634.481
0
-691.583
0
0.707917
-109.49
12.5914
2.77705
-515.472
-3673.8
0.344099
-0.313351
-39.2986
1.57155
-8300.14
0.0137446
10612.7
2855.94
-29.7189
-13445.2
-24.4181
-46.3856
5.46008
5.53223
-0.702452
-2797.03
-1423.05
0.870805
-11.1497
-17399
-32.3285
-3.19769
-38.0475
7943.99
-37.7856
-44.4534
-51.1617
-1.00958
-0.165105
-12.0288
-4386.44
-407.005
-3.35127
-683.388
91187.2
-14.6157
-153.559
-3.0926
0.75237
2.69251
-2.27339
0.874354
0
-38.316
-548.007
-355.666
71812.2
-1.69867
1.41897
-2.11085
0
0.978536
-4.46539
-83.7197
-65.4806
11018.1
-1.47836
-3.67953
-30.0702
-120.38
-231.717
10.0987
71.6812
8.207
-2.80548
-56.9273
0.416177
-30.0256
-23041.4
-40.7807
-258.213
-21.0068
-1.13397
-108.761
0.0096316
-25.64
-66.5765
-4176.52
-126.466
-85.4868
5.12632
-37.9143
-0.407619
-524.165
5.49096
-134.553
-3066.51
-0.85308
0.1142
-7.15851
-0.117951
-161.387
-1.24113
0.845904
-10.3141
-15.7102
-11.6624
-16.8862
-23.7619
-47.7516
-80.1786
0.713888
-6.23305
-182344
-372.761
28521.5
0.0647057
-82.2125
-65.6647
-34.6946
6.13811
5.46442
1.73312
2.53919
-6.22179
-29.8326
0.602378
-0.137823
1.39136
0.142859
-21806.2
-809.121
5.25718
-219.167
-4.98759
-27.1523
-15.6696
1.69934
-41.1819
0
-132.53
0.492802
-199.332
66.5961
-16.7416
-0.523791
-55.0116
-45.5089
-11.118
-3.20729
0.315131
-0.0719525
-112.841
-23.3117
-1.38531
0.334864
-73.8335
150.092
-4.65491
-31.7297
-0.261733
-0.256104
-0.99688
-23.4271
-64.0641
-45.4041
-0.00216816
-113.557
-2.70318
-243.844
-50.7749
0.0577341
-5.37037
-181.401
-113.617
-10.4689
2.07459
-160.542
-485.519
-2.35575
-55.8884
-87.1882
2.77582
-19.5574
-5.21609
-98.4409
1.12582
-354.323
-5.8968
-46.4782
55.2161
11.3702
-34.5518
-315.73
-36.8031
-25.1104
1.23615
-130.724
-50.5071
-41.4512
0.661004
-51.3299
980.823
-1.89778
-61.2366
-13.3199
-106.834
-97.9251
-1.18898
2.89092
2.30835
-5.19963
-11.1074
-49.6111
-406.559
-14.3487
-366.019
-21.1333
-38.7655
-0.755378
-45.6618
0.185609
11.0351
-5.45029
7.71398
-2248.94
-52.1131
0
-8.90053
0.127365
-175.725
-2.78645
2.60114
-1.83479
0.984342
32295.4
0
-93.4145
-1421.65
-0.722911
5.3764
-1.26998
-63.8483
-48.3238
-120.287
-60.5684
-0.678146
-48.1612
-97.6877
-41.5761
-1694.68
-3.65021
-53.0098
-1024.68
1.42814
-72107.4
-8.28207
0
-1.78188
-4.20709
-3.71065
-33.9153
-29.1552
-1.21272
-2.02453
-4.11084
-3.98845
-128.143
-131.233
-141.314
-36.6183
-31.7142
-5.24357
-2.71601
-87.8096
-137.296
-2.89453
-22.0306
-1.29228
-120.398
240.305
197.346
-33.8916
8.81396
-83.9202
0.270461
0
-2125.08
-2.56999
-442.262
0.337214
-4174.79
-1.38526
-67.1752
-101.242
-156.864
0
-0.875876
-30.1197
-6.06141
-56.2449
-108.457
-42.5915
-3.01195
-2.12089
12.1948
-95.5042
-12.1944
2.2958
0.31791
0.324253
-0.382034
-70.2239
-4.14634
3.25788
-56.3629
-3.38488
-2.18661
-10931.6
-1.46763
0.0429121
-65.1759
-236.829
1.29339
-0.456956
0.672863
-1.62166
-2.61916
-6.41243
-525.855
-22.7653
-29.6685
-2.63998
-0.554153
-0.162772
-0.406631
-15.3815
-49.4074
0.256498
-75.9594
-106.721
2.86848
-104.598
-1.31355
-18.5953
-52.2407
1.93826
-6.03289
1.75062
-126.936
-33152.3
-7.27715
2.0259
-64.1068
-11.8019
-19.2709
-5.79192
-6.53305
-26.4347
-191.966
-5.43304
-151.895
-0.260027
-68.4706
-50.1409
-35.2226
-167.959
1.30657
5.21798
-67.0441
0
1.66931
38.4523
-12.058
-27.8316
-109.276
5.13797
-0.366376
0.167113
0.956237
-33.4714
-50.067
-0.293683
0.411308
-1.06803
-0.136665
0.494401
0.204532
-115.704
-41.2248
0.018165
0.437011
-64.3948
-0.937345
-3712.08
-45.6234
-161.636
-48.2042
-104.828
-22.7584
6.17136
-68.1934
0.358226
-115.914
-32670.6
2.09775
-516.06
-0.407814
-2.30511
-1.08383
-28.6237
-81.834
-1.2793
-54.349
-12.9089
-57.3735
-112.016
-12.6383
-52.2842
-0.60028
-2.62198
1.9878
-99.4007
0
-0.144254
4.51148
1.04879
-114.071
-7.07482
-0.621225
2.66036
1.03476
-443.563
-52.0332
0
0.676346
-1.40534
1.00175
-111.413
-85.8674
-28.5628
-41.9557
-91.6152
-37.3462
219.425
-28.1104
1.13979
-366.999
-365.995
7.67349
14.4634
0.874354
-28.6765
0.97086
-5.17687
-0.946675
-17.6179
0
4.09056
-161.785
-5.10553
0.249439
-95.4897
-48.3367
0.965168
-59.2933
-2.993
-26118.5
-58.7546
-0.224038
-156.729
-139.49
-55.5812
-0.520952
1.10549
-12.0474
0.108974
0.0497495
-11038.8
-0.37992
0.682092
-0.587406
2.0428
-12.7561
-47.2506
-1.79181
-125.658
-52.1782
1.11626
-0.761137
-50900.1
-2.9039
2.79628
-34.255
46.7685
-13791.7
0.583822
-88.4514
-18.4535
-135.751
-1.23465
0.517009
6.64192
-67.2689
-1.4631
-314.157
-60.2245
1.0523
-0.242605
-2.15959
3.77101
0
-72.7633
399.226
-9.64489
-1.69268
-49.0813
-1.23157
-15177.6
-1.38689
0.921786
-20.4235
-251.242
16.077
-93.2907
-169.506
-60.7367
-3.13619
0
0.781084
2.06874
-27.2074
-95.4673
33.9898
-2.01177
-1374.37
-23.2718
-23.4795
-31.58
-0.0162501
-23.9933
6473.65
-2.04001
-38.0263
-80.3683
-0.0421617
-123.715
-61.5402
-0.347074
-288.279
3.38457
0
13926.9
-44.0482
1.09013
2.2102
-27.9296
-46.4378
-0.616198
-3.00384
0.486313
-46.7311
-267.709
1.65927
-43689.3
-1.86274
-50.8908
0.67329
510.884
-223.468
-1.16079
-5286.59
-0.557342
-3.30777
1.33143
87976.3
-1.58973
-0.273714
1237.33
-0.800241
-242.616
19.5258
-174.378
56.4021
0.818591
-43.1829
-1.2302
-0.881665
-59.619
-0.710881
-56.301
-3.72457
-2.52151
-1.61214
-26.6821
-58.9391
0.216045
-159.446
0.783764
2.90149
-192.654
-0.875242
-788.767
0
-490.499
483.139
1.36746
-14.8554
0.598354
-0.167863
-0.528216
1.69229
1.09357
-142.739
2.62846
-70.0874
-8.58765
-12.77
0.682909
-76.4176
-1.25684
3.51488
0.167396
-34.3422
5.47845
-30061.7
-6.37816
2.32651
-908.298
-1.019
-9.18412
-0.259362
4.37839
-3297.27
-341.128
-54.8019
-0.623298
-38.3169
-8.52411
-33.7807
-834.343
-348.822
1.47959
-1.62741
488.734
2.02224
155.232
5.23492
0
-29.9171
-1225.74
-44.2964
-281.17
0.315575
-12631.5
-1598.56
-952.313
-13.4456
-24.3072
-32.6133
0
-15.6744
-1.74975
1.15929
-3.56416
0.708212
-1.13563
0.0936761
-0.103083
-462.195
-103.892
-22.6902
-15.0748
-0.368444
0.40778
-2.69505
3.35332
-62.0022
8.1273
-45.3969
-54.1884
1.14835
-2.715
-8.21462
2.07235
0
-79136.2
11.3111
-17.1368
0.625301
-46.4514
-51.5629
-1.25276
-1.16076
-0.140288
-69.2329
-113.239
1.10442
0.0613831
-0.869856
-0.0963857
-1.44759
-7.17578
-22247
-49.1086
-1.96018
-24.2286
-90.8573
-46133.6
-113.076
0
-3225.84
-119.35
-259457
-6.01029
0
-27.8271
2.35871
-0.208753
-4.23904
0.236454
-82.299
-0.654646
-64.7013
-46.3495
-36.9656
-43.7694
0.117304
-2.75977
0.917762
-0.88866
-2.09312
-29.1708
-18.0801
0.18761
-397.898
-44.1488
-105.505
-5.15633
-2.40578
-74.7459
0.30143
-2.29466
-69.0328
-145.88
-1618.85
-1.40824
-1.4936
-3.27915
-2.27479
2.33129
-39.2771
3.94302
-1.52356
185.246
-0.796836
0
-2.90899
-23.1405
-2.37884
-0.0478191
-0.19039
4.08287
-0.700444
-90.3411
-0.190185
-1.65265
1.66193
-0.823495
-379.96
-77.7501
-5.86236
0.0961736
-50.2646
-5042.87
-27666.4
-108.504
-23.506
-2.96884
6.46649
-682.056
-4.87613
-63.7623
-3.20259
-18.4179
0
0
-35.9603
1.35216
-0.684423
-11.3686
-57.3813
0
0
-1.38576
0.598757
0
-39.5803
-1.6206
-0.0499756
-66054.1
-36949.6
-83.9271
0
-0.0442707
3.09841
-201.616
-0.389102
-1.17584
-0.0142604
-2079.06
2.00071
0
-62.0304
0
-0.131128
-26.3137
-0.568178
1.88115
-31.4822
-84.0238
-1.56139
-73.9805
2.96274
5.33503
3.73251
-0.79727
-4.01485
5.09816
1.78597
1.8396
-649.033
4.15637
-187.855
-47.0735
-112.533
-1.67378
-107.544
0.159592
-8.82137
-1.51279
3.41702
-152.253
-3.36697
0
-36.1995
-3.88066
-29.6136
-1.04782
0.430565
-1.12189
-24.4536
-180.381
-652.999
-8.34003
-173.083
-10.9385
-48.1357
-1696.68
-18218.5
-22.4839
-394.121
-512.382
-2206.77
1.01393
1.67139
2.47266
-390.03
4.35056
-4.63925
1.48133
-12.0187
-54.653
-45.4959
-0.0811241
-189.398
-127.004
-37.145
0.325892
-48.0169
0.890281
-0.671131
1.57935
0
0
3.6817
-0.635432
1.49579
0.832859
-144.478
-109.719
5.06866
-4.22818
-38.6929
0.196136
-110.036
-75.3357
-44.5072
0.767797
-56.7756
-93.6119
-47.5811
-2.12465
-119.876
-110.869
-40.306
0.257124
2.18544
2.97037
-10152.3
-72.1569
-0.97622
-0.549202
1.48955
-5.83922
0
-360.086
-0.347836
-1.74525
-1.6947
-57.5717
-268.379
2.29295
-7.1862
-1.08469
0.652281
-13.613
-93.0231
-0.436127
2.17032
-2.24016
-0.184049
-43.6712
7681.19
-3.04815
-0.971048
-283.301
-47.4925
0.000336111
-1.33724
-344.336
-90.07
-0.319
-93.4347
0.155455
3.24242
563.748
1.05867
-70.5793
1.45677
1.75062
1.09552
-0.096323
-0.337763
-0.550927
1.27225
-314.341
-111.821
1.27788
-0.286341
-2.19243
417.682
-0.300092
-3938.15
-5.62347
-0.518752
-19822.7
30.4054
0
-25821.1
0.550254
-6.9079
-25.3471
-66.5072
-2.52161
-1.62035
-0.138917
-1.71924
-196.297
-43.909
0.737757
-33.2618
-1.08795
-7.50091
-1.6074
1.73153
-68.9487
-0.304716
-0.105165
-3.77695
0.17224
-1.60245
0
-86.3551
2.26854
-0.57044
-12.0898
2.02362
-3.4951
-2.4424
-0.528881
0.290625
-11.1183
-6.00712
4.13462
-6.64349
-2.15976
0.010968
-3.50463
0.104747
-77.638
-1.99637
-127.499
-129.266
0.126532
7.10234
-16.2444
-0.303072
-194.251
-10.1533
-72.3668
-7.83325
0.125765
-7479.21
5.41547
-392.083
1.1828
5.0421
-0.918568
-3299.94
-7.06976
12.8545
-209.779
0.22043
3.0396
-2.58831
3.94125
5.46419
-2.94287
-165.366
-2.3524
1.96791
-57.3498
154.655
-301.176
-0.395467
-0.937735
-0.697639
4.65721
-0.00493604
4.47406
-211.992
-78.0349
-341.645
18.2073
-206.505
-4638.17
0
3.71573
6.07557
-98.1884
-1.70549
2.02146
-6.78823
0.726697
-50.2041
0.411912
-82.3054
1.20003
0
-2.98573
-1.51537
-0.212812
9.4186
3.00075
-37.3106
-0.223892
1.32107
0.0660622
-470.443
-2.48081
0.848511
-48.2514
0
-4.57021
-1.44577
0
-3.4327
-1.95217
-52.4725
-0.790274
-7908.55
-1.07172
-7.27435
0.114303
-36.4707
-9939.52
-1707.67
-30.526
-46.5823
-1.32925
-0.989086
0.590147
-3.20679
0.933661
2.51718
-48.6124
-0.512396
-0.0767756
-97.1636
0.164383
-7.05193
-2.68606
-37.0589
-61.6887
1.49715
-0.896059
-8.42117
-195.673
3.16845
1.21987
-5.44218
-148.201
-193.241
0.146892
-49.1668
-42.4031
-65.2021
-7.54087
2.25696
0.730793
-14.8022
-213.67
-528.531
-4155.47
529.598
-83.7929
-0.958143
-0.481233
0
0.170793
-2.70908
-160.099
-1.7532
0.260588
0.745017
-0.534254
-33.0782
-0.434086
0
-49.7366
-0.102513
4.19215
-43.9077
2.39024
-1.06887
-1.3082
-18.5172
0
-0.671444
-9.7649
-0.260027
-1.49322
-645.519
-1.19035
-6.82926
-5.68936
3.99277
-0.122935
3.07573
1.37404
2.32681
-1.91976
-29.3947
-90.1235
2.08359
-8.9137
-58.5344
-0.0675419
-84.924
0.731619
-0.0223498
0.742374
-6.36184
-154.925
-71.4992
-52.1048
-163.839
-146.234
-71.7186
-0.0578131
-0.461921
-53.7327
-54.7291
-59.619
1.32352
-49.8484
-32.154
-29.3993
-0.957187
-0.792567
1.01823
0.334864
0.0233616
-4.9042
1.05439
2.93774
0.409481
-116.025
1.48824
-49.4135
1.48039
-525.901
-21351.2
-0.969471
-105.633
-41.0801
-69.6804
0.233377
1.17297
-72.2867
0.0338261
-2.22476
0.143574
-1.26121
0.0671857
82.6741
-2699.37
3.92097
-0.200828
0
3.47835
-273.411
-127.655
-4.30761
3.64155
-158.279
0.0384266
-0.116065
-1.56039
-60.3082
5.43008
-0.923557
0
2.93387
-2.43963
0
-3.60048
0.328318
-6.92909
-39.7043
-36.0819
-0.386754
-122.285
0.99578
-67641.6
-0.0495874
-4.35177
-0.143482
-0.92272
-70.6056
0
-960.896
-0.59164
-3.2037
-50.2646
-436.097
0
1.2788
0.588326
-49.7156
-0.795803
0
3.49245
0.813979
-0.595957
0.469557
0
-151.598
-315.598
0.167206
-13.8115
0.574977
-91.7764
-43.1807
-0.722834
1.38676
-8601.51
-2.16868
2.71638
-292.75
0.976423
-2.08652
0.795766
1.28153
-3634.69
-13.4379
-0.0379391
-820.267
-40.7481
0.390784
-72.0305
-71.8188
-37.4734
-59.9703
-68.057
-63.3616
2.76973
399.29
0
-389.523
0.00532556
-3.23674
-82.0118
4.47796
-82.4364
-1.06845
-8.99832
-1.56616
-1.37407
-133.465
1.11335
0.223126
0.403813
-28.8083
-22.2577
-224.722
-137.405
-169.413
1.76566
-57.3365
-91.6554
-0.396945
-73.7616
1.64278
-7.19269
-0.68564
-169.296
-22.4602
-53.0719
-19.1084
-57.2837
3.52123
-1.87079
3.27465
0
3.13655
0
-1.92705
-3.04658
-69.9836
-2.85795
-32.1165
-1.14892
-1.73658
-1.35286
0.406175
-1.93627
-0.0948061
3.12378
-157.287
-41.6301
-0.856384
-0.420683
0.779354
-80.2901
-46.7046
0.685225
1.19375
-18231.6
-1.15062
-771.083
-0.485447
1.38849
2.91909
-172.703
-1378.62
-69349.8
-102.404
-2793.58
27.5088
-25.0277
-59.655
-1.21153
-140.608
-2.12519
0.160729
-5.82536
-3.43949
0.170637
-53.7905
0.747023
-35.6399
0.281328
-88.8261
-27.0854
0.894122
-5.80259
-3.58735
3.48138
-3.91265
-5.47658
-0.418965
-50.2015
-99.416
-32.4867
-144.068
-50.0765
0
-61.8143
-42.5626
-0.164261
-15.4119
0.820979
-0.0148091
-1.15068
-0.694957
0.843829
-2727.49
-38.0459
-0.0758944
-166.133
-0.683836
0.205252
0
-102.845
-82.3711
-1.95619
0
2.91607
-2.21344
0.798945
0
-17440
-0.608007
-2.07801
-74.0954
-0.0212153
-1.35227
6.33865
-0.0512942
-50.5196
0
-152.818
-45.0077
-24.6302
-224.573
0
-8.06583
-33.7142
-2.61131
3.30371
-146.385
3.19534
0
-315.551
-53.8206
-0.115769
-153.129
1.07075
-84.901
3.2493
-24.9088
-54865.6
1.58672
-1033.71
-12242.5
0.296721
1.58994
-0.612872
-1.81759
-95.6532
0.200368
-2.37211
-76.5454
0.00471145
0.10644
-27.1935
-163.75
1.88152
-2.30671
-109.7
-0.206643
-367.514
-461.18
-1.58295
1.29349
-0.941046
-60.1052
-79.4107
-1985.04
-10.9214
-75.0633
-4616.43
-815.488
-19.2721
1.8768
0.163874
-42.902
-140.824
3.59239
5.37476
-11.0517
-45.467
-5.8103
0
-7804.78
-105.726
0.373831
0.272085
4.31862
-3.54797
-75.0298
0.541651
-161.648
-0.209543
0
-364.384
366.915
-20.9545
-171.434
-4.54689
-149.281
-0.65202
-5633.88
-0.7822
-0.476279
-174.318
-3.02729
-53128.6
0.682873
-93.2907
3.01999
-2.12164
-2.39013
0.234021
-4.75788
-21.4459
-2.5936
-120.851
1.07801
-65.0398
0.660642
-446.278
0.123459
-70.7656
-0.80767
-47.2594
-3.80083
0.831781
-1.60075
-1343.3
2.73966
-321.899
-49.6577
-2.5363
-33.0464
-1.13432
-1.0287
-0.731007
3.02649
0.428632
1.15014
-90.601
1.2637
-69.1652
-0.580295
-0.857418
1.48619
1.38167
-338.484
5.41331
-2.59256
-344.162
511.842
-0.596193
-26.9857
0.587036
-512.547
-1.62471
-106.576
-646.987
-51.5882
-1.61781
-106.756
-5.26969
-105.729
1.31309
-28.9082
29.8311
0
-2.35344
-53.2232
-6469.78
-0.296068
-62.6081
-0.337313
-70.0986
0.049608
-7942.23
1.22052
-114.417
3.32983
0.176042
-0.720611
-195.318
-73.0773
-198.176
-39.4117
-160.378
-3.99689
-0.516331
-0.475742
-2.64582
0.272552
0.933785
-197.178
-22.4408
2.62846
0.32668
-42.94
0.238395
-46.9944
-69.6252
-8902.14
0
0
-403.326
-45.9098
-2.29905
-624.955
14.963
-5.50067
-1.94048
-12.033
-116.665
4.63487
-0.283706
-27.8237
-119.326
-95.0194
1.13066
-522.852
-0.416458
0.825508
0.607712
-3.31021
3.11412
0.879304
-1.96523
-49.6624
0.958551
-0.0495321
-269.907
-1.667
3.51448
0
-77.0798
-102.633
1.57822
0
-2.07045
2.92135
-174.608
420.248
-1.23823
0.116101
0.965763
0.740011
-274.896
0.488075
1.97044
-2.71248
-0.103216
0
-40.4064
-81.0878
-8181.53
1.62254
-1.95111
-136.655
-186.354
-18.1075
-1748.86
-107.848
0.211523
-246.88
-57.1075
-63.2802
5.12872
0.986274
0.268748
-60.8726
-44.0908
-3.92547
-0.52252
1.55392
-86064.5
-44955.6
2.34395
2.22746
-203.779
-64.1399
-34.053
-0.95036
-92.1331
-1.56711
-637.021
-2.83223
1.08213
-0.624866
-180.143
-80.9979
-81.6432
-1.40905
-2.73801
-49.3657
-29.4017
-3.99545
-74.493
-1.48409
0
1.3019
-184.937
-3.78364
-35522
0.799849
-0.107449
-0.743311
-1.36595
-0.103537
0.39178
0.0361295
-61.7254
-25.7448
-55.6522
-1777.03
-116.571
-167.464
8.19253
-506.004
-2.86325
-512.932
-6.53999
-40.8444
-0.314503
-0.0237086
0.878435
-0.899848
-0.162957
-48.2982
-1.68357
-0.265188
0.502995
-191.887
1.13848
-0.308283
-24.9176
-2783.07
-105.918
-1.00088
-28.8956
-29.6829
-90.7298
1.274
-22.9232
-36.4759
-108.779
1.30927
-59.9111
-0.0258032
-10.0607
-10.1306
-0.352504
3.01099
-2.67485
-0.732361
-0.305281
-0.406093
1.32968
-4.32378
1.89287
-13915.7
-1.78231
0.322635
-317.804
-108.761
-0.809688
-2.53844
2.81864
5.28189
-6.34099
-34.2643
-27.3888
-0.157833
0.0740489
-63.9374
1.19302
-92.5132
-128.038
3.75994
-413.446
-43.3057
0.0215914
20.9725
-43.7156
-5.47533
-6.3417
-0.14026
-47.7861
-0.725915
-103.64
0.435422
0
8.18652
-394.083
-0.174933
-0.205261
-66.4126
-117.014
-98.2657
-168.914
-48.2717
0.434785
