booster[0]:
bias:
-802.857
weight:
113.489
121.084
-6357.77
0
1213.52
1075.06
0
428.374
-798.46
0
-2164.17
0
487.173
544.208
-6587.63
-7303.03
200.063
0
0
-14340.5
208159
385.087
-6045.26
788.851
172.079
-20006.4
-187969
76747.4
-876192
26.5159
0
-5311.33
3653.75
-618423
-10980.2
15.7501
360.72
2219.51
35198.8
-1074.46
35996.1
-520.344
-151.794
9698.78
-6682.13
0
-1575.97
4389.46
643.222
-1785.52
483168
593.242
0
2330.96
713.653
-1320.16
-14620.4
172586
384.62
773.644
-1304.98
17708.7
627.732
14012.9
6355.29
4542.64
251646
42031.5
0
-24451.7
-1137.77
-291.608
4555.53
0
-22771.6
359.865
4972.07
1000.7
2.40812e+06
-542.446
-1374.96
625.673
40922.4
1302.23
-16242.6
-2637.77
234069
-1090.77
-274.199
114835
16797.9
-12566.5
542310
-13948.2
-9965.41
1388.52
1659.19
-1.61298e+07
-2377.09
561.406
-889.179
-478.18
-4231.43
1279.72
-2.16697e+06
3644.11
-3512.9
238965
-206498
-71597.7
47963.5
838508
-526.334
-22792.7
4086.12
31776.8
21702.7
569.394
-2993.78
3797.78
-446.685
1659.76
-248.777
713.484
3237.32
-4.29316e+06
966860
-2266.74
-670.571
-801255
237.828
582.76
-4188.96
1186.43
-12102.7
99137.2
-771.508
-572216
213.632
35303.1
5726.67
397.659
572.402
527.452
-8845.59
1065.62
185.738
144327
10142.3
278.467
472911
-725944
-13424.6
571.372
3436.21
-26795.2
-74844.8
955.928
388.897
5442.06
-1198.64
-2462.15
50772.3
7063.7
-1283.69
-1216.48
-911.935
-1313.43
-7297.6
16656.8
9.54796e+06
77059.9
10443.6
396.589
1493.18
235.653
-16.4499
30241.3
-1767.45
516.46
-1556.64
-205437
-258.15
1.41107e+06
1081.56
4916.05
672232
995.006
-105508
5288.75
-2383.44
770405
-2.13622e+06
1008.37
-346.254
9200.92
-3910.23
429.512
43759.1
-1.87074e+06
1256.13
92796.7
-2756.73
703.587
11088.4
532.14
155987
47171.6
-940459
269533
-1577.47
241.832
-71211.8
-367.676
1883.65
-1857.74
59937
1.31794e+06
3227.55
237.052
2088.02
-2200.69
-179657
294.57
1021.47
1069.62
360.996
5018.91
11244.7
-148.354
0
787.299
8258.87
-42306.5
291143
-3.6854e+06
800273
410.736
-833.016
953.654
903.396
3681.35
-5388.01
22459.9
8353.39
1022.57
-7655.74
249.532
1349.64
-615.775
-237.143
1.59146e+06
-1826.95
-54.8172
3.27557e+06
3579.28
1084.41
8046.35
-18179.9
-16162.6
53220.6
0
-132.948
-49737.6
74629
-1070.96
538246
-20303.3
-1375.41
-446.731
584.638
-9660.47
6.47616e+06
345.891
2118.64
445.884
923.543
-845.127
1580.68
-3640.68
51801.4
274255
2.50694e+06
1462.38
293.993
-74826
600.756
-35755.7
274.296
83.5264
1273.05
507.404
86.2386
-500993
-323.326
8591.22
450.823
-91841.8
1.01381e+06
-132059
764.909
8803.6
-0.112225
-29547.4
-3506.22
-48.9921
-16845.5
-7781.18
415.933
-245536
1001.64
-396.496
3387.24
-317369
-41687.9
605.489
433.253
514.302
250.729
3582.3
14979.3
731487
116.596
976.748
35464
-157.128
2069.92
454.096
-691.351
-68.0274
-19065.1
-4985.29
830.07
1926.61
634467
9448.9
-126.874
416.104
267.662
2388.59
43966.7
2393
213266
22067.9
-3305.11
-1.69165e+06
9433.81
853.042
1712.79
1.3081e+06
36516.4
10258.9
2182.21
40.847
-677.186
-9803.11
-113232
-429.715
-16.4643
52084.7
1936.7
532122
-54444.7
3515.31
-1256.42
-7915.82
-158.092
248.55
-4540.62
-4855.45
-25670.1
81485.1
-162733
-553.146
87001.5
-452.102
-1757.58
5138.32
40267.5
1528.58
32209.3
65782
-170.874
386.671
1049.61
-243.574
49281.7
259.163
-665761
-8401.67
1621.82
-7420.05
7.82768e+06
65795.1
757.326
-440917
-2264.46
0
-17.3613
3422.04
0
505.009
-92589.7
-747074
-1.39806e+06
15196.7
-20218.5
-23008.3
261224
3227.26
3497.95
1189.17
2944.94
-668.852
26.8076
2483.98
13055.7
458.947
151.182
0
545808
420.053
-6885.33
460240
-5645.76
-121.94
-549.542
23292.3
-184048
1044.44
-367454
-584.76
0.943148
109.378
-15047.2
-63.1634
59.6763
-0.167565
1569.87
-75.7996
-32596.5
0.980168
-803.323
-13.0312
-30.5239
-0.28234
-4.988e+06
5883.2
-765.833
-112300
381.057
787987
8883.46
-67220.8
-3261.28
579.008
820.284
3755.31
141757
618.354
528.105
-20.828
364.496
1.27209e+06
102.101
-62.4683
743.109
54414.8
5473.68
889.187
100120
-6241.59
2412.18
-131412
43775
-5624.17
282.608
779.456
924.288
336.368
981.469
294.81
625380
1174.29
2405.46
-354.272
-15392.1
167.044
-45578.1
-73673.3
4727.46
614.354
3958.42
-887676
-384.794
160389
-187.323
-224.596
-11336.7
-11222.1
-2022.99
-216.329
2.01656
-1028.29
-1359.2
-387.565
387363
1027.36
-895516
-66837.6
0.163975
-5292.29
76994.8
-2.11986e+06
-152026
-928.064
118.222
1396.59
-281448
34.3745
2124.59
-22.1833
-2713.47
-2778.02
34.9591
-408.672
0.682735
4.825
-0.2305
4593.49
402.77
614.566
2.17781e+06
-310.951
-318.621
110.977
-40682.8
-1994.02
-2608.9
36.7157
-230.667
104499
5716.52
77473.2
-34715.3
134823
-4632.5
-929.247
12060
-97.4225
-50285.4
-5768.14
29.3929
70807.9
-34.9653
-2560.11
-20193.6
-9812.46
-8.45033
337.741
-24.1589
-29.8692
-4160.64
346.102
17365.4
-75176.7
-779.355
-256.888
217.376
-233.134
48.5157
117498
-96266.1
84635.4
-203.706
319.035
-782168
368213
-2261.97
520.262
-813.054
268537
683.537
-799.188
-20.5898
275979
1379.42
151.306
-551.091
-53.643
-48.51
0.729599
131791
2972.79
4.28299
0.408067
-196.697
91.626
-1648.32
-891.611
-340.601
-90.7076
457.683
-3794.82
-3341.79
36.6816
-8684.16
-37010.2
-5.71139
-385.657
-30748.3
53228.4
-519.523
-138666
2.12017
-12.5154
-1997.65
3150.63
6982.45
635.128
190.932
-20.1892
-5468.27
340.982
-73.629
38945.5
12534.1
124.844
294.865
-29.2163
23304.1
-119.681
283.497
1014.8
-62862.6
2575.69
80.0586
-11.7891
1.34596
17915.4
229.63
-291.877
-1106.07
-7046.51
-40663
-169.738
-60173.4
759.563
156.592
-72689.1
-232.848
152.988
-82.4076
-24.2356
960.905
230846
49.0353
-65271.4
834.843
-28.0708
127658
1561.99
148.47
-1.39438
157.19
1048.51
1.7556
378.67
26.8834
-117.417
3.39685
-2.01715
835601
1.03101
1064.79
6363.62
129.007
30.0674
-64.8795
95.578
1.51801e+06
12840.3
49.3864
-1246.95
-359.215
-34.0816
0.172911
0
2425.43
-50.0745
-239509
140.21
4602.61
-1008.12
10.4019
174785
152522
0
6645.74
1.67244
49.596
1438.62
-168.013
-140.394
81.9695
0
147203
-660.132
-1118.17
1812.91
-177.588
32061.9
-69.6381
-969.948
-15.35
-3109.78
-50.3882
-92.3964
-111.498
-145.186
-64.8534
-2.06166
2185.72
-265.446
-65.5923
-16520.1
-138.192
-5003.26
-52.9718
-36.8536
286250
-26.2179
-10.5192
0.765097
0
73.7574
-284.194
-11.5031
-430.22
-42.988
407517
80.7504
-592.68
136020
351.504
-4932.73
-540.265
-50.8729
2362.5
-8872.61
-54.9151
35.0931
1591.88
-1147.43
7594.75
-1.07942
-92.0168
0.28058
92.0749
776.342
-8639.7
8.45168
541.059
-19.8768
-0.333137
209166
-0.572653
-668.774
148871
44.9342
-54.0631
-75.6155
-116.672
-1.15289
690852
13.5913
-291767
0.77297
27.059
202.106
64304.8
-353.28
52.5034
-32.0269
-64.887
-56481.3
-0.17059
607.827
13.6026
-40735.8
269509
103980
-2828.31
1890.94
-698.761
-9.67476
-12.1542
-20553.4
-618.41
-39.7492
21.9133
-556.122
97.506
12087.5
-27507
-18.2526
-4649.66
-22.2235
143.061
-34653.5
96.105
169860
-53.1433
-25.4281
17.0831
-4.65027
-250081
-2.40157
-421.959
-112.987
-104.333
-47690.1
-19.881
319.581
2556.96
59968.2
-112.674
-284.534
-435.704
-160.776
0.727262
-12.6169
-55.3466
-291.276
0
-397.754
30.3174
-94.7113
194.595
-591.666
36.3033
0
-10.3455
4524.99
1.52485
424.332
-11.0003
1.337
-74242.9
0.697046
-68.1826
21159.5
252.506
-59149.2
-788.128
0
44.2489
-66.6486
-1.77406
1233.62
82.6174
13.3532
-44609.4
3804.68
-192.573
-30368.3
49.9491
-7931.13
-1294.47
1.3413
-680.465
-1.33654
-31.0614
118179
-63.5078
-1090.94
1473.6
-2078.29
294.782
-7.80246
-8.60929
-4464.78
180.079
-71.4904
-17.6833
-276.762
0.939031
-190.878
-1388.28
33772.9
159.022
-114.94
2323.21
-10.1835
27849.4
-9.76956
-337.342
735.126
-23.871
14205.8
88.3182
-29.7556
-3732.52
-2578.26
86834.6
-135.627
71810.8
323.221
3.29895
-17816.6
35.0109
794.527
48.8314
29.7077
232.033
-35.6447
966.824
179.909
-7983.45
-39.3835
-438.582
69642.1
597.543
401.664
-8.21667
2925.45
-3991.71
43481.9
1371.69
-2263.16
375.151
-172.867
-5312.49
-17.532
492.476
-10.6218
127.437
7784.9
5430.59
0
-321.467
-78.9265
25.3914
37.3165
-38.2562
10763.3
-351.472
726.861
26.4036
-238.447
166474
-527.487
209.042
-123.15
0.738188
38.5609
29.4772
28914.3
6636.69
5663.33
-11224.8
190.453
446.169
-223.02
-7.58846
-9.38802
0
41.9875
132126
-5349.54
109853
-1177.09
96.6295
20556
-1780.54
-74.6996
27.7139
-41818.4
0.696783
836.998
-1352.91
206.808
-25.8895
-2.49309
-2297.28
-454.233
-43.8088
0
-33.447
-0.301349
-215.127
17.3067
-67.4007
-4072.9
-16.3051
31425.8
-1931.7
0
-36.9085
168.968
-22.286
-54462
-735.457
-677.04
3.31566
-241476
386371
252.142
247.481
-13.3161
3.13469
-11982.8
0.409876
-14.3381
-76509.4
-57.6906
165.212
0
-9.11258
-1493.25
-56.6413
102.49
-1896.24
-823.073
27245.2
-0.241235
9349.23
-954.245
-127.648
-63.5577
-225.987
169.042
49.7492
222.86
56.8666
22.0362
120.544
154720
-1087.21
121371
277.814
163.46
-174.043
-177.6
506.369
-792.358
-6357.34
427.609
-12452.5
603.467
-566.166
-15.536
-14.5962
0
79912.8
56.5626
14966
-689.447
52.8177
22769
-284271
3615.45
-172.377
368.112
-118.758
-542.963
-582.331
-520.195
56.7817
-460.759
-13.2156
-1996.81
2.25451
377.526
-19.3204
-159.515
-10.1468
0
-71.0526
-27.5312
88.2536
-407.538
-1983.05
-14548.8
54.5138
-32.5736
-43.7496
107.654
-349.521
4366.96
193.783
1.70833
-15890.3
-30.3206
-7.55305
85622.5
54.3161
-14.1839
-116.346
-15.8893
15058.8
-391.583
-622.734
7503.6
40.3888
1431.53
-27.2283
1256.09
-58.9336
-1864.96
-1400.1
400.25
21.3462
-6.58479
17075.9
11.1283
-81405.3
-3.60987
-16.0592
-600.097
-7322.43
-31223.3
47454.5
52.5464
-32061.3
-38424.1
93.4219
0
63.8972
-21.7588
-68600.4
-11.5433
-7991.8
-34417.8
54.7724
6.5938
-49.6984
320.499
181.624
-42956.4
-0.284107
33.0259
22775
593.266
3.03068
143.677
101.82
-1325.75
81.9211
-197.502
-16.149
-4.57469
0.266577
-19.1791
13.534
2.09344
77.5543
-30.2114
251.168
689.134
-15584.5
-3.03523
-48842.9
-101.366
-73.3654
124.616
-92.7201
-26.9406
-13712.4
10.7298
342.698
-10.6227
87.7027
-33.4976
-1616.45
0.265288
-103.724
63.3771
-8947.1
-4904.81
-2291.16
-667.937
-20.2668
-29.6794
-38.0092
452177
0
-556.925
-34.6634
33317.9
-7.07598
130.449
4.82894
-44.6315
-32.1223
-137581
-39638.2
385.044
-30.6395
540.983
236.3
-55906.4
103.535
-8352.02
-4285.01
-25.5632
15473.6
77121.7
0
10.1977
348.314
-33495.2
-16.3444
1657.7
15665.2
93.7632
-2.40843
-2457.57
78.1749
-10.8982
5510.62
-2.71962
11884.2
30.3885
42.3646
-0.569034
-5355.24
15531.9
11.7805
534.758
-22.2586
-42.8979
-1.71171
-345.688
-32.6218
-194.794
-14124.4
-35.2368
587.436
203310
-767.971
-4785.38
0.668319
-7316.96
-81.8431
103.481
-7181.24
16.4017
5311.38
-1.882
75.0294
-124847
-120.983
87641.5
6.59785
-256.889
-8.33868
-119.071
-537.01
-12.8747
12.1199
-322.748
-7377.55
-65.0589
5636.3
1118.69
26.3504
35.7254
-0.471222
57.875
-6.46023
4.36938
10.8254
-169.854
-127.161
-4221.6
75929.3
32.9512
-404.344
0
-3.40486
13.224
67114.4
-3542.11
-9.31122
341.748
457.698
-3.24451
-220.783
-40.8146
-2544.7
42.6515
-11.58
-13.832
-0.45466
-1842.72
0.50672
7.15418
50.9993
-7.74581
-20.9529
3042.87
1.6061
-1385.76
-528.671
-24.0507
-541.57
0
58.1086
-56489.2
-12.6572
-21.4133
-19.5399
-20.2029
-77.4901
3.67074
-12.0805
4.70312
9.24279
-880.929
-308.642
13159.6
-22.8151
-1.52129
-201.957
-4.60303
-55.9997
100.418
-4147.55
-40.911
22.0818
-377.009
-270.909
94.8659
-14.318
-2.19566
-16.9945
-96.0175
-72588.2
-32.0075
14.8138
-1774.55
37.6941
0.626966
-58.9612
-26.0471
-65215
-137.885
-18603.7
171.661
-81.2369
14.2424
9.82891
-454.508
-3.26258
-146.585
-0.824038
-3.83964
-9144.08
12132.3
-311.903
-344.739
0.543162
89.2005
-10.964
-19.9776
0
-50106.9
498.95
-14.0086
-341.351
-654.183
434.063
2228.76
-234.185
865.2
37.6028
-4.7798
102.746
-0.700619
-576.104
263.084
0.184409
101.055
-3091.62
722.342
15.6177
-9.3023
31.5984
1.20953
-25204.8
185.975
-1042.24
-355.099
8.43011
-14.144
-113.658
269.26
-10.1293
-1074.83
5.86968
-15.0922
-200.502
-10.9495
481.225
-85600.9
-569.94
3043.99
-3040.95
-16084.4
40.4863
-21.8741
77.0455
-481.225
-199.504
-3.05902
223.528
-15386.5
-7.99834
114.633
-2.9444
-38499.1
15.6079
-294.455
-42160
373.277
-153.218
-1.07641
-1357.63
-94.0338
-19.0523
1569.17
-14.6981
160.071
814.822
14.0879
31.2256
17.9514
-37847.5
19.2517
-276.735
1.11878
-30.0574
-1080.22
-169.829
-100.512
27881.3
452.028
-21.8794
-54.797
-18.9312
1.97065
-9932.66
4987.96
-551.206
-4724.03
675.548
-86182.3
-6541.57
1611.99
-7.68812
-430.231
-536.132
180.18
-208.779
-306.215
437.083
-2024.6
62518
-13.5713
-7.41875
0.301763
-74.6435
1706.73
-11191.5
-8379.1
-92.3929
44.35
172.311
3207.63
0
-8.71308
6922.85
23.8256
1401.32
552.115
5769.63
-172.271
-10811.1
-9.54334
1147.22
-83.1283
-1142.78
-2387.65
3313.17
-1996.22
-65433.9
-35.6221
-8.10804
-1384.09
-695.897
9866.05
465.283
-3609.02
-92.7922
-4.80968
1497.74
-80.4612
-9010.12
-7748.15
-18.6098
1.05122
-27.6365
-37.6397
-16.6135
-25.1161
-8.44944
39063.4
-2649.48
-28935
0.785745
5.08417
-22.5349
12295
-12.1779
23470
-3398.27
4.44045
247.84
-1222.11
30.1281
783.355
-536.077
0.0715179
1517.12
-14.3038
-1856.72
154.146
1720.56
-748.551
30.3571
-3551.29
-378.834
11.1983
-11.1653
36494.2
27441.5
-223.759
-14469.8
-1179.39
-1291.63
-376.262
12538.9
-21.6841
-51.1899
-23587.3
-1.48153
5.86263
-73910.8
3.32767
4961.52
31.5805
-53.8439
-104.535
-362.824
18.5212
-103.236
-1243.88
-1863.78
-7.66265
-82.3987
583.607
-42.3421
1995.35
0
-17.3616
-2.39089
3077.24
-8.73996
-162.078
-14.7629
34390.7
-1056.47
-154382
27.5953
-13.1901
0
-496.238
-0.438878
29715.8
-64.9631
-31.1865
162.186
198303
-381259
10.0025
-33.1885
-12.1637
-1.7643
0
11.5328
-6594.73
-138.746
-149.494
1189.6
-170.588
406.418
0
-8353.39
9.09664
-15229.3
128138
3.51374
-4.7236
20.0093
73.6987
76.8279
14.0375
-11.6035
-4.51476
-12.4785
-93891.6
-1235.04
-584.544
-182.92
713.617
-898.833
-1856.4
-12.4776
-31309.6
116.273
-643.821
520.017
-23.2111
7.59119
1.76537
-13338.2
-184.687
-77.4102
-0.92786
-9.63466
-108.217
-62.9238
37956.3
-31.6847
-2.42119
-6456.13
-10.0045
14.7399
2.41526
1.15943
0
7868.01
-57407.9
340.549
-0.669818
11.1999
23.3027
-49.4961
-35.8063
-35.9575
546.364
-511.343
-31.4843
-237.054
-55834.9
13.4252
-45.5049
-12990.5
586.477
-1.42427
-571.644
15.0718
-125.117
-1014.75
-3031.87
-153.297
-0.572715
0.289931
-405.882
5950.2
-3633.67
-7885.3
21.7499
0
-4.03378
-15.986
-1343.75
-0.928833
-17978.7
4307.46
-100.807
-35.9273
2129.02
207.245
1319.09
-149.198
-1356
848.281
-8.81453
29.2349
0
131242
-42.3818
-34.7517
23884.7
-579.956
-38.2581
-5.11978
207.656
-11982.8
-0.615678
-347.932
-31.8613
-63.9682
-169.339
-1858.95
21.8435
844.92
50.4764
-304.476
52.9218
-3045.57
-12.2916
141.813
-7.16698
-20.4527
-238.978
-56.8997
-46807.8
-1.27916
-66.9428
11.7421
-1.22008
-7.15574
-11453.1
26961
40854.9
1.36654
-38.0005
-11.4691
82.3342
-11.084
476.642
506.762
-9.04287
-186.305
-12.6775
-20.9812
-553.44
-285.376
-3.24406
-7143.42
-20786.4
-75948.1
-31658.6
124769
168.329
606.993
-248.695
6.13675
0
-130.399
-14.8766
-302.263
-3.78083
-15717.6
-0.48385
959.482
-42068.7
-6679.91
-24.0237
33.076
-1095.04
-11.1515
-9917.08
458.444
-11962.3
-17.7358
-42371.3
-3.51909
-2598.88
-12.4997
-820.249
13.5325
-285.316
-474.866
-61.861
18.6822
-8288.37
-666.131
-64.418
-204.283
-17136.7
-10.5206
1465
0.358538
-196.19
-2.86052
0
5376.18
-49858.1
-55689.3
-10089.2
2159.84
91654
341.833
1522.44
-401.588
-29728.2
190.201
-759.203
6.59297
246.152
-6595.9
-16.0705
0.963591
16.8859
26.3298
34444.2
36494.8
-5039.43
194.454
-176.712
12.3313
-25329.8
-14420.5
-11.1003
15.5774
-42.7079
-1423.62
447.651
-14.1984
-503.717
-92343.1
6.17052
-7592.43
-488.333
166.543
96.5515
-284.656
-446.726
863.073
20.9691
-41943.6
256.79
23951.5
16.8738
-17.4729
-702.582
-0.908602
-5.48756
85622.8
-3065.89
-8.69025
-148.214
431.85
-33.5835
7.05933
-8.80286
3041.03
-0.443853
9719.01
-136.999
-28904.9
0
-1047.85
-1.42427
-10657.6
-2.11366
-26.7006
11.7602
-167.601
-3044.93
21.2289
-10.0672
3208.36
-7.67834
-5.93708
-15.5357
12.9572
4.89326
1.61223
11544.7
-455.084
15.5007
-4.33481
-1.39508
9.11611
-2275.5
-98.71
-36.5755
-403.042
0
65.5714
-19260.8
0.281441
-193.81
5054.18
-44.5514
48.9041
0.964638
-9.19941
-48470.5
0.244594
11.7388
-113.661
-3573.69
-8.48097
-13.3656
-42141.7
-131.547
-2850.67
-1879.05
6.26318
-8.15591
-107.899
-25.2772
-0.107592
14.8823
-14.8598
-19.465
-119.305
-72464.2
-11.3202
-27.7612
-10438
0
410.898
-22.1279
-98.4412
697.871
-30663.5
-1.56156
-0.509381
251.378
-0.898793
330.934
-2.29528
-27.2937
286.587
9.86289
18.6278
3964.97
2.07854
-8.88918
-679.163
44.304
-87.906
-3.94349
20.2843
188.877
187.555
617.635
-6783.82
15.4679
-72.9541
-4501.27
23.3454
9.02535
-9.39169
-560.349
-98.7627
-744.328
-4.63425
-16.2113
1130.95
-22.3042
-3.64558
-21.2623
-21.0003
-407.715
82771
-24.2561
57023.5
657.359
-20307
-9.56346
-14.3331
-0.863754
701.436
80.009
0.674278
10.9426
-5180.87
-7928.03
0.896767
31.5204
-1173.11
-491.597
-163.305
352.863
-33.8953
23.1293
14.2475
-3391.15
-31.3954
-32.8556
-110.893
-211.306
-1768.58
-34.5282
1.21367
-17.5415
8.45059
-10.2687
52.702
-18.8644
-0.0574934
45.4797
-99.2592
48.8812
-2026.78
-14595.7
-9.29881
-21.8984
-66.5135
-8.78003
-71.1476
-38.8616
-1659.11
-1.86677
-140.15
-1634.67
569.077
144.092
-1.27613
-47.6257
-11493.2
-4514.58
-8.79836
231.597
127.247
-0.503724
27.9691
147.329
2.52244
174.17
-16589.7
3315.33
-27.2522
5.07211
3319.63
-24120.3
-161.421
-3567.65
-2703.75
-1090.28
4.99538
16642.4
-1.72714
-3.39448
10.1593
-2207.36
8.50056
0.504469
-37.9689
-89.5973
-2.05388
-63.4875
-100.125
-2647.47
14.7227
-511.032
-6.22356
-388.161
18109.3
-118.827
-133.309
-15.2874
0
-7.95536
-4.30649
2852.2
-8.26517
0.679904
-0.00717723
10.9377
-14.6233
-14509.6
-0.663949
-120.914
-5146.37
444.058
-39.705
16039.6
-9.36151
-0.434066
-5.79601
-97.898
-18846.7
-11.1227
-10.3795
48.9129
-2734.99
158.381
-25.8923
-35467
40.9689
1519.42
-3.48861
37.7676
13.5769
-17.2065
-4.99458
-60.165
11080.9
9.01877
-721.634
-14.1463
-20.28
18255.1
298989
-1.8181
-26.9393
-14.513
-50.6097
-159.684
-7.52611
-58241.6
-66564.5
24.0937
-16090.4
-3723.92
271.834
-19.3149
-4.75455
-31.2464
7.61135
25.2251
7.10956
-7241.66
-11791.8
-2448.41
-1.52065
3.59589
-362.614
-83.8301
-529.241
-0.444237
-28522.4
37.8705
89.3824
-11.5139
306.427
-25.8733
-121.955
-41848.2
33.1565
0
27.9798
-6442.26
-650.804
-853.304
-20.1695
-16436.4
-20185.8
-32.2115
-45.8824
120.513
-43.4061
-10.345
-12272.4
-65.7075
-17.6509
-6.93608
-54.1608
354.52
-113.446
1.92628
-18.7672
-43323
-7.1776
1.20333
-94.8843
16.525
25.5287
-44.456
-16.5493
-7.79093
1276.69
1046.78
35.6067
-0.657249
-78.7853
16.6649
1705.19
10.6338
-10.004
12.7504
1084.57
400.911
114171
-70.5059
59.289
-362.536
-2.29508
0.746736
-21.0919
-42359
-1228.95
-9.35468
9437.11
-577.188
-12.836
-4.02132
-25958.4
-1159.61
13.1615
-2124.04
353.604
8385.93
0.52992
-92186.1
-5.86942
-42.5049
-62.2783
-3012.07
106.256
-20.5886
0
39.1116
-19.9147
418.353
3.52973
-2316.51
1.40674
16.5521
0.68448
-22244.3
-2466.01
-168.938
-22.192
6855.31
-158.938
-0.929019
5.03726
-0.569034
-10.0444
-63.7107
20.8228
8195.75
-177.888
10.4427
9.99968
-1975.88
-27340.3
-366.306
0
-36.8604
11.4277
-8324.06
443.886
-185.786
-102.065
-24.128
-12318.7
-345.954
75.0011
-18.3218
-8.90321
3.13811
221.518
6157.56
2.30158
14827.1
-87413.8
0
9.49434
-41.0878
1728.93
-371.833
128.39
11.3125
-306.852
373.749
-1653.38
-3774.44
-14535.5
1820.09
-37976.9
-47.2168
-1555.39
-2211.44
0
7.79924
-10.477
38.2355
-11562.4
24.4313
-735.129
-173.545
-17.8612
-0.744787
-755.09
-196.854
-0.0947792
0
13.5465
175.689
-4325.34
9.35009
5.4952
-5.86844
73.2326
-1697.99
577.578
-28.1243
-59.668
1.10172
-611.021
-9.50919
16084.1
0.93894
256.882
-1.4819
-16.1814
-1.74614
32.5205
-14.0924
-50753.9
-39.7452
29.4952
-22.6661
-2916.21
-28.3279
-5827.19
-31519
0.00991702
-3.04258
3.05885
-151.586
183.267
-9.66411
226.74
-7.97522
180.363
457.388
-300.443
-18.1408
23.72
58.8256
2372.55
15.2475
-191.338
-1100.14
-222.347
1.02397
44341.4
173.383
-72.0077
17.7674
2.53604
-3.40792
-1.77508
-1088.27
0.120171
107.262
0.504331
211.027
-19.9784
-0.282467
-16.8149
-21633.6
8.32641
-2982.94
17.4934
7.081
13.1548
0
-2.72678
173.368
-1.87993
0.0169
-0.112915
-30.8109
-30.8951
772.58
-74.2544
108.084
-31.8705
-47.6488
-0.0697681
-0.811144
-195.414
-1.27479
-7698.16
-0.405098
-7499.74
0.0543918
-1.75159
91976.7
-6.4945
-5611.88
-95990.3
-18.1645
4.42372
-12255.2
-9.64392
-7.43161
1967.77
-523.52
2.48936
-810.71
3.90234
31.7983
-3852.12
-106.317
-74273.7
-3131.05
-11647.5
-48.6967
-0.144254
-71.8646
2.66596
29390.2
15229
-32.89
-25.5914
-1422.85
-85499.8
4.13069
-68.0396
-3.50916
-149.21
9.59196
-67.6312
374.388
1813.43
-45.8099
-8.24049
7.77256
-8.70177
-0.267111
1.07296
0
-1.93199
-98.6578
-38.0007
-14814.3
-483.357
0.395766
-15.6514
-51965.4
438.858
-26.5463
-1281.78
-12.0036
-3513.21
-10.6473
-142165
275.064
-442.813
-11.067
473.89
-1119.08
0.196375
0.989989
1.77303
1187.24
-0.941261
53057.2
2040.87
-415.195
-320.917
-0.950194
-8.86423
0.519687
-0.389061
-3628.78
6250.09
-13.8884
-8.76665
-88.3753
-138.836
-6.11862
-5.04319
-1035.37
171.915
-24.4267
-11140.1
-512.769
4.86567
754.167
573.854
-8.87779
-469.784
28471.4
-41.9086
-25.8366
-2218.12
-11205.2
-22.2885
-22.5405
-8.63961
2.48405
-255.827
-15318.3
-9.23837
515.731
-518.432
-24.5509
-1935.02
-364.662
-14966.2
102.083
-49.1742
173.275
-9658.48
-40.5141
-20406.8
249.329
-0.54929
-9.61395
-19.5558
-18.0144
-28.0803
-2970.12
-350.079
-357.091
-834.267
-13.2534
-27.6837
-205.025
64.7708
142.487
-2114.17
-19.3744
-16085.4
1.51033
-27.9892
6769.37
-164.748
-7.95197
-8.38607
-12.9729
-1.02867
93.0553
-15.6092
-483.918
2.20743
-11.9279
7971.73
122.95
-9226.49
-1.7996
40.3991
-2413.02
-544.486
-3.40631
3042.72
-45593.6
41.3636
-6122.95
-17514
5.08057
3.29676
-10.4642
5225.44
-3.99232
154.261
-9.27547
-69492.6
-30.2852
271.186
-36.8445
-0.866847
0.797303
-9.01797
2.0517
-7.95268
37.2641
-3120.85
0
-1300.16
366.192
-16012.3
-73078.6
-134.475
-16.9754
-205.928
-0.910873
1.40695
-8.39837
-813.954
79.6692
-1.21616
-8.65036
-0.327056
-7.77947
-0.368713
16.7425
-13.3526
-14.4012
-7507.82
11.8676
-18410.7
0.696485
48.7405
-57.2729
-6689.63
-0.237671
-872.224
-30723
-20.9071
-17898.3
854.393
-321.923
-173.592
-153.295
0.382888
-4.46363
-28.0286
0
-3.74931
0.254081
0.209522
-77.326
5.8943
-9.13773
0
-3.87921
-29.582
1.17763
-3668.28
0
-1493.3
-717.075
-98672.9
177.905
-25.7341
0
-27.6745
-75.2372
-19.1616
-1159.84
-12.2999
-27.721
-21038.3
-13.2782
-66.1166
-1813.2
-15.454
-9128.38
-1.26619
3.49029
-14.7956
-28.9996
7.2238
-5.61631
-3.59343
0.629067
-4.278
0.284493
-2372.49
51.6767
-7.04212
-7.66703
-30.3365
-32.6363
5.70709
-9.7537
-26.2735
-59.1978
5.83817
-16.9495
149.749
-60353.2
-3.07732
-1.04641
-43.6747
-0.802803
-3164.52
-78492.4
-9.73037
-8.5011
-256.617
30.5991
-41.4874
-1140.17
8.08569
4.05075
-1.81689
-108228
-15882.7
-218.733
-569.338
0.820132
-8.8114
-32.0139
-0.65143
0
-3655.02
-10160.6
-7.79018
-0.515578
-3.41701
-132.242
20.0781
-27953.7
-14.3942
-1502.71
1.54852
-1.64548
0
5.73276
-7.47669
-1822.72
-6974.82
-3275.45
-28525.5
-3261.68
-3.31591
-0.614419
0.561459
-3646.34
-23.3605
-22.3098
-11.9117
-24.4647
1.45983
-380.628
2.69297
-86.7921
-22.3156
-18612.4
-8.94557
-5.9947
6163.34
-10.7283
50.4256
-9.07851
67.5122
14.0318
-527.557
-0.262495
-5.84606
-16250.1
-8766.4
-18.6943
-8.45374
-1119.19
1022.79
-3396.16
-1801.98
-176.58
-20.673
-179.355
0.254026
-33426.9
-52457.4
-19078.2
157.79
-0.950378
6158.59
-2920.38
-14.425
-1581.39
-40.285
-13.5464
-2160.98
-72.4309
40.9819
-11456.2
-6.14298
121.127
-29.3055
-2.99867
-15.4922
16.1048
-3.93363
-4.93705
-8467.32
6.65936
-3.49777
-10.4187
2566.34
-159770
4678.69
338.969
-9.11152
-3.0037
-0.461464
89.9246
-4.05331
-111.038
6.1677
0
-31.5914
-321.757
-79124
-0.53079
30.7616
0
-10.912
-56.6436
18.7793
-316.996
-219.951
2.32988
-180.429
-64.3375
0
1.00333
-12.1032
-5.89444
-0.342654
1927.35
-13.6751
-61.5022
655.678
-0.115498
2.11994
0
1.74753
-5.04483
-0.0601683
-67.9753
42.2446
-22.9554
6.49775
-15.3461
-49.6537
-32.437
183.93
-20.964
-4149.4
0.59823
-0.116883
-4248.76
-79.1276
-3.95774
-40.6256
-36.9535
-5.89229
-3.32319
0
-88.5614
-405.511
-11.7961
-643.034
-1.2179
-8.81254
-8.09757
-1.049
148.249
0
-18.043
-13.682
-25.3432
-2532.17
-6807.33
-543.77
-5.51683
143.925
-15713
-30748.3
0
-64159.6
-9823.84
-8.62481
245.667
-20.4069
-1.80229
-9.05651
0.806924
-0.578547
-6.27957
-5.21818
-8.01207
-9.37144
-221.609
-2424.48
-1.51546
-3.97385
-36.8787
1.38378
28.6929
-27.5354
-6.4185
2.02534
0
-10.4154
-2.06029
19.0708
9.33603
-3172.4
-1998.91
-0.596228
0.506926
3.04846
-5.33288
-1.62376
3910.75
-2.355
4.5089
-145.566
0.894303
416.674
-513.867
0.622083
3844.1
-3268.65
-93381.9
-173.551
-1.32271
-188.62
-19401.5
1308.6
-540.216
0.797008
0.905517
-71780.2
-17.4106
-2158.52
-2.58983
-609.097
0.843771
-467.482
-74268
-1.77133
-1.47252
-311.826
0.495504
-3.41193
0.671322
19.2318
-79.9646
-6101.53
-7137.16
-2.47692
-27.1748
-8.56769
-6707.22
-84304.2
-0.699661
11.2254
-0.394659
117.048
-149.509
-5588.49
-20.3046
-2006.13
-64090.1
173.42
-1.00992
-10.1358
-1674.33
-202.579
-11.4042
41.0649
-9.08651
-15.9291
-13.6137
-9.1351
-2625.12
0
32.4484
-797.094
-10.3613
-7.99868
-30.547
-0.492219
-4247.17
-91.17
-34.8437
14.6007
0.135036
-0.13714
-1.47332
5.3069
-20.1868
-299.434
-5138.52
-2237.79
0.571587
36.0778
-0.75988
-1.5474
-14.9975
0
-3970.58
-78.0955
-18.2859
-36.3756
-3.98318
-0.402791
0.587616
-9.97918
-465.055
-9.49149
-4413.61
-28648.7
-26.0924
-19616.1
0
-1134.34
0
2.02465
-32.6873
-1.98771
221.044
52.0698
-7317.69
-0.0638529
-0.0806295
0.290066
144.177
-19012
-1.53654
421.884
-35.6457
-13719
-3374.36
-2239.74
-10.2828
96484.5
59.7169
1.88922
-69.2052
-40.6695
0.270807
-20.093
9.19547
-23.8778
4.29912
-1623.78
-38.027
-2291.86
-3365.04
-27389.4
-30.8166
8.60811
-1.24217
1872.22
-928.736
-1.66995
-7041.61
17.3781
-189.978
-1579.21
341.99
1.165
-9.54876
-25.3394
-3.15579
0.983416
-50.9451
-16347.4
-6034.61
4.60413
-184.623
-5.46407
-96.8627
0
0.431323
-6.31168
-7.2393
-26745.8
5.04933
-1.80621
-6160.03
50.8563
-10368.3
-351.454
-42.4724
-8.66162
1.24852
0.726585
-851.828
-2.3137
-2436.88
579.826
-27.4964
-13.1908
-3.06791
-1.24597
-46850.6
5.04069
-1074.27
425.075
-8.26475
-10.7215
3.55861
59.1333
-2009.24
176.044
-31.6276
-0.0800596
-14.4824
-80287.4
-181.36
0.93894
-11.571
-0.53264
48.9425
-61.348
-19.7069
-3.34645
-477.597
-667.345
-2394.22
-1965.39
-1071.18
-37281.7
-4.74233
-20.6015
3279.63
-20.6075
422.836
0.0491215
-14528.8
-22.9853
-24496.6
0.361519
-0.226833
-8.0514
-174.81
-136.399
-10.5954
10.2362
-0.609548
-0.441038
-32.5815
-224.653
-64325.2
15.0667
-16.1679
-5.01492
18.1759
-803.345
0.5918
-6089.32
0
-1.99737
0.535505
-17.9579
-4.82211
-6.91533
15894.6
-7559.31
-54220.1
-55.3704
20.6172
-8.40759
2.10725
-16643.5
-0.216643
181.56
0.537989
28.3626
-4.74963
-38.935
-18.5699
177.827
21.5824
-0.0961926
-1297.72
-9.47498
46.1193
0.442952
-7432.34
-174.149
-1368.12
-31.6043
1.46212
24.5952
-8.3593
-10.2283
-300.348
2.52563
14.6169
-1.60253
-2.46844
-14.5748
12.246
-944.043
-86343.2
-4.96828
-3.46013
-0.823697
577.563
-0.147769
-89664.3
21.3009
-17.3237
-10.3505
-462.404
-353.462
-11.8353
-9.95851
-8.45418
-7.0817
-9.16329
0.192627
-6854.58
-7.96804
567.213
-16.8596
-31.5926
-14.0928
-75809.1
-192.751
18.7617
0.350131
-31.3396
-761.275
-3.72338
-27.3676
-58.9707
1.41052
42.0916
-8.1804
-19.5804
-85270.5
0.0206332
-11.2917
-6.77452
1.62208
9.66777
-16.7681
0
-13.9293
7.35884
36459.4
-5.00631
-188.986
-3027.93
-1154.86
-24.2834
0
-79.4164
-22983.6
-81.5929
-22.9102
-3.75309
-10333
-10.2596
-3640.26
-62.0408
-19.1885
-2507.11
-22.7353
-15.0324
-21.3618
4.79515
-9.06885
-17.7378
0.534847
-6.52264
-29.1417
0
-5.54438
-11.5085
-6.33513
-20604.9
-50679.2
-50.4737
-553.441
115.064
-0.614066
-87.1837
1725.42
-9.46336
-69.3977
-10.4977
71.2488
-19.4416
-6.75701
-28808.7
-5.22884
-1080.93
-0.958717
-90935.1
-5.7298
10.3741
-7677.2
-1.91525
-63.7685
-0.42798
0
-497.779
-0.687239
-24.4644
-0.0665748
-6.14587
-528.777
-18662.6
9.62232
-819.259
0
6157.65
-684.44
-94.1123
-8.79856
-8.59676
-64053.6
17.2956
-11.6358
-15.469
-65.8306
-66.2967
0.221244
-174.925
0.257818
5.29043
-394.978
162.551
-3.69901
-67182.2
-80.596
-35.1729
-1416.96
-4.75132
-198.662
-8369.89
-31150.8
197.964
-2682.25
-50.7207
-7.70165
-7.38445
-33.7905
-2.56661
-545.565
-16.2944
-956.53
-0.339655
0.658906
-41.1042
-12.5796
-24658.6
-0.168014
-11.4796
-546.738
52.4704
-16.5251
6.0165
-60.2667
-70.724
-2.85762
-0.320791
-15.5823
-45311.7
-3.93663
-57.2015
-1.80679
-10.2005
-13.7903
-1320.42
-18.8263
1.69592
-26.8947
-17.1263
-0.838257
-8.48769
37.3836
-1423.21
-8.80577
-252.051
-15.2391
-21.3224
-19.3739
-399.14
0
0.650788
1.12838
-11068.6
-22884.3
-51346.2
7.22324
-12.6737
-11195.6
436.833
-6512.1
-3919.09
0.169692
0.487318
0.608678
-33.9216
-4.30684
-12.414
-96266.8
-66721.4
-36.0875
1.11381
2.63404
-1.76439
-10.617
-25.9251
-21217.9
-691.158
-21.9322
-8997.79
-10.2371
-3469.06
0.68334
-1666.84
-18.4617
71.9366
14.9867
-0.227627
-15.482
100.738
-33.9246
15585.6
-1.72633
-8.98283
-17.3348
-14611.8
-350.434
-93.9659
-13.2603
-2.6743
-13.0073
13.7492
-4165.94
0
0
0.809098
-1.01926
-59.6711
-2.56073
-1.05673
-11.5593
-41092.2
-17027.9
-51.5791
0
1.49554
-20.1071
-80.1639
-11.6146
-29.5144
-237.254
-583.875
-2153.81
-11.9522
-4338.05
801.397
-6.27931
-3764.55
-24301.5
6.67593
-2.88482
0.49061
-583.34
-29.2067
-1.63492
-9.15872
0.989102
0
-81.8851
-468.883
-4.75875
-0.472689
-28819.1
-2533.37
0
-9.0701
-0.729346
-11.4829
-16.9387
0.0399309
419.431
-8.72076
-8522.93
0.335235
-0.089517
1.13722
-38.1029
3.10977
-74.9438
-1.09699
1.54611
-0.64288
-48.3518
-227.513
-2008.49
-0.648409
-1521.32
-8221.78
-0.0840663
0.770033
-33.3529
-0.316244
-6184.29
-10253.4
79.2743
23499.1
-0.515578
-267.67
-428.18
-12953.5
-0.229141
-9.97185
664.326
27.0273
-1.38695
-54.5615
-44253.6
0.144254
-3.61777
-33.414
-3.97128
0
-48678.4
-56.1243
-24.7071
22.2675
-13.0361
-552.997
-252.809
-41.6443
-1.24726
-465.176
-42464
-5908.88
-11.2911
-31490.7
-9.63273
-67.676
0
-0.0311352
-10.3394
-24.0799
-397.146
26.9221
-0.643064
-9289.67
-303.398
-2875.67
-49.0689
2.15187
-5.78011
116.577
-0.856633
-24.9456
-98766.3
1.21677
16.5845
-1449.6
-11197.9
-11.3717
-0.918117
0
65.3739
-2080.01
-0.636126
-1.34799
-11.6446
-40591.7
-6.19057
-7.53908
22.704
55.286
-3279.31
-199.952
875.855
-27.3647
-18.6791
0.751751
-2.51796
-11.2465
-11.8278
-31.2448
1.31641
-116.948
-97.5168
-4.32573
-1.01637
0
-67.88
-57.521
-4.11129
-0.490013
-2014.24
-15.0935
-4.5394
-9.64614
-24.3226
-10.9139
-1216.21
-1.40697
-17.7773
-3.27297
-19.4006
-10.7862
-1384.88
-11108.8
-4.65509
-9808.17
2.12907
-18.9397
-9.61535
-0.130182
49916.9
0
3.08129
-5.13458
164.833
-8.81526
-192.94
-0.21817
3.5421
-0.157459
0.686322
0.22196
0.0831056
-9596.65
-133.641
-42.1013
-8.91642
-65999.3
-0.204297
-30.874
-12658
-2814.41
-10.0109
-7.01761
-4.14784
-0.386512
-75.5599
17.3002
2.67602
-13.7206
-76.6991
56789.5
-130.999
-1949.2
64.6847
-108.001
-12.6534
-38.1667
-465.48
-21.6677
-1.81816
-1.34291
-0.211911
8.08556
-13.7192
0.531866
0
-502.717
-24627.4
-8879.75
1922.17
-8.05968
55.1822
-1574.21
-36.105
-24073.5
65605.1
-2.5669
0
-5.84228
-2.76702
-11.9294
-17.8945
-30.4277
-4.42969
-398.178
-156.692
-0.973572
-4190.05
-13.0542
-149.634
-441.876
-537.357
-0.176584
0.457918
-1175.7
-3.23793
-8.68018
-101.453
-9.07243
-13.472
-20.2759
-39.0512
0
3.00215
-3.10684
-11.7706
1.81575
-31.5314
-1420.69
-42.7453
-19.561
1.72973
-19.0336
-8637.76
2734.87
-0.049481
0.460645
-7.363
-2758.91
-1368.53
-120.856
-4155.56
-3.41973
-613.597
-14.011
-46.627
1.79273
0
-53.297
-24.2434
-21509.3
-21.6583
0
-8.22234
-12.3428
-48.0879
-1826.91
1453.14
-56526.3
-0.72129
-29.2863
-67549.3
-975.415
-71542.6
-1458.62
-3.06416
0.54995
-0.52047
-175.707
-6.346
-0.334616
-0.0706061
-18.5972
551.886
150.497
0.843232
1.35489
-7318.55
-17.0721
31.0939
-12.1148
8.12081
-38642.9
0.15473
-401.86
50.5347
2.33595
-1.56336
-6.3821
-11.0127
1.71638
-58.5968
1.32227
-2.50734
-15.693
-53593.9
-1.31711
-8.10715
-35.5166
0.711978
-0.108324
-2862.48
-167.734
-2.45823
22759.3
0.780423
-6.98209
51.6172
-21161.6
0.856908
-18.9605
-99.7392
-33.1304
-84186.9
-5794.08
0.0649939
-11.2656
-10.4204
-24.4545
-25.0994
0.22112
-21.4367
0
0
-2305.99
0.272219
1.03169
-4.25232
-8.5773
0
0
-4.18868
1.48014
3.48474
-2167.95
-1.24492
0.476377
37.1589
-22.378
-34.7
0
1.6152
-0.735474
-21973.9
11195.5
-427.859
18.7745
-111.331
-0.545491
0
-56709.2
0
-1.44275
-606.337
0.261796
1.27304
-13431.2
-68466.8
-203.003
-67.82
-47.4962
-26.0942
66.4429
-2.29262
-2.05802
-7.64749
-1.85184
-4.0124
-9.94684
198.843
-7995.76
-8.78428
21.965
-2.68033
-1109.03
-48.3997
-1664.33
10.7248
-432.35
-8.50889
1.16078
0
-38.8777
2.29445
-16.1355
0.656676
5.81446
10.473
-1.05352
-16170.2
-11.1068
-15.8067
-6668.57
-33.4294
-12.8145
55.392
-60.4452
-8635.6
-24.2157
-116.419
-14340.9
-10.6106
0.648912
-156.621
-12.0362
0.107071
-0.264391
1.61014
-17.9085
-11.9348
-8.53298
-21.7397
-60796.8
-21.9105
-46139.6
-0.798484
-3889.88
431.576
-0.00369024
-90.7834
0
0
-52.1314
-1.81524
1.64344
-1.57037
-10.0993
-13.1534
-17.9542
-6.28514
-7894.74
26.7885
-8.40273
-8.66488
-10.2145
-0.486218
-14.8263
-12.3355
-7363.93
-6.59715
-20.9811
-23972.8
-8363.78
-1.85575
-1.47891
-9.94199
-5549.9
-10.0011
26.0444
-0.817104
-209.015
155.724
0
-5.3503
2.01927
-0.384181
-46.1221
-87972.8
-16.9243
1.86381
0.912669
0.899545
-6.88901
-0.196514
-11.0185
11.1209
-1.81264
1.138
-0.447984
-5679.61
6321.12
-8.13741
-40.0614
-16093.9
-37973.8
53.9416
0.72721
-2768.06
-2946.84
0.246501
-1806.95
-4.61853
-8.17995
-0.206603
-7.368
-23.1828
-0.154467
-14.5659
1.02367
-1.51897
0.41837
-4.91653
-52.463
-0.82021
-18.5053
146.746
1.30509
-2.37882
-12.4675
0.20841
-27.4055
0.569397
-0.350481
-22.3076
-11.7664
0
0.180378
-160.53
-41.7165
0.332605
-54.9317
-0.565622
-0.947219
-15.9223
17.0564
299.921
-49297.5
0.65103
-23.1667
-0.000243217
-10.0981
0.865536
-2.19633
-29931.7
-3.53732
1.07459
-403.911
-109.898
-0.262122
0
-7218.87
-38.0404
0.0373761
-4.87366
-0.49838
-106.481
102.892
-224.029
-0.0117515
-1.07799
-23.2917
0.217589
0.308912
-14.3962
-5.5264
-1049.02
0.568465
-4006.18
-1.73261
-12395.5
-47.4092
3.50994
-2.39561
363.309
-0.119101
-207.757
-62.4112
-12.4251
-31.2921
-16.111
-745.962
-45.68
-9.71398
-4.98643
-2.78807
-15.9274
50.8248
-22.7413
8.27962
-9.89136
-2.01189
0.943722
-6.13594
-384.579
-177.673
-14.5252
-7.91758
-29.587
2.01328
-486.158
-0.90722
-8.12218
-2.38898
1.70736
-0.148717
-0.478671
0.969281
-17.887
-17.8184
-211.515
-25.1233
10.1216
-17.9403
-19.54
0
-2.63842
-10.4355
-18.2267
1.03019
435.508
-1.9194
-80.1411
-17.0295
1.12101
-10.0533
1.78312
-1.89983
-228.337
2.47717
1.11397
-1.10781
-0.123064
-15.7025
-1.89198
-86.382
-0.778667
-8.94022
-0.991891
-2.75524
-163.645
-3.28889
-25.0933
-35.7254
0
-1.50003
-1.45753
-13477.9
1.26095
-1472.25
-1.93156
1.27263
1.66207
-10547.1
-30.0044
-9521.92
-20.833
-33004
0.71285
-175.049
1.31127
-10.7151
-8.07239
-133.356
-22.8121
-37.5526
1.52485
-1.43453
196.585
-20.9027
-1481.35
-8.58538
-14156.8
-197.438
224.499
-5.31744
-8.61614
-31.8419
-2139.77
0.585899
-10.1358
-15.7507
64.5864
-44841.4
-161.946
-256.094
-17.9109
53.3521
-51.9565
-1.23792
-86994.8
-22.5209
-30.5655
-1.33865
-11.5353
-0.549773
12.8516
0
0.470219
-52.1272
-5033.21
0.03163
176.151
-186.056
1.81671
-15352.8
0.86905
-1.04082
-84.5768
30.4448
-52.0423
-76358.7
88264.5
-5.68285
0.325491
-204.752
0
-5247.63
64.0345
-226.435
-1.93211
-351.627
-28.4037
-4.94087
1.27508
11199.1
-13.5576
-8.18251
-0.703652
-7.59124
0.964104
-9.64131
-6707.02
-0.1725
-131225
-80662.2
-0.158484
-9.86881
0.0721268
-81.0027
0.752033
-0.460978
-8.30161
-10.1911
-0.0436668
39.0183
-21.7593
-13.9819
1.40695
-2.32682
-62.0968
-294.247
-41440
-15.6785
-4479.93
-8.90184
-9.66392
0.79874
-1.4362
0.0287232
-0.479624
0
-6.15211
-3.72257
-0.995251
1.23312
-210.852
-0.0271053
-9.08979
-1.67586
-10.3005
-94.4837
-177.357
-26.0501
-23097.5
-16.5653
0.186381
-13.3746
-15.0933
-0.855202
-1.20312
23.9339
0.861311
-6.01295
-5.991
-57.6817
-68.9582
-18.874
0
-13.9329
-368.326
-67.7058
1.26251
-316.888
-2101.45
3.24018
4.29511
-1.73227
-10.0233
0.246945
0.604261
1.36469
-5.2859
-10.8447
0
2.37393
-26.7951
-36482.1
-1798.19
-10.6794
-344.819
-16.1626
150.188
-10.9963
-461.877
-113.703
-322.528
0.293826
-19.2317
0
-21.8248
1.66611
-0.912908
-8122.26
-8.04827
0
1.34502
0.835642
-37.0248
-37.4985
0
-0.0775343
-0.871542
-1142.01
-6213.4
0
-9.74225
-575.228
-7.29397
-5.29008
-4.3956
-5.01769
-4830.05
-2764.77
3.02516
10182.4
0.483799
-0.151657
-10640
-106.686
0.478686
0.279159
-0.662501
-29.2855
-59.7625
1.68434
-9.28237
-727.427
-0.806422
-8.17058
-5.76226
-9.07815
-11522.9
-3074.74
-12.3589
-46.5835
-36.4242
0
-2.49224
-0.53264
-196.805
-22.2309
0.555226
-11.5782
-0.10904
-3.68759
0.612817
1.71972
-15.1659
-11.6282
-8.44426
-45.9335
5.66275
-419.225
-31.8352
-18.2894
-8.07118
-60.3227
-8.53039
-8.99726
-0.432119
-11.4339
-49.3835
-3.48636
-0.115774
-16.3904
-60.1354
-4664.65
-13.0157
-16.8889
0.243059
1.06203
0
0
-0.458887
0
2.0815
-12.7079
-88907.1
-1.39076
-8.7473
2.18946
-31.9566
-16.7899
-1.11664
-0.874827
0.208709
15.4425
-178.973
-60.6382
-190.387
0.375644
-0.873435
-234.812
-846.172
-2.94138
1.72457
225.661
-28.2515
-3124.63
-32.2049
-11.0522
0.814137
-20.1968
2.85584
117.861
-5.71081
-51.1827
0.374795
-1.46402
-8.62462
0.27784
-3.74093
0.318332
0.41865
-0.0125711
-12.9547
0.263754
-7.99137
-0.0218034
-9.97589
1.13336
-49.7964
-1486.53
-3.33625
-5.45632
-19.1962
15.7816
0.885618
-1.00657
0.645526
-11.6035
-8.12071
-9.54731
0.0433054
-17.2707
0
-9.63588
-9.32371
-33.1961
110.376
-62.4762
-16.8072
-17.3644
-1515.25
0.127858
-18.401
-14108.7
-145.082
-13.0659
0.105161
-445.431
0
-9.87116
-25.3336
-1.22514
0
-0.0276613
-6.12286
1.18485
0
-9.88921
-0.0963265
-63.7644
-45.1728
-0.464979
28.4767
-201.636
-24.2385
-1258.92
0
-3504.01
-1931.07
-22.0412
-2310.58
0
-7.36898
-2269.93
-0.572886
-15.9635
-16.4174
2.16971
0
-9.94963
-7.87066
0.49061
-22.1454
1.60019
-27.4776
-12594.4
-6667.28
-26.572
-537.642
-3337.2
-86.7621
1.96363
-0.208024
-1.54262
-0.729346
-3.67834
1.24878
-0.780485
-15.5357
0.534496
-19.2995
-16.3005
-9.03683
-1.31217
1.23147
-14.1788
-80.8369
-7.07858
0.733149
-29.7097
0.903232
-127.778
-4865.78
-5590.03
15811.8
-1.66392
-1694.13
-71.4124
247.89
-17.4845
-56.555
-175.456
-11.256
-92046.1
157.636
2.36372
-25.7423
-9.07488
-5.00651
0
-40.8317
-17.2686
-24.7303
-182.898
-4.12435
-197.639
-23223.6
416.969
-28280.6
-74.8449
0
-2.9158
-0.155745
-6.08203
-7.86968
101.529
-12.5032
-6182.72
26975.4
-0.825348
-6.49878
21.9345
-3.785
-14.0863
-1.36944
-54691.1
1.11905
-0.579561
-3.87836
-56.4054
8.71644
-218.624
-2.65295
-2428.74
2.13322
-1.58149
-0.594346
-23022.6
-1499.41
-68690.5
-32.4828
-1786.52
-1078.6
-0.698045
0.0649939
-784.631
-12.6655
-15.8273
-686.51
-20.7867
-2928.17
-0.39858
-7.86067
-4.88084
-57.389
21.0355
1.54732
-10.0694
1.02742
-32790.2
-0.732384
2.85624
-292.19
0.408557
-14.0028
655.353
-1.54886
5017.08
-28.8418
-173.243
-283.858
-221.427
-46.8387
-114.377
-9070.33
-11.2836
21.346
-27.3045
-12.4597
-1.34563
-23666.2
-15.1711
-19.7428
-23.6571
0
-1.11032
-35.9225
-141.588
-2.62408
-10.4154
-26.7128
-1.01565
0.736553
-267.48
-15.4439
-3.11088
-2.82377
18.2724
0.32135
-19192.7
-240.735
-73710.9
-61813.1
-75609.5
-29.2068
-0.144349
-0.0233175
-29.1961
-15.0961
-0.580643
-8.73142
-5.75861
1.59273
-258.833
-10.7684
-0.0849259
-14.8845
36.7041
-135.856
0
0
-0.811334
-20.4255
-3.61746
-0.478555
2.57727
9.9101
0
-4.32786
-8.07928
-21.5034
161.865
-601.727
-16491
-33.1467
1.71632
-1.98819
-0.516733
-18.1315
-1.4465
-2.88227
1.22191
1.40234
-0.587359
-17.0769
0.704738
1.6692
-12.7685
-0.674261
-8.93148
0
-3735.97
-11109.7
-24.7402
0
-30.3974
-35.714
-49869.5
-6.16471
-1.08285
-2.94194
-2.07803
0.0850921
-9.93348
-10.6547
-0.36014
-1.06594
-19.0979
0
-9.72651
-2109.39
-27.6607
-2.11767
27.3547
-16476.2
-2072.06
-224.097
-1.80797
-29.7612
1.3083
-11.5233
-8.13835
-32.1324
-16.6203
-25.2064
-0.943876
-8.30752
-8.24813
0.735794
-0.464204
-1.25035
-37.5796
-181.962
-2.08703
159.584
-266.04
59.0822
-11.0667
-0.579395
-19568.3
-4.33973
-20.8232
-0.825362
-0.354006
-1.9797
-10.2015
-8.24733
-761.836
219.283
133.64
-4.11386
-11.3223
3.25063
-9.42295
-0.594176
0
-30.3341
1.97504
-7.66468
-36.1881
-110.353
-0.28997
-1.84761
-10.4142
-2.03435
-1.36422
0
-26.828
1.88671
-2002.02
-31.9429
26611.9
-52262.8
-2.24575
-34.8397
147.976
-24.511
-3.61895
-21104.8
-40.068
-0.0975505
0
6.71776
-0.765723
-16325.8
-12.021
-0.339291
-58.4232
-1146.62
239.675
-39.3442
-19240.4
-67.2029
-15.5271
-0.54684
-9.78893
-302.382
1.07775
-23.8635
-7.70061
-8.45265
-43147
-12.5585
-41.72
1.57516
21775.8
-29401.9
0.792398
11.3471
2.07923
0.574059
-1.00404
-31.9614
-17.9975
95.0081
111.132
-8.56333
-131.334
-222.138
-11.0033
-8.33603
-0.133712
0.0931328
0.213805
-15.9075
-28.8548
-93902.3
-20.3465
-173.18
-0.494523
-1314.18
-7.36302
-3562.56
-4.81218
-3.44854
-6.91874
-14.5521
-7.83147
-14.3565
-15572.1
0.711131
-16.8532
0.674278
-1797.35
-1.8331
-36170.5
-0.191054
0.0993071
-16721.2
-5.72178
-174.812
-2882.52
-8.47147
-8.78978
-9.18107
2.62356
-76249.2
7.50866
