booster[0]:
bias:
-574.497
weight:
61.0745
0
0
0
-402.672
-2525.11
0
22670.9
-9526.44
-58.3332
63713
0
-4.27502e+06
-14226.1
1049.34
-877.683
-21000.7
0
0
-3084.41
610.275
2842.81
-3321.59
87109.1
-1.20016e+06
561.996
21086.6
739.417
4.04109e+06
-6118.18
0
-14601.7
-2473.14
-2656.61
240320
1.08559e+06
-69.6301
-34713.3
-1101.5
-1676.37
-2590.49
1939.2
-1689.68
4993.44
558.359
0
-9.03495e+06
4679.68
-1411.93
-2.47461e+06
-715385
-2576.99
0
5975.72
-2.64461e+06
-228.488
7671.29
-4149.65
-6843.31
6480.52
28035.4
-109549
72134.4
25067
147806
8628.89
-782.397
103.091
-1.6814e+06
8.17377e+06
-1158.2
-4931.88
-112.922
0
-115478
-6632.66
194.616
150733
-1.03756e+06
-1.41167e+06
-1919.69
-1508.39
-1.62887e+06
-1460.74
-4733.88
1387.17
-2631.55
-25061.9
-328.401
-1573.02
200.204
-1.02933e+06
1934.55
882.372
90.9797
1430.58
19428.4
-18036.1
1382
-33652.1
-5889.31
541357
-1962.05
-753296
-214298
-149011
1.6175e+06
3371.22
-1461.61
2503.62
-3.41986e+06
235.537
1751.4
1263.89
-1667.86
521.96
-96.9426
10203.2
-3.78677e+06
-240281
248.623
-5753.75
-905.689
-33281.6
5843.83
4.33475e+06
4749.78
1.92148e+06
-2.8896e+06
-222.248
871190
-613.872
986.696
2.77955e+06
-121.571
125070
-165613
-383.705
2311.74
61.5669
-34848.9
1929.6
4445.69
-13832.4
93.6459
-154.279
162.794
3.59607e+06
-631.135
-17156.2
-16459.2
21616.4
-522.047
590.735
-429.173
166549
-4945.09
54274.8
-1279.26
-1.62173e+06
-33210.5
-5752.61
12555
-41891.2
871.877
-18745.2
10204.7
1163.44
-22457.3
-155028
1534.27
-153.457
1334.09
-311.26
-2347.37
7989.57
-15545.1
-2183.04
-2.80456e+07
-76288.3
-129934
1.42788e+06
-5069.96
-900.283
2348.75
137046
105848
1528.23
866.815
-5251.71
11757.8
9712.51
-337596
-112599
-309911
32454.6
17839.2
-106.609
1465.7
6.63732e+06
170.925
4022.54
-283669
383092
7106.38
563.182
4176.26
10504.3
54684.4
585.065
-7387.16
10102.2
1.00854e+06
490.929
-3.32458e+06
1206.94
2466.06
43576.2
65.1808
343.096
17294.2
-1252.62
273.626
-8.82549e+06
186.252
198588
341.348
549.025
-157205
710.909
0
-43792.2
1.2734e+06
-343355
12038.1
1.23064e+07
75702.4
199.892
543353
199009
45205.8
6073.94
1327.79
6567.29
1753.92
-743972
-27886.7
-165.381
-287849
245.193
135030
165.791
130.224
25116.1
455.622
472573
7.60238e+06
71.7042
4.29384e+06
4812.26
172.748
0
202.985
15248
131.798
16076.3
513.51
-260.942
5304.57
-875398
99119.7
654.303
-12818.4
387.953
220.325
2.75049e+06
-53.6421
-11145.9
1080.72
9423.89
544.21
118.585
8208.55
208.536
-202626
-652719
-1150.52
-24803.9
-464.666
194.747
304.879
5364.11
-80958.7
18948.3
4511.66
268.047
891.23
585.602
-4431.31
-338.526
7455.05
366364
-120.905
6471.05
-2269.59
-52.5117
19481.2
-135.193
-209.454
-1192.79
9642.05
-69116.7
1662.72
-4.28836e+06
1101.48
431.189
479.329
32350.1
75489.2
160.773
-2435.99
-1492.62
-914.276
-231.032
933822
351.655
3834.77
1598.75
-984516
232213
-931.143
9145.76
169.718
-33.0263
515319
-1899.61
-22.4534
353.399
178.081
-247.988
5.61397e+06
72464.4
2094.46
733794
2064.41
55420.1
-3106.38
162432
5044.81
2.3667e+06
6406.67
394818
4542.79
-5740.68
-105775
2.25241e+06
1155.52
-789.694
-2.43784
-477796
1947.59
-527379
5133.21
33731.8
-254853
-591.502
-1.62613e+06
-153.622
338.557
875.835
127.909
-1297.01
176.456
-30658.4
3.47161e+06
-5570.61
-518.859
186986
-158.702
-109.895
2820.56
-2556.19
-168452
384388
-161.721
699.668
-72.1727
1500.29
328.847
151382
-531.712
-1417.91
2.01279e+06
20443.8
808.739
-3.33738e+06
-145042
0
99437.4
88850
-619653
1837.97
134.28
-1271.25
298.817
374.835
571.321
-11195.5
379904
152963
-116.156
1597.3
338839
-11879
59.4602
350.675
146418
8393.97
411.744
0
-58639.8
-12653
-111.109
-2571.74
17746.8
-202.484
-1.6089e+06
-3881.18
-40132.2
3.27136e+06
-1.76643e+06
-2889.53
-0.256597
-199.626
-387.192
-41.7229
-7435.45
0.065897
276.104
-456549
46191.6
0.336815
-94.2431
-70.7509
75.928
0.0456998
-42.0688
890.972
-460.537
2653.81
104.602
39.2067
5433.13
-75.2031
-91154.9
2080.46
343281
3006.07
-2570.98
2261.08
1295.44
-134.11
21919.3
293.25
225.821
-459.362
24807.9
-22.2102
415.286
937.962
564.545
-8999.37
-177.356
-2600.54
-157319
34312.3
-18.9139
-296.373
5466.67
-45.9421
87369.6
387.036
515.971
213.883
289.722
1794.2
-8562.43
-10192.6
52.851
195095
-408.867
1612.55
397.835
-19621.2
-30.0256
-77.2998
-6818.94
-14.3148
-21615.4
-109.259
-24283.4
-60.8582
1.67112
-464.03
-7154.91
-624.68
27146.6
-38903.5
-80.8922
-99.2393
0.43304
-35497.4
877.97
225684
42183.8
-111132
128.6
1740.16
399755
-133.878
28263.1
-443772
18.4094
-48887.5
-252.11
2539.21
0.0192521
41.2255
-30.7938
37.1166
-31014.5
2534.85
-8776.63
-18.2685
-13405.2
35.4494
-1948.71
214.9
-12.1542
-2229.07
-75.004
-286008
-11608.1
17849.2
398.106
106.073
-121.977
294.599
-10917.4
-4790.53
-18028
-8067.62
-356938
122410
-91.1555
-100.106
-1784.78
55142.4
-8.86498
225452
-66.5296
59800.4
-23.3568
-263.911
162905
-88.4787
391.76
2489.47
301.55
-6894.25
-2527.35
-103.043
-344.962
163.824
-14562.3
5354.95
-1748.55
-39.9554
-40.7396
171.329
470.462
-274.256
139.358
-79618.1
435291
101541
1995.78
-1195.09
557.379
-546.003
10960.2
0.920169
-1707.1
14367.9
-27.9299
0.0579903
-132.271
-1239.48
-2171.99
-67726.7
-46445.2
-2617.88
-39.1304
-40.2458
-6562.68
-777.677
-1458.38
-83.2208
-275.448
-857.294
470917
-1447.32
-46547.9
-5166.57
9532.95
-865421
-584.284
93.8479
2755.83
64108.3
15.0017
-88.4269
39581.4
-18961.3
-106791
383065
26.2557
19452.5
207393
1.25313
488.737
1893.48
473.542
93.8019
-253432
-36.6898
547.337
-137.734
0.301321
223.199
-34.576
-3681.78
177.639
3444.35
546.143
-138790
-20532.3
6888.56
47124.2
2781.8
-57365
24443.9
-2022.35
12894
-2065.07
-2554.65
-15270.7
3044.63
425.195
-123.037
10.0427
11407.6
20935.4
-0.893215
65269.2
17.3798
-72821.7
592.679
3606.56
1089.05
1102.09
0.544454
31099.9
-26.025
419620
-45.0788
-91.9857
416.09
-570.948
-647.957
4984.64
-16768.4
-239.115
198.063
-25153.6
-138.341
-0.0660428
0
-1753.44
-7393.29
-116.925
551.119
8191.61
-330.066
-1.93948
1354.02
278.021
0
-5963.31
-55.084
-13.9471
-60.2828
-503.109
-1799.45
7815.87
525.916
2705.21
-82657.6
2102.65
609.694
-3252.96
-4968.85
-560.191
-8.81008
-19.8491
-8864.32
-145.626
45.3625
1880.67
-7588.22
-1025.08
-27.0858
73745.3
-48893.1
-0.158174
-219.205
-4431.92
-13.2525
-418.527
-281.444
-96.4816
-88.3999
-12321.4
1.08864
0
-241.472
-6849.77
-8.78695
150374
430.578
221.118
-860.048
-7.13964
-127.795
448.144
-272.438
-3270.77
-1436.88
7538.86
-20.8012
-646.114
-169188
-22801.1
-15.0196
-39740.8
0.278126
-1468.84
-0.198176
2211.94
184790
-75648
-501.596
37.6836
108.783
0.275642
-4846.22
-51.3675
-2.85577
566.093
81.4138
89.4436
135.721
30527.8
-83.3128
37059.8
-9.64726
-164.224
-0.013446
-18170.7
81.1638
-11126.8
48.8119
-32.1689
52537.3
-1956.62
-2884.9
-81.9864
101.429
49252
-188.04
146502
-722.428
-731.471
624.887
3184.75
-3.61512
-0.87004
1745.13
-83989.8
3230.13
-68.6573
-81.9089
-11906.3
-6121.96
-24946.5
601.691
-312.759
-5332.81
-63771.7
5971.42
139.988
-1212.12
60.419
-0.570593
33168
-20203.4
-622.842
10314.7
28882.7
-59.7201
-184.923
-108.412
-2305.86
11.3373
-20.8614
9315.03
-19.5977
-7300.64
31307.3
-813.94
-0.369658
-46094.1
-191.943
-1139.28
4.27408
-23.7971
31.5324
-780.861
-505.041
0.789128
-42003.9
345.345
70.2397
76.4886
-0.590536
78578.1
-27.5725
1.77636
-11.0105
-0.367682
-854.34
9249.72
498.868
-28.4828
105.553
0
-24206.8
-495.897
1.28201
503.898
-13.2825
163.58
-86695
16498.7
-23980.1
-14.9852
851.24
-463.778
1084.07
-2.71546
175.463
40.4092
-87.3259
30640.4
-643.369
-16.15
30.099
-12.4812
-60381.8
0.778667
-74.4072
-58.483
-232908
-471.477
-30.6983
-6054.86
4552.13
-41.1426
-556.831
532.932
68540.5
-167.588
32.8333
-2875.57
-11315.4
0.348606
44.2776
238.728
-8.70851
914.149
25.1443
-6554.19
185.48
-0.651157
24208.9
-4786.56
23045.3
93.7606
72748.1
-56947.4
813.642
-164.781
590.936
53.6235
4.3241
-5219.66
-53.1163
-3535.15
-61963.5
-253.957
-545.612
92.293
-1056.04
190.447
-100.205
17464
110.807
-59.4475
2042.98
-1257.49
21.1088
-13541.5
-462634
4436.27
36.2335
-188.915
-299.798
-105.59
12923.3
395.359
-88337.6
303.565
21365.6
-197.337
4245.36
-57.2484
-87891.6
1580.08
-10.2759
-39.1659
-25.4196
-1734.23
89.9895
-46380.5
-51.9834
-26.9628
205.465
-2538.6
290.805
-6437.55
-18.3993
-112.043
-969.962
-14103.5
-25.402
-24.5058
76.7758
-7.44417
111.259
-23.4119
-2175.91
-20356.8
-106.959
27.6248
9437.21
7478.34
13.5621
-179.34
-109.18
20392.4
-830.594
16.1285
-153.244
-33.1205
-16523.1
-11220.4
-796.958
96.9212
-466.099
0.712537
-66759.5
3.89178
-1947.75
-5188.17
-64.9632
6940.17
-31603.1
22.1296
-95.8564
-12328.1
-148.157
691.66
-10.2776
-6496.36
-6.06508
-1.10888e+06
254826
5432.68
87279.9
637.526
-0.989594
0.433972
-15.425
-63.9603
-416.892
109.413
1257.94
4121.67
-10.2509
-290.078
-860.782
-24.8412
-18799.8
720.623
5.25643
-2251.25
487.798
-170.177
-42999.8
1.54684
-905.414
-123.732
-894.729
194.356
3.25868
22.638
12649.2
3621.99
56.5932
277.035
15257.7
2984.88
93.2391
107.481
7032.83
-145.24
-25.6928
20.7919
-2157.84
-16.7637
-3.5807
-16.8138
-92.2403
34.6016
549.205
-5.07998
5.40668
-5994.17
2472.62
-12.6374
-7614.99
22.1374
-940.029
-212.348
-62.9549
76.4959
517.227
-536.353
-13515.7
-11218.2
-25.8413
-2700.82
-5.93707
9.3333
-32.2181
-4883.83
0.189639
1469.79
1406.61
-65.6714
8.71938
-1005.28
-36750.4
-303.132
119.424
-103.951
-1461.9
-38552.7
22.5012
11.1446
9860.59
1.59349
0.0690072
12.0406
-12.2315
5731.23
-9.21998
-26.0682
-466.255
-809.647
-90.7168
-101.305
-13205.8
103.127
43.5117
-66.6486
-299.127
-20.0984
-5.60577
-36.6833
-86033.4
203.777
-46856.6
-27887.3
-25870.2
11.3786
1177.14
10997.2
69.0604
-27783.2
1117.66
-0.596251
-112.712
397.981
-1934.75
-61782.2
1127.98
620.832
-24.4794
-11.856
550354
-44.7814
21547.9
-33.9158
4789.43
-6.17155
-267.703
16041.1
-2.86177
-30.3013
-17.873
93.1277
30.4838
5007.3
573.332
-10.0594
120218
-14.3694
-654.833
-2306.58
-18489.7
-0.898123
-0.230925
-36.7209
-11.4312
-0.624863
-15.658
-32.8891
47.6783
-111832
18.2139
-3.37103
-25.4665
-20.6114
-38.4739
6.18475
-1014.15
-48.9812
6295.49
-124.383
-4260.64
-47.1805
-61068
-143.351
-1311.06
-138.129
-1220.93
13.4727
601.012
-9.12204
-23.7649
-31.2968
-0.537297
5448.52
-176.119
-919.139
86605.4
-382.926
-174.634
-258.914
7990.02
-172.319
-0.165594
-133.148
-410.472
-1384.3
-5565.01
1408.26
-508.627
-10.0467
7822.91
-260.656
-846.084
-21.53
-477.494
-4.39978
-70.0734
4.52489
0
5.42278
58.5475
-19592.3
-1979.33
2.0651
-379.993
-7.82093
13.4657
-56.6186
10.791
96.5391
58056
-107.137
-0.0353026
19.5051
22.8507
0
12.169
3622.46
1386.6
35.5119
-41.5027
62.0581
-6.87559
20472.8
-301.468
-10.2335
-10.8664
-130.855
148.842
122.819
-501.461
-18.5159
0.79939
151.362
-167.988
-172.496
-82658
-8825.15
1740.82
-1.83477
12746.6
-539602
-22.244
32992.9
8.99245
-11952.2
-136.47
-27.9931
-22.9628
3.31497
-10.118
-808.154
711014
-10.1112
92888.8
9.17352
-0.377485
-597.173
-26.4692
85.6626
25955.8
-4.66338
-27.0477
-18817.9
-6519.51
-47.2936
20.2816
80.9273
-15.6449
81.9883
-2.61732
1.54019
-431.604
-22.2799
-23.236
2760.79
-1118.33
-2.70415
-7366.1
-6.60445
5630.55
62277.8
-440.289
87.5607
-9.00787
28.1204
1.87968
29.0035
25.7087
-19.8919
-31.1126
-0.831713
-5.68754
-18491.2
-16.0912
959.83
19.3936
797.759
2535.45
-50813.4
-36.2944
-9540.31
2285.4
5126.06
-44.7711
7.07747
479.061
-857.921
-244.111
269954
-912.853
-46917.2
-25.2361
52.5707
-9121.41
-16.3957
-901.944
2207.21
8359.93
-7.02881
-1126.24
-298.618
-295.118
-18.5238
1266.16
1.01261
-17.9378
-2989.84
-4818.18
-15.947
2.83627
-2639.3
-187.514
0.637443
1700.83
166.859
-40.8038
-3019.34
-16.9358
-17572.3
-4007.63
1.09071
5190.61
13977.7
0.701679
-34.2367
-0.331159
0.844881
-1830.1
-3088.7
-64.4015
-23397.6
0.5921
-28.9733
-25.751
-44.2439
5212.85
62345
-3653.07
5207.41
218.956
-7.3869
-786.424
-183.406
-6651.46
2674.56
1851.51
-37.0572
0.505731
-2.27074
-9.79096
-870.785
0.357355
91.9612
-9.15848
-4116.07
193.364
-16.9275
5.13069
-38.7435
-721.632
177.126
63427.9
159.839
587.857
-26.0951
-2122.07
11.841
-22.994
-10.157
-0.943391
-6.78804
-68380.9
-19.0404
66.916
-13.7883
-3.02374
5.91423
-9.12793
5.51745
72.8246
-252.785
261883
-43.0086
-606.127
-4.39141
0.969058
-81.7177
-1.16512
1734.46
-15221.9
-21.7003
92203.6
-2663.28
-71.1335
502.221
-3431.55
0.345177
77469.2
-232.276
-19.1986
-11.8216
295.831
-1466.72
230387
2.38277
352.714
-13.0357
-10.737
21.8137
-420
0.678622
-21.0073
-526.267
-4548.85
2356.62
2638.88
41.3228
-45453.9
-3.42735
454.265
9.78619
-25.9256
24.2589
-14.3088
33.9299
2608.04
19.2954
-1586.14
1846.79
-1145.23
-9926.48
-7106.94
-43.8676
-59.3385
-8.00404
7042.88
25.0281
-202.831
-20.6595
-5314.2
-145.455
-132.574
-991.509
-9.32059
-61051.4
-2805.97
103.376
0.323571
1026.04
63.8985
-50.241
52.5169
-0.0287619
268.504
-7.61961
-43.0155
-181.48
5.05783
80.8331
51.0477
178.966
-37762.9
-73942.7
0.199295
-661.123
-817.902
-21981.8
-8.5371
-9.47185
-80.1799
123
1.36766
-100.415
212.704
-7.20615
-5137.61
-895.702
-11.6353
-23.7526
-7.11123
-8.36331
-150.073
-0.107724
1259.95
-104.799
-6.64037
-6.0261
-15.0935
4.89727
-0.432245
-118.616
-0.454354
-26.3068
-19.8873
27.6656
-2923.12
-1179.57
25.2835
-745.875
-631.189
616.557
-10117.2
-13.3932
14.387
-89.1457
-178.518
-4766.26
6.61579
234676
360.924
-547.875
-42017.6
-1.11997
-23.781
194.077
-50.6001
-0.739756
-4793.85
-69.3174
-9.59545
1575.85
42.5771
-448.102
596.321
-756.214
-43.4906
6.50648
-14.8317
0.398341
434.971
1391.67
-395.064
-256.844
-1638.23
74.1847
-787.623
-1983.07
-80.1936
-43.5168
-23.4792
-33.9766
351.618
240.497
48.8167
70.8286
0.64475
133.132
-6637.18
-26.3968
4824.93
-116.495
-19964.9
49.3643
-6.56106
1692.97
12409.3
-80.2769
0.680674
-17.04
0.604512
-36.2396
-40.2884
-265.581
93.9368
35.6506
-174.181
-17.5261
-0.108034
94.5279
3.96165
6.53741
-4345.31
-4497.41
366.217
46.3179
-185.457
25.8988
-12.2551
8.86947
-1.42235
13749.1
-4.79858
-2.28139
1226.46
16.7673
-718.462
2318.67
-15.3704
-9.9805
-2.47105
-9.5592
-867.89
6.11901
112.434
-5.4911
-18.9745
-11.6628
23.6109
-13.4358
142.212
-51.0132
111.458
-12.2084
30.4094
17.6695
-20.67
144651
-23.9592
-0.760086
140.437
-8169.3
-65.8843
120.427
-43.9757
1.90435
-18.0507
-13.1297
97.6844
12.5823
2.79732
0
1632.09
-83.0659
159687
-9.56347
745.603
-1.04864
-94.4195
-47.4517
-1262.55
-12.5661
-14892.1
0.298045
10085
-18.5233
716.468
-771.65
39.607
-4.24269
-0.135977
6391.7
-3.53916
-4852.52
-119274
-28.4766
-12189.8
0.566684
15.8067
-38.7355
-28.2615
-10.8363
-14.0032
11.1682
93.3533
-118.618
0.578432
-223.2
-11685.9
-44.177
49.8441
0.847259
-1002.64
18439.9
10775.5
27.2817
-27429.6
-58296.4
-484.085
-20.7959
10264
485.985
81419.4
-23.5686
-104.122
-1237.35
-11.9428
0.440531
1445.28
175.636
-7853.76
-1.5739
-14835.7
-50224.8
-263.452
-20598.5
-8.48424
6580.24
41.6814
-206.309
-6508.89
-13.939
-22.0408
-2960.35
253.131
-9.53483
-25.3861
-1736.67
0.325523
-19.1483
2.16432
-188.55
58271.2
9.14019
-4598.28
1.30347
-2793.87
-536.081
28.026
-3.916
-13.6543
11.9077
-8.20625
1280.52
7190.54
-14.7299
10136.3
-28692.9
-1.33403
-2930.62
-20863.3
-3.39669
-42989.9
-18.2422
-4.4889
-167.457
74245.9
16.0883
6.13869
-3931.69
1230.89
35.4199
-5033.79
423.329
-6970.81
-19.0061
38.2815
-0.140032
-2160.54
-17270.2
91614.3
-18.2945
-6.10378
-80686.4
-40.5206
-113.777
9944.08
-588.832
-46590.9
-3.731
-18.8929
-230.996
-12.1186
-13.73
10697.5
-455.565
1161.58
-32.9805
-19.2416
-11.9235
-13754.6
-435.667
-71.6066
-14.5885
-11.3848
-56.0635
1.39955
-6526.57
-1853.74
-4.07513
903.626
-35.4747
-7.33377
-14.704
-5.95488
-792.108
36.4154
-10258.9
-2.53634
1634.83
9.23971
-32.067
77.6109
44.2795
-2437.05
-39.4093
1517.42
23.5203
-11.124
-76659.3
4.99058
-16.5131
147.686
-95.869
-7.93369
17.6588
-10.2869
-18480.8
-29.4801
-303.079
-40.6033
-823.009
-81.7538
2218.61
-140.528
40911.4
-2038.26
-44726.5
-56.4131
37612.9
742.213
-1294.52
-1952.17
10.149
-85838.8
82.1831
4147
-69.0139
-22.986
-18.5075
-33.8989
-3.21652
-11997.6
-4838.25
-21.6325
-334.541
-805.099
-456.518
-125.421
-11.4352
-7.6622
-142.469
-0.46306
-15.8268
-9.78565
120.129
-72.6966
0.983312
1110.78
-3.80642
-5.64096
4441.7
92269.1
-20.4198
176.322
-9.16257
-990.683
-248.572
-67.7879
-73.2783
-72.7085
-34.1788
-0.117743
1829.24
-673.767
44.9475
-45107.7
5.39792
-12.2605
-37.8221
-1.0098
-26.4374
3.84124
65.3819
14.3777
-61.1707
0.29015
-0.442338
-29.3176
-22386.2
-286.859
0.841064
-23.3022
196.72
0.79038
1.97405
36.1593
-300.18
-3880.65
-31.1839
-12433.7
-3017.04
-25185.9
-42481.8
533.304
-26.9424
-1436.85
66.9662
-65.6662
-8.1896
5.75251
84.1609
-2244.32
110.813
-14.7131
-452.001
-681.249
-27.2747
38761.3
-4.19064
-328.076
161325
-24.7377
4.6828
0.239835
3.61922
5.45537
-4030.27
3.72447
84.3174
1468.85
-0.0338625
0.167233
-2044.65
1.11199
-19.5254
-1437.33
14.253
-23.2259
-8.83723
60.9962
3488.11
0.0340452
-385.134
-45.9717
5.31077
-719.144
-22.7308
-5.02837
-71.3086
-31.4605
-34437.3
-41.2157
-20639.9
-94.6446
-10.5598
9.40804
-90729.5
-0.570533
0.129949
-35.2178
-327.296
17.4256
-10.4661
219.193
41464.5
-344.304
1.42911
-10.2191
-0.357656
5803.23
9.02525
-0.788263
-9.16091
21561.1
-6553.07
-11.0815
-0.137755
-17572.1
-34.7289
-89.0084
10684.7
1.39638
-50315.8
31.7188
-6.69168
-45.5452
1004.58
-14467.3
-940.598
-8.93424
-67.8529
1.34776
-18.2507
3.95227
-30.3563
23592.9
-5.3438
0.55717
-21.3702
-60940
2506.51
84.0145
-5961.5
-0.124647
-65.0787
-9099.09
-2.34316
-788.84
-84.409
-5.93292
0.525846
-5.43897
-2526.54
-3.06146
-5105.58
-2242.28
-7913.33
8.95069
-36.7049
-41.661
-30.6178
1865.48
-0.781128
-40.7439
-24758.3
180.467
240.493
-122.191
47132.3
-57.9474
-1074.66
-373.119
-5526.83
-16.7891
108.059
-55811.6
-45.4677
10608.3
61822.6
-27.0302
-3.06134
16.2164
-17.7851
2.03312
-18.2427
-16.1992
-208.792
902.92
-393.059
-348.231
-208.403
-2705.78
-6895.54
586.717
-24520.7
-326.18
-467.899
-9.4221
-0.10868
70485
-32.0907
-1082.83
-329.772
-15.071
-16.4729
-1.32084
10.6097
-2.47926
-10.9227
-3.41786
-1.24998
-55.7914
-40.4137
114.492
16.8163
-22801.9
-247.28
-2098.82
-14291.2
-23.7952
-5.49916
22.6719
-46229.5
-13.6671
-4.39603
46170.9
-28.1238
614.139
-1780.93
0.594744
0.731247
-5.2821
-287.81
-1137.57
-356.919
36.7386
-265.181
-5012.38
-39.8977
-3911.37
-83.1608
1228.36
7821.54
2228.13
-13162.3
430.939
-589.336
-10.3891
43.5557
-13.988
-112.767
-35.0942
-58.2635
670.141
0.295178
-6.54417
1923.1
-168.316
-39.3705
-1.21466
-9.38344
-71205.3
-100.97
-1.18234
249.063
-25485.5
-578.739
455.731
0.639154
-37.6234
21.7796
25.1182
-160.103
-5086.6
-1900.89
61.7739
-55.0488
-35.4076
-18371.9
-12.1876
-41.3397
-54412.8
7.42635
-911.44
-25.4596
-32.0214
0.0188628
-16.7872
-124.23
-31.7861
-19.5315
-23.95
7.61461
-10.6549
2.35369
-607.057
83.3534
-9714.73
206.662
-2522.48
-44.5385
36.3955
-0.0830141
262.958
0.389104
4.74508
-1063.9
-1.37052
-26.2214
1064.24
-132.914
-8.60298
-13698.9
-537.762
47127
99.0212
-73.2352
-34.1456
0.187389
0.211598
-6.34738
-17.6077
-1.81876
18142
-249.781
1.01766
0.0378336
11.9776
-72.2515
-1842.16
-21.6576
-1308.4
-1.85012
-1.69596
-5.28039
-345.68
1665.59
-2.10249
5560.39
-605.761
3410.4
-883.441
-375.608
-13208
-2842.03
-30.6484
-73912.5
27.0069
-8.85497
4624.25
-411.412
137.174
541.588
-12.8639
-37.5071
-250.565
4402.61
-15.746
16.3617
-55177.1
-14.007
0.735005
4248.37
-9.93549
0.396474
0.205379
4.92743
-20.5484
-403.598
3483.92
-23.7343
-6452.08
2533
-17.1382
-22.5369
-28.0176
10.1966
-170.247
-367.656
33.2511
-307.23
1.07592
-98734.4
-7.35447
-48.9518
108.392
-2401.88
56.1632
-17.2724
0.411363
-16.1311
-1216.85
6097.97
-6103.41
55.6338
-8539.2
4.39741
21001.4
-1920.71
5.78493
-623.78
49.73
-11.9219
-11.8273
-10.1712
226754
-61715.8
-15009.2
2.47221
3165.61
4.2071
-11.2726
-52.0136
195.978
8.59086
1.3127
1698.25
-27.3417
-53.2199
-9.29504
-16864.7
4.69623
-632.948
-15.0738
-21.0082
1.55746
35.9524
268.691
-1.10219
-1029.51
4.663
6.61779
-61.087
-2.48045
-17715.5
3.56035
465.156
-62220.3
-4.97593
-778.797
-440.998
-1.06403
-0.557549
182.591
-14.4216
-66.4608
-0.700839
8.03577
-13.2699
-1657.51
1230.49
-0.715602
-241.125
-60690.7
-1302.01
-13763.3
-52.6724
-0.235284
-1249.76
0
-0.396095
2844.7
-2.11624
1.36988
-18.8863
-27.7614
-2076.31
-199713
-16.133
89530.1
3321.12
81.0592
0.00196266
21567.9
-61.7578
-2263.35
1.04544
-728.281
26.1896
-1228.28
-247.714
-8.54593
-51.301
-6.92889
-8753.76
3.47205
-33483.6
2.43282
-0.162024
-1.95263
-9.87623
0.0424726
-27.6026
41.9234
-46.6061
0.418706
-37.7496
57.4568
-31143.2
0.624391
0.07827
2.89168
1.16668
-2.40139
-32.581
-5239.49
-78.9921
-30.9883
1813.6
-202.816
-12.9993
124.721
-127.093
-12291.3
-0.907772
-21.6852
0.846615
-13.5005
0.272238
-13.993
-14.2475
-0.0300646
20.663
-52151.4
120.054
43.139
-11065.4
-12614.8
-24.2559
-86.2277
1373.41
0.688657
-12896
3778.64
-1418.92
-1947.2
2.48528
-12.0274
-18493.9
-10.0172
-35.1266
-0.144254
-146.613
1887.21
-4216.92
-4.63836
-16.3242
-24.5317
-37.934
-31.1108
2.86096
0.813249
-10.5202
-120.748
7967.98
291.821
-49.5578
2.85084
-13.7417
-191.018
0.351568
-108.034
-1.88625
-14.1147
2494.87
-13.781
-5289.82
-1.76827
-8.63156
-27545.5
-16.622
-1.08785
3.13566
-50.6207
-16.7818
-79431.8
-13.6001
-18.9255
-8.6378
-70.0291
102.246
-1.23628
-10.8897
-17.904
-38205.8
-0.0184182
-2.73956
0.330098
4.08176
-0.742476
-7924.1
62.6324
-1651.54
-43210.6
-7.08718
-24.7397
0.229687
-2461.83
1225
-54.8474
0.801873
-14.4948
4450.73
6393.65
0.22891
2180.33
102.922
0.647151
-0.567481
-17.9026
-11.1062
-300.19
-22.9749
-19.1738
-4777.54
-196.114
6.72313
5.20313
-71.9062
-19414.6
-8979.35
-1.09913
-33.534
-10.3308
-1.66015
1.34764
102.773
-151159
1.1456
-2.74194
-357.769
-16.0204
0.373997
-24.5971
-30.3564
-1970.28
-0.219565
-11.3013
-38.8392
-14.9358
-12371.3
0.180082
-33.134
-11.0796
-0.919149
-35.658
-21.7619
-177.293
-43.1028
-474.929
170937
-16.0749
-3402.55
0.6416
-64.991
-135210
-23.5433
-2.03224
0.0585749
-8.67204
-136.39
-201.739
-13.4898
-28.7142
-9.39967
-2.13278
-471.687
-23386.7
-84053.4
-28.4815
-0.336041
-6206.13
-9.03965
-23.971
0.629445
12964
-81102.4
-18478.2
-3866.33
-2.47311
-108.382
-20.4864
-0.180968
-16.633
-2.65114
0.858519
-13.4822
-0.0921357
0.162753
0.637059
-28.0935
-17.9858
-295.465
-87.8418
-37801.1
0.591486
-9.53527
-43.8073
-53.9972
-128.257
-36.0763
-9.25526
-80.9617
-10538.7
-1.08067
-17.0936
-22.9277
-31.7194
25.0847
-0.539533
-0.391048
-93.9627
-11.1904
-20914.9
11.3147
-0.094488
-39.9692
2198.5
-33.0149
-0.360721
-72.75
-39.6662
-31.3223
-28201.4
-47141.3
-16.7116
0.939643
-0.279421
-7.96372
-30.7275
-0.196098
-54462.9
-7.60305
162.703
-739.47
13.5173
-4.61122
0.3048
-0.530706
0.433643
-0.995654
8397.17
1.47665
-107.99
-2453.27
2.27544
-59.0997
3.56327
-2.21453
576.562
-1.4446
377.093
2127.88
-87271
-726.508
-64.9128
-9.74498
-35.4906
-3.80859
-15.8629
52.7056
-786.943
-42.0767
-9231.31
-1063.81
2.65745
-1148.57
-44.0369
-0.403415
-5087.98
17.9562
-43.3667
-58846.6
-35.5218
-180.84
-39.7297
-18.0249
-6746.09
-15.0699
3.78752
-7.02762
-78.3462
1.49591
-12.9129
7.14194
-10.4561
-20.7153
-4.04523
5.1722
-13.6546
-40.6439
388.832
-283.994
-1.79798
-243.904
6.41783
-10.1918
-9.35432
5.04165
-10.6489
-0.987333
-33.2767
-6801.36
-65.5555
6.4638
-11141.5
4.80953
1.38995
-16314.2
7.32704
10.3123
-1.25011
-44.088
-11625.8
-3307.66
-3.54438
-23.9697
-51.3309
-100.679
-1.71643
0.492242
-10.5967
-32.82
-22.8706
-151.835
-9.32422
783.942
-14.8461
-20.0152
-48.8359
-22.2615
0.823217
0
4.42908
-14.7594
0.681891
-16667.9
-112.198
-5675.97
-11.5336
-9.19147
-18.6888
-0.559278
16.3926
-25.8537
4.56268
-10.2827
4.97714
-35.5187
-12.1595
-813.301
-34.5232
-1.81674
0.495658
-19.1423
-31.0531
-6.62464
1.20762
-38.4579
-0.798466
-22.2985
-1767.48
736.61
79.1479
-0.874578
3252.78
-30.181
-20.9287
-6.24388
106.685
-33161.3
-4.07474
-67133.6
-313.54
-0.933606
-48.2367
75.394
-3.82202
-5123.6
-11.7735
-27.3667
2917.25
1.2988
0.316216
-11.4186
-42.4337
-62947.7
-22.8114
106.882
-24.0673
-35.1793
-10.7443
-1.03847
-100.412
-19.217
-2.70738
1881.24
-9.70415
0.55111
0.396854
-0.483479
-906.744
18.1394
-2.13635
-13.6076
15.9704
-3.76017
-88.8364
-19.6987
-27.1247
0.378804
-23.7839
9.87673
0.917205
0.38053
5.84498
-179.459
-195.385
-5015.34
1179.54
-8.0121
-3.85166
-40.7467
-13.6096
1.48647
2.58036
10.0001
-5218.33
0.122274
-0.828745
-150.958
-1532.47
-55.3982
4.79094
-44.2254
-104.646
-36.4673
-19.2316
-64585.2
0.651827
0.2217
-647.73
-1.60188
1.92787
-1.92787
-5.83354
7.12699
-13.1424
-72.092
0.589462
-0.768676
-20.8203
-23.9879
-237.366
-102.585
-27.0647
0.0944269
2.29117
72.5156
0.253953
-4.34907
-77.6401
-85.9865
2.95606
0.558404
-83.0098
-378.779
-94167.6
-16.1474
-2600.53
-140.375
-27.6972
-63.5566
1220.08
117.576
-12.095
-6.49962
-26.5244
18.598
-22792.8
-58460.9
-4529.61
-27.1381
41.1595
-0.850579
-1917.41
-6.49072
-24.4678
-26.3658
-13.06
-131.45
-3.14942
-13.4061
-232.534
1.50746
-2.43909
1.4141
-43.1242
-12.357
-14.0801
-12.8968
-22.6488
4.08201
-7.65136
1.23702
3.1473
3.86828
-43.3644
-0.18516
-2531.58
-23.4866
-51.3648
-2.62217
6.09179
1.82045
-11.7519
-97.9125
7.37551
0.816095
-147.074
8.59054
8.5303
-64.3482
-2.58202
3.87431
-29.6145
-2.46654
-22.6155
-3562.03
0.702089
-19445.7
-19.7954
-14.2447
-0.974714
-71.8418
107.63
-59.2406
-96.3803
3677.84
-2218.64
3956.1
-19.2742
103.236
1.32091
-2.05121
-18.9743
-6.81207
-42.7443
-52.125
4555.58
-4559
-11.6827
-0.838783
-13.0916
-1.50102
381.244
-28.8642
0.0674413
-40281.8
-0.746607
-260.132
9544.55
-70.0868
-32570.7
-0.366013
0.700895
-0.456752
161291
-3.08583
-21.9813
-9.80435
-99.4552
-20.259
1.17839
-0.837967
-44.8009
-11700.8
-0.147629
-9.84821
1.18594
0.684444
-103.725
-2.25532
0.131976
-12.373
-21.443
-7.90157
-12245.1
-11.8057
-16.9648
-21825.3
-3.94335
120.741
-58381.6
-0.879341
1.13547
0.486317
0.809411
-7888.03
-0.197559
-28.7138
1.91719
-9.61665
-15.3254
-17.3004
68903.1
-4551.99
-3.49554
-13.5093
-18.202
-10.0333
-49.5346
2110.59
-8.27348
-0.109617
-32.4466
0
-11.4117
1.92887
16.5006
-28.0284
-20.132
-31109.8
-60850.4
-96.7459
-799.119
1.03133
0
-33.6765
138.783
0.847872
-151.557
-12.7578
0.0627391
-0.849668
5.58617
-0.772635
-385.014
-4.42427
-4.63521
637.816
-8.67764
-433.696
-4518.99
-21.894
-36.5244
-1080.02
-6375.36
-287.746
58044.2
1.21694
233.534
-386.694
-878.01
0.291969
-5.43332
-46.488
-10.8413
-2229.28
-50.5706
-1.64131
-1.09143
-4476.57
2.92007
-53010.9
-0.0710543
-28.082
-1.35635
0.667592
-26.7524
-0.470458
-17.7348
9.88661
-21.092
2.60387
-1.55258
-20.6134
-389.362
7.33055
-304.35
-2.26096
-1.35394
-8.95417
378.175
-0.078953
-9.1303
-14904.7
-23.6179
13.6488
-16.7312
-1.78997
46270.4
-13.4935
-37.1355
1.57426
1.58264
0.539907
-6.23415
-55.5695
-4.4236
-25.4317
3.81344
-34.3741
-33.5782
-18.2378
209.086
-12.8624
-0.0973213
-10.9703
-12.4427
-227.591
-20.0006
-15.8333
-339.268
-1259.13
0.541535
-23.5513
-15.2998
-51.9762
-9.7073
-0.6659
-1.50677
-81.9684
-0.665689
-19.9041
-1.59731
20804.1
-9.02387
-6.01629
-9.63347
-18.9982
-14.0267
-23.4035
-76.1072
3.46579
-27.1624
348.986
-11.5821
241.326
-1.96684
-6773.83
-14.5035
-40.6781
-94.6415
0.388814
-3.33046
-0.398476
-19461.7
-47.744
-0.342585
0.0146264
-0.623726
-1.61973
-82.7988
-12.0405
-91.0917
-20.4707
-9.09009
-49530.2
-96338.9
0.485152
-37.1123
15.9701
21808.9
-3.85391
-3019.7
13.5573
-1.9264
-0.195125
-19.1983
-2636.13
-2251.67
-25.1181
-12.6444
-1.22294
-55549.3
10796.4
0.284951
-0.587335
876.241
-11.4287
-0.0819532
-11.451
-3.5184
-46.0493
-82.2573
-94337.5
-51.3679
-20.119
-0.906077
-48.0267
0.450421
-62164.7
-32.5651
4553.92
11.9094
-21.2774
-48.8395
-659.756
1.8882
-17.4416
-2.06639
-0.137049
-8768.87
-40.4548
-165.339
-48.1437
-1.43852
-634.552
-0.086892
3636.37
-6.40468
-22.6454
-15.7182
5.74106
-290.035
-133.994
-7912.56
-74.5367
2.71699
-17.7372
-8.29316
-23.1951
0.0671938
-1401.99
29.242
-4.31666
-881.888
73.6807
-19.4932
-13.5237
0.145018
-1.58072
0.377918
-21.9828
-81992.2
-36.5898
-5.38815
-31.9042
-3.44069
-22.8967
-41.9043
0.354973
-31.3592
-0.400092
4.86389
-6.42624
-1.96608
2.28759
-13.7901
-321.259
-10.1203
2.26614
-59.8267
-14.0651
-7823.53
-0.19953
-3.00075
276.132
18480.2
-23.688
-6.37746
-0.414629
-13.2857
2.38635
-81282.5
-10.1008
-41.14
-95.4373
-92206.4
-13.4675
-30.2006
-23.7649
-1386.06
0.284491
-13878
-36.0386
-3.9551
-37617.9
-82.557
-6.49846
0.395414
2216.65
-1.91722
-38.543
-6833.77
-26.3484
-2.14124
780.13
-35.2227
-30.9036
-179.594
-25.2529
-24.6796
-11989.2
-45168
-0.110563
-14.8846
-0.179005
0.22891
-19.7188
142.539
-44.4077
3715.22
10.2617
-9.5896
-9.99174
-18.5082
4.53022
-4169.39
-45697.8
-216.43
0.896437
-1.74501
-47.8322
-185.434
-27.1317
1.80445
-13.3822
51376.5
-0.627727
-17.2346
-1.69713
-22655.2
260.216
-11.4182
-9.50863
135.405
-5.61516
-53.6358
-5.26817
-147.27
-1.32699
1.69494
0.324598
-13.6229
-19.4842
-0.595411
-17.4407
-7075.56
-85.5359
-16005.1
-62.3026
0.139876
-19.1502
-31.6015
0.0849571
0.628842
-1189.56
4.5801
-92.8923
-35.1877
-5.84691
-76135.2
-61450.1
-9.98082
-0.907164
0.945567
-21840.6
-21.6231
-14.8175
1.24266
-43.5099
-24.5567
-4.07623
109.474
-1317.58
-26.0686
-164.299
3.93888
-3259.53
0.656342
-17.8057
-37.4362
-6.83278
-15.33
-35.7638
-1251.4
61072.2
-28.7083
-0.526395
-39.8413
-27.8811
7.01353
-29.6509
0.641883
-24.5144
-30.4018
-87378
-46.8226
0.367022
-17.7091
-16.1949
87.6545
-2091.8
-0.257335
-0.382283
-18914.4
-29.6475
-23.6722
0.254237
0.471868
-18.7081
-212.883
-24.8849
0.178455
0.0429404
0.416889
-1.3257
-2.29777
-20.9472
-18.5402
-19.1071
1.14555
0.012761
-70.9153
-0.27839
0.175521
-33.3763
-13.4692
838.169
90.8261
-1822.99
-9.19567
-16.5968
-1.30317
14528.4
-1023.15
0.307558
-6.08415
0.628152
2202.23
0.149467
-47.3022
-693.102
-3.61081
-30.3907
-2.03339
-25.8817
-23.5014
-417.416
-23913
0.0874298
-12.4173
0.124766
7784.49
-19.9243
-4.49837
-136.667
-0.781507
-26.152
-2512.11
1.60881
-16070.8
1.89206
-96.492
-48.3891
-32.7857
-1.08153
-2.4184
1.06294
-13.2379
-10.3827
-12.6646
-12.3527
-28.5289
-15.5306
-33.4056
-13.4583
-2.70945
-15.8097
-26.4633
3.00064
0.527774
5.27917
521.581
-2.29672
-37.5813
1.42042
-1.79966
-64.1302
-415.774
-13149.1
-425.178
0.111756
-5.74636
-37.6706
1.03293
-23.2198
2.41793
-104.317
-99.803
-1.52691
-31.2382
-32.3751
-14.4623
5.0749
-131.231
-5.82542
-1.59108
1.46388
5.48481
3.26731
-0.0463628
3.63624
-3731.08
-320.81
-23.477
-0.957169
-10.4569
-12.8239
0.935867
1.91873
-322.545
-5.00202
0.977768
-113.191
-38.2936
-4.62941
-214.696
-73.633
-30.3597
-40.632
-1.14647
0.746962
14.0982
-33.2773
-0.909045
-135.531
-29.513
0.166046
-1.14522
-30064.7
0.685453
45347.1
-20.4754
3.90148
-31.6983
126.798
-22.0139
-0.207615
142.077
-0.866747
2.37637
-73.107
-108.484
836.881
-27.6769
-23.2624
-23.1834
-2619.87
-19.6739
-0.639049
-69.2519
-21.2064
-15.7209
-8.46585
0.440438
-13.2836
-47.2484
-90.9044
-3.67607
0.602981
-23.1073
-75.4161
-0.10495
-20.3837
-200.842
0.588792
720.099
-54.0347
0.540728
-19.8193
0.408469
-2.9574
-306.483
-40.8704
-1.25098
-11.9185
-16.9532
-25.2489
-18.5483
-1.6191
0.552127
-14.2337
-10.2009
-2.77839
-1446.34
-7.28917
-81448.9
-0.542316
-7.4848
-24.6559
-0.0406795
-20.1008
-14.0115
-1355.49
2.42775
-15.4843
-3.33031
-0.0643628
145.009
-0.429575
-11056.7
-3528.7
-10.8016
17.1084
-29.3974
-39.3826
-4.68831
-0.757269
-31.7094
-0.233928
-23.2319
4554.24
-0.822053
2.0322
-11.1237
-31.1645
-65.1191
-24.817
0.111974
0.756517
-12.4572
0.732233
-228.274
-15.5757
5.225
-1.26817
0.0854404
-1.96492
-0.421582
0.403709
0.46079
-1.22986
0.614929
-7.00698
-0.538492
-10.4658
-98.1038
-9.39572
-30.2222
-23.7004
0.160841
-0.655959
-126815
-24.1172
-31.6925
-373.298
-3.21312
2.1828
-78.337
0.847538
-3.90138
1.74842
-42581.2
-512.858
-14.1369
-15.9844
-0.961662
-74.6382
-46.1616
-37.1797
-1623.43
-7.88602
-2143.67
0.703695
124.059
1.19624
-0.251304
-136.73
-3094.85
-44.5465
-86379.6
-86.0598
-373.084
0.492634
300.557
-54.982
-39853.5
-2785.9
9524.13
-121.113
-18.7844
-4.94853
1.07557
-12.6733
-2.26511
-5.7697
-0.662684
-1.55326
0.224454
-18.3027
-11.1897
-6.87068
-12.8401
-162.575
1.57426
-1.9615
-0.644354
-74.2129
-1.81908
-269.882
-251.097
2.55358
-6.16463
-11.5858
3.47886
-2.42919
-2894.65
-31.8298
-1.54519
0.0509479
-13.508
-28946.6
-14.6136
-1.77493
0.118035
-43.4497
-43.6959
-4592.36
1.38009
0.401475
1.48846
-2.00547
-3.83359
-361.613
-15.4635
0.368506
98.2197
-22.3539
-42.5537
-120.083
-12.7329
-50.4205
-28.481
79.3632
96.8922
-505.701
-10.5232
1.85738
-143.381
-6.29401
1866.46
-78.1765
-0.0563905
-40.4022
-45.4944
-10.2564
-25.4204
1.59655
-10.9758
-0.712913
-1.71249
0.0491854
-3.25095
1.18918
-0.295902
-27.4392
-155.106
-800.68
-1.48605
-0.0173974
-10252.6
9.45683
-35094.1
-242.562
431.802
-21.663
-0.950163
-202.462
2.99489
-1.80895
-1.58227
-23.7002
-7971.04
-1.07856
-177.738
-0.784668
0
1.11257
-54.0885
1.09573
0.0505377
-2.80015
-48.3244
1.40639
-32.7085
-0.0986833
-9.33074
0.966065
-1.6983
-16.3585
-51.3004
-21.0214
-1.32834
-19.599
-13484.4
-19.5402
-14.7578
-51.1258
-3.72455
-4589.48
-22.3863
-7.19646
222.79
-4554.64
-93.286
0.983927
-2827.84
-10.3558
-8.10738
0.186946
-17.5387
-34.7321
3.16492
-538.271
-30.9128
0.0824404
0.0683866
-16.5607
-4.26045
2.19751
-71.4405
-2.55649
-22.2738
-154.009
0.0158603
0.086892
-33.3577
0.0475895
-10.5727
0.923645
4267.15
-400.221
-1.30174
-27.54
-0.247535
0.0098661
-25.0526
-2187.83
-0.352172
-18.7407
-19.8614
0.398111
-72.0555
-518.038
-2271.1
735.262
-6.55098
-9.15778
-2720.69
-2.49964
-2.19459
-57.6703
-189.143
-87.975
-10.5419
-82.7312
0.918467
-33.4973
-5.54162
6.06748
-2.23446
-292.541
-201.95
3.6221
-23.3885
-12.6966
-0.118852
-44.6339
1.69148
-2.60543
0.217241
-2231.52
-89.0049
-36.3954
3.97686
-26.1113
-9.31519
-9.17697
-3453.01
-22.6865
-320.332
-17.6548
-3392.6
-8476.33
-3.10385
5.0082
0.384827
-14.9874
0.409226
-34.2549
0.0315742
-11003.4
-26.2434
-16.8004
-14770.2
-40.3533
-31.3972
-51.3828
0.438244
-14.4416
2.53321
2.93183
-284.067
-0.0950236
-157.842
-1.59098
1.16929
-2.18425
-0.70812
-74.7373
-22.2062
-56.6879
-18.9275
-20.1857
0.837958
-44.6869
-13.3799
-30.019
-4.44084
-11.2224
-43.1818
-13.161
1.55903
-106.42
-28.2664
-47.2495
0.186894
-5.44144
-445.18
-449.25
-25.7295
5.4611
-1.71643
-9386.43
0.379484
-0.334821
-28.3676
-0.986408
2.17028
-26.6352
-32.3729
-38.2335
-0.507679
0
-13.484
-0.380735
-742.795
-25.8046
1.21402
-0.665689
-0.851452
-4.00794
-93268.9
-336.758
-526.203
-2037.65
-0.443058
-27.3288
0.710308
-0.649864
-18.6069
-34.1069
-9.63825
-14.2709
-7.18733
-0.794786
-3.91887
-24.3796
-11083
-5.14192
-1.55359
0.915471
0.298463
0.420194
-2.78178
0.0613572
-9.90234
-14.0419
0.527606
1.25341
-22.0636
-74.1212
-0.381077
-60.4744
-0.967582
0.468761
-71.4861
-9.10322
-5.61287
-3.07378
-262.23
-27.0362
-6.48743
-7357.6
-5.16188
-0.520768
-15.3432
0.486317
-47.2121
-2519.03
-0.463929
-949.947
-9.82353
77.0345
-5.2259
1.29671
-37.7987
-5.23309
-0.0851396
-30.4282
-1.22332
-1.24357
-182.848
-43.4197
0.21583
-2.07415
10.0684
-53.1662
0.599066
-1.00605
-0.164837
1.70827
6.91103
-0.654564
0.141348
-1.53748
-23.9704
-2.38069
-0.505096
0.182641
-11.7109
-154.232
-13.5817
-12.1977
0.559201
4587.31
-1101.95
0.765982
-137.461
-55.6009
-45.4574
-16.7144
-0.16846
-118.593
-227.451
-269.926
0.370266
-39.4806
-3.86015
-35.2062
-1.5134
-13.5743
-48.4158
5.42492
-1.74761
-24695.3
-0.507839
-65.1922
2.29027
-28.2651
-0.252527
-1.1925
-15403.1
-0.880399
-9.94242
-1.0942
-2155.21
1.46842
-23.6201
0.244463
-163.961
-14202.9
-82.8702
-292.511
12.7607
-25.1405
-152.182
-0.283407
-4078.06
369.216
-23.2356
-0.425241
-0.290033
0.795663
-17.3714
-45348.9
-1.32834
-23.6664
0.80918
-0.582371
-7.74532
1.5909
-0.171338
-23.1563
2.95058
-26.8711
-0.409844
-207.042
0.273764
-61.2437
-2.1643
-1.91169
862.83
-2.2041
-3.32654
-328.508
-211.516
-21.7758
0.63348
-31.4749
1.08207
-213.068
5.42976
-6.20118
0.0387104
-40.5613
-135.994
-21.3168
-19.9225
-10.452
1.02747
-2.65775
2.51171
-307.778
-1.12835
-127.938
-30.2026
-60.9358
0.166857
-4138.35
-1.62862
-1817.23
-26.4244
-30.0077
-32.4933
0.732699
0
694.237
-16.1216
-35.3005
-14.4239
-0.80028
-28.0635
-43.406
0.476667
-59.4822
-78425
61.1077
-25.2242
-0.461961
1.34717
0.304279
-25.9038
1.68405
-147.556
-1.02362
-15.021
-2.12274
0.120218
-457.929
0.67537
0.374827
-28.7797
0.355069
-1.04065
1.27725
-0.105191
-25.0775
-0.0258032
-2.15211
-12.2617
-0.950583
-87.7694
-11.0663
-179.221
2.36789
-9.44829
-10.6832
-8.04741
-0.846246
-8.08069
-0.0964723
0.144254
-11.723
-21.1069
-7.10917
-222.562
-0.367227
0.586394
-0.784035
-15.8441
0.147359
-0.380949
-14.7577
-25.4613
-225.369
-0.421208
-28.6859
-0.287514
-11.9477
0.490851
-13.49
0.371463
-4450.82
-22.9827
-23.3186
-52218.9
-764.574
-35.4954
-30.0005
12.5901
-0.316282
-63.603
-1027.61
-11.9611
-19.1855
-117.648
-41.6566
-11.4658
-1.16296
-0.501644
-0.337069
0.796578
-2.3349
-8.2602
2.12704
-17.3655
-1.15958
-88.2068
-4.07244
-95.2871
-8.97219
-26.1789
-56.6112
0.0506339
-29.6075
-1249.49
-23.7522
-191.372
-113.093
-30.6576
-2.03352
-9.18887
0.35316
3.95002
-0.963937
-14.2809
-15.7454
-467.681
-2.42068
-0.374203
-2328.27
-19.1025
-26.7409
-4.47712
9501.95
-32.0241
-0.0198641
-1.65656
3.11855
-44.5451
-140.942
0.276066
0
-3.93602
-1.26853
-6.1394
0.814849
0.814574
-10.8239
-11.036
-267.954
-0.508398
-22.9824
-0.554229
-790.63
-4.82837
-10525
-1.71579
-1.75083
-27.0415
-2345.7
-269.923
0.0794795
3.28653
-20.8554
-22.871
-9.678
1.204
-0.625398
-33.4522
-1.13388
-0.20454
-9.22464
-0.081889
-2.03285
-2.11056
-3.38823
-11.6302
-21.0145
-73.1108
-11.4404
-20.2656
-1167.64
-55.2024
0.810916
-2.1643
-645.897
-1.14647
-2.2041
-35.2459
-27500.1
0.252011
1.60219
0.551955
-78.8404
-125.588
4.27408
-44.6694
-30.6624
-148.149
-25.9436
-30.6553
-12.6362
-21.1841
-2632.34
-113.5
-58.127
-0.870441
0.628178
-15.9053
-0.850825
0.205922
-29.2709
-17.7781
-15.1452
-0.684206
-6.25151
-0.812948
0.830858
-36.7019
-5.62174
-86.4243
0.910554
-17.3199
-138.239
-18.8462
-21.8281
-25.2414
0.522987
-26.8866
-32.9633
0.272237
-22.9436
-28.2761
-11.2218
-6.09324
-14.0344
-3937.51
-12.0132
-68.0297
-13.7961
-6.27067
0.796096
-0.155215
-271.637
1.01895
0.473232
-0.51061
-6.36742
-27.4818
-3507.71
259.545
1.74754
0.270452
-5742.45
-1.45874
-0.619419
0.789035
-0.950583
-8246.67
-16.7316
-0.158313
1.18054
-0.947281
-300.378
-158.109
0.423283
-10142.9
-474.221
2.66474
-61.6877
-12.2457
-3.09982
-96493
-36.0746
-48.6524
-160.809
-22746.9
-43.4016
-19.3096
-7.6632
-23.3555
-1248.52
-6.68651
-8.44259
0.0108137
-6.58842
-9.62839
0.704426
-26.9594
-0.111571
-21.625
-0.394733
-22.3468
-20.9741
-5.83552
-25.5629
1.1292
0.173301
-0.489583
0.0442041
0.963751
-14.4121
-17.6997
-58.7514
-143.019
-31.9554
-24.2996
-17.2775
-20.8628
-1.17363
491.527
-11.3855
0.807409
-34.8868
-27.01
-3.45692
-7850.13
-16.9835
-4.57349
-34.6024
0.335786
-0.43908
-4.81968
-33.3276
-21.4173
-123.998
-3.44365
1.61334
-0.168835
0
-28.8399
-6.06499
-85.0064
-1.34725
-17.457
0
0.454816
-530.218
-3.1055
-16801.7
1.17388
-23.4975
-17.425
-11.462
261.974
-34.343
-7.95488
-338.169
-33.99
-809.043
-113.914
3.79154
-5.23657
-9.55805
-29.1723
4.4703
-28.334
3.42487
-42.1869
-0.627412
-45.5934
-265.849
1.02733
27267.3
-351.059
-0.50929
0.13906
0.333469
0.921994
82.06
-1.88793
-1.89243
-2326.63
3.53995
2.06539
-11.7905
-31.5182
-16.8194
-5.63014
-7.74917
-23.1274
-14.5319
-42.5057
-0.568742
1.85645
-688.009
-15.7225
-52.8427
-306.13
138.208
-10.6642
-587.225
-5148.47
-18.6323
-3.14679
-1.50809
-59652.9
-10.7424
2.43226
-8.69041
-1950.33
-15.2312
0.0560063
3.43083
-55.5519
-1717.12
-0.832376
-1.06016
-0.430217
-0.76695
-22.7736
0.987425
-36.0538
-5.23459
-42.7938
2.57387
-5220.3
-0.10181
-50.836
-27.8632
-30.1043
2.08372
-1518.56
-5222.44
-0.958213
-3906.55
0.197636
-64.4749
0.468708
-47.5597
-272.548
-26.0249
-29.5426
-76.1531
-13.195
2783.59
1.54067
-17.0276
-0.650962
-22.8997
0.173391
-21.8607
-37.9088
-4687.99
-194.354
-32.2222
-2262.18
-0.138738
56.1853
-41.0444
1.71433
-16.6306
-9.04741
-0.690583
-13.3469
-1.95338
-10.8996
0.143244
8.96309
-0.183568
0.569873
-34.3639
-0.477871
-17.0341
-0.0867047
0.150896
-559.053
1.6179
-14.9372
-575.379
-12.4019
-77.812
-10.3857
1.0811
-51.2251
-0.286179
5.52306
1.34562
-13.6351
-28.7593
-2557.91
-0.0209171
-45.3554
-53.0444
-43.9142
0.777677
-147.325
-4.32461
-13.2497
1.42935
-42.5431
-324.473
-0.59235
-16.5993
0.48882
-62.3236
-0.00959443
-15.447
-0.159636
-60.128
-0.272797
0.628017
-0.0412399
-15.6814
-21.7365
-46.0968
-18.3344
-73.5683
-1243.01
-0.437373
-8.83628
1.58819
-38.6216
0.787665
-19.1422
-19.9232
1.54842
-0.281121
-16.8137
0.434711
-28.1465
-80.096
-738.382
0.0924482
0.236788
-18.4151
-164.796
-2.11723
-66.4493
-198.456
-4.49752
-2.34316
-27.4397
-20.6388
2.32593
-1.1986
-8.83617
-25.7145
-23.1497
-5.21782
-36.3314
1.83745
-0.226988
2.38741
-0.236684
-19.314
0.380597
-92.4081
-31.0422
-0.208151
-0.598111
-19.7871
-12.5223
-14.3153
-10310
-40.0819
-119.655
1.79846
-26.4556
2.08297
-14950.2
-62.2819
-17.5524
0.187516
0.68689
-0.54783
0
-37.0379
0.0164655
0.212615
-6.56189
-11.2958
-8.81806
-85.9406
-257.028
-77.223
0.25562
-2.10808
-59078.4
-18.7863
734.567
-4625.28
-9.43693
-0.0544816
-57.4691
-15.4592
-18.3676
1.05156
2.02177
-1.56371
-126.806
-13.1922
0.948129
-134.88
-1.60854
-10493.1
-125.475
-1.58618
0.193623
-79.6125
-9.82815
-9.90602
-139.492
-11.8146
0.54172
-16.5335
-6.69645
1.21518
-2.01215
-76082.3
-34.7866
-32.2106
0.588574
-0.794205
-49503.4
-3.17067
-18.9706
-17.2255
-32.3841
-5.23076
3.77025
-2405.65
-60.7797
-11295.7
-7.19148
2.91413
-1.21115
-0.668586
0
0
2.79348
-27.8865
-8.23097
-39.3821
-778.654
-1213.02
-226.979
0.574562
-4.76596
-0.696329
2.45656
-9.84348
-75490.4
0.45359
0
0.30812
-20870.5
-135.439
-22.2539
-179.09
0.703346
-19.9775
1.16948
0.270562
3.02363
-38.1623
-10.7305
-19.0824
-1.99702
-34.1678
-483.683
12.8322
-1.17124
-38.2673
-14.2641
-12.6063
-9.02662
451.378
-44.6541
-1309.48
-109.115
3.88135
-2.39216
0.537875
-283.341
-1.47259
-37.8035
-0.0635827
1.706
-2.25532
-0.579759
2.54245
1.45531
-8.19633
-22.022
0.183696
-54.9872
-0.757561
1.63539
-76.6863
-34.845
-84.0415
-0.802336
-2.22146
-20.1277
-14.8518
-18.846
-61.3708
1.38237
-560.446
-11.0169
0.316198
-4.57254
-11.7764
-26.0476
10.8789
-0.710704
-19.1366
-14.4641
-15.2398
-0.583777
0.228568
-61758.7
-29.8423
0.934957
-16.1872
-33.24
-49.5285
-34.6802
1.50614
-47.5262
-0.0180817
