booster[0]:
bias:
-161.756
weight:
0
0
0
0
0
0
0
0
-40652.7
0
16168.5
0
158.79
130.479
-5561.97
-22329
1455.86
0
0
161.585
160.084
-13435.2
205.658
31.9146
-335.721
-1561.32
-25351.8
-6.84873e+06
14158.7
161.266
0
0
532474
-891.805
-2398.44
0
-5270.02
-4777.17
-5832.29
193573
-6021.01
11856
-3511.02
3.21401e+07
-114182
0
0
-4345.43
-43768.7
152.879
-20839.4
123999
0
0
-15273.3
-30172.3
-1.02861e+06
1.29966e+06
-1010.66
51772.6
-530555
-12531.6
-3.94751e+06
0
-1.57125e+06
18337.1
59930.8
-8346.35
0
-354.132
-243.792
540.94
162.186
0
-1404.11
-4.78092e+06
-13692.8
-27691.7
4207.85
215.396
1.13883e+06
-153547
58037.8
-987.026
5355.8
152.606
-9012.9
164.274
-489479
-28193.3
191.347
162.62
0
2.77789e+06
1257.53
-332.026
-4371.2
200995
0
0
947580
-11414.6
63.912
2.20298e+06
-183.86
2585.03
-591.071
173.205
-19447.4
-548653
-12705.4
-2298.85
-28500.7
16473.5
-1130.55
2576.4
7416.12
-11865.6
8.49496e+06
-539.007
-1087.8
38923.9
1082.29
0
-7462.17
-1.60743e+06
0
0
3806.75
-3799.45
27426.9
-6169.11
-178.575
7067.6
-5.77317e+06
801.012
0
0
6.95526e+06
0
-2.96676e+07
660.036
743.156
-1590.06
0
-13528
-1012.7
-64852.9
-568.433
-13187.8
57328.5
-114686
7804.31
29903.1
1362.35
0
5097.64
-25899.3
-4844.74
12690.8
-1.59297e+07
0
0
749.021
268782
-323504
199.882
793.956
-33312.2
-7168.44
0
-683.125
-1.32724e+06
-3606.6
27075.6
-6582.68
569.972
7709.69
0
-38.2772
0
-321028
7015.82
3248.13
-3518.01
-221.015
-2300.42
634.296
18318
-3184.82
0
-416.718
-70467.4
76147.6
0
-286.908
-18217.1
182396
6033.59
-366615
40141.1
86055.8
162.616
4117.71
1973.39
582.2
2231.66
-636.768
19597.1
2169.34
-764.195
-1737.83
1.84078e+06
-845.087
731819
1.66437e+06
0
121658
0
7043.16
1.72222e+06
0
1093.76
4289.34
103890
-459.16
-15402.2
0
30.6146
-146230
0
-321.318
-1127.75
-571.901
315.926
6045.56
-6890.05
636.921
0
98304.9
173.03
8.83805e+06
51683.3
-2030.33
253.912
1996.26
2.39861e+06
-2173.82
3177.72
0
-4.42718e+06
627.173
706867
0
353.302
96.8783
-8019.75
0
691.846
299.559
-224.177
0
480.645
-15891.9
-19247.7
25568.1
32392.7
25810.3
114851
165.291
4390.16
-6130.83
-903.619
174.915
-1.1937e+06
-2640.89
-6566.69
0
294.599
1627.94
19076.3
-6986.46
44498.5
170.461
-844.958
0
201.376
538.152
0
316324
384.391
2.83491e+06
0
2136.75
40307.4
-166.671
0
21184.3
510.559
0
-30207.6
2563.84
0
393.077
0
0
4864.49
0
-52.2498
0
99.119
0
690871
0
465.322
-14166.5
29.0388
61140.1
691.785
-256.984
-530693
-1114.41
0
0
-500.349
483.663
164579
0
182.391
-13053.9
0
1.26678e+06
137.116
218.648
0
31984.8
0
1180.84
0
-6982.24
205.347
484.727
0
1636.8
0
-26659.2
-89.0304
0
178.592
-4329.22
2023.79
-221.25
-1662.7
0
0
1812.59
-1418.08
0
0
6944.79
39943.9
-33432.8
164.101
0
0
-329.697
664894
-155.636
-161894
-2.04616e+06
836.125
195.75
-209.657
0
-923.43
0
0
202.796
910.305
292.889
10528.4
-18.8155
0
0
0
1028.43
-4409.43
2450.35
4722.8
0
1138.7
0
0
7655.14
0
1766.03
0
0
0
141008
0
0
54.1359
0
0
169.821
-85025.8
0
0
581.126
-40336.6
0
0
0
0
0
908.968
-2669.49
1197.02
0
-1363.51
29.4902
0
78347.9
0
405.477
0
-6140.84
1.27105e+06
-125.481
0
0
0
0
0
0
66907.7
0
-40027.4
0
13584.6
0
15040.1
0
0
0
0
0
0
0
0
0
456.379
0
0
0
1.09215e+06
747581
24366.5
0
5977.17
0
-328.939
0
0
0
0
0
0
0
17472.9
0
0
0
-63905.6
83248.6
0
31.1828
0
0
0
-18.5133
-949.532
0
0
0
0
336.528
0
0
0
0
0
0
0
0
0
0
0
0
0
84240.8
0
0
0
0
0
170.191
0
0
0
0
0
0
0
0
0
0
-1665.44
0
0
1657.34
104.271
2273.26
0
0
0
0
0
0
0
0
0
0
0
0
0
783.002
0
0
0
0
0
-1022.44
105534
0
0
0
0
0
0
0
0
0
0
0
0
180938
0
0
0
0
-97569.6
0
0
0
0
0
-118346
0
0
0
0
-104.485
0
0
0
32.6076
-1180.27
8421.58
0
0
94934.9
0
0
0
0
-71.3845
0
0
-5755.17
0
0
0
0
0
0
0
0
0
-140.739
0
0
0
0
0
0
0
0
0
638.907
-30.6572
0
0
0
0
0
0
0
0
0
0
-119.053
0
0
0
0
0
0
0
0
0
0
0
0
0
0
0
0
0
288.248
0
0
0
1111.03
0
0
0
2426.96
-76.8906
0
0
0
0
670.459
0
0
0
-6993.89
0
0
0
0
0
0
0
0
0
0
0
0
0
0
0
0
51.1843
0
0
0
-2534.08
0
0
0
0
0
0
0
0
0
0
0
102.558
363837
0
0
0
0
0
0
0
0
0
0
0
0
0
16479.7
0
-58.5504
0
0
0
0
0
0
0
0
589773
0
0
0
0
0
0
0
0
0
0
0
0
0
0
0
0
0
0
0
0
0
0
0
0
0
0
132011
0
0
0
0
0
0
0
0
0
0
0
0
0
48.2895
0
0
0
0
0
0
0
0
0
68.9584
0
0
0
0
-803.009
0
0
0
0
0
0
0
0
0
272.869
0
0
0
0
6.78014
0
0
0
0
0
0
0
0
0
0
0
0
0
0
0
0
0
0
0
0
0
0
96039.8
0
0
0
0
0
0
0
0
0
0
0
0
0
0
0
0
0
0
0
0
0
0
0
0
0
0
0
0
0
0
0
0
0
0
0
0
0
0
0
0
0
0
0
0
0
0
0
0
0
0
0
0
0
0
0
0
0
0
0
0
0
0
0
0
0
0
0
0
0
0
-283.825
0
0
0
0
0
0
0
2884.21
0
0
0
0
0
0
0
0
0
0
0
0
0
0
0
0
0
0
0
0
0
0
0
0
0
0
0
0
0
0
-107515
0
0
-27.2281
0
0
0
0
0
0
0
-49.2369
0
0
-76.3723
0
0
0
0
0
0
0
0
-29.7468
0
0
51806
0
0
0
0
0
0
0
0
0
0
0
0
0
0
0
0
0
0
0
0
0
0
0
0
0
0
0
0
0
0
0
0
0
0
0
0
0
0
0
0
0
0
0
0
0
0
218.65
0
0
0
0
-58.5569
0
0
0
0
0
0
0
0
0
-4732.58
0
0
0
0
0
0
2687.15
0
0
0
0
0
0
154.377
0
0
0
0
0
0
0
0
0
0
0
0
0
0
0
0
1293.47
0
0
0
0
0
0
0
0
0
0
0
0
0
198428
0
0
0
0
0
0
-8154.97
0
0
0
0
0
0
0
0
0
0
0
0
0
0
0
0
0
0
0
0
0
-172.899
0
0
0
0
0
0
0
0
0
0
0
-268.536
0
0
0
0
0
0
0
0
0
0
0
180.655
0
0
0
0
0
0
0
10971.4
0
0
0
0
0
0
0
0
0
0
0.44852
0
0
0
0
-61.9066
0
0
0
0
0
0
0
0
0
0
0
0
0
31113.9
0
0
0
0
0
0
0
0
0
0
9.05379
-648.475
0
0
0
0
0
0
10090.8
0
0
0
0
0
0
0
-305.688
0
0
0
0
0
0
0
0
0
0
0
0
-23252.5
0
-19568.6
0
0
0
0
0
0
0
0
0
0
-17.4757
0
0
0
0
0
0
0
0
-103.098
0
0
0
0
0
0
0
0
0
0
0
0
0
0
0
0
0
0
0
28.1012
0
0
0
0
0
0
-333.343
0
0
0
0
0
0
0
0
0
0
0
0
0
0
0
526.567
0
0
0
0
0
0
0
0
0
0
0
0
0
0
0
0
0
0
0
0
0
0
0
0
0
0
0
0
0
0
0
142.014
0
0
0
0
0
0
3.48977
0
0
0
0
0
0
0
0
0
0
0
0
0
0
1501.43
0
0
0
0
0
0
0
0
0
0
0
0
0
0
0
0
0
0
-6.89804
0
0
0
0
0
0
0
0
0
0
0
0
0
0
0
0
0
0
0
0
0
0
0
0
0
-96.2521
0
0
0
-7095.29
0
0
0
0
0
0
0
0
0
0
0
0
0
0
0
10590.3
0
0
0
0
0
0
0
0
0
0
0
0
0
-30.3429
0
0
0
0
0
0
0
0
0
0
0
0
0
0
0
0
0
0
0
0
0
0
0
0
0
0
0
0
36195.7
0
0
0
0
0
0
0
0
0
0
0
0
0
0
0
0
0
0
0
0
0
0
0
0
0
0
0
0
0
0
0
0
0
387.056
0
0
0
0
0
0
0
0
0
10.4018
0
0
0
0
0
0
0
0
0
0
0
0
0
0
0
0
0
0
0
0
0
0
0
0
0
0
0
0
0
0
0
0
0
0
0
0
0
0
0
0
0
0
0
0
0
0
0
0
0
0
0
0
0
0
0
0
0
0
0
-15339.7
35637.6
0
0
0
0
0
0
0
0
0
0
0
0
0
0
0
0
0
0
0
0
0
0
0
0
0
0
0
0
0
0
0
0
0
0
6.05819
0
0
0
0
0
0
0
0
0
0
0
0
0
0
0
0
0
0
0
-114.853
0
0
0
0
0
0
0
0
0
0
0
0
0
0
0
0
0
0
0
0
0
0
0
0
0
0
0
0
0
0
0
0
0
0
0
0
0
0
0
0
0
0
0
0
0
0
0
0
0
0
-74227.8
0
0
0
0
0
0
0
0
0
0
0
0
0
0
0
0
0
0
0
0
0
0
0
0
0
0
0
0
5325.37
0
0
0
0
0
0
0
0
0
0
-617.188
0
0
0
0
0
0
0
0
0
0
0
0
0
0
26.5228
0
0
0
0
0
0
0
0
0
0
0
0
0
0
0
0
0
0
0
-3664.76
0
0
0
0
0
0
0
0
0
0
0
0
0
0
0
0
0
0
7858.41
0
0
0
0
-25.8813
2.88582
0
0
0
0
0
0
0
0
0
0
0
0
0
0
0
0
0
47133
0
0
0
0
0
-28.2063
0
0
0
0
0
0
0
0
0
0
0
0
0
0
0
0
0
0
0
0
0
0
0
0
0
0
0
0
37082.9
0
0
0
0
0
0
0
0
0
0
0
0
0
0
0
0
0
0
0
0
0
0
0
0
0
0
0
0
0
0
0
0
0
0
0
0
0
0
0
0
0
0
0
0
0
0
0
0
0
0
0
0
0
0
0
0
0
0
0
0
0
0
0
0
0
0
0
0
0
0
0
0
0
0
0
0
0
0
0
0
0
0
0
0
0
0
0
0
0
0
0
0
0
0
0
0
0
0
0
0
0
0
0
0
0
0
0
0
-47.5061
0
0
0
0
0
0
0
0
0
0
0
0
0
0
0
0
0
0
0
0
0
0
0
0
0
0
0
0
0
0
0
0
0
0
0
0
0
0
0
0
0
0
0
0
0
0
0
0
0
0
0
0
0
435.842
0
0
0
0
0
0
0
0
0
0
0
0
0
0
0
0
0
0
0
0
0
0
0
0
6.01937
0
0
0
0
0
0
0
27.2123
0
0
-36186.3
0
0
0
0
0
0
0
0
0
0
0
0
0
0
0
0
0
0
0
0
0
0
0
0
0
0
0
0
0
0
0
0
0
0
0
0
0
0
0
0
0
0
0
0
0
0
0
0
0
0
0
0
0
0
0
0
0
0
0
0
110.77
0
0
0
0
0
0
0
0
0
0
0
-36952.3
-3543.99
0
0
0
0
0
0
0
0
0
0
0
0
0
0
0
0
0
0
0
0
0
0
0
0
0
0
0
0
0
0
0
0
0
0
0
0
0
0
0
0
0
0
0
0
0
0
0
0
0
0
0
0
0
0
0
0
0
0
0
0
0
0
0
0
0
0
0
0
0
0
0
-129.143
0
0
0
0
0
167803
0
0
0
0
0
0
0
0
0
0
0
0
0
0
0
0
41.6521
0
0
0
0
0
0
0
0
0
0
0
0
0
0
0
0
0
0
0
0
0
0
0
0
0
0
0
-186.156
0
0
0
0
0
0
-150.845
0
0
0
0
0
0
0
0
0
0
16.0655
0
0
0
0
0
0
0
0
0
0
0
0
0
0
-5999.83
0
0
0
0
0
0
0
0
0
0
0
0
0
0
0
0
0
-75559.2
0
0
0
0
0
0
0
0
0
0
0
0
0
0
0
0
0
0
0
0
0
0
0
0
0
0
0
0
0
0
0
0
0
0
0
0
0
0
0
0
0
0
0
0
0
0
0
0
-27463.1
23215.5
0
0
0
0
0
0
0
0
0
0
0
0
0
0
0
0
0
0
0
0
0
0
0
0
0
0
0
0
0
0
0
0
0
0
-5719.52
0
0
0
0
0
0
0
0
0
0
0
0
0
0
0
0
0
0
0
0
0
0
0
0
0
0
0
0
0
0
0
0
0
22.6261
0
0
0
0
0
0
0
0
0
0
0
0
0
0
0
0
0
0
0
0
0
0
0
0
0
0
0
0
0
0
0
0
0
0
0
0
0
0
0
0
0
0
0
0
0
0
0
0
0
0
0
0
186.435
0
0
0
0
0
0
0
0
0
0
0
0
0
0
0
0
0
0
0
0
0
0
0
0
0
0
0
0
0
0
0
0
0
0
0
0
0
0
0
0
0
0
0
0
0
34.6981
0
0
0
0
0
0
0
0
0
0
0
0
0
0
0
0
0
0
0
0
0
0
0
0
0
0
0
0
0
0
0
0
0
0
37.7649
0
0
0
0
0
0
0
0
0
0
1044.43
0
0
0
0
0
0
0
0
0
0
0
0
0
0
0
0
0
0
0
0
0
0
0
0
0
0
0
0
0
0
0
0
0
0
0
0
0
0
46610
0
0
0
0
0
0
0
0
0
0
0
0
0
0
0
0
0
0
0
0
0
0
0
0
0
0
0
0
0
0
0
0
0
0
0
0
0
0
0
0
0
0
0
0
0
0
0
0
0
0
0
-794.854
0
0
0
0
0
0
0
0
0
0
0
0
0
0
0
0
0
0
0
0
0
0
0
0
0
0
0
0
0
0
0
0
0
0
0
0
0
0
0
0
0
0
0
0
0
-27931.6
0
0
0
0
0
0
0
95.694
0
4.12679
0
0
0
0
0
0
0
0
0
0
0
0
0
0
0
0
0
0
0
0
0
0
0
0
0
0
0
0
0
0
0
0
0
0
0
0
0
0
0
0
0
0
0
0
0
0
0
0
0
0
0
0
0
0
0
0
0
0
0
0
0
0
0
0
0
0
0
0
0
0
0
0
0
0
0
0
0
0
0
0
0
0
0
0
0
0
0
-4096.11
0
0
0
0
0
0
0
0
0
0
0
0
0
0
0
0
0
0
0
0
0
0
0
0
0
0
0
0
0
0
0
0
0
0
0
0
0
0
0
0
0
0
0
0
0
0
0
0
0
0
0
0
0
0
0
0
0
0
0
0
-2688.06
0
0
0
0
0
0
0
0
0
0
0
0
0
0
0
0
0
0
0
0
0
0
0
-468.129
0
0
-15.6968
0
0
0
0
0
0
0
0
0
0
0
0
0
0
0
0
0
0
0
0
0
-23.0667
0
0
0
0
0
0
0
0
0
0
0
0
0
0
0
0
0
0
0
-81439.4
0
0
0
0
0
0
0
0
0
0
0
0
0
0
0
0
0
0
0
0
0
0
0
0
0
0
0
0
0
0
0
0
0
0
0
0
0
0
0
0
0
0
0
0
0
0
0
0
0
0
0
0
0
0
0
0
0
0
-60345.8
0
0
0
0
0
0
0
0
0
0
0
0
0
0
0
-5.65698
0
0
0
0
0
0
0
0
0
0
0
0
0
-7518.09
0
0
0
0
0
0
0
0
0
0
0
0
0
0
0
0
0
0
0
0
0
0
0
0
0
0
0
0
0
0
0
0
0
0
0
0
0
0
0
0
0
0
0
0
0
0
0
0
0
0
0
0
0
0
0
0
0
0
0
0
0
0
0
0
0
0
0
0
0
0
0
0
0
0
-14.5868
0
0
0
0
0
0
0
0
0
0
-1154.65
0
0
0
0
0
0
0
0
0
0
121.484
0
0
0
0
0
0
0
0
0
0
0
0
0
0
0
0
0
0
0
0
0
0
0
0
0
-5976.04
0
0
0
0
0
0
0
0
0
0
0
0
0
0
0
0
0
0
0
-844.036
0
0
0
0
0
0
0
0
0
0
0
0
0
0
0
0
0
0
0
0
0
0
0
0
0
0
0
0
0
0
0
0
0
0
0
0
0
0
0
0
0
0
0
0
0
0
0
0
0
0
0
0
0
0
0
0
0
0
0
0
0
0
0
0
0
0
0
0
0
0
0
0
0
0
0
0
0
0
0
0
0
0
0
0
0
0
0
0
0
0
0
0
0
0
0
0
0
0
0
-10685.4
0
0
0
0
0
0
0
0
0
0
0
0
0
0
0
0
0
0
0
0
0
0
0
0
0
0
0
0
0
0
0
0
0
0
0
0
0
0
0
0
0
0
0
0
0
0
0
0
0
0
0
0
0
0
0
0
0
0
0
0
0
0
0
0
0
0
0
0
0
0
0
0
0
0
0
0
0
0
0
0
0
0
-4.06277
0
0
0
0
0
0
0
0
0
0
0
0
0
0
0
0
0
-69.5736
0
0
0
0
0
0
0
0
0
0
0
0
0
0
0
0
0
0
-18.7905
0
-505.609
0
0
0
0
0
0
0
0
0
0
0
0
0
0
0
0
0
0
0
0
0
0
0
0
0
0
0
0
0
0
0
0
0
0
0
0
0
0
0
0
0
0
0
0
0
0
0
0
0
0
0
0
0
0
0
0
0
0
0
0
0
0
0
0
0
0
0
-163.043
0
0
0
0
0
0
0
0
0
0
0
0
0
0
0
0
0
0
0
0
0
0
0
0
0
0
0
0
0
0
0
0
0
0
0
0
-40719.2
0
0
0
0
0
0
0
0
0
0
0
-17.3249
0
0
0
0
0
0
0
0
0
0
0
0
0
0
0
0
0
0
0
0
0
0
0
0
0
0
0
0
0
0
0
0
0
0
0
0
0
0
0
0
0
0
0
0
0
0
0
0
0
-2.39037
0
0
0
0
0
0
0
0
0
0
0
0
0
0
0
0
0
0
0
0
0
0
0
0
0
0
0
0
0
-306.3
0
0
0
0
0
0
0
0
0
0
0
0
0
0
0
0
0
0
0
0
0
0
0
0
0
0
0
0
0
0
0
0
0
0
0
0
0
0
0
0
0
0
0
0
0
0
0
0
0
0
0
0
0
0
0
0
0
0
0
0
0
0
0
0
0
0
0
0
0
0
0
0
0
0
0
0
0
0
0
0
0
0
0
0
0
0
0
0
0
0
0
0
0
0
0
0
0
0
0
0
0
0
0
0
0
0
0
0
0
0
0
0
0
0
0
0
0
0
0
0
0
0
0
0
0
0
0
0
0
0
0
0
0
18.1452
0
0
0
0
0
0
0
0
0
0
0
0
0
0
0
0
0
0
0
0
0
0
0
0
0
0
0
0
0
0
0
0
0
0
0
0
0
0
0
0
0
0
0
0
0
0
0
0
0
0
0
0
0
0
0
0
0
0
0
0
0
0
0
0
0
0
0
0
0
0
0
0
0
0
0
0
0
0
0
0
0
0
0
0
0
0
0
0
0
0
0
0
0
0
0
0
0
0
0
0
0
0
0
0
0
0
0
0
0
0
0
0
0
0
0
0
0
0
0
0
0
0
0
0
0
-81.6398
0
0
0
0
0
0
0
0
0
0
0
0
0
0
0
0
0
0
0
0
0
0
0
0
0
0
0
0
0
0
0
0
0
0
0
0
0
0
0
0
0
0
0
0
0
0
0
0
0
0
0
0
-592.4
0
0
0
0
0
0
0
0
0
0
0
0
0
0
0
0
0
0
0
0
0
0
0
0
0
0
0
0
0
0
0
0
0
0
-20.599
0
0
0
0
0
0
0
0
0
0
0
0
0
0
0
0
0
0
0
0
0
0
0
0
0
0
0
0
0
0
0
0
0
0
0
0
0
0
0
0
0
0
0
0
0
0
0
0
0
0
0
0
0
0
0
0
0
0
0
0
0
0
0
0
0
0
0
0
0
0
0
-11.3184
0
0
0
0
0
0
0
0
0
0
0
0
0
0
0
0
0
0
0
0
0
0
0
0
0
0
0
0
0
0
0
0
0
0
0
0
0
0
0
0
0
0
0
0
0
0
0
0
0
0
0
0
0
0
0
0
0
0
0
0
0
0
0
0
0
0
0
0
0
0
0
0
0
0
0
0
0
0
0
0
0
0
0
0
0
0
0
0
0
0
0
0
0
0
0
0
0
0
0
0
0
0
0
-16.6528
0
0
0
0
0
0
0
0
0
0
0
0
0
0
0
0
0
0
6263.35
0
0
0
0
0
0
0
0
0
0
0
26.1398
0
0
0
0
0
0
0
0
0
-161.837
0
0
0
-3.87904
0
0
0
0
0
0
0
0
0
0
0
0
0
0
0
0
0
0
0
0
0
0
0
0
0
0
0
0
0
0
0
0
0
0
0
0
0
0
0
0
0
0
0
0
0
0
0
0
0
0
0
0
0
0
0
0
0
0
0
0
0
0
0
0
0
0
0
0
0
0
0
0
0
-249.265
0
0
0
0
0
0
0
0
0
0
0
0
0
0
0
0
0
0
0
0
0
0
0
0
0
0
0
0
0
0
0
0
0
0
0
0
0
0
0
0
0
0
0
0
0
0
0
0
0
0
0
0
0
0
0
0
0
0
0
0
0
0
0
0
0
0
0
0
0
0
0
0
0
0
0
0
0
0
0
0
0
0
0
0
0
0
0
0
0
0
0
0
0
0
0
0
0
0
0
0
0
0
0
0
0
0
0
0
0
0
0
0
0
0
0
0
0
0
0
0
0
0
-3.00717
0
0
0
0
0
0
0
0
0
0
0
0
0
0
0
0
0
0
0
0
0
0
0
0
0
0
0
0
0
0
0
0
0
0
0
0
0
0
0
0
0
0
0
0
0
0
0
0
0
0
0
0
0
0
0
0
0
0
0
0
0
0
0
-172.398
0
0
0
0
0
0
0
0
0
0
0
0
0
0
0
0
0
0
0
0
0
0
0
0
0
0
0
0
-1.66321
0
0
0
0
0
0
0
0
0
0
0
0
0
0
0
0
0
0
0
0
0
0
0
0
0
0
0
0
0
0
0
-9.52082
0
0
0
0
0
0
0
0
0
0
0
0
0
0
0
0
0
0
0
0
0
0
0
0
0
0
0
0
0
0
0
0
0
0
0
0
0
0
0
0
0
0
0
0
0
0
0
0
0
0
0
0
0
0
0
0
0
0
0
0
0
0
0
0
0
0
0
0
0
0
0
0
0
0
0
0
0
0
0
0
0
0
0
0
0
0
0
0
0
0
0
0
0
0
0
0
0
0
0
0
0
0
0
0
0
0
0
0
0
0
0
0
0
0
0
0
0
0
0
0
0
0
0
0
0
0
0
0
0
0
0
0
0
0
0
0
0
0
0
0
0
0
0
0
0
0
0
0
0
0
0
0
0
0
0
0
0
0
0
0
0
0
0
0
0
0
0
0
0
0
0
0
0
0
0
0
0
0
0
0
0
39.1592
0
0
0
0
0
0
0
0
0
0
0
0
0
0
0
0
0
0
0
0
0
0
0
0
0
0
0
0
0
0
0
0
0
0
-4923.63
0
0
0
0
0
0
0
0
0
0
0
0
0
0
0
0
-25.5968
0
0
0
0
0
0
0
0
0
0
0
0
0
0
0
0
0
0
0
0
0
0
0
0
0
0
0
0
0
0
0
0
0
0
0
0
0
0
0
0
0
0
0
0
0
0
0
0
0
0
0
0
0
0
0
0
0
0
0
0
0
0
0
0
0
0
0
0
0
0
0
0
0
0
0
0
0
0
0
0
0
0
0
-9.34133
0
0
0
0
0
0
-10480.3
0
-16.7356
0
0
-10.7961
0
0
0
0
0
0
0
0
0
0
0
0
0
0
0
0
0
0
0
0
0
0
0
0
0
0
0
0
0
0
0
0
0
0
0
0
0
0
-3983.51
