booster[0]:
bias:
-418.832
weight:
5.23411
88.0669
-31603.6
0
-513.331
-40758.7
0
75.8129
410.307
-136.779
167.852
0
256.271
5608.73
291.701
2176.11
-1255.63
0
0
4411.09
2.834e+06
2323.95
1966.59
488.922
566.404
3.71848e+06
-24042.8
-145624
-827240
-873.273
0
-23139.4
15088.3
337.584
50155.6
1130.19
141431
39705.4
158.639
511.579
-1.22326e+06
23.6007
2642.5
28839.1
2093.69
0
-2743.31
108111
-2143.2
3103.34
-2534.62
-12866.2
0
523.551
1093.75
340.83
5888.66
-1445.35
81.825
683276
227.056
109453
480241
-6294.66
12929.7
-124.669
473.877
880.888
-1616.93
313.164
20574.1
-754.747
-1.10743e+06
0
23207.8
-5.69808e+06
499.389
-146393
875.606
20580.1
30442.5
-1519.82
-2529.64
770.509
-852.955
1880.5
-224526
-135798
2868.89
-76.488
1285.08
-2298.99
-371.003
-2.35364e+06
97966.1
994.902
-1073.99
-246479
2454.82
1472.63
595.784
900958
7.59464e+06
-2.35644e+06
-181.358
-1398.77
9726.92
-25265.4
1373.63
-296.633
149813
808.446
-29895.4
-8915.07
-6104.33
220.953
-30332.7
471.873
-320.004
-39427.5
1.92665e+06
686.293
-13047
1790.76
17100.6
453.258
12.8445
-6364.57
14410.6
216.17
34038.4
1506.54
-1079.66
-415.32
3359.96
-7.1976
-4.16417e+06
-146640
334.755
33245.3
-38482.3
32609.3
-12370.9
-768.259
-3445.85
117.262
2566.17
160.191
35191.7
172.922
896.512
22930.3
953.645
-1185.38
-310.209
-322910
-3138.4
-596.592
50308.5
1592.86
11382.5
1996.25
-81.3399
3227
16720.2
-420.451
-555.711
16610.2
-6265.53
-435.433
748.641
1868.67
219.248
950.786
-537.34
589.885
2669.73
-22424.6
-26465.7
-5591.12
-26.8293
22765.2
7598.49
-1839.22
-320.808
1784.1
2326.36
-58784.4
-72.6542
784.061
-8671.53
1455.11
-898.862
-7374.82
256.082
22480.2
-1268.44
81.3222
-184.697
197.47
228.297
248805
-13179.4
-1427.76
34938.4
116.765
-2107.3
479.42
427.731
-679.015
20130.1
210457
23463.8
54344.9
795887
-3452.85
-668.568
-103.399
44.2917
-7779.56
11956.2
-2663.63
-2366.81
-2488.19
97.4994
-946.721
-3760.38
31301.2
-6941.73
-1429.85
0
122.073
-863097
-126.198
1.49686e+06
-2.29544e+06
-137.311
21515.1
53020.4
-6619.47
2796.79
-137603
1621.65
-674.004
-2239.63
83.1947
-16574.5
-82.4392
1370.03
-456.38
-52.9079
107.042
-16931.1
514.919
2480.57
287.594
-3142.73
2925.55
279506
-856.282
13345
0
216.989
90606.7
-5489.58
-574769
791.914
-37694.1
-54485.4
123.076
13654.6
-4231.92
864.668
-83282.9
-569358
5272.23
34349.2
-24610.6
-57025.7
203760
5816.45
-759.598
317.036
-68.8808
349.162
-3123.27
29045.6
44909.8
109.178
383.54
-157114
-1599.26
-103.181
-1771.24
158.494
-337.395
-945.529
3311.92
218.754
-202428
-849.555
-355655
-28.967
-111227
-62.2052
-206130
344.76
794.674
947395
-1422.05
648.295
-613.465
-2957.68
-63.5401
115.543
-178029
-1.27581e+06
-596.51
45915.4
-148330
118.163
381745
577.723
-16886.6
96.1526
-1039.98
224977
-4658.31
-1627.57
-25.0101
160.517
-874.723
161.67
224.284
-371.352
-36.0945
1118.29
-20776.2
-146.267
-845.786
173.685
2440.45
374.936
-956.09
111.132
-760.172
-287.795
94.5943
1510.72
-496005
42104.2
2641.05
-392.083
405.129
-677.349
-132.598
-373385
-148.819
-3.66855
1758.12
82.7113
-65470.6
434.077
-201.878
-246.482
118.654
113.481
52760.8
-3154.26
-28455.9
258.056
1422.98
-120352
-14686
-83100.2
-455.067
-166.951
28544.3
-1445.92
251.265
-33303.2
394.079
753.529
1267.11
-1433.52
120.329
-110873
-28245.9
418.267
4791.55
109.152
-33.2237
-8716.71
2528.02
-93.0007
-46.6924
-8565.17
0
-2705.88
-17737.3
-1564.17
70910.8
-418.145
-126.096
-738.822
-41.0732
-5506.47
1097.82
133.418
291.534
17.1199
243.863
314.499
-10716.2
-278.097
281.84
117437
-74.7977
15013.2
0
-19.5957
5920.84
-21.3046
319.717
-3248.98
174988
-7954.6
16.1365
-251.183
-68997.7
-1195.4
-35314.9
0.434262
-327.374
-269452
-9290.68
83176
0.596725
103.857
-156.414
345.148
1.21487
-40392.6
-31.9174
7.22138
-0.881462
-691.949
653692
620.847
52558
259.306
-284.802
877.572
-5456.99
-46184.2
-15740.7
-4076.34
93548.2
2372.55
-615.444
72630.2
-380.769
-167452
1.28834e+06
779.444
-64.2895
-21015.8
-8.34599
-40592.4
-567.959
300.993
-185.269
-135.792
-44138.2
712682
344.561
-22.757
243899
16099.5
-114.95
49447.6
122.605
-247.433
2135.1
6711.83
178.297
-213.259
-149.187
28954.7
-8318.67
-75859
2397.81
175.748
-29360
-8985.56
345.23
-648789
-28.8299
-934.4
-193.369
-10.5678
-24026.8
1.40324
29787.3
-2072.05
-500.366
143.194
114.507
-19.3401
-391.238
0.44515
-568327
684.806
-5216
11421.1
-156.419
-7913.76
480.827
338.87
-946.928
159.96
-149502
-2932.26
-2251.78
-29.6019
-55207.6
-0.00713009
1.68039
2.8762
429.465
-3565.02
-23.1973
-226.272
-48.5303
-185.686
-29557.8
-535.182
1422.54
-31.5266
107337
-127567
30.421
106.554
1500.25
100.007
1767.75
-12.243
-51447.6
338.942
-37484.6
-1.03526e+06
-361.736
72988.6
169.276
-299.397
-33.4152
-192.648
-449.856
-3.64514
-5519.92
-14.8506
-13.48
-142.627
-2924.64
-21.0655
-11459
126.969
775.731
-2026.17
-284.659
-1191.4
-47.5161
925.246
-12825.3
-98135.1
305.703
2373.76
-18234.3
-331.283
127.457
-2817.4
-204628
305.023
-985.519
74.7475
120.696
-47245.5
-188858
-97862.4
-40.9284
22075.3
1.21226
-123.647
716.337
2.16764
-0.185215
8605.03
-1179.75
-343.949
252.802
-39.026
-969.264
41.1585
-5418.35
-46411.7
52159.8
-644.701
-3268.59
-13382.3
-73.7464
-52554.6
5706.31
-3387.83
-5093.21
18848.9
-43.8405
-36336.8
244.775
3096.42
472631
157.362
-9010.26
341.853
-227.444
-29633.6
110.945
43.3709
-26.2833
-2845.88
-37.2144
-85.9756
11.6763
3.35186
1429.11
-42739
-2.62123
-83.5552
-33.6451
0.00167853
30726.7
-3186.23
159.592
99.1398
-7166.12
304.273
-434.156
-17818
2877.68
-12142.5
-74962.5
-30.6812
83902.3
-72.2654
36679.8
1979.98
-6343.68
-206.736
32.9782
-51.5344
-30.1286
392018
-48.6637
1309.37
-0.333565
-272.174
73.3884
-4011.8
12.9281
29.2712
-134.847
47.7069
-0.370105
3196.82
1.39796
51936.3
-69167.1
-14.8048
182942
-101.814
82.7996
1076.43
-1027.23
-391.999
29979.2
-290.945
-39.6656
1.26396
0
-1756.21
-39.9512
-62.5692
118161
71.2019
-61.0143
-37.2498
-7.4381
35.0421
0
193.527
-12.4378
234.705
604.963
-229.682
-73.7522
171.101
-10204.1
-9.20455
-6759.68
-9.00171
209.231
-710.06
63327.1
-70.5434
-1025.79
-10.102
-14.1915
-557.112
-65974.9
-20307.9
-672.221
-119.75
-22.7121
179271
-295.863
-1637.44
-193.34
-125.127
-5339.64
-37.3137
-28.5774
-41268.8
-21.6758
-205.338
0.714936
0
-9.12669
-343.289
-41.608
31.19
-95553
6764.37
-15.2191
-290.078
90.1274
1767.71
-9.54522
-1197.61
-46.3478
166.091
-14820.3
-19.1597
-164883
6844.01
-1047.84
101.58
-28.6672
-69.8609
0.262113
-1004.65
4658.85
-4653.35
-372.726
101.734
-18.7498
-0.217387
5180.53
-7.74697
-26.5668
-4607.81
21.8507
183.883
-11550.7
93223.9
-2963.29
4305.35
-28.3466
-99.1076
-0.085435
-539.487
839.213
-138545
276.475
-12.095
3393.52
-40.5073
-270.322
-0.232947
62.9298
336.946
-36.9578
15713
-42.0372
-179.279
65.4954
-74611.2
1704.1
-40.6445
-122.784
-19.6211
150.677
-10.105
-13.0859
-31655.6
-100.711
-2199.71
7.59017
-70127
-1137.88
-81.9888
139.988
90.8816
22.5483
637.965
0.730644
666.899
-6465.29
-35.828
4.79685
347.083
-148.788
-31.1838
182.77
942
31.0312
920.767
44.2875
-26873.8
-1549.35
-16065.8
-51.3949
1.19958
39767.7
-27.1486
12.653
1.49217
4.74064
369.172
-63.4212
181.682
-9.08475
-114.23
1.26341e+06
-322620
13396.1
3.49377
-1647.06
-4.6521
0.263679
-6495.47
-0.727273
-50.9374
786.394
-9925.46
-23261.4
-920.288
0
-8.19228
-61.6662
-0.416064
383.509
4.29483
-23.7584
-307.431
23550.2
-820.598
-87125.6
-92.1849
-270.095
-56941.2
-1727.11
15127
-11.6248
19814
-60471.2
-19583.6
-702.077
16.8795
-751.414
7253.19
6.73769
-32.1657
-5623.75
-85.7075
-59.5775
232.465
-102.463
1.55365
-141.875
-67.4504
6414.46
13274.4
-121.303
4570.58
-267672
-1148.81
27625.2
-10.5878
-36459.3
110.646
62.4679
84.734
-5.31372
-32499
-941.384
4700.29
-249.63
43.2718
88.315
-117346
843.516
113.529
19.3184
17.8939
3773.55
26.8764
-6.7783
1507.03
-57.8677
-2586.92
-49.6376
-4591.68
-5061.15
3.41867
122.938
292.445
60.0886
-3958.44
-89.5993
152.803
-425.312
33.077
-1389.07
-437.352
8.10696
6291.55
672.535
-55.2867
38.6122
-134.975
37.1448
-1173.23
30.7822
1490.99
27.4768
-42845.9
-2270.94
-309.632
258.849
-24.4629
-44088.1
79.085
-305.678
745.356
-119.518
-9.81137
-986.429
177787
27.884
-199.941
-2541.67
-14.0197
11557.2
-539.593
-252.736
-8.67524
-9.06826
1309.23
53426.5
131.634
-8347.08
-519.295
-582.793
-57438.4
-15.3512
-1476.97
-366.3
727.042
-18.5858
24935.8
18.097
-31460.4
49086.8
-25.3945
-28.3956
-3361.04
-452.462
-44.6144
39.9403
-251.638
-1.66937
-127.312
-7.18618
-63.5626
7.32053
-219.259
1209.96
-110631
82.1635
-50.7194
-175.507
-19.4543
36662.3
-2293.51
-1834.94
-2.82037
-60.7298
18293.9
38.0775
1702.89
-591.887
-3.37593
-91.229
-2502.14
-7.66569
-31.1231
-110.788
49.9275
60236
359.514
-26840.1
-1914.8
521.264
-81.219
-22353.8
168.41
-12.625
28.5748
-2855.69
-627.433
2490.61
-204.456
-249.963
14.2659
51.6227
27.932
42.3694
85.5307
49943
1678.91
181.522
-1314.76
-91655.3
46.2947
-146.158
127.384
-65.4533
-1151.41
-662.852
-8120.78
2045.39
-1449.18
-9.15277
-10.6881
117343
6262.69
1668.68
1110.32
-248.18
353.635
-144.533
-461.394
164.582
-100.534
54.3428
27920.2
904.36
-327.515
-2136.84
324.101
-244.117
-8.04166
-4059.02
8.37043
-33811.6
3.31337
-171.786
-35.5991
69.5453
8.99121
-60.3785
-450.421
-111.696
-2463.33
-31724.6
3223.77
24.2202
-216.003
-14.3135
32239.7
22.35
-2.15394
0.392862
82244.9
7.33217
3.89493
172.176
-1132.81
-6.79505
371065
-36.7372
-257301
-784.127
-366.185
-458.25
2941.41
16.351
-37.3183
464.781
-3.83319
-8.94112
-1931.08
25.9577
6583.19
-20.3108
-8065.25
229.427
28306.3
1.95014
644.694
-240.69
7637.25
-89.2291
342405
-10.9128
-4408.02
-153.68
16.1862
132454
-16.0379
-2.80673
16.0798
-2.5357
25.8068
5.9086
1899.38
-837.404
-39.5222
-67.8319
29.2498
-2350.16
-31.8452
3986.39
-83.4055
21215.3
331.577
425.309
20.0844
-8510.27
86538.7
-137.462
-15.8297
-17.8466
-0.789613
-54.0115
-16.6263
-47.1031
131.555
-143.703
99894.8
143108
885.134
-0.0805846
-13.8404
-11.0011
81565.6
591.997
-124.055
-176107
2770.28
-11.6305
74.1642
-6000.13
0.750202
-168.446
-1106.38
-12.3358
-62.3801
1219.18
461.036
-1538.44
-45201.2
-19973.7
63.4161
-8005.65
-25.0131
156.29
2374.13
-6508.83
-59.5165
67992.5
15.3346
-26.887
-46.9022
42.7246
70.7667
-131.773
-3.39791
701.08
15.2994
1643.49
6190.01
-5279.83
272.224
-4664.89
-5658.3
-0.100359
80.0617
82481.1
0
-19.9607
53.0852
-23.2849
-17548.7
3094.14
3052.71
-18946.6
42.4576
-83.7566
47.6205
93.6788
319.968
-5.56939
296.678
218.452
2883.79
0.226433
77.4381
3123.07
16.9
-9.89456
-19.2838
12084.7
309.384
-4.49183
-6.90045
14.2445
-264.094
33.6445
6974.17
-492.708
-398.718
-8.8608
-0.883753
-332.555
-83.3359
849.044
-5411.46
1423.72
703.611
-0.625343
-889.601
-51328.4
1.46239
4405.13
944.198
-14.8603
-65.2194
-61.014
238.183
-555.277
9.5314
-744.214
155.037
78.8519
182.085
1508.96
2223.49
372.616
36.3159
43734.5
120.77
-2.19213
-137.506
-245.773
-102.294
-27.5373
16.0154
-865.791
-1557.32
31408.7
-1.73114
1075.99
91.5354
-38358.3
-24.894
-19503.5
31921.2
-0.570998
-192.687
-10.7668
15.008
-23.277
-64.0132
19.5134
42.2633
123.967
-59.9484
17.9354
-72639.9
-8.31148
-18.4423
6.01116
-7.77621
48671.3
-97.2229
-33431.5
94.3147
2009.88
16178.3
-2973.56
-8.31359
-0.500701
-313630
7878.93
-61.1792
-1.05487
38.5062
199.597
-7683.53
-442.66
-47467.9
-11866.1
-8.25951
-194.368
-543.809
6.03228
-47.1693
26.234
38.5145
-65.3856
68489.9
-52.3318
-7.99374
-86686
-28.1892
-35.148
-5829.56
-127.463
-3426.23
-87354.7
8561.71
-399.461
-14877.7
1.2703
-772.926
45.6548
-8.96385
-154.258
-1629.69
-8.08483
-68.7987
66.8192
85.3399
-46.8242
12.6342
-9496.42
0.490779
-0.0145932
-22490.2
2665.33
-5.98139
-2563.47
0.138335
-10.6933
-10.2318
-8.48708
73.1755
-4310.47
-81188.7
855.529
44.7439
-920.913
15433.5
-99.0814
-983.763
-166.264
79.7403
-10.717
-924.816
-5.88464
-78.8213
70.5718
0.442519
63.3933
2601.29
710.348
33.327
-20.795
318.634
35.5367
-317.616
39.0061
-145.492
-18.648
-9105.73
-61119.3
-76.1061
100458
-28923
-741.201
6.02515
58.8601
-658.894
-27.8264
-303.93
-847.548
-1416.81
-114.572
-2.27866
-384.428
8615.71
-23371.5
20878.3
-15.3602
-17704.8
-1760.57
14.7426
-14.7306
-1896.19
-21781.8
-797.296
-8.3675
526.682
3639.4
-15.2272
-12488
-56.0663
-0.642305
-615.543
-603.866
-21.6993
592.124
23.6856
25.0985
-27920.1
11.2465
55.1387
1726.64
-12851.1
301.925
343.871
-1.51748
-0.338822
-30596.1
-29.9817
5959.13
25971.7
36.4059
29.4362
1928.83
256.964
720.24
-14.3757
423.737
-278.511
-20274.8
-163.726
1089.02
5039.78
7205.08
-95819.9
-251.453
-380.021
-12.5212
-11555.9
4603.86
30.1068
9362.27
-355.114
-10.193
-14.8301
-1.48714
-70.7609
415.605
-8110.35
-1401.99
-89.1811
849.526
3462.94
-67.6793
80.6139
-11.4558
1827.41
3444.09
-11195.3
-166.123
-359.597
-233.327
-4533.3
231.291
-1036.33
18.11
-669.735
-719.211
1.47708
-7353.44
-36.2338
-44.0753
-13.2784
-19369.7
-14.9104
-141250
-362.883
-35674.5
-175.739
175796
1281.93
-70.808
-427.108
-8.95433
-3277.06
-23.0092
-12.1321
-56337.6
-15.4203
-10.6667
-6.27922
-114116
-475.172
-158.246
0.616444
618.905
-5.73933
-21.6865
-9.72549
-127.65
-22071.9
-10.2507
39.8119
80.1004
1526.97
32.0261
-805.489
-8.85404
596.282
-1686.66
-69.5812
-282745
-1586.71
-4689.55
131.205
4.54318
-799.191
18792.2
-7.72894
-23615.3
-66.6416
-9.31714
-375.563
-9.67752
-5444.17
42432.4
-3.97589
5364.87
28535.7
-9142.69
-22.2637
11.9344
-27287
0.578776
-262.054
27.5979
-44.869
-884.756
164.776
64.5096
-67.4729
-467.955
-11.8995
-8.71743
21441.3
142.424
-41.2968
-1.02022
-145.593
-1626.52
-28.756
-19487.1
-8.15999
-9.24122
53.0149
4.25737
-1708.39
2129.35
1753.6
6207.05
15.4026
1441.14
0.0914842
128.2
-1415.05
-19.5086
22.3298
-45827.6
251.429
16.685
-36.7394
-14.3446
1.02057
59.2478
3424.21
-8.66854
-131.097
-233.452
-17018
43.669
-34540.2
-96.7024
-17.5204
7.21203
-0.0944907
-72.2312
-13.5698
4.62234
39.6041
-19402.5
-214.913
116.457
47.9071
-4.94194
-6.62121
-33.0522
-439.999
1086.29
-164471
206.203
-147.829
-7911.55
2.43766
-39.6962
-76225.2
-38.806
-1022.34
-99844.2
-1171.04
3445.1
-9.12807
-7842.7
133.098
-108.5
657.014
112.16
-181.535
14.1352
-495.143
5.22131
-7396.05
-23003.6
4076.63
9.57374
0.423468
0
5129.05
-19.2585
-9.24339
-2.09257
-14.408
1723.37
-66.4668
-11.664
-26.5281
-2659.98
-307.216
-10.7436
-4.5692
-44285.1
5.44817
-69.0138
-654.012
81.209
-1.59098
57276.4
-5141.25
-154.814
-11753.8
-11.4455
1.56352
-6.27069
7.82359
-5.26975
28.8246
-3252.48
-27085
14596.3
-410.942
-5.95767
59.2668
-11676.2
262.34
-22.2193
80.2829
-22.0402
-43.8
29.4983
-68.3507
-184.268
133.661
-2392.5
12673.1
-15.0089
22.5089
32.4386
-2.20834
-30.6391
-18.6035
-1656.8
-1110.26
-8.27885
1.98417
310.099
-1438.61
0.666934
-361.029
-7281.01
-15.0745
-171.88
-69434.3
-79.8982
2034.97
-28.4636
-374.355
4622.56
-53.917
-19.9869
-25.1349
33.685
-9.33774
-139.582
-114.556
-4468.52
1.05193
-11.5851
14.3494
177694
-3.78562
-28.653
9999.06
28.8642
1450.71
5.41261
-6941.46
21.9053
1646.27
1761.42
-25.1681
-10.807
199.559
-92300.1
-327.193
-1638.21
-18.1132
-1.37135
-51605
-98501.1
-44.3617
-18.4292
-33.6382
-0.223481
822.415
47.1004
617.457
40.3145
-130.738
-765.362
-205.147
-3.93361
-3047.3
-0.142803
-112.4
-245.44
-18.6316
-17.0486
3.39269
-14961.1
-27.4563
-59565.7
81.7093
-13460.2
-791.503
-5.17817
-31.3127
-100.781
42.2646
-9.35823
75.5267
0.633353
-7.40072
-35.092
-62641.6
-3989.98
-186.936
-44.8125
-18.0196
-12567.6
-9.13669
-4669.32
-0.033778
-223.93
1.55846
33.3529
9266.57
-11.0072
-954.899
-1840.33
-351.793
-98.5831
46.5854
-31992.7
180.581
86170.9
24.0726
-42.8296
21.8158
-24433
-527.683
-17.9806
285.027
-0.820775
-51.2526
-27.6182
105.947
-0.500409
104.858
-9.0962
-2752.14
-1007.09
-3498.53
47.8776
5634.15
-13.5673
-825.917
358.174
-11.2205
15717.5
-4.15335
4.35934
2979.32
-16.3528
-3445.63
-26688.5
13.7269
-98661
-109.606
819.62
-33064.1
-36636.1
37.3507
-1088.86
-16574.6
-1312.98
-0.357621
-1.25198
-303.763
-316.124
-10.9046
-6370.14
-19.0472
-50.2612
-605.317
-10953
5174.6
-82.1943
38.8637
-2027.92
-672.085
989.682
-34.5004
-0.478547
342.286
54.3752
-24.3668
34.569
-20790.4
6.64029
25.8146
-9.36682
20.0637
-12.6792
-609.5
-7.80467
116283
27.9506
1.23532
8.67027
-50190.5
642.507
1142.73
134.757
-2058.83
1.4895
-196.696
-168.989
-1.29822
137.375
-1526.9
-70.8321
-1.48381
-9.36514
-1436.29
-1131.63
-248.5
3.54474
-11.2686
-47423.9
1.48687
1712.15
-612.418
-625.842
-4.01868
-12.7119
1064.42
-324.795
-900.963
-1646.28
54.7251
-9.94348
-84.1521
248.465
1.71286
6.24582
-36866.7
21.4371
-95.2088
-13190.1
-54730.2
164.196
-24747.4
877.495
4576.73
1724.34
-41.9312
833.129
-82850.6
-17.3042
-0.333565
18265.8
-33.0273
-4.49767
1713.57
-5164.35
42.5406
-5.09899
-6.83572
58424.1
1.35512
-9.50387
-634.668
7.38896
11.7622
-78.605
253.553
9.1756
1927.78
-58.0356
-10.8113
-77.1139
-57.1061
-4178.59
8.71908
63996.6
-8.06126
-2553.59
-19.022
-1239.12
-36.3565
-7014.57
-676.792
7.65098
1.04144
-7.52894
-17.5301
-24.8327
1734.03
0.67996
93.3153
-35559.9
-17.241
-11.1388
401.258
0.731346
-830.274
-233526
0.62668
5.00407
-506.111
-103.238
944.277
114.083
-486.461
-41302.6
333.627
30.6419
1.90611
7.55826
83.5184
14.1738
6.74697
-34366.3
14924.5
-655.575
-19750.4
-83.4833
0.173323
-5798
-3.41939
-7.32636
-88.1137
-7769.79
0.252912
-36.0657
-406.732
12497.6
4.99021
-9558.83
-26.7123
243.274
-427.502
2.99423
-683.815
-42.3495
-82244.8
-1723.32
-33245.1
-6954.01
1591.16
-48598.6
-6.61557
-33.2442
-2.0135
91.893
-19.5235
257.467
-5727.71
-4476.58
-334.088
-3785.78
10.3896
11900.3
12.4605
1.91663
-4.37245
-118.763
-181.525
-11.7939
-64600
-66085.9
-40.9665
-5.83582
2673.95
5.2932
-10.1349
-236.665
159.699
40.9102
52422.5
-30.9476
-25.34
-24.6213
-24.9762
509.278
-100.86
-0.00826871
13.1332
-237.423
-0.134109
-222.186
7340.69
-104.493
-1868.18
19687.1
1435.65
-2599.99
-308.024
-298.164
63.7616
-0.179007
3.49377
23.9851
600.002
-9.38918
-1716.31
0.976937
-10.6341
183.009
3146.41
-2947.57
-44257.2
44.5938
-0.730154
-223.105
-6.37663
2.36691
-71.6159
-1657.33
-14553
-1069.19
1768.95
-16.7089
598.259
354.248
-0.335845
2.88478
328.607
-22.7351
0.795109
-1821.12
35.5764
14.3008
107.537
-13.6868
2456.72
-181.721
-24.1376
29.3779
7.36638
-28345.6
2.57059
-13.883
-8.4064
-26352.9
488.619
-68107.4
-1141.02
-336.313
553.293
-1712.86
-7.22809
-61.2209
373.467
-11.6256
1732.14
-15457
-220.065
-6.38538
-1.57626
3.86704
-47470.3
-176.128
-739.568
11.8308
-9614.5
5149.29
51.2864
-73020.9
-140.286
-205.455
1111.11
-20.3073
2655.38
-2880.74
7.56417
-50590.9
-2534.24
2720.73
-24.8996
-20057.5
2.32527
0.575918
-8.94471
-196.629
-28.0013
-8.90524
-4858.79
-97.4432
-1655.16
-163.023
-32.4788
-38292.5
-164.26
39.9333
-34.3353
64.6047
-28733.6
-0.781329
-48.6834
-7.59142
3439.6
-18313.5
-8.65466
-23697.5
-1274.74
57.4373
3454.15
176.917
-54.563
43.2111
30.6432
68.6643
-16.9982
-6.03656
-21.2333
116887
-21.7887
-4.77903
-408.633
-174.02
-0.497717
2.06212
-5.88155
-13.9917
-1362.41
-12.689
-12.561
-88.6678
-131.566
0.786253
-2118.84
-9529.03
-3.42875
28.9519
8.72306
-10521.7
11.8775
-53.9275
19.7813
108.442
-75959.7
-50.1688
330.806
-1029.26
25.0447
771.983
52.3922
-98677.2
-640.087
-7.87011
292.413
5.01875
-17.8452
59.3695
-11.4932
-80527.2
-1.17119
-11.1816
-6.02231
-4.45623
1.78926
-2.57058
-15.7151
360.637
15.4959
-1570.68
-197.012
0.810487
1758.86
-14305.9
-476.385
-789.851
-81.0352
-32565.6
36.4233
-39220.7
1727.63
-176.533
-1.13652
-18.3549
-2568.55
-71.4683
-30.2209
-1723.15
-23.3169
-1.79847
35.2106
5.10195
-13.8741
-9728.87
12760.3
19.5978
77.3569
-883.581
2.95226
-4.97345
-42.9783
9.67599
-25204.4
-40.5136
144.449
-1582.77
-11246.9
2.50912
-31.0442
33560.7
-559.044
55132.9
-24.6278
-54.3389
1280.13
797.627
33.4344
-2.89208
-1160.26
17.3817
-64.8351
42.6784
-13.6431
1717.69
-0.324096
0.170035
624.312
-9.42482
143.842
-5.34509
9.00966
4.62799
-1.20998
-14284.2
1645.23
11132.2
-243.312
1.21994
-10.3349
-20339.7
-0.731307
0.494532
6.27969
19.7331
-9.34841
-3.12117
-28.4237
-10.4549
-1451.93
45.6577
-6.92949
-3.14969
-398.843
-5.14436
-15646.1
-10.6559
-1701.14
79.414
0.917592
40.0954
672.138
-36683.2
196.247
-7.93907
-43.2588
-14.4468
-38.6812
-7251.46
-99.8382
9.97433
-64021.2
-0.348918
-75.5916
0.535108
-369.429
-1.06404
-29946.3
1281.14
-113.811
84.0045
2.19866
-20.3611
-6.77304
-5472.68
-6.42097
58.3408
-2.41955
-57.0062
-611.123
3273.58
1.05772
-10.8056
3978.73
-31998.6
6958.76
64041.1
70235.2
13.751
-3448.88
5145.65
1672.83
-21.514
-0.625736
18710.1
-270.588
3481.54
-10.2897
-2.25873
17.2185
26976.3
-212.386
-35.7948
-187.119
2522.85
14.008
-36.6973
-4598.2
-13.2636
-155.858
21.029
3.80375
-7784.11
-20373.2
-57595.9
-11.9814
301.972
-647.274
-8.75222
-175.304
-1185.1
0.290882
-2656.86
-169.502
4.84616
79.3162
2.46156
-10819
-10.3683
-4641.77
-431.232
-0.144254
-5.67417
1.92412
-0.910658
-6.05019
-50.232
-167.776
-11.7309
-18.4993
0.6627
-1756.35
-27.7075
-27.9746
0.232244
1237.84
5.06987
-5.84046
-5261.68
2.73152
-15.8254
-15.9187
-3.14714
143.069
36983.1
1.7248
-283.407
-383.272
-17.8721
-1416.08
852.691
593.479
-10.8925
-4.26232
-1496.78
-9684.11
-20378.8
-13.6223
-29.431
-13.6338
1711.82
-1711.56
-158.264
-18.1577
-816.551
44.9852
-0.323255
1.54238
1629.98
0.226887
-2176.32
5045.38
-162.227
273.265
-0.0955179
-2370.7
-3.28772
-3438.92
-218.232
27.0394
-13.1784
-7.96951
-15.204
15.7837
-850.505
36.7098
-1342.88
1732.9
-3.86885
-10466.1
-169.685
28499.5
-23.5098
90.2163
-28.9752
21.3058
-15.3969
-43117.7
-8.33311
-849.499
-26838.9
-2.00424
-8.87352
-4.42021
12.6828
3320.51
-10.2499
-8.81446
-125.473
-0.267573
472.747
-4205.74
-63.6344
-19.1334
-29.484
-109.26
-1733.53
-13.5652
-7.01936
-1333.2
33158
-0.350847
-9.46943
-647.612
-291.248
43.7201
22.1542
-213.911
-8.95318
-9571.86
248.005
-116687
-33.9021
-21.0991
-34.342
-58.5178
-14.1873
-4.63406
-1.61367
-68.9846
-2397.49
-52.0441
-94.6197
-10.9277
1.73049
-0.985553
11756.1
21723.8
-1034.77
-0.330378
-12.2412
-4838.84
-1176.25
-2997.62
0.940072
9.12241
-1190.23
-290.357
0.126324
104.849
-62147.4
-6427.17
0.521344
-71.3435
-0.0654543
0.630364
-30733
160.525
-1461.76
88.0694
-8.97471
-9.80997
-442.199
-16.8112
260.456
-0.264471
81.6779
-11.8427
-81.173
-2812.38
-0.471911
-7.92245
-107.066
-1554.27
-925.291
-74398.1
-13.9314
-27.1736
1536.81
101.269
1.00465
-101.196
-878.09
-933.578
-7039.82
-128.515
-10.5863
-3.04374
-55774.5
1.11928
9.13296
-83912.2
-45.9147
-17060.1
1370.91
-14.2893
0.395708
-0.259211
-137.672
-10658.7
0.365997
-143.221
-4.77632
1329.08
-29.1556
-3214.78
-34.0314
-22.1752
-42.3609
14.8542
15323.5
-14.8092
12.5448
-2.88595
0.864601
-7.81324
-8.67913
-28143.9
-7.24502
26.0944
-13.4487
-26.881
-820.549
-14.7787
-14.6103
-69.5529
-4186.91
-334.69
8.11333
-1654.37
-52167.9
-1.82719
-14.8366
-12547.6
-254.049
-17.1193
-55.7746
-3.38261
343.339
-62.9977
20.6109
2924.71
-8.81684
-3433.69
-0.218034
-7.6275
-5577.17
6124.78
-7.63855
0.859942
0.315543
-6.913
5.59016
-30.2326
-25.4077
-14.0924
-61672.5
1766
-53.4441
-90.8982
-4961.77
-8947.73
-31.0303
-8.435
-14.0664
-2.22947
-1668.78
-13.4373
0.342063
-65857.5
-63.5377
-535.272
-97.9752
-1596.55
2.75159
-937.945
56292.6
-6870.04
-513.68
-10.9661
-5.07494
4.07971
-5304.69
-15049.1
-66.9591
1077.8
0.533031
-85935.1
62.0019
1.34644
0
-239.889
-32.9854
-6.85499
1.89963
0.408533
-3.1081
-76248.1
-9083.65
-17.8384
-5042.65
-0.705886
1.20799
-17436
-4.6498
-23.8576
-11.2319
-9.67228
-6401.48
-56464.1
-18.2211
-3.07403
12.8109
17.9279
-20007.3
161.216
-47.6221
-81804.6
-9.49831
-10.2636
-12.2796
142.789
3.20686
1564.02
-4039.21
-42662.8
-41.5318
132.123
18.4096
2564.66
-8.46794
-3.15878
20.661
83786.2
-13.65
4.05905
-11.3611
-12751.9
1.90679
-4585.66
-62.9405
-602.547
24.1236
-2608.15
-13.8673
-11.2464
57726
0.318532
-9.18159
-19.579
-96958.9
-1.77349
1.48585
156.697
-7.96668
-19.8573
-1123.45
552.54
-31685.5
-1.91396
-40.2058
63499.2
-10.5682
-170.591
-8.24828
-80.785
8.99585
-29957.4
2.17946
0.506143
0.139518
-28867.1
22.0889
-16.1266
-35015.6
937.613
-14465.6
-26.2308
-1314.28
-3139.99
0.196775
0.0243664
18.7291
-4.75031
-24.9667
-6.70989
-9.46029
282.716
-263.946
2541.12
-47.2871
54.2222
-601.161
-12.0423
-173.531
15.1313
29552
-125.787
-9.34926
-114.505
-53.3886
-60.5844
-128.205
35.2392
-8775.03
-7319.51
-979.002
-865.711
-114.167
-232.073
6.79924
-13.4106
-9.9
1718.86
-1.85575
3.6534
49.4444
-5.27248
82.1418
-3.9831
-1754.18
2272.22
-11431
-195.974
-22.3363
-5956.77
2.19625
-1.09698
17.1315
159.724
-4.12547
2.53676
1730.77
-1261.8
-0.178498
-15.6611
-30.5608
-1379.06
-184.697
-13.3674
-380.913
-44047.5
-10137.2
229.041
1719.51
-29.236
-154.823
-1805.06
-621.609
-170.064
-10.9316
-13778.3
-252.667
-55.623
-0.479042
-10.0011
-49.0242
-629.165
-1318.59
-9614.79
-83.6543
-328.904
-39758.2
-9.89742
107.755
4.41693
-3.32248
-4786.29
-55.5948
7.29777
-534.441
-3852.04
0.924479
-10.406
-6.30467
-10.4382
-1724.42
-46814.9
-5161.07
-0.317574
-10.1501
-14.0085
-1.81426
530.856
-0.284463
-1080.08
42.956
-1.21648
-0.350589
-0.263344
6.3393
334.271
59.7987
1.26241
-2.26054
-27.197
1.83069
-22.3868
-147.766
779.457
1538.63
-13.8811
-9635.34
32.1923
-5.35462
-1621.19
-7.44298
9572.24
-119.785
-17.0006
-6.31767
-2166.62
2664.83
10.3113
-2.23512
-2004.33
-7.61775
-29.4552
-14.5752
-0.888352
-2.94154
105.282
-0.709787
-6.96502
-0.52508
6.9893
21.5097
3.20014
43.5052
-0.288443
692.168
-2.98589
-2941.97
-13.3
15.0076
1721.07
-136.401
36.2611
-0.443115
-5.04747
-39.2543
-247.438
-8.29957
1724.08
0.760075
-8.35359
-2712.02
0.311651
-2.45692
-1721.42
-195.829
-8.84675
-8.81606
-0.120871
-8.26261
30591.9
7096.7
-266.244
-15653.4
-23.4788
1592.03
0.312244
-544.757
-381.034
-42.8763
-6.14679
-624.652
-49.0974
-61.818
-12.7441
-68722.1
-14.9489
-10687.7
-944.172
-14.0417
6215.61
-0.920809
-4.82084
-2892.35
-9.58354
-690.243
-4558.36
10.4562
-94.6642
-8.74724
20.6858
-0.0337834
-11.9204
-189.97
-2766.38
-9.14128
-7.78169
-10144.9
-11.4656
-39.3301
-47.9581
-0.505714
-1.32472
-3961.85
-5.79747
-4.97221
-140.863
-12.0432
-5.95731
1.93558
7.49374
83.6788
-1607.05
-115.267
-30.9453
161.066
-1701.09
-1369.43
-1908.33
-57.084
99547.3
1408.4
-7.16113
-8.85069
2127.03
0.99322
90.3436
1801.48
-4540.74
-3.59245
-2.364
-55.652
-15.9074
-910.239
-7.49783
-4.82288
4475.33
-24.6155
-0.929879
-28.8912
2.87639
-13.9589
4.82344
-1318.31
-9.67496
2.72545
-0.566384
17119.7
-16.2236
0.795371
1.1692
-12.4339
3254.32
-28.859
-436.141
-1.88844
8.1148
-28.6771
-32.9525
-21.2196
2.96623
-297.468
-10.7263
-210.51
-6.22742
-5.65803
79536.2
-10.7705
-22.6565
-1719.75
603.65
3430.31
-3.45033
-10557.8
-77.9535
-15637.2
842.731
-13.0437
-10.2345
-8380.14
-68.703
-8.96254
-29.5889
-8407.46
-37944.8
-23.8514
-18.6442
-6929.24
3742.21
-2175.38
64.7917
-0.820492
-16.2431
-10.9137
-2225.05
131.582
0.500388
-18.9179
0.000473261
16.6214
-21.9377
5032.33
-40.2661
-5.68918
-1804.69
-4550.9
-19.2909
-3880.84
-26.7504
-1.78128
-24.3825
327.757
-1145.96
8721.71
1.28694
-22023.9
-95634
-9.2678
-1.77472
0.376874
-1.91517
-2.26149
358.91
-2556.33
10.4102
-0.79593
-1.85276
-563.382
-38.0098
-15.8265
454.515
-9.28974
-16.8643
59.1643
-1332.12
-4.84745
-17595
-30.3567
78.0966
1.3516
-25.1208
1321.92
-4.45418
-82227.8
-2348.59
-3001.99
6.28671
-121.982
-2.74654
-0.268766
-74166.3
1631.75
-4.73336
-0.458162
-265.697
82239.8
-1896.37
-9.85528
1721.57
-148.418
-4.71191
-9.9936
-14.5669
-7.24452
0.183714
-8780.93
-611.696
-29638.2
-6.05648
-14.1502
-0.252762
-13.6994
-67643.5
-62.4983
0.360077
245.929
3.15257
-0.396962
-27253.7
-9.63032
-21.0154
-44013.8
32.1017
-47.8452
-0.159303
1118.43
-9.97279
-8.25417
2117.23
-292192
-2171.56
-226.171
-1029.96
-15.1762
3402.96
1645.14
-6.45107
-13.1105
-0.292548
-3455.15
10.1603
-21.9365
-2068.77
-576.961
-28750.5
-9782.61
-912.139
1735.72
-2.57247
-11.6003
-182.117
-60364.4
-5.87445
59.5858
-2.98309
-6869.52
-11.4765
-987.83
-18813.9
0.244687
2.71282
-6.96176
82245.1
209.248
-2401.72
4.58379
-4.87746
0.663056
42.4392
-20.1044
-24.7587
-2.84445
-10179.1
-9477.5
-6.89265
-6672.16
10.7503
146.894
-6.002
-538.798
-138.908
-6911.17
-45.3198
-13819.8
-532.096
-8.07042
-8.64513
-28141.5
-13.2435
-8.71674
-4036.29
-35.1171
-3.35778
-4374.92
-41.0224
16.9672
-603.605
16.3909
-2.57422
-88512.6
-10.5824
1.41366
-2.92328
21.7214
-15.3832
-94.0874
2.20036
-33.2445
-312.685
-27.0474
-1119.25
21.1933
22.1328
-7.919
-10.3724
-2251.72
-3.47416
-6702.31
-1.48277
1727.32
-539.165
-0.311307
-5.45988
2.86383
-30.5584
-65.7231
-8.56155
-13.6813
0.488882
-26.5281
-48.3251
-12.5833
-2.43045
890.373
-3.3691
169.923
-27002.8
-14.0578
-4712.82
-14.6646
-5.04696
26.5301
14851.9
-24.6221
-30.4442
-30.5372
-8.32354
-7.53887
0.00781718
-23.4946
-145.367
-17.838
1685.12
-11.6109
312.543
5.24557
435.505
-647.786
-1505.58
-12.1183
-4366.66
1705.76
-0.711501
-40.186
9.08137
-10.6235
-152.792
3.42733
-3406.31
-8.57958
-61.5826
6.54805
0.592766
-0.995264
-26.3509
-56362.8
0.112793
49.9718
-9.94569
1089.14
-48.0641
-29.6346
-0.259338
5.34583
-4.77
3.29035
-2.50274
-7.54084
-487.365
-4.37848
-7.59285
-3249.48
-667.069
-55541.1
-5.57751
-6.50719
-8223.56
-15.0391
-0.837406
-7.53901
0.296253
-2890.16
-8.02558
-1726.09
-85.7534
-23.5434
-29.1534
-280.063
9409.27
-27.9979
-13.6526
-3.38024
-3.38046
-11.2919
-4.50984
7.75976
-166.283
-112.835
-8754.49
-11.5024
0.603787
-28.2066
0.195879
-84.5573
-4.27992
-0.702743
-7.4406
-11.3389
-4.56181
-0.914004
2719.67
-1.194
-0.779043
-15.7907
-8.97436
-262.082
-23.8947
-1232.46
-17.0449
-1297.43
0.165854
-101055
-9391.65
-389.487
8.41626
-6.95155
-4740.34
142.35
-99246.7
-67.9591
-3.72839
-11.2208
-16.9581
-1843.97
-29.1836
-66.9435
-22.7694
1.05343
-3.51745
1728.67
-10.2758
45.3326
-5.2563
1717.52
-0.30272
-8.15437
-24.69
-4.6135
-17.7564
-160.782
-30.2825
-10.0504
-46.0565
0.593934
-102.632
144.629
-28481.2
-94626.2
-3576.94
-3178.86
-19.7917
-94649.2
-17537.4
6.22626
-1.2897
-10.7409
-29.9171
521.117
-5163.14
-3.14424
-7013.57
-10.8627
-17.0793
17.8987
-13.8355
-397.529
-28.7503
-109.169
-55.3573
1.89137
-3290.38
-602.116
-1.4877
-20.2852
0.326323
-39.7015
-8.25179
0.382797
-826.102
-17.7048
-47129.1
-0.570994
-10.2651
-35.2728
-6877.5
0.819845
-24.5898
-2.66009
2.33694
1.4964
-862.179
-131.031
-3412.51
-0.471044
-18.6733
-10.5384
-0.55791
2.26233
6060.31
1.02632
0.870493
-6.6877
75.551
3.12063
-77.7424
157.871
-89.531
-11.7982
0.222863
-28.4858
-71.7811
12.0596
-2.13007
-2.75843
-19.8849
-0.657337
1.4753
-24.5095
-13.5712
1635.43
-3346.82
-7.505
-34.1535
105.077
-9.85977
2437.96
36.5697
29.6642
-0.768132
213.887
-14.2945
-3124.99
-28.7391
-676.305
-9.01227
-4.20973
-20.431
-158.426
-40.5115
-20.2124
-1350.67
1713.62
1.63093
-23160.2
-66.593
-1588.74
177.331
-8.49808
-15.1817
-3876.87
-1.92812
-4.59566
-28506
-2.1751
65.5338
-8.81004
-18.3372
-0.543705
0.0557371
-22.3131
9.84275
-29.56
-15.1772
-2.05097
-7.65258
-10.2953
30.0777
-34.4045
-1722.92
-25229.4
-995.125
186.567
248.394
-1.92934
-40.5265
-0.333565
-14.8736
-5.79479
-12.4153
-42.3957
-9.62569
-62.193
-3.18281
-0.601087
1.11589
-0.903091
-56.1953
-2.57937
395.151
-4.6645
-9.90657
53.6756
-4690.03
-10.2449
-2.1335
-0.0260882
-2702.66
-0.25294
-9.08941
-8.19366
-1720.16
-2.95355
-37229
-9.04511
-1.11643
-27.2027
0.144254
-18.4171
-669.044
0.0712432
-24.4322
-990.357
-3.66678
-12.6744
-18.4398
-6.5108
-22.54
-1.16733
-3450.42
0.549948
3412.88
-4.63566
0.880812
-13739
-9.63269
-11.9996
-19.5744
-6645.24
1.27616
3.74836
-23.8879
-7.72963
-4.1396
92.4967
0.286695
2.19869
-20.8261
0.411834
-1756.69
-11.5748
-102.178
-138.502
-64215.7
-11.5446
-22.5033
-2233.12
-45.8631
-63.2873
-17091.3
-18.0581
-4.21644
3944.06
-7.78047
-3.91171
100.999
1.37168
-6.95937
-141.718
-362.57
-79593.2
-55.3487
-12.7874
-5.71678
-1715.01
-7926.52
-14464.6
1.36704
-20.5729
-6.94068
-0.506867
-3.90049
0.127961
-10.0677
-774.096
3.22704
-40.0342
-1723.49
-25.5695
-27.8124
-13.1727
-145.883
14.858
-1721.62
1.60572
-3436.67
-79.5049
3437.11
-11.5716
-246.448
-2.13795
-1.70289
-5050.81
-1.72829
2.56187
1717.15
-2.06802
-28.5316
-3.06002
-9.27133
-92.4662
-3462.37
58.6327
0
-14.0997
-6.92434
-3.31817
-4426.85
-0.19755
-1654.38
-21.3387
-12.2568
-902.764
-92663.5
143.924
-37736.3
-8.00832
26.3003
-3.95568
-9.18852
-17.3054
-1640.61
-3.10477
-3.80132
-337.318
-60974.9
43.0182
-201.204
-5.62119
182.949
-11.8603
0.597061
-14.5535
-19.4896
-4524.58
-3886.46
-2.98264
413.892
3.65843
0
-5.14708
-1655.56
-4.05742
-0.823538
-309.435
-84.5727
-12.5883
-6.67036
2.28009
-17374.1
-6.47616
-57.1358
-22.6593
31357.4
-164717
-1.84338
88819.5
0.0501298
0.308652
-1721.44
-48.3803
-38.3613
-0.770077
-1075.96
1.00128
-1.44762
-16.4608
-82888.8
-0.781329
-27.3317
-1.51843
-0.925813
1.53179
-12287.9
-1738.93
-4.73
6.31065
-1.21938
-9.13121
-12882.6
-2.01076
-0.350742
-14.2202
-115.393
-103.9
-11.2066
-8.57899
-0.358241
-9.07897
-15.5874
-0.0891907
-9.89782
-15.5701
-23.8374
-20.6677
-25.6819
-0.0825449
-1.42582
-1527.77
-59.4498
-9.54752
3.82069
-30.5067
-11.6229
-0.235358
-0.686365
-8.27612
-23.6883
0.7922
-6582.41
-4.00471
-8.80335
-40.7567
-0.339376
0.491108
-19.8304
-12.1511
-3296.96
-13.6063
-2977.07
-13.7701
-13.1419
-82270.2
0.539947
-1.06102
-1627.29
-10.4407
-1.10796
-10.12
-27.1325
4.12292
-1446.18
-55.0862
-3673.22
-1.19988
-1.5172
-9.30695
-4.62414
-24.4997
-1.76555
-9.54498
-5.11928
-8.91513
-6079.17
-22.493
0.230461
7257.35
-6.53187
690.282
1.38953
-18.5899
-12.2179
-8.99977
6906.93
-9.88868
0.123887
-17.71
-0.580632
1016.05
-18.4257
-21.8056
-1563.76
-50536.9
-3230.32
-56397.7
-266.055
-27.2293
4468.59
-23.0561
-2737.94
-14.7986
20.6726
2.5102
-1326.01
0.817224
-3577.61
-5710.04
0.739033
-8.74392
5.85236
-31.1962
-34.7166
-18.8406
109.716
-10.554
-9.71356
-12.3452
-7.14254
-186.464
-6.85539
1.39749
-1582.77
-981.278
598.532
-1.34652
-5.02737
-1.1692
-53.9669
-36.2698
-43.3316
-5.24306
-3.55439
-18373.8
-0.141007
-17654.2
-11.4755
-11.4288
-21.7651
-19721.3
-43.3008
-28901.7
-9.33574
-0.474366
-1840.96
-7.99042
3.53405
-2.0922
-43.458
-88.5813
-69.0006
-10.8699
1.81853
-163.818
-0.222961
0.372276
-3.10144
0.17388
-1.48961
-143.323
-17437.1
-27.051
1.81081
-2.85548
-5.32808
-19.6115
-8.35647
-18.7854
-172.696
-1.12788
-25.3917
-0.175715
-14.6124
2.2823
-8.58566
-21.2565
-4424.44
-6993.27
-1745.56
0.212643
-11.9069
-10321.7
0.455646
-39386.8
-2.04947
149.873
-16.3452
-6.51037
-10.5944
-0.807703
-18.9865
-93.3505
0.350437
0
-15.7546
1282.69
-6.70564
-11.9063
5021.82
-0.664298
-9.98086
-48.6509
42.702
-43.4228
-0.339157
3.44743
-32.6215
9.6954
-6.87902
1.11796
-772.045
-31794.3
0.119361
-33.1508
-9.84858
0.235472
83.7795
3.9917
-2785.05
-8.74198
-6212.84
-2143.41
-22.0995
-4.28922
-2.76496
-2.06645
-11.7467
-6.29353
1.13618
128.232
12.2197
-11.6463
-4.66141
-13204.7
-1.1237
0.841751
-40.6304
-1.12642
3.33478
-565.969
-4.26057
-0.100877
-5.60706
-108.9
-0.804318
-10.2972
-6.24455
0.653525
-10.5696
0.256973
-4.1966
0.0376376
-12.6642
-12.5782
0.0473891
-11.0774
-43072.5
1.39122
299.417
-51.6191
-12.9462
-61.1472
-2.35585
-2425.19
-4.15371
-111.714
-0.210588
-3.03227
-1.09785
-977.896
-1764.79
-28.9216
-50.5177
-1.45519
-0.509537
-1.21303
472.016
-16.1998
1020.22
-8.012
0.762899
2.69441
-9.86668
8.87794
-4417.73
1.03599
0.420077
1.3068
-77.284
1.22076
0.599338
-15.2743
76.5823
-27.7381
-51.078
-79634.6
-9.67585
0.101299
-19.8338
10846.4
-32.6325
-1728.4
-1.27921
-5.56394
-0.697474
-5770.14
-9.30698
-12.0581
0.313572
1.56764
-19.8177
-1.46889
2.13989
-1.79238
3.18637
-13064.3
15.2531
1.34451
-4.32462
-14.5572
0.49699
-7.24331
2069.17
-0.010375
-10.6109
7769.73
1.22611
-3.39879
-14.7378
-29756.8
6872.49
682.236
1.67959
-4.93022
0.425731
-86357.8
-37.9389
-9.92106
-8.84087
-11.7674
-0.0348594
5.31442
-9.26223
-981.698
-17.6353
477.613
-20.4598
-41.1251
-3.16073
-2822.6
39.1575
-1757.02
-13.2703
-67243.9
-10.1021
1649.55
11.3773
-23518.9
-8.18855
-3864.12
0.897857
-0.445121
-14.7168
-12.2807
-10.6854
-15.1617
-9.47263
-9.48606
-391.709
-1715.2
-1494.79
-1.4097
-29998.9
-8.82265
75626.5
-15.084
-87675.9
-5.66227
-6739.36
-112.452
1.2816
-9982.51
-49532.7
-15.7582
-4998.6
-11.0627
1.24521
-18.3091
0.00245607
0.0329538
-9.89041
-15.2955
14138
-24.8214
-62.9021
-1.18241
-3.49602
-6604.04
-0.563463
3.66703
-45.1958
-14.5314
2.83517
-38.5009
-4.57293
-9.72794
-55.0771
-15.5349
3.76782
-6.91965
-5.25121
-1.45218
0.892239
-46666.7
-9.40107
-9.63207
-7.65742
-8.17446
0.507959
-15.5009
1.08286
-2.75371
-3516.36
-13.9704
-7.79112
-27.4559
-14.6885
29371.2
-10.8525
-8.98059
-4.11834
-0.373719
-92.9496
-8.26611
-8.94156
-18.9804
-35.0428
-10.5906
-10.1872
-6.32619
2.94837
0.32498
0.00976926
-0.27424
-6.18678
-1.38939
-1.78599
-6.27806
-15.7499
-0.276217
-10760.6
-15.8174
-7.59595
282.895
-5.60044
-91096.7
-11.3277
-13797.9
-134.202
-0.490997
-15.0003
0.62358
241.256
2.07819
-203.22
1712.06
-15.7665
-93.5326
-50.2561
-9.14013
-171.072
-4491.14
14.353
-21.8755
-31.0249
-1.78002
-11.1853
-0.00688094
-1961.68
-32.449
3.80704
-71.8415
5.21234
0
-4.58692
-7.13591
-8.37566
0.616446
-6.74541
-39.0272
-10.9553
-1653.82
0.652999
-9.92774
-1315.92
69.2816
-0.584099
-976.875
-8.33297
-5162.93
-8.76276
-20.2505
-101.146
-0.744339
13.828
-2032.94
-13.0669
-12.0029
93.7096
-23.6653
-59.9283
-0.88738
-12.8923
-7.0799
-1754.99
-405.206
-26.0537
-0.700539
-8921.04
-155.066
11.8115
-1.04214
-39.8559
-10.855
-51980
-2.14343
1.92335
-44.3908
-1.07274
2.7972
-16130.4
-61.396
-2.23149
0
-1716.84
13.1343
-56.7992
3.74357
-10.1625
-537.823
-0.791519
-2193.78
-20.4872
-10.5983
-11.2933
-9.49249
-5226.68
189.572
-4.96117
1.19794
-1.07112
-0.35656
9.46185
-12.5286
-3.13505
-11.4177
0.087319
-5.6076
-0.957425
-652.731
-3344.85
-11.9889
-14.1861
-5188.22
-3.34309
-11411.7
-10.9834
-8.81778
-1.8039
-31.8337
-20.95
-14.0511
-0.318596
-11.0089
-6.60473
-16.69
-7.05629
-65750.3
-47.8915
-4145.7
-42.6638
-9957.41
-13.8773
2.80779
0
-0.199236
-0.457748
0.547318
-23.2866
4.39679
-8.44492
-14791.5
-8332.63
1.07835
-1727.75
-18.8777
0.843173
-113.948
0.314597
22.0024
-2457.35
-13.5602
-3.46872
-2.64961
6.8202
-15.1086
-651.789
-13.8831
-7.23053
-47.5787
7.77304
58.5909
-0.220071
-16.0465
11157.8
-93758
66086.5
-1097.12
-20.5661
2928.99
-5.79492
-12.0549
-10.5481
-0.640981
1.45051
-0.475698
0.863739
4.38581
-0.396258
0.881909
-9.91193
0.758793
-8.43421
-80245.3
-9.43203
-53.5089
33.1954
-2.29907
-1742.35
3462.95
-0.966024
3.37014
8.24804
-10.3072
-9.32121
-10.9927
-3.38489
-8.51491
-1.55165
-2378.42
-10.8553
-13.2257
-22969.5
1586.12
-13.9758
-1.61668
-609.663
0.121414
-27.1574
-16.4564
-4.54376
-8.1095
0.481788
-10.673
-4.0287
-221.691
-32.1675
-6.20966
-1.40421
-0.329921
-0.00861084
-1.08869
-0.440898
-14.5168
-98.0203
-1978.69
-12.5827
1.12321
-4472.9
-131.562
-0.53319
-69889.3
-5.38729
-13.5895
-9.35097
-20.3658
-12478.3
-58669.1
-7.5488
-73186.7
-0.144712
-17.8787
-21.4184
-2.24011
2.01378
-11.5597
-15.8415
-2.70895
-25836.8
-3.54134
-43.4927
-0.748266
-27.4125
-8769.06
-1715.28
-32.2555
-37.843
0.940547
1.49217
-23.0263
-1775.72
-16.378
-0.040596
-17.0209
-8.73353
1.68832
-8.66357
-23.4373
-2960.5
-7.56719
-0.289281
-72317.4
-0.824497
-37419.9
-11.9976
-30.8772
-1.01859
-68.0955
-2448.97
-588.278
-34.6132
-2.98498
-59423.5
-23.8643
-92.194
-4.64964
-65.9097
-1798.72
-11.9293
-10.6999
778.924
-8.18078
-134.027
-6935.37
57.1319
0.740417
-123.501
-15.8939
-25.4548
-1656.49
1653.73
6.96537
-56861.4
-24.1591
-49668.8
-21.1149
-6.22307
5.40998
-1.26838
-6.48433
-17.2789
-44.0666
-12.2881
-13.0553
966.664
5.07635
5005.94
-11.096
-88.7194
-63290.6
-1.86484
-16.3239
-1737.45
-9.06583
-27.3864
-21.7412
10.1148
-164.422
-1.95759
-3386.94
-2.33834
-6.84311
-3.86828
-3539.43
-4497.58
-39602.9
-28.5134
-14.9835
-1263.43
1.03831
-0.0866932
-9.46432
-5.87699
-2581.31
-199.992
-571.507
-30.6373
-8.44324
54.0913
-26.0477
0.775455
1.00017
-0.641381
-42959
1.34022
-21.2765
-173.42
2.70958
-7.0935
-2311.32
-14.9539
21504.1
-131.649
5344.21
-14.7801
-85.8952
-56.695
-6.9965
-14.3727
-75.8959
-16774.2
-29.9897
6442.13
-5.55371
-10.172
-8.07598
-8.77204
-0.785719
-14.1746
-12.1295
-12.898
-1.6902
-16.157
-14.2936
-1.13098
-10.1625
-28.1747
-1.37895
-1.31601
-16374.6
-21.9991
-48936.4
-2.83611
-25.1901
-1.10628
-5038.06
-137.236
-22.0349
-12.3782
-10.8899
-48.3538
0.385214
-0.381925
-1720.1
-58.2197
-2.43259
-10.5618
-4.21228
1.6782
-0.944385
-9.68746
1.15183
-91357.4
175.742
-6035.08
-7.04081
-10.3364
-1.77761
-78.2725
-2.21782
33602.1
-290.812
0.330207
0.468963
-6.9938
-12.7513
-15.2497
158.036
-6812.38
-77367.7
-8.1622
-67.2467
-12.6378
-124.323
-4478.6
-1.74622
-5.67829
-24.2975
-1763.61
-0.243288
-3650.2
1.33209
0
-13724.2
-3.576
55975.4
-53.9847
-10.8016
-11.4758
-14.328
-6.67387
1.89
-15.4768
-20.1811
-15.0965
-25.7338
-4.10132
0.92972
-0.317696
-15.9687
-8.50309
32.7042
-12.8367
-29.0673
-1.58256
-2607.48
-9.02545
22.5167
-1.19701
-1.15155
-27.6179
-539.825
5922.97
-10.9863
-17.8617
-1723.16
-14.0675
-12.1975
-2840.71
1733.23
5.52752
-1.28623
-15.0466
-13.6494
-0.756553
-4.37501
-1419.06
-9.68331
-38.2397
0.72228
-1745.28
-21.7516
-26.2528
-26.6753
-86.1017
-5723.14
-4.3843
-7.48509
-1071.27
-1.34128
-2.42397
-15.6288
-9409.25
-63.4482
-79.5658
-1677.65
-9.83539
-14.879
-14.1569
-12.7184
-4.51335
0.813845
131.621
-1.12301
-1093.09
-7893.21
-173.651
-0.545004
-3.30741
-1507.35
-0.765273
1.10393
0
-10.1478
-17.1491
-4573.01
-36.4685
-42.5164
-66.8727
-9994.62
-17.0916
-3.84166
0.645256
0.852451
-19.4719
3.1634
-11.6755
4.74708
-0.640975
-55.8178
-92.1834
1.2771
-0.999836
1.12436
-0.810617
8.38493
1.13914
-14.7538
-1.38367
-8895.09
0.391669
-14.4644
-252.932
-2.65875
-0.277375
-11.4152
-14.4627
-9.72108
-10.2823
-32.6113
-195.451
-26.1344
-140.517
3.66145
3.4024
5.32731
-22.1833
0.628566
-0.542385
-7.17864
-3.02211
-1739.79
-21.2697
3443.33
-3.54588
-408.84
-8.84196
0.898081
241.087
-2.62521
-10.0633
-267.791
-3307.69
-23180.5
-122.31
0.267136
195.746
-0.433979
-36.6685
-9.60092
-1.62952
-42422.1
-12.2486
-88.6906
-11.1292
-44193.6
-5.55914
3.28264
0.618085
-9.16253
-0.846648
-38496.1
0.107764
-1.58664
-15.0333
-4.99448
-28.7169
-30.785
-14.1666
-11.6961
27.1612
-82254.4
-1.3095
-3.0329
