booster[0]:
bias:
-245.32
weight:
29.7828
0
0
-34662.7
0
0
128.542
0
1480.15
-29.6752
217086
-1718.03
268.656
-39991.1
-78697.7
20734.2
-676.351
-5327.06
-552.35
926.66
247.846
177.864
-2154.24
-341.076
-4370.38
180.658
-3367.47
217.918
-864.576
2761.86
-223139
0
-1118.58
-2.16592e+06
9499.28
0
42.2743
624408
-2177.74
205.295
-1266.89
130.824
68.4865
2.73247e+06
-2342.75
256.322
0
1689.51
243.796
-10107.2
1389.41
-25009
5684.87
0
234.351
-116344
2702.87
-25984.2
249.917
-258100
-332.798
-7160.63
179.47
0
-1238.64
4.20245e+06
16622.1
4787.62
-8879.05
48217.8
289.617
266.897
2067.44
-1.28054e+06
977.078
-17291.4
5827.96
242.811
-3.2712e+06
338.472
-37728
180.586
214.274
257.506
246.004
2695.54
39042.1
-3.57748e+06
-462304
-701.484
27079.7
271.342
0
-12387.4
36.163
-2.82478e+06
-824.618
273.697
0
0
-4.5401e+06
-87063.8
103.718
609676
57100.7
-768.057
5.84161e+06
61222.5
-571.762
-989787
1.02735e+06
1462.65
-626.878
-9070.18
-524.041
257.654
-851.988
-162788
606.51
1846.49
248543
-2349.55
31620.3
0
3936.9
612575
0
0
-8125.8
107919
-64592.5
1311.34
-6732.92
-74916.9
4055.33
163.718
0
0
721.596
0
-360.046
1144.61
258.578
-47422.1
0
248.106
372.959
620096
895.971
4555.06
-2499.49
9934.64
2043.44
-181.37
-6048.99
0
2.64237e+06
5741.66
-41530.9
1298.13
30.5459
0
0
-895.422
1051.34
-2152.66
66539.5
1.00421e+07
-362.116
1918.49
0
131.296
-125.684
166.26
-1154.19
-2942
6.79393e+06
-1608.73
0
-6.52958e+06
0
2512.57
-1158.36
-428.673
-403.535
9452.46
-34090.6
-1.05186e+06
-721829
-1179.31
0
-24924.1
172.786
5497.95
0
433761
13130.4
1952.72
694.838
-4431.26
354592
-5026.89
13.0512
172741
69.5334
1259.66
-178.713
-16120
264.891
6634.35
23471.3
655.636
-2027.03
-1311.45
-94663.1
1.31456e+06
0
7638.42
0
-853.72
646979
0
-33.6726
-788.193
1156.91
-553.331
25590.5
0
-5429.45
-103.056
39264
444.824
15467.5
-1194.08
-1400.38
-162.538
-1215.94
1783.74
0
1022.58
-60184
-994820
8344.82
128.15
1100.13
-341.603
66827
-44.9412
5425.62
0
-215251
20486.8
231.655
0
-3616.5
119.594
-295.283
0
490658
-170.659
1042.44
1266.71
-180.503
-660.64
283.368
173.908
-211891
9.56684
-4670.48
-46945.6
51842.5
-55792.9
216.509
188.48
-32.0587
203.456
2281.46
0
388185
-642628
1106.27
10681.3
-69838.7
-862.238
-2832.27
0
663617
187.995
0
170.807
-1785.56
-851893
0
-15.1851
-2127.49
432660
0
-3.36722e+06
65378.2
0
1.93618e+06
-925.126
0
33139.6
0
0
229.142
0
176.645
0
117.367
0
821.614
0
-150006
-207.204
-5.38984
-32.5745
-8.61688
256.952
-326.556
-1446.18
0
0
147.013
41.5468
608.015
0
-28.6215
-1720.22
0
33.3711
554.686
282.177
0
-400.19
0
-9581.68
0
195589
6354.17
329.437
0
152602
0
1.00362e+06
176.436
0
-275.947
183.197
3777.36
221228
-63.8273
0
0
-1.83777e+06
-131497
0
0
-749622
50.958
-10833.9
425989
0
0
8.97641
-140.183
-12751.9
-276.947
-114.567
17961.9
240.581
-5418.23
0
200.015
0
0
20406.9
-767.009
700.274
18396
-3369.99
0
0
0
26.4961
-67.4618
-1.93539e+06
70575.7
0
69.2733
0
0
-24298.2
0
-7.17323
0
2482.07
0
317288
-657.212
0
-1358.92
0
0
-113965
-1139.42
0
0
920.173
-990.568
0
0
0
0
0
10201.3
-509.669
104997
5506.15
-65.6685
-373370
0
151.626
0
262.607
0
-115.373
188.774
-130.511
0
0
0
0
0
0
-6597.7
0
8.94142
0
-14464.5
0
5999.23
0
0
0
0
0
0
0
0
0
435.449
0
0
0
173.484
153835
-12.3928
0
814.208
0
-658.591
0
0
0
0
0
0
0
166669
0
0
0
-1829.71
93613.2
0
-119.405
0
0
0
159.502
-380.746
0
0
0
0
-432.733
0
0
0
0
0
0
0
0
0
0
0
0
0
14336
0
0
0
0
0
-195.273
0
0
0
0
0
0
0
0
0
0
271.245
0
0
-16469.6
-1731.95
166.311
0
0
0
0
0
0
0
0
0
0
0
0
0
-19900.5
0
0
0
0
0
-200.962
48489.5
0
0
0
0
0
0
0
0
0
0
0
0
0.323982
0
0
0
0
-41544.9
0
0
0
0
0
34.1115
0
0
0
0
-898.028
0
0
0
-165.849
1923.19
901.131
0
0
308.237
0
0
0
0
210.955
0
0
278422
0
0
0
0
0
0
0
0
0
162.252
0
0
0
0
0
0
0
0
0
-171176
453.963
0
0
0
0
0
0
0
0
0
0
-164465
0
0
0
0
0
0
0
0
0
0
0
0
0
0
0
0
0
244.924
0
0
0
-1217.73
0
0
0
11.2225
149.611
0
0
0
0
166.705
0
0
0
-405378
0
0
0
0
0
0
0
0
0
0
0
0
0
0
0
0
62779.5
0
0
0
-168.53
0
0
0
0
0
0
0
0
0
0
0
-197.853
32477.8
0
0
0
0
2191.56
0
0
0
0
0
0
0
-203.022
-502.77
0
81.1656
0
0
0
0
0
0
0
0
-7721.12
0
0
0
0
0
0
0
0
0
0
0
0
0
0
0
0
0
0
0
0
0
0
0
0
0
0
327.9
0
0
0
0
0
0
0
0
0
0
0
0
0
-47883
0
0
0
0
0
0
0
0
0
-176579
0
0
0
0
-645.444
0
0
0
0
0
0
0
0
0
-28513.4
0
0
0
0
37.4057
0
0
0
0
0
0
0
0
0
0
0
0
0
0
0
0
0
0
0
0
0
0
126.251
0
0
0
0
0
0
0
0
0
0
0
0
0
0
0
0
0
0
0
0
0
0
0
0
0
0
0
0
0
29988.8
0
0
0
0
0
0
0
0
0
0
0
0
0
-34.8683
0
0
0
0
0
0
0
0
0
0
0
0
0
0
0
0
0
0
0
0
0
0
0
0
0
0
-35.5943
0
0
0
0
0
0
0
241.787
0
0
0
0
0
0
0
0
0
0
0
0
0
0
0
0
0
0
0
0
0
0
0
0
0
0
0
0
0
0
174756
0
0
-50.0119
0
0
0
0
0
0
0
-17624.1
0
0
-6797.12
0
0
0
106.135
0
0
0
0
71085.1
0
0
726.701
0
0
0
0
0
0
0
0
0
0
0
0
0
0
0
0
0
0
2521.61
0
0
0
0
0
0
0
0
0
0
0
0
0
0
0
0
0
0
0
0
1904.06
0
0
0
0
0
0
-308.969
0
0
27.6228
0
-4447.33
0
0
0
0
0
0
0
0
0
-613.36
0
0
0
0
0
0
398811
652.289
0
0
0
0
0
-1088.54
0
0
0
0
0
0
0
0
0
0
0
0
0
0
0
0
202.276
0
0
0
0
0
0
0
0
0
0
0
0
6.92776
658.91
0
0
0
0
0
0
103.538
0
0
0
0
0
0
0
0
0
0
0
0
0
0
0
554.301
0
0
0
0
0
1654.76
0
0
0
0
0
0
0
0
0
0
0
41.9294
0
0
0
0
0
0
0
0
0
0
0
-14178.1
0
0
0
0
0
0
0
-65838.6
0
0
0
0
0
0
0
0
0
0
423.91
69.4569
0
0
0
-4.52688
0
0
0
0
0
0
0
0
0
0
0
0
0
255.918
0
0
0
0
0
0
0
0
0
0
-23365.1
-356.263
0
0
0
0
0
0
286997
0
0
0
0
0
0
0
-39.4702
0
0
0
0
0
0
0
0
0
0
0
0
-45493.9
400.579
-14427.9
0
0
0
0
0
0
0
0
0
0
-320.838
0
0
0
0
0
0
0
0
7.73795
-0.741659
0
0
0
0
0
0
0
0
0
0
0
0
0
0
0
0
0
0
-7460.24
0
0
0
0
0
0
-70.1072
0
0
0
0
0
0
0
0
0
0
0
0
0
0
0
-122445
0
0
0
0
0
0
0
0
0
0
0
0
0
0
0
0
0
0
0
0
0
0
0
0
0
0
0
0
2724.7
0
0
1161.74
0
0
0
0
0
0
0.801666
0
0
0
0
0
0
0
0
0
0
0
0
0
0
-35799.5
0
0
91.6505
0
0
0
0
0
0
0
0
0
0
0
0
0
0
0
-27.3835
0
0
0
0
0
0
0
0
0
0
0
0
0
0
0
0
0
0
0
0
0
0
0
0
0
-72189.9
0
0
0
223.238
0
0
0
0
0
0
0
0
0
0
0
0
32.1532
0
0
63.7619
0
0
0
0
0
0
0
0
0
0
0
0
0
89.6477
0
0
0
0
0
0
0
0
0
0
0
0
0
0
0
0
0
0
0
0
0
0
0
0
0
0
0
0
-6923.21
0
0
0
0
0
0
0
0
0
0
0
0
0
0
0
0
0
0
0
0
0
0
0
0
0
0
0
0
0
0
0
0
0
337.901
0
0
0
0
0
0
0
0
0
-6.72809
0
0
0
0
0
0
0
0
0
0
0
0
0
0
0
0
0
0
0
0
0
0
0
316.945
0
0
0
0
0
0
0
0
0
0
0
0
0
0
0
0
0
0
0
0
0
0
0
0
0
0
0
0
0
0
0
0
0
0
0
406.957
-401.074
0
0
0
0
0
0
0
0
0
0
0
0
0
0
0
0
0
0
0
0
0
0
0
0
0
0
0
0
0
0
0
0
0
0
43697.8
0
0
0
0
0
0
0
0
0
0
0
0
0
0
0
0
0
0
0
-967.788
0
7.04246
0
0
0
0
0
0
0
0
0
0
0
248.771
0
0
0
0
0
0
0
0
0
0
0
0
31.0913
0
0
0
0
0
0
0
108884
0
0
0
0
0
0
0
0
0
0
0
0
0
0
0
-108.907
0
0
0
0
0
0
0
0
0
0
0
0
0
0
0
0
0
0
0
0
0
0
0
0
0
0
0
0
-2896.79
0
0
0
0
0
0
0
0
0
0
-3.9555
0
0
0
0
0
0
0
0
0
0
0
0
0
0
54473.4
0
0
0
0
0
-3491.88
0
0
0
0
0
0
0
0
0
0
0
0
0
797.056
0
0
56.6175
0
0
0
0
0
0
0
0
0
0
0
0
0
0
0
22767
0
0
0
0
-3.19716
20.1059
0
0
0
0
0
0
0
0
0
0
0
0
0
0
0
0
0
10480.8
0
0
0
0
0
331.041
0
0
0
0
0
0
0
0
0
0
0
0
0
12.4946
0
0
0
0
0
0
0
0
0
0
0
0
0
0
-61.4978
0
0
0
0
0
0
0
0
0
0
0
0
0
0
0
0
0
0
0
0
0
0
-176.776
0
0
0
0
0
0
0
0
0
0
0
0
0
0
0
0
0
0
0
0
0
0
0
0
0
0
0
0
0
0
0
0
0
0
0
0
0
0
0
0
0
0
0
0
0
0
0
0
0
0
0
0
0
0
0
0
0
0
0
0
0
0
0
0
0
189.635
0
0
0
0
0
0
0
0
0
0
0
0
0
0
0
0
0
0
0
2.89656
0
0
0
0
0
0
0
253.201
0
0
0
0
0
0
0
0
0
0
0
0
0
0
0
0
0
0
0
0
0
0
0
0
0
0
0
0
0
0
0
0
0
38.6053
0
0
0
0
0
0
0
0
0
0
0
21634
0
0
0
0
0
0
0
0
0
0
0
0
0
0
0
0
0
0
0
0
0
0
0
0
130.108
0
0
0
0
0
0
0
612.624
0
0
3169.16
0
0
0
0
0
0
0
0
0
0
0
0
0
0
0
0
0
0
0
0
0
0
0
0
0
0
0
0
0
0
0
0
0
0
0
0
0
0
0
0
0
0
0
0
0
0
0
0
0
0
0
0
0
0
0
0
0
0
0
0
-86.7819
0
0
0
0
0
0
0
0
0
0
0
141.979
-279.733
0
0
0
0
0
0
0
0
0
0
0
0
0
0
0
0
0
0
0
0
4.69566
0
0
0
0
0
0
0
0
0
0
0
0
0
0
0
0
0
0
0
0
0
0
0
0
0
0
0
0
0
0
0
0
0
0
0
0
0
0
0
0
0
0
0
0
0
0
0
0
0
0
-1455.01
0
0
0
0
0
102960
0
0
0
0
0
0
0
0
0
0
0
0
0
0
0
0
-91.3197
0
0
0
0
-11.0745
0
0
0
0
0
0
0
0
0
0
0
0
0
0
0
0
0
0
0
0
0
0
171586
0
0
0
0
0
0
-198.617
0
0
0
0
0
0
0
0
0
0
9.69812
0
0
0
0
0
0
0
0
0
0
0
0
0
0
-500.739
0
0
0
0
0
0
0
0
0
0
0
0
0
0
-55171.6
0
0
319557
0
0
0
0
0
0
0
0
0
0
0
0
0
0
0
0
0
0
0
0
0
0
0
0
2.3462
0
0
0
0
0
0
0
0
0
0
0
0
0
0
0
0
0
0
19.4078
0
0
0
0
-4.62754
11.7295
0
0
0
0
0
0
0
0
0
0
93.6365
0
0
0
0
0
0
0
0
0
0
0
0
-5.03097
0
0
0
0
0
0
0
0
0
0
-182.165
0
0
0
0
0
0
0
0
0
0
0
0
0
0
0
0
0
0
0
0
0
0
0
0
0
0
0
0
0
0
0
0
0
5204.99
0
0
0
0
0
0
0
0
0
0
0
0
0
0
0
0
0
0
0
0
0
0
0
0
0
0
33742.4
0
0
0
0
0
0
0
0
0
0
0
0
0
0
0
0
0
0
0
0
0
0
0
0
0
580.897
0
0
0
0
0
0
0
0
0
0
0
0
0
0
0
0
0
0
0
0
0
0
0
0
0
0
0
0
0
0
0
0
0
0
0
0
0
0
0
11353.7
0
0
0
0
0
4597.52
0
0
0
0
0
0
0
0
0
0
0
0
0
0
0
0
0
0
0
0
0
0
0
0
0
0
0
0
0
0
0
0
0
0
4820.14
0
0
0
0
0
0
0
0
0
0
1546.48
0
0
0
0
0
0
0
0
0
0
0
0
0
0
0
0
0
0
0
0
0
0
0
0
0
0
0
0
0
0
0
0
0
0
0
0
0
0
18816.8
0
0
0
0
0
0
0
0
0
0
0
0
0
0
0
0
0
0
0
0
0
0
0
0
0
0
0
0
0
0
0
0
0
0
0
0
0
0
0
0
0
0
0
0
0
0
1.42892
0
0
0
0
336.278
0
0
0
0
0
0
0
0
0
0
0
0
0
0
0
0
0
0
0
0
0
0
0
0
0
0
0
0
0
0
0
0
0
0
-2.09378
0
0
0
0
0
0
-65033.2
0
0
0
-14.8613
29.6719
0
0
0
0
0
3.28722
828.5
0
-9.09616
0
0
0
0
0
0
0
0
0
0
0
0
0
0
0
0
0
0
0
0
0
0
0
0
0
0
0
0
0
0
0
0
0
0
0
0
0
0
0
0
0
0
0
0
0
0
0
0
0
0
0
0
0
0
0
0
0
0
0
0
0
0
0
0
0
0
0
0
0
248.784
0
0
0
0
0
0
0
0
0
0
0
0
0
0
0
0
0
-0.0335542
0
0
0
0
0
0
0
0
0
0
0
0
0
0
0
0
0
0
0
0
0
0
0
0
0
0
0
0
0
0
0
0
0
0
0
0
0
0
0
0
0
0
0
0
0
0
0
0
0
0
0
0
0
0
0
0
0
0
0
0
-31246.6
0
0
0
79.7827
0
0
0
0
0
-52.5403
0
0
0
0
0
0
0
0
54.4489
0
0
0
0
178.517
0
0
1268.44
0
0
2.78418
0
0
0
0
0
0
0
0
0
0
0
0
0
0
0
0
0
0
-278.944
0
0
0
1.84168
0
0
0
0
0
0
0
0
0
-5.68246
0
0
0
0
0
218.479
0
0
0
0
0.92491
0
0
0
0
0
0
0
0
0
0
0
0
0
0
0
0
0
0
0
0
0
0
0
679.174
0
0
0
0
0
0
0
0
0
0
0
0
0
0
0
0
0
0
0
0
0
0
0
0
0
0
0
0
0
-3.61892
0
0
0
0
0
0
0
0
0
0
0
0
0
0
0
-22662.2
0
0
0
0
0
0
0
0
0
0
0
0
0
-9.13041
0
0
0
0
0
0
0
0
0
0
0
0
0
0
1.56531
0
0
0
0
0
0
0
0
0
0
0
0
0
0
0
0
0
0
0
0
0
0
0
5.00976
0
0
0
0
0
0
0
0
0
0
0
0
0
0
23497.8
0
-5.83528
0
0
0
0
0
0
0
0
0
0
0
0
0
0
0
0
0
0
-5.29378
0
0
0
0
0
0
0
0
0
0
320.583
0
0
0
0
0
0
0
0
0
0
-327.395
0
0
0
0
0
0
0
0
0
0
0
0
0
0
0
-8.40153
0
0
0
0
0
0
0
0
0
-104.727
0
0
0
0
0
0
0
0
0
0
0
0
0
0
0
0
0
0
0
-122.575
0
0
0
0
0
0
0
0
0
0
0
0
0
0
0
0
0
0
0
0
0
0
0
0
0
0
0
0
0
0
0
0
0
0
0
0
0
0
0
0
0
0
0
0
0
0
0
0
-56.2897
0
0
0
0
0
0
0
0
0
0
0
0
0
0
0
0
0
0
0
0
0
0
0
0
0
0
0
0
0
0
0
0
0
0
0
0
0
0
0
0
0
0
0
0
0
0
0
0
0
0
14.9864
0
0
0
0
0
0
0
0
0
0
0
0
0
0
0
0
0
0
0
0
0
0
0
0
0
0
0
0
0
0
0
0
0
0
0
0
-76.1073
0
0
0
0
0
0
0
0
229.744
0
0
0
0
0
0
0
0
0
0
0
0
0
0
0
0
0
0
0
0
-4.85921
0
0
0
0
0
0
0
0
0
0
0
0
0
0
0
-16.8003
0
0
0
0
0
0
0
0
0
0
0
0
-0.529386
0
0
0
0
27.9622
0
0
0
0
-4.2733
0
0
0
0
0
0
0
0
0
0
0
0
0
-7.08056
0
426.59
0
0
0
0
0
0
0
0
0
0
0
0
0
0
0
0
0
0
0
0
0
0
0
0
0
0
0
0
0
0
0
0
0
0
0
0
0
0
0
0
0
0
0
0
0
0
0
0
0
0
0
0
0
0
0
0
0
-122.799
0
0
0
0
0
0
0
0
0
-170.246
0
0
0
0
0
0
0
0
0
0
0
0
0
0
0
0
0
0
0
0
0
0
0
0
0
0
0
0
0
0
0
0
0
0
0
0
-63546.5
0
0
0
0
0
-14.3219
0
0
0
0
0
-4.30019
0
0
0
0
-335.236
0
0
0
0
0
0
0
0
0
0
0
0
0
0
0
0
0
0
0
0
0
0
-34.671
0
0
0
0
0
0
0
0
0
0
0
0
0
0
0
0
0
0
0
0
0
-98.591
0
0
0
0
0
0
0
0
0
0
0
0
0
0
0
0
0
0
0
0
0
0
0
0
0
0
0
0
0
92.4753
0
-42.2359
0
0
0
0
0
0
0
0
0
0
0
0
0
0
0
0
-1.69009
0
0
0
0
0
0
0
0
0
0
0
0
0
0
0
0
0
0
0
0
0
0
-234.236
0
0
0
0
0
0
0
0
0
0
0
0
0
0
0
0
0
0
0
0
0
0
0
0
0
0
0
0
0
0
0
0
0
0
0
0
0
0
0
0
0
0
0
0
0
0
0
0
0
0
0
578.401
0
0
0
0
0
0
0
0
0
0
0
0
0
0
0
0
0
0
0
0
0
0
0
0
0
0
0
0
0
0
0
0
0
0
0
0
0
0
0
-67.9858
0
0
0
0
-276.97
0
0
0
0
0
0
0
0
0
0
0
-102.668
0
0
0
0
0
0
0
0
0
0
0
0
0
0
0
0
0
0
0
0
0
0
0
0
12.8354
0
0
0
0
0
0
0
0
0
0
0
0
0
0
0
0
0
0
0
0
0
0
0
0
-32.5702
0
0
0
0
-492.969
0
0
0
0
0
0
0
0
0
0
0
0
0
0
0
0
0
0
0
0
0
0
0
0
0
0
0
0
0
0
0
0
0
0
0
0
0
0
0
0
0
0
0
0
0
0
0
0
0
0
0
0
0
-89.4975
0
0
0
0
0
0
0
0
0
0
0
0
0
0
0
-594.208
-75.6549
0
0
0
0
0
-8574.39
-13.5525
0
0
0
0
0
0
0
0
0
-518.109
0
0
0
0
0
0
0
0
-226.729
0
-7.79709
0
0
0
0
0
0
0
-29.0281
0
0
0
0
0
0
0
0
0
0
0
0
0
0
0
0
0
0
0
0
0
-1.43637
0
0
0
0
0
0
0
0
0
0
0
0
-8.84836
0
0
0
0
0
0
0
0
0
0
0
0
0
0
0
0
0
0
0
0
0
0
0
0
0
-26.2124
-21285
0
0
0
0
0
0
0
0
0
0
0
0
0
0
0
0
0
0
0
0
0
0
0
0
0
0
0
0
0
0
-20.3539
0
0
0
0
0
0
0
0
0
0
0
0
0
0.122719
0
0
0
0
0
0
0
0
0
0
0
0
0
0
0
0
0
0
0
0
0
0
0
0
0
0
0
0
0
0
0
0
0
0
0
0
0
0
-4.69407
0
0
0
0
0
0
0
0
0
0
0
0
0
0
0
0
0
0
0
0
0
0
0
91.9962
0
0
0
0
0
0
0
0
0
0
0
0
0
0
0
0
0
0
0
0
0
0
0
0
0
0
0
0
0
0
0
0
0
0
0
0
0
0
0
0
-4.30019
0
0
0
0
0
0
0
0
0
0
0
0
0
0
0
0
0
0
-350.424
0
0
0
0
-8.79397
0
0
0
0
0
0
-23.6797
0
0
0
0
0
0
0
0
0
-18388
0
0
0
-2.73953
0
0
0
0
0
0
0
-30.7458
0
0
0
0
0
0
0
0
0
0
0
0
0
0
0
0
0
0
0
0
0
0
0
0
0
0
0
0
0
0
0
0
0
0
0
0
0
0
0
0
0
0
0
0
0
0
0
0
0
0
0
0
-92.7462
0
0
0
0
0
0
0
0
0
0
0
0
-169.882
0
0
0
0
0
-28.2111
0
0
0
0
0
0
0
0
0
0
0
0
0
0
0
0
0
0
0
0
0
0
0
0
0
0
0
0
0
0
0
0
0
0
0
0
0
0
0
0
0
0
0
0
0
0
0
0
0
0
0
0
0
0
0
0
0
0
0
0
0
0
0
0
0
0
0
0
0
0
0
-749.686
0
0
0
0
0
0
0
0
0
0
0
0
0
0
0
-162.642
0
0
0
0
0
0
0
0
0
0
0
0
0
0
-22.5928
0
0
0
0
0
-10.5068
0
0
0
0
-16.3322
0
0
-11.8148
0
1178.82
0
0
0
0
0
0
0
0
0
0
0
0
0
0
0
0
0
0
0
0
0
0
0
0
0
0
0
0
0
0
0
-3.44946
0
0
0
0
0
0
0
0
0
0
0
0
0
0
0
0
0
0
0
0
0
0
0
0
0
0
0
0
0
-26.0275
0
0
0
0
0
-17.8687
0
0
0
0
0
0
0
0
0
0
0
0
0
0
0
0
0
0
0
0
0
0
-11.2769
0
0
0
0
0
0
0
0
0
0
0
0
0
0
0
0
0
0
0
0
0
0
0
0
0
0
0
0
0
0
0
-5.4269
0
0
0
0
0
0
0
-9707.31
0
0
0
0
0
0
0
0
0
0
0
0
0
0
0
0
0
0
0
-7.76856
0
0
0
-247.678
0
0
0
0
0
0
0
0
0
-8.85941
0
0
0
0
-12622.5
0
0
0
0
0
0
0
0
0
0
0
0
0
0
0
0
0
0
0
0
0
0
0
0
0
0
0
0
0
0
0
0
0
0
0
0
0
0
0
0
0
0
0
0
0
0
0
0
0
0
0
0
0
0
0
0
0
-7.52752
0
0
0
0
0
0
0
0
0
0
-1160.95
0
0
0
0
0
0
0
0
0
0
0
0
0
0
0
0
0
0
0
0
0
0
0
0
0
0
0
0
0
0
0
0
0
0
0
0
0
0
0
0
0
0
0
0
0
0
0
0
0
0
0
0
0
0
0
0
0
0
0
0
0
0
0
0
0
-19.0238
0
0
0
0
0
0
0
2.20852
0
0
0
0
0
0
0
0
0
0
0
0
0
0
0
0
0
0
0
0
0
0
0
0
0
0
-135.388
0
0
0
0
0
0
0
-144.164
-12.9146
0
0
0
0
0
0
0
-247.518
0
0
0
0
0
0
0
0
0
0
0
0
0
0
0
0
0
0
0
0
0
-18.6306
0
0
0
-96.713
0
0
0
0
0
0
0
0
0
0
0
0
0
-0.0153625
0
0
0
0
0
0
0
0
0
0
0
0
0
0
0
0
0
0
0
0
0
0
0
0
0
0
0
0
0
0
0
0
0
0
0
0
0
0
0
0
0
0
0
0.682034
0
0
-2.85176
0
0
0
-79.6913
0
-1.855
0
0
0
0
0
0
0
0
0
0
0
0
0
0
0
0
0
0
0
0
0
0
0
0
0
0
0
0
0
0
0
0
0
0
0
0
0
0
0
0
0
-627.68
