booster[0]:
bias:
-219.575
weight:
30.2163
52.33
-910.8
-25532.2
0
0
-466.41
0
558.852
2.45383
149.491
-5.46568e+06
136.86
86.9543
135.204
92.6864
18524.1
-4833.72
404971
141.287
-50407.7
-59246.4
4.04925e+06
-362861
158.43
138.688
-129.195
4920.53
14729.9
214.588
-221.808
0
5.48311e+06
-5445.05
-32147.1
0
2960.83
-1.08991e+06
1666.03
-298990
743
372.192
644.481
2267.29
144.225
28639.8
0
-6920.77
-1.5812e+06
-1.30363e+07
2565.45
838.332
1.05924e+06
0
-644199
69.9196
26466.9
-468556
1.01655e+07
86792.3
823.309
-3497.07
137.025
0
519652
-125050
11741
193595
452.275
12846.5
-26049.8
-214.333
-3442.18
362451
-34094.7
-468192
-1.76038e+06
93400.8
833.208
-919.259
8.96845e+06
1473.33
479.232
-8.01604e+06
-2.79421e+06
-8672.8
369.799
-5677.5
-2889.49
1309.62
16768.3
2698.26
0
-4289.98
4852.99
-8.43008e+06
-777.278
-48348.6
0
0
937.418
380.908
6062.32
11187.5
-9485.12
2.74169e+06
2738.38
-3393.74
-2385.18
599348
1.33535e+06
-192807
4654.01
1358.21
-192567
-149716
1176.43
-3.4573e+06
882.753
-19469.6
2590.58
78616.5
1099.93
0
-890976
8.47703e+06
0
0
4158.89
702612
562.882
-2.63638e+06
3819.97
25638.1
60873.8
543.451
0
0
8.65572e+06
0
-4.0519
72808.6
1060.26
2387.07
0
-224864
106.204
1101.84
-12590.4
355.422
315937
-650739
7.895e+06
-1.40516e+07
1646.77
0
-971.968
985701
5763.09
-365494
13465.4
0
0
-861363
5623.29
724.367
-952.661
4144.47
86415.6
-705.421
0
-20020.4
1.23064e+06
1425.18
497472
-1.02963e+07
-421120
9030.32
0
-2561.47
0
5417.24
849.521
4165.89
787340
-5115.65
-2.75879e+06
540423
639907
-22883.6
0
278.089
-936.833
23350.1
0
23456.7
838.907
-614.208
2002.26
2.38333e+06
846.108
148713
277.595
-611.16
3.84256e+06
105007
14959.5
33694.5
2072.78
9001.13
-2.26408e+06
64469.2
286.756
130465
6038.58
848.634
0
375.459
0
421.385
1014.99
0
389.601
-705.185
-2.05012e+06
1408.78
-125.824
0
266.887
322.304
166.223
-446588
328.429
78084.5
2867.03
46583.7
-5.26832e+06
-85479
0
-344.718
2971.65
1027.15
817.431
183760
486574
76118.3
2480.8
4282.31
9117.88
0
-31857.1
564659
-131863
0
337969
-1277.06
29913.6
0
-90972.4
-3842.23
-27645.5
242838
11.6655
3.36137e+06
17004.5
125014
719.403
296.426
-14812.2
-4327.99
2738.97
443.344
-9721.89
-1033.56
62.4257
9437.66
818.32
0
3076.48
710.03
156319
1001.05
10278.5
-1930.38
-1315.28
0
1325.45
1494.49
0
408.083
2977.55
378.521
0
234.943
2261.49
1511.38
0
8.1171e+06
2049.2
0
261.981
374.663
0
208.302
0
0
198.832
0
4922.97
0
569886
0
107153
0
67890.4
5433.07
24488
36528.2
206.583
-5892.5
409.319
15152.3
0
0
29482.7
-78589.3
450.383
0
-100127
1079.5
0
166.37
103985
1601.25
0
-44.111
0
-24513.7
0
-2699.87
258463
13040.5
0
1538.49
0
-1467.6
3070.4
0
3.78268e+06
132211
23921.1
16575.3
848.103
0
0
491.697
44541.8
0
0
5358.12
550046
-678103
9910.1
0
0
26.7949
236.144
-2411.99
-1470.63
-1334.94
34992.6
4305.51
751.063
0
482.24
0
0
56094.2
324.851
9265.31
2887.39
-1983.92
0
0
0
251.78
-1.24113e+06
-5378.48
-1.67495e+06
0
582731
0
0
12128.5
0
195.711
0
6778.71
0
701.342
-6990.95
0
727120
0
0
858.169
211.472
0
0
27017.3
4630.72
0
0
0
0
0
17754
825.252
-6780.38
176328
8251.77
208.628
0
313.482
0
283.735
0
10575.9
511.538
289.367
0
0
0
0
0
0
949.453
0
-12473.1
0
-98.3446
0
-48.6167
0
0
0
0
0
0
0
0
0
-3351.63
0
0
0
8600.38
1981.41
306.641
0
115947
0
367.289
0
0
0
0
0
0
0
45517.9
0
0
0
-9655.96
159835
0
3375.18
0
0
0
9971.11
-476734
0
0
0
0
-116903
0
0
0
0
0
0
0
0
0
0
0
0
0
184.912
0
0
0
0
0
25462.8
0
0
0
0
0
0
0
0
0
0
23393.6
0
0
51706.2
-347.247
427.337
0
0
0
0
0
0
0
0
0
0
0
0
0
689500
0
0
0
0
0
395.29
-115246
0
0
0
0
0
0
0
0
0
0
0
0
-56757.4
0
0
0
0
-14529
0
0
0
0
0
3652.43
0
0
0
0
-186.1
0
0
0
13854.4
-208.536
44522.1
0
0
48766.5
0
0
0
0
5000.22
0
0
95143.6
0
0
0
0
0
0
0
0
0
468.108
0
0
0
0
0
0
0
0
0
260.765
-71.9471
0
0
0
0
0
0
0
0
0
0
2436.56
0
0
0
0
0
0
0
0
0
0
0
0
0
0
0
0
0
1227.36
0
0
0
1927.12
0
0
0
161.109
267847
0
0
0
0
371.698
0
0
0
9681.61
0
0
0
0
0
0
0
0
0
0
0
0
0
0
0
0
138679
0
0
0
-147.805
0
0
0
0
0
0
0
0
0
0
0
-435.563
140.973
0
0
0
0
-94772.5
0
0
0
0
0
0
0
1.23525
2555.58
0
251.454
0
0
0
0
0
0
0
0
-1897.85
0
0
0
0
0
0
0
0
0
0
0
0
0
0
0
0
0
0
0
0
0
0
0
0
0
0
143.129
0
0
0
0
0
0
0
0
0
0
0
0
0
10.2951
0
0
0
0
0
0
0
0
0
161963
0
0
0
0
-160.199
0
0
0
0
0
0
0
0
0
702.027
0
0
0
0
5221.45
0
0
0
0
0
0
0
0
0
0
0
0
0
0
0
0
0
0
0
0
0
0
74.3757
0
0
0
0
0
0
0
0
0
0
0
0
0
0
0
0
0
0
0
0
0
0
0
0
0
0
0
0
0
173.582
0
0
0
0
0
0
0
0
0
0
0
0
0
-400.382
0
0
0
0
0
0
0
0
0
0
0
0
0
0
0
0
0
0
0
0
0
0
0
0
0
0
2291.89
0
0
0
0
0
0
0
368589
0
0
0
0
0
0
0
0
0
0
0
0
0
0
0
0
0
0
0
0
0
0
0
0
0
0
0
0
0
0
-4674.22
0
0
65.229
0
0
0
0
0
0
0
-265.621
0
0
921.994
0
0
0
32648.1
0
0
0
0
-4334.14
0
0
13869.5
0
0
0
0
0
0
0
0
0
0
0
0
0
0
0
0
0
0
83306.4
0
0
0
0
0
0
0
0
0
0
0
0
0
0
0
0
0
0
0
0
184396
0
0
0
0
0
0
76772.6
0
0
212.672
0
131.426
0
0
0
0
0
0
0
0
0
224.084
0
0
0
0
0
0
52451.2
64066.6
0
0
0
0
0
1936.89
0
0
0
0
0
0
0
0
0
0
0
0
0
0
0
0
18364.7
0
0
0
0
0
0
0
0
0
0
0
0
5.96246
5379.27
0
0
0
0
0
0
36.7979
0
0
0
0
0
0
0
0
0
0
0
0
0
0
0
8038.29
0
0
0
0
0
17869
0
0
0
0
0
0
0
0
0
0
0
-110.017
0
0
0
0
0
0
0
0
0
0
0
1465.93
0
0
0
0
0
0
0
37.3547
0
0
0
0
0
0
0
0
0
0
-46.1675
79.5034
0
0
0
-11.7023
0
0
0
0
0
0
0
0
0
0
0
0
0
997.581
0
0
0
0
0
0
0
0
0
0
633.427
-33.0507
0
0
0
0
0
0
-33538.3
0
0
0
0
0
0
0
-127.071
0
0
0
0
0
0
0
0
0
0
0
0
2508.14
61394.8
15839
0
0
0
0
0
0
0
0
0
0
442.304
0
0
0
0
0
0
0
0
43.4677
-26.412
0
0
0
0
0
0
0
0
0
0
0
0
0
0
0
0
0
0
22.8333
0
0
0
0
0
0
47988.3
0
0
0
0
0
0
0
0
0
0
0
0
0
0
0
-125.346
0
0
0
0
0
0
0
0
0
0
0
0
0
0
0
0
0
0
0
0
0
0
0
0
0
0
0
0
1200.68
0
0
49.3355
0
0
0
0
0
0
-33.4362
0
0
0
0
0
0
0
0
0
0
0
0
0
0
41632
0
0
39.0351
0
0
0
0
0
0
0
0
0
0
0
0
0
0
0
-187.955
0
0
0
0
0
0
0
0
0
0
0
0
0
0
0
0
0
0
0
0
0
0
0
0
0
405.068
0
0
0
99895
0
0
0
0
0
0
0
0
0
0
0
0
25.9358
0
0
58.8015
0
0
0
0
0
0
0
0
0
0
0
0
0
90.4505
0
0
0
0
0
0
0
0
0
0
0
0
0
0
0
0
0
0
0
0
0
0
0
0
0
0
0
0
713.512
0
0
0
0
0
0
0
0
0
0
0
0
0
0
0
0
0
0
0
0
0
0
0
0
0
0
0
0
0
0
0
0
0
-125.614
0
0
0
0
0
0
0
0
0
4639.02
0
0
0
0
0
0
0
0
0
0
0
0
0
0
0
0
0
0
0
0
0
0
0
177.974
0
0
0
0
0
0
0
0
0
0
0
0
0
0
0
0
0
0
0
0
0
0
0
0
0
0
0
0
0
0
0
0
0
0
0
-1.00225
-86.8515
0
0
0
0
0
0
0
0
0
0
0
0
0
0
0
0
0
0
0
0
0
0
0
0
0
0
0
0
0
0
0
0
0
0
392.766
0
0
0
0
0
0
0
0
0
0
0
0
0
0
0
0
0
0
0
-25246.9
0
10.4742
0
0
0
0
0
0
0
0
0
0
0
1550.47
0
0
0
0
0
0
0
0
0
0
0
0
430.546
0
0
0
0
0
0
0
10.5701
0
0
0
0
0
0
0
0
0
0
0
0
0
0
0
4.89837
0
0
0
0
0
0
0
0
0
0
0
0
0
0
0
0
0
0
0
0
0
0
0
0
0
0
0
0
157.468
0
0
0
0
0
0
0
0
0
0
-2.38663
0
0
0
0
0
0
0
0
0
0
0
0
0
0
14.2039
0
0
0
0
0
185.809
0
0
0
0
0
0
0
0
0
0
0
0
0
1647.45
0
0
17.0843
0
0
0
0
0
0
0
0
0
0
0
0
0
0
0
1009.53
0
0
0
0
-11.8318
54.6613
0
0
0
0
0
0
0
0
0
0
0
0
0
0
0
0
0
39.7615
0
0
0
0
0
-53.1317
0
0
0
0
0
0
0
0
0
0
0
0
0
127.363
0
0
0
0
0
0
0
0
0
0
0
0
0
0
288320
0
0
0
0
0
0
0
0
0
0
0
0
0
0
0
0
0
0
0
0
0
0
14.4182
0
0
0
0
0
0
0
0
0
0
0
0
0
0
0
0
0
0
0
0
0
0
0
0
0
0
0
0
0
0
0
0
0
0
0
0
0
0
0
0
0
0
0
0
0
0
0
0
0
0
0
0
0
0
0
0
0
0
0
0
0
0
0
0
0
53.7843
0
0
0
0
0
0
0
0
0
0
0
0
0
0
0
0
0
0
0
23.8505
0
0
0
0
0
0
0
176.776
0
0
0
0
0
0
0
0
0
0
0
0
0
0
0
0
0
0
0
0
0
0
0
0
0
0
0
0
0
0
0
0
0
35.8658
0
0
0
0
0
0
0
0
0
0
0
-147.704
0
0
0
0
0
0
0
0
0
0
0
0
0
0
0
0
0
0
0
0
0
0
0
0
-96.2796
0
0
0
0
0
0
0
-248.043
0
0
307.332
0
0
0
0
0
0
0
0
0
0
0
0
0
0
0
0
0
0
0
0
0
0
0
0
0
0
0
0
0
0
0
0
0
0
0
0
0
0
0
0
0
0
0
0
0
0
0
0
0
0
0
0
0
0
0
0
0
0
0
0
-28.9382
0
0
0
0
0
0
0
0
0
0
0
-0.619367
-38.3693
0
0
0
0
0
0
0
0
0
0
0
0
0
0
0
0
0
0
0
0
5.3547
0
0
0
0
0
0
0
0
0
0
0
0
0
0
0
0
0
0
0
0
0
0
0
0
0
0
0
0
0
0
0
0
0
0
0
0
0
0
0
0
0
0
0
0
0
0
0
0
0
0
-159.454
0
0
0
0
0
-1984.66
0
0
0
0
0
0
0
0
0
0
0
0
0
0
0
0
64.9618
0
0
0
0
-2.41112
0
0
0
0
0
0
0
0
0
0
0
0
0
0
0
0
0
0
0
0
0
0
-34.9152
0
0
0
0
0
0
-94.4052
0
0
0
0
0
0
0
0
0
0
-10773.8
0
0
0
0
0
0
0
0
0
0
0
0
0
0
-63.9689
0
0
0
0
0
0
0
0
0
0
0
0
0
0
21.6355
0
0
-1108.28
0
0
0
0
0
0
0
0
0
0
0
0
0
0
0
0
0
0
0
0
0
0
0
0
899.634
0
0
0
0
0
0
0
0
0
0
0
0
0
0
0
0
0
0
12054.3
0
0
0
0
90.0786
107.304
0
0
0
0
0
0
0
0
0
0
44.8725
0
0
0
0
0
0
0
0
0
0
0
0
2235.97
0
0
0
0
0
0
0
0
0
0
232.188
0
0
0
0
0
0
0
0
0
0
0
0
0
0
0
0
0
0
0
0
0
0
0
0
0
0
0
0
0
0
0
0
0
35899.1
0
0
0
0
0
0
0
0
0
0
0
0
0
0
0
0
0
0
0
0
0
0
0
0
0
0
371.864
0
0
0
0
0
0
0
0
0
0
0
0
0
0
0
0
0
0
0
0
0
0
0
0
0
205.283
0
0
0
0
0
0
0
0
0
0
0
0
0
0
0
0
0
0
0
0
0
0
0
0
0
0
0
0
0
0
0
0
0
0
0
0
0
0
0
3.52743
0
0
0
0
0
10.5065
0
0
0
0
0
0
0
0
0
0
0
0
0
0
0
0
0
0
0
0
0
0
0
0
0
0
0
0
0
0
0
0
0
0
-16774.5
0
0
0
0
0
0
0
0
0
0
13.6733
0
0
0
0
0
0
0
0
0
0
0
0
0
0
0
0
0
0
0
0
0
0
0
0
0
0
0
0
0
0
0
0
0
0
0
0
0
0
-52.8546
0
0
0
0
0
0
0
0
0
0
0
0
0
0
0
0
0
0
0
0
0
0
0
0
0
0
0
0
0
0
0
0
0
0
0
0
0
0
0
0
0
0
0
0
0
0
2296.14
0
0
0
0
-161.1
0
0
0
0
0
0
0
0
0
0
0
0
0
0
0
0
0
0
0
0
0
0
0
0
0
0
0
0
0
0
0
0
0
0
-14.9688
0
0
0
0
0
0
73.5021
0
0
0
-67.8427
5342.76
0
0
0
0
0
-1.64931
54571.2
0
-3.05511
0
0
0
0
0
0
0
0
0
0
0
0
0
0
0
0
0
0
0
0
0
0
0
0
0
0
0
0
0
0
0
0
0
0
0
0
0
0
0
0
0
0
0
0
0
0
0
0
0
0
0
0
0
0
0
0
0
0
0
0
0
0
0
0
0
0
0
0
0
7.70659
0
0
0
0
0
0
0
0
0
0
0
0
0
0
0
0
0
15.9173
0
0
0
0
0
0
0
0
0
0
0
0
0
0
0
0
0
0
0
0
0
0
0
0
0
0
0
0
0
0
0
0
0
0
0
0
0
0
0
0
0
0
0
0
0
0
0
0
0
0
0
0
0
0
0
0
0
0
0
0
-351.616
0
0
0
16.7304
0
0
0
0
0
-2.10536
0
0
0
0
0
0
0
0
103.863
0
0
0
0
-2801.59
0
0
0.122174
0
0
1.00732
0
0
0
0
0
0
0
0
0
0
0
0
0
0
0
0
0
0
-15.6711
0
0
0
-593.996
0
0
0
0
0
0
0
0
0
3.49777
0
0
0
0
0
-9.49869
0
0
0
0
-3.42035
0
0
0
0
0
0
0
0
0
0
0
0
0
0
0
0
0
0
0
0
0
0
0
19543.3
0
0
0
0
0
0
0
0
0
0
0
0
0
0
0
0
0
0
0
0
0
0
0
0
0
0
0
0
0
-5.28224
0
0
0
0
0
0
0
0
0
0
0
0
0
0
0
-34.1634
0
0
0
0
0
0
0
0
0
0
0
0
0
-6.88523
0
0
0
0
0
0
0
0
0
0
0
0
0
0
-2.27144
0
0
0
0
0
0
0
0
0
0
0
0
0
0
0
0
0
0
0
0
0
0
0
2.84207
0
0
0
0
0
0
0
0
0
0
0
0
0
0
-23627.5
0
-4.81968
0
0
0
0
0
0
0
0
0
0
0
0
0
0
0
0
0
0
-55.7942
0
0
0
0
0
0
0
0
0
0
11.0944
0
0
0
0
0
0
0
0
0
0
-28789.1
0
0
0
0
0
0
0
0
0
0
0
0
0
0
0
27075.4
0
0
0
0
0
0
0
0
0
-142.224
0
0
0
0
0
0
0
0
0
0
0
0
0
0
0
0
0
0
0
-30.6071
0
0
0
0
0
0
0
0
0
0
0
0
0
0
0
0
0
0
0
0
0
0
0
0
0
0
0
0
0
0
0
0
0
0
0
0
0
0
0
0
0
0
0
0
0
0
0
0
-11.3028
0
0
0
0
0
0
0
0
0
0
0
0
0
0
0
0
0
0
0
0
0
0
0
0
0
0
0
0
0
0
0
0
0
0
0
0
0
0
0
0
0
0
0
0
0
0
0
0
0
0
507.256
0
0
0
0
0
0
0
0
0
0
0
0
0
0
0
0
0
0
0
0
0
0
0
0
0
0
0
0
0
0
0
0
0
0
0
0
-0.653177
0
0
0
0
0
0
0
0
-29226.3
0
0
0
0
0
0
0
0
0
0
0
0
0
0
0
0
0
0
0
0
-2.63103
0
0
0
0
0
0
0
0
0
0
0
0
0
0
0
-4.19362
0
0
0
0
0
0
0
0
0
0
0
0
-0.497657
0
0
0
0
-298.534
0
0
0
0
-92.0816
0
0
0
0
0
0
0
0
0
0
0
0
0
-0.366454
0
9071.24
0
0
0
0
0
0
0
0
0
0
0
0
0
0
0
0
0
0
0
0
0
0
0
0
0
0
0
0
0
0
0
0
0
0
0
0
0
0
0
0
0
0
0
0
0
0
0
0
0
0
0
0
0
0
0
0
0
-110.045
0
0
0
0
0
0
0
0
0
-28.4389
0
0
0
0
0
0
0
0
0
0
0
0
0
0
0
0
0
0
0
0
0
0
0
0
0
0
0
0
0
0
0
0
0
0
0
0
3842.64
0
0
0
0
0
-60346.9
0
0
0
0
0
-8.90213
0
0
0
0
-130.57
0
0
0
0
0
0
0
0
0
0
0
0
0
0
0
0
0
0
0
0
0
0
-133.472
0
0
0
0
0
0
0
0
0
0
0
0
0
0
0
0
0
0
0
0
0
-13.1421
0
0
0
0
0
0
0
0
0
0
0
0
0
0
0
0
0
0
0
0
0
0
0
0
0
0
0
0
0
-5377.11
0
57.342
0
0
0
0
0
0
0
0
0
0
0
0
0
0
0
0
-3.9637
0
0
0
0
0
0
0
0
0
0
0
0
0
0
0
0
0
0
0
0
0
0
-79.4739
0
0
0
0
0
0
0
0
0
0
0
0
0
0
0
0
0
0
0
0
0
0
0
0
0
0
0
0
0
0
0
0
0
0
0
0
0
0
0
0
0
0
0
0
0
0
0
0
0
0
0
-3257.82
0
0
0
0
0
0
0
0
0
0
0
0
0
0
0
0
0
0
0
0
0
0
0
0
0
0
0
0
0
0
0
0
0
0
0
0
0
0
0
-2479.69
0
0
0
0
-49.8547
0
0
0
0
0
0
0
0
0
0
0
-2.78354
0
0
0
0
0
0
0
0
0
0
0
0
0
0
0
0
0
0
0
0
0
0
0
0
1.45006
0
0
0
0
0
0
0
0
0
0
0
0
0
0
0
0
0
0
0
0
0
0
0
0
-157.893
0
0
0
0
201.943
0
0
0
0
0
0
0
0
0
0
0
0
0
0
0
0
0
0
0
0
0
0
0
0
0
0
0
0
0
0
0
0
0
0
0
0
0
0
0
0
0
0
0
0
0
0
0
0
0
0
0
0
0
47.4961
0
0
0
0
0
0
0
0
0
0
0
0
0
0
0
0.980281
-3.01848
0
0
0
0
0
-427.805
-7094.49
0
0
0
0
0
0
0
0
0
747.107
0
0
0
0
0
0
0
0
-8.486
0
-3.1789
0
0
0
0
0
0
0
-52.9592
0
0
0
0
0
0
0
0
0
0
0
0
0
0
0
0
0
0
0
0
0
-733.406
0
0
0
0
0
0
0
0
0
0
0
0
-30.3639
0
0
0
0
0
0
0
0
0
0
0
0
0
0
0
0
0
0
0
0
0
0
0
0
0
-142.384
-51.5309
0
0
0
0
0
0
0
0
0
0
0
0
0
0
0
0
0
0
0
0
0
0
0
0
0
0
0
0
0
0
-23.3225
0
0
0
0
0
0
0
0
0
0
0
0
0
1.05697
0
0
0
0
0
0
0
0
0
0
0
0
0
0
0
0
0
0
0
0
0
0
0
0
0
0
0
0
0
0
0
0
0
0
0
0
0
0
-549.013
0
0
0
0
0
0
0
0
0
0
0
0
0
0
0
0
0
0
0
0
0
0
0
-4.7849
0
0
0
0
0
0
0
0
0
0
0
0
0
0
0
0
0
0
0
0
0
0
0
0
0
0
0
0
0
0
0
0
0
0
0
0
0
0
0
0
-4.70657
0
0
0
0
0
0
0
0
0
0
0
0
0
0
0
0
0
0
18.4608
0
0
0
0
-9.1497
0
0
0
0
0
0
-380.056
0
0
0
0
0
0
0
0
0
5216.95
0
0
0
-3.25374
0
0
0
0
0
0
0
168.608
0
0
0
0
0
0
0
0
0
0
0
0
0
0
0
0
0
0
0
0
0
0
0
0
0
0
0
0
0
0
0
0
0
0
0
0
0
0
0
0
0
0
0
0
0
0
0
0
0
0
0
0
-12.7523
0
0
0
0
0
0
0
0
0
0
0
0
-177.817
0
0
0
0
0
-5.81705
0
0
0
0
0
0
0
0
0
0
0
0
0
0
0
0
0
0
0
0
0
0
0
0
0
0
0
0
0
0
0
0
0
0
0
0
0
0
0
0
0
0
0
0
0
0
0
0
0
0
0
0
0
0
0
0
0
0
0
0
0
0
0
0
0
0
0
0
0
0
0
-7.27754
0
0
0
0
0
0
0
0
0
0
0
0
0
0
0
-1.74379
0
0
0
0
0
0
0
0
0
0
0
0
0
0
-58.8241
0
0
0
0
0
-85602.6
0
0
0
0
-2.54838
0
0
-2.51323
0
-4.14195
0
0
0
0
0
0
0
0
0
0
0
0
0
0
0
0
0
0
0
0
0
0
0
0
0
0
0
0
0
0
0
-1.59229
0
0
0
0
0
0
0
0
0
0
0
0
0
0
0
0
0
0
0
0
0
0
0
0
0
0
0
0
0
-11.0344
0
0
0
0
0
-23.905
0
0
0
0
0
0
0
0
0
0
0
0
0
0
0
0
0
0
0
0
0
0
-47.9811
0
0
0
0
0
0
0
0
0
0
0
0
0
0
0
0
0
0
0
0
0
0
0
0
0
0
0
0
0
0
0
-3.52787
0
0
0
0
0
0
0
-1030.18
0
0
0
0
0
0
0
0
0
0
0
0
0
0
0
0
0
0
0
-8.90213
0
0
0
2.64036
0
0
0
0
0
0
0
0
0
-7.8911
0
0
0
0
-2.13522
0
0
0
0
0
0
0
0
0
0
0
0
0
0
0
0
0
0
0
0
0
0
0
0
0
0
0
0
0
0
0
0
0
0
0
0
0
0
0
0
0
0
0
0
0
0
0
0
0
0
0
0
0
0
0
0
0
0.708912
0
0
0
0
0
0
0
0
0
0
-269.111
0
0
0
0
0
0
0
0
0
0
0
0
0
0
0
0
0
0
0
0
0
0
0
0
0
0
0
0
0
0
0
0
0
0
0
0
0
0
0
0
0
0
0
0
0
0
0
0
0
0
0
0
0
0
0
0
0
0
0
0
0
0
0
0
0
-34.1112
0
0
0
0
0
0
0
4920.14
0
0
0
0
0
0
0
0
0
0
0
0
0
0
0
0
0
0
0
0
0
0
0
0
0
0
-159.227
0
0
0
0
0
0
0
-0.647123
-114.414
0
0
0
0
0
0
0
-3.56336
0
0
0
0
0
0
0
0
0
0
0
0
0
0
0
0
0
0
0
0
0
-0.62999
0
0
0
9297.9
0
0
0
0
0
0
0
0
0
0
0
0
0
-3.3321
0
0
0
0
0
0
0
0
0
0
0
0
0
0
0
0
0
0
0
0
0
0
0
0
0
0
0
0
0
0
0
0
0
0
0
0
0
0
0
0
0
0
0
-5.80352
0
0
-1.3742
0
0
0
-8304.61
0
-0.116418
0
0
1.19929
0
0
0
0
0
0
0
0
0
0
0
0
0
0
0
0
0
0
0
0
0
0
0
0
0
0
0
0
0
0
0
0
0
0
0
0
0
0
-20.7012
