booster[0]:
bias:
-71.2616
weight:
4.10684
0
0
-4631.78
0
0
-25.7261
0
66.7333
0
64.2763
-651.775
65.0856
-3890.18
1.0639e+06
428.044
10860.1
-15400.4
783.747
93.3891
65.3155
436.738
66.1783
441.706
93.3868
-2644.97
-4853.9
-1.28179e+06
-1158.48
1.93129e+07
-1.39438e+06
0
4031.52
-61916.7
68.1856
0
65.2241
65.7467
-3.18145e+07
429.759
8025.98
64.1913
-10315.1
12387.3
67.7733
-339648
0
67.5596
111349
66.3932
492.299
66.3666
-2773
0
-188.359
-46434.5
-17154.4
9975.38
134.511
7891.34
723558
-1056.91
-2395.29
0
67.0377
14684.1
513.791
1.23403e+07
0
62.4313
94.8095
64.1469
156.251
-3.88962e+06
17519.1
-7.43634e+06
-147171
66.0616
427.984
-3.40675e+06
-8655.52
67.2952
1.23871e+06
-1554.05
427.238
15151.5
2019.92
2029.75
182.807
41493.7
1975.08
-649.237
0
-3054.59
-2.86706e+06
-4186.04
1.21253e+06
1340.83
0
0
665.06
-1489.49
-1.57301e+06
66.4147
1091.02
11346.6
890.37
1207.59
233.925
132.228
184.903
795.286
-760.122
527.428
-622.348
-117464
388.274
1.5094e+06
-1816.88
-53712.6
-1.1243e+06
1.94126e+06
-396239
0
92958.5
-8.30399e+06
0
0
21462.6
-1504.31
1.18405e+06
11052.9
68.2534
1374.51
944056
64.1825
0
0
1.99055e+06
0
-495.365
1.04551e+07
-20060.2
66.1514
0
140.061
64.1063
627.416
80.3844
-24107.6
112112
191.847
154.482
-349.14
397.645
0
-1002.19
127.697
66.2291
1050.55
12956.3
0
0
454.112
122.829
-1.13796e+06
-1275.17
29637.4
15.1279
-9.34756e+06
0
-386.304
984.868
18605.7
462.674
-805.252
-4.87637e+06
233459
0
683.191
0
404.092
13883.8
-1.73922e+06
825423
255.965
406.783
31693.9
-98190.2
185.844
0
1064.47
141.532
141.136
0
2417.42
-2068.92
1.38365e+06
77014.6
1.26939e+06
22742.5
210640
164.267
10103.8
185.081
706.435
14004.6
4230.17
446.02
1968.6
-658.986
-693102
1026.47
2.18244e+06
48658.1
-4687.22
0
21717.8
0
4584.1
98990.1
0
18815.7
79.7786
68168.9
518.563
67.2025
0
349.682
-951275
131.207
437.899
23463.3
6743.56
150.029
854.258
-29998.2
461.716
0
-542685
211249
3936.03
320.926
-53112.4
6700.82
2362.75
-5952.05
9893.11
5471.87
0
-1494.2
2200.33
-1134.11
0
1192.7
134.617
123.744
0
191.16
1147.3
33094.3
-1033.89
2285.93
-4211.08
172651
248101
898.384
19640.1
121.248
-118.069
665.889
7040.96
21914.3
560.493
56.2048
238.392
-255.56
0
4312.38
41300.9
48163.5
3582.23
3.2729e+06
134.883
4.82629
0
4611.39
816.764
0
-522.747
119.164
-2.90302e+06
0
6359.29
29.4275
340694
0
9683.02
420.215
0
148314
110239
0
9342.71
0
0
-56.8236
0
6567
0
4391.1
0
-394.802
0
32.629
3005.4
-1541.53
9410.19
-13365
416.343
688746
795476
0
0
-6231.79
1034.37
438.786
0
80170.9
10.6824
0
194286
175.684
230.317
0
22546.2
0
4645.35
0
5425.79
-88.443
840781
0
57217.6
0
-588.321
11818.4
0
2.21292e+06
283.449
14234.2
1.15082e+06
712.901
0
0
5828.68
688179
0
0
230.044
1.13261e+06
7097.38
4.82923e+06
0
0
97.4093
-47.4674
79.6446
7843.11
4450.43
-2516.25
340.304
-177.17
0
-147.393
0
0
423.352
-317308
5689.43
-1902.14
134.734
0
0
0
-2677.64
540.978
-5457.81
-125.403
0
-77.5532
0
0
36384.9
0
-11294.6
0
171645
0
-1968.38
0
0
-133.715
0
0
179.784
-4555.63
0
0
1144.28
-171.2
0
0
0
0
0
254587
154.08
1354.76
215.172
503.813
12682.7
0
271.838
0
232.265
0
213.53
2.79868e+06
828.265
0
0
0
0
0
0
-48.262
0
-31.441
0
176.051
0
-197.24
0
0
0
0
0
0
0
0
0
813.184
0
0
0
73.8454
181899
1956.7
0
-1753.94
0
1512.86
0
0
0
0
0
0
0
170236
0
0
0
219.837
-81.8319
0
126.799
0
0
0
136.474
3256.05
0
0
0
0
247.814
0
0
0
0
0
0
0
0
0
0
0
0
0
13369
0
0
0
0
0
2076.72
0
0
0
0
0
0
0
0
0
0
540.981
0
0
47637.8
-1032.64
722.937
0
0
0
0
0
0
0
0
0
0
0
0
0
117017
0
0
0
0
0
3851.09
2929.04
0
0
0
0
0
0
0
0
0
0
0
0
1820.91
0
0
0
0
-275592
0
0
0
0
0
33.9376
0
0
0
0
163.02
0
0
0
1222.02
141.276
-79875.4
0
0
-67568.4
0
0
0
0
-5396.35
0
0
58.4233
0
0
0
0
0
0
0
0
0
-1203.32
0
0
0
0
0
0
0
0
0
25337.1
125.663
0
0
0
0
0
0
0
0
0
0
2628.61
0
0
0
0
0
0
0
0
0
0
0
0
0
0
0
0
0
-17712.9
0
0
0
551609
0
0
0
-19558.9
31705.2
0
0
0
0
342.057
0
0
0
-22.0533
0
0
0
0
0
0
0
0
0
0
0
0
0
0
0
0
95473
0
0
0
5635.43
0
0
0
0
0
0
0
0
0
0
0
-25.4446
267766
0
0
0
0
3569.2
0
0
0
0
0
0
0
0
-140313
0
-163394
0
0
0
0
0
0
0
0
6754.45
0
0
0
0
0
0
0
0
0
0
0
0
0
0
0
0
0
0
0
0
0
0
0
0
0
0
143.152
0
0
0
0
0
0
0
0
0
0
0
0
0
285.755
0
0
0
0
0
0
0
0
0
2755.61
0
0
0
0
807.927
0
0
0
0
0
0
0
0
0
-6090.58
0
0
0
0
30.2761
0
0
0
0
0
0
0
0
0
0
0
0
0
0
0
0
0
0
0
0
0
0
-109.563
0
0
0
0
0
0
0
0
0
0
0
0
0
0
0
0
0
0
0
0
0
0
0
0
0
0
0
0
0
0
0
0
0
0
0
0
0
0
0
0
0
0
0
31.9201
0
0
0
0
0
0
0
0
0
0
0
0
0
0
0
0
0
0
0
0
0
0
0
0
0
0
77582
0
0
0
0
0
0
0
92.3324
0
0
0
0
0
0
0
0
0
0
0
0
0
0
0
0
0
0
0
0
0
0
0
0
0
0
0
0
0
0
-16532
0
0
-37.4869
0
0
0
0
0
0
0
-51.5902
0
0
-57.3748
0
0
0
0
0
0
0
0
27672.8
0
0
78.3725
0
0
0
0
0
0
0
0
0
0
0
0
0
0
0
0
0
0
0
0
0
0
0
0
0
0
0
0
0
0
0
0
0
0
0
0
0
0
0
0
0
0
0
0
0
0
164.33
0
0
0
0
31525.2
0
0
0
0
0
0
0
0
0
-12383.1
0
0
0
0
0
0
137.888
0
0
0
0
0
0
-54.967
0
0
0
0
0
0
0
0
0
0
0
0
0
0
0
0
28747.9
0
0
0
0
0
0
0
0
0
0
0
0
0
128.766
0
0
0
0
0
0
83902.8
0
0
0
0
0
0
0
0
0
0
0
0
0
0
0
0
0
0
0
0
0
-115688
0
0
0
0
0
0
0
0
0
0
0
134.304
0
0
0
0
0
0
0
0
0
0
0
128089
0
0
0
0
0
0
0
1471.23
0
0
0
0
0
0
0
0
0
0
-35999.5
0
0
0
0
-195.064
0
0
0
0
0
0
0
0
0
0
0
0
0
-66034.6
0
0
0
0
0
0
0
0
0
0
22.2513
-381.226
0
0
0
0
0
0
-161.873
0
0
0
0
0
0
0
-411.115
0
0
0
0
0
0
0
0
0
0
0
0
1558.8
0
-9.13457
0
0
0
0
0
0
0
0
0
0
-13356.4
0
0
0
0
0
0
0
0
-9.6606
-2563.35
0
0
0
0
0
0
0
0
0
0
0
0
0
0
0
0
0
0
12942.8
0
0
0
0
0
0
93.1929
0
0
0
0
0
0
0
0
0
0
0
0
0
0
0
-2078.04
0
0
0
0
0
0
0
0
0
0
0
0
0
0
0
0
0
0
0
0
0
0
0
0
0
0
0
0
0
0
0
9.9812
0
0
0
0
0
0
-10575.6
0
0
0
0
0
0
0
0
0
0
0
0
0
0
-40.0883
0
0
0
0
0
0
0
0
0
0
0
0
0
0
0
0
0
0
-823.919
0
0
0
0
0
0
0
0
0
0
0
0
0
0
0
0
0
0
0
0
0
0
0
0
0
259.028
0
0
0
-13.1689
0
0
0
0
0
0
0
0
0
0
0
0
0
0
0
1854.83
0
0
0
0
0
0
0
0
0
0
0
0
0
85.4037
0
0
0
0
0
0
0
0
0
0
0
0
0
0
0
0
0
0
0
0
0
0
0
0
0
0
0
0
-38410.4
0
0
0
0
0
0
0
0
0
0
0
0
0
0
0
0
0
0
0
0
0
0
0
0
0
0
0
0
0
0
0
0
0
122.6
0
0
0
0
0
0
0
0
0
13.23
0
0
0
0
0
0
0
0
0
0
0
0
0
0
0
0
0
0
0
0
0
0
0
0
0
0
0
0
0
0
0
0
0
0
0
0
0
0
0
0
0
0
0
0
0
0
0
0
0
0
0
0
0
0
0
0
0
0
0
-496.458
-5182.62
0
0
0
0
0
0
0
0
0
0
0
0
0
0
0
0
0
0
0
0
0
0
0
0
0
0
0
0
0
0
0
0
0
0
9630.9
0
0
0
0
0
0
0
0
0
0
0
0
0
0
0
0
0
0
0
63.6391
0
0
0
0
0
0
0
0
0
0
0
0
0
0
0
0
0
0
0
0
0
0
0
0
0
0
0
0
0
0
0
0
0
0
0
0
0
0
0
0
0
0
0
0
0
0
0
0
0
0
2.52915
0
0
0
0
0
0
0
0
0
0
0
0
0
0
0
0
0
0
0
0
0
0
0
0
0
0
0
0
2946.51
0
0
0
0
0
0
0
0
0
0
-269.78
0
0
0
0
0
0
0
0
0
0
0
0
0
0
51.9714
0
0
0
0
0
0
0
0
0
0
0
0
0
0
0
0
0
0
0
9548.04
0
0
0
0
0
0
0
0
0
0
0
0
0
0
0
0
0
0
5575.03
0
0
0
0
-95.4683
-218.798
0
0
0
0
0
0
0
0
0
0
0
0
0
0
0
0
0
695.01
0
0
0
0
0
164.487
0
0
0
0
0
0
0
0
0
0
0
0
0
0
0
0
0
0
0
0
0
0
0
0
0
0
0
0
305085
0
0
0
0
0
0
0
0
0
0
0
0
0
0
0
0
0
0
0
0
0
0
0
0
0
0
0
0
0
0
0
0
0
0
0
0
0
0
0
0
0
0
0
0
0
0
0
0
0
0
0
0
0
0
0
0
0
0
0
0
0
0
0
0
0
0
0
0
0
0
0
0
0
0
0
0
0
0
0
0
0
0
0
0
0
0
0
0
0
0
0
0
0
0
0
0
0
0
0
0
0
0
0
0
0
0
0
0
-56.4236
0
0
0
0
0
0
0
0
0
0
0
0
0
0
0
0
0
0
0
0
0
0
0
0
0
0
0
0
0
0
0
0
0
0
0
0
0
0
0
0
0
0
0
0
0
0
0
0
0
0
0
0
0
30753.9
0
0
0
0
0
0
0
0
0
0
0
0
0
0
0
0
0
0
0
0
0
0
0
0
2526.15
0
0
0
0
0
0
0
284.532
0
0
124.572
0
0
0
0
0
0
0
0
0
0
0
0
0
0
0
0
0
0
0
0
0
0
0
0
0
0
0
0
0
0
0
0
0
0
0
0
0
0
0
0
0
0
0
0
0
0
0
0
0
0
0
0
0
0
0
0
0
0
0
0
17.0926
0
0
0
0
0
0
0
0
0
0
0
-0.434599
-9.19895
0
0
0
0
0
0
0
0
0
0
0
0
0
0
0
0
0
0
0
0
0
0
0
0
0
0
0
0
0
0
0
0
0
0
0
0
0
0
0
0
0
0
0
0
0
0
0
0
0
0
0
0
0
0
0
0
0
0
0
0
0
0
0
0
0
0
0
0
0
0
0
77.1831
0
0
0
0
0
530.887
0
0
0
0
0
0
0
0
0
0
0
0
0
0
0
0
291.832
0
0
0
0
0
0
0
0
0
0
0
0
0
0
0
0
0
0
0
0
0
0
0
0
0
0
0
5.08232
0
0
0
0
0
0
-50.6652
0
0
0
0
0
0
0
0
0
0
12.4688
0
0
0
0
0
0
0
0
0
0
0
0
0
0
-84730.6
0
0
0
0
0
0
0
0
0
0
0
0
0
0
0
0
0
-122439
0
0
0
0
0
0
0
0
0
0
0
0
0
0
0
0
0
0
0
0
0
0
0
0
0
0
0
0
0
0
0
0
0
0
0
0
0
0
0
0
0
0
0
0
0
0
0
0
-88.6458
3074.88
0
0
0
0
0
0
0
0
0
0
0
0
0
0
0
0
0
0
0
0
0
0
0
0
0
0
0
0
0
0
0
0
0
0
69.2991
0
0
0
0
0
0
0
0
0
0
0
0
0
0
0
0
0
0
0
0
0
0
0
0
0
0
0
0
0
0
0
0
0
20.7659
0
0
0
0
0
0
0
0
0
0
0
0
0
0
0
0
0
0
0
0
0
0
0
0
0
0
0
0
0
0
0
0
0
0
0
0
0
0
0
0
0
0
0
0
0
0
0
0
0
0
0
0
1086.8
0
0
0
0
0
0
0
0
0
0
0
0
0
0
0
0
0
0
0
0
0
0
0
0
0
0
0
0
0
0
0
0
0
0
0
0
0
0
0
0
0
0
0
0
0
16.4704
0
0
0
0
0
0
0
0
0
0
0
0
0
0
0
0
0
0
0
0
0
0
0
0
0
0
0
0
0
0
0
0
0
0
7418.12
0
0
0
0
0
0
0
0
0
0
177.278
0
0
0
0
0
0
0
0
0
0
0
0
0
0
0
0
0
0
0
0
0
0
0
0
0
0
0
0
0
0
0
0
0
0
0
0
0
0
6311.07
0
0
0
0
0
0
0
0
0
0
0
0
0
0
0
0
0
0
0
0
0
0
0
0
0
0
0
0
0
0
0
0
0
0
0
0
0
0
0
0
0
0
0
0
0
0
0
0
0
0
0
368.199
0
0
0
0
0
0
0
0
0
0
0
0
0
0
0
0
0
0
0
0
0
0
0
0
0
0
0
0
0
0
0
0
0
0
0
0
0
0
0
0
0
0
0
0
0
-93.5839
0
0
0
0
0
0
0
27.2467
0
-10798
0
0
0
0
0
0
0
0
0
0
0
0
0
0
0
0
0
0
0
0
0
0
0
0
0
0
0
0
0
0
0
0
0
0
0
0
0
0
0
0
0
0
0
0
0
0
0
0
0
0
0
0
0
0
0
0
0
0
0
0
0
0
0
0
0
0
0
0
0
0
0
0
0
0
0
0
0
0
0
0
0
0
0
0
0
0
0
21.1997
0
0
0
0
0
0
0
0
0
0
0
0
0
0
0
0
0
0
0
0
0
0
0
0
0
0
0
0
0
0
0
0
0
0
0
0
0
0
0
0
0
0
0
0
0
0
0
0
0
0
0
0
0
0
0
0
0
0
0
0
-20.7085
0
0
0
0
0
0
0
0
0
0
0
0
0
0
0
0
0
0
0
0
0
0
0
-2273.33
0
0
29.6894
0
0
0
0
0
0
0
0
0
0
0
0
0
0
0
0
0
0
0
0
0
-324.111
0
0
0
0
0
0
0
0
0
0
0
0
0
0
0
0
0
0
0
6.43317
0
0
0
0
0
0
0
0
0
0
0
0
0
0
0
0
0
0
0
0
0
0
0
0
0
0
0
0
0
0
0
0
0
0
0
0
0
0
0
0
0
0
0
0
0
0
0
0
0
0
0
0
0
0
0
0
0
0
20.1357
0
0
0
0
0
0
0
0
0
0
0
0
0
0
0
21850.3
0
0
0
0
0
0
0
0
0
0
0
0
0
3.39167
0
0
0
0
0
0
0
0
0
0
0
0
0
0
0
0
0
0
0
0
0
0
0
0
0
0
0
0
0
0
0
0
0
0
0
0
0
0
0
0
0
0
0
0
0
0
0
0
0
0
0
0
0
0
0
0
0
0
0
0
0
0
0
0
0
0
0
0
0
0
0
0
0
0
-10.4109
0
0
0
0
0
0
0
0
0
0
11477.4
0
0
0
0
0
0
0
0
0
0
-252.501
0
0
0
0
0
0
0
0
0
0
0
0
0
0
0
0
0
0
0
0
0
0
0
0
0
40.9237
0
0
0
0
0
0
0
0
0
0
0
0
0
0
0
0
0
0
0
-61224.3
0
0
0
0
0
0
0
0
0
0
0
0
0
0
0
0
0
0
0
0
0
0
0
0
0
0
0
0
0
0
0
0
0
0
0
0
0
0
0
0
0
0
0
0
0
0
0
0
0
0
0
0
0
0
0
0
0
0
0
0
0
0
0
0
0
0
0
0
0
0
0
0
0
0
0
0
0
0
0
0
0
0
0
0
0
0
0
0
0
0
0
0
0
0
0
0
0
0
0
-18.9132
0
0
0
0
0
0
0
0
0
0
0
0
0
0
0
0
0
0
0
0
0
0
0
0
0
0
0
0
0
0
0
0
0
0
0
0
0
0
0
0
0
0
0
0
0
0
0
0
0
0
0
0
0
0
0
0
0
0
0
0
0
0
0
0
0
0
0
0
0
0
0
0
0
0
0
0
0
0
0
0
0
0
-24.3537
0
0
0
0
0
0
0
0
0
0
0
0
0
0
0
0
0
-110.567
0
0
0
0
0
0
0
0
0
0
0
0
0
0
0
0
0
0
-2.57089
0
46703.9
0
0
0
0
0
0
0
0
0
0
0
0
0
0
0
0
0
0
0
0
0
0
0
0
0
0
0
0
0
0
0
0
0
0
0
0
0
0
0
0
0
0
0
0
0
0
0
0
0
0
0
0
0
0
0
0
0
0
0
0
0
0
0
0
0
0
0
1.0092
0
0
0
0
0
0
0
0
0
0
0
0
0
0
0
0
0
0
0
0
0
0
0
0
0
0
0
0
0
0
0
0
0
0
0
0
-5752.01
0
0
0
0
0
0
0
0
0
0
0
6.59044
0
0
0
0
0
0
0
0
0
0
0
0
0
0
0
0
0
0
0
0
0
0
0
0
0
0
0
0
0
0
0
0
0
0
0
0
0
0
0
0
0
0
0
0
0
0
0
0
0
-9.11658
0
0
0
0
0
0
0
0
0
0
0
0
0
0
0
0
0
0
0
0
0
0
0
0
0
0
0
0
0
-4862.99
0
0
0
0
0
0
0
0
0
0
0
0
0
0
0
0
0
0
0
0
0
0
0
0
0
0
0
0
0
0
0
0
0
0
0
0
0
0
0
0
0
0
0
0
0
0
0
0
0
0
0
0
0
0
0
0
0
0
0
0
0
0
0
0
0
0
0
0
0
0
0
0
0
0
0
0
0
0
0
0
0
0
0
0
0
0
0
0
0
0
0
0
0
0
0
0
0
0
0
0
0
0
0
0
0
0
0
0
0
0
0
0
0
0
0
0
0
0
0
0
0
0
0
0
0
0
0
0
0
0
0
0
0
-21.9295
0
0
0
0
0
0
0
0
0
0
0
0
0
0
0
0
0
0
0
0
0
0
0
0
0
0
0
0
0
0
0
0
0
0
0
0
0
0
0
0
0
0
0
0
0
0
0
0
0
0
0
0
0
0
0
0
0
0
0
0
0
0
0
0
0
0
0
0
0
0
0
0
0
0
0
0
0
0
0
0
0
0
0
0
0
0
0
0
0
0
0
0
0
0
0
0
0
0
0
0
0
0
0
0
0
0
0
0
0
0
0
0
0
0
0
0
0
0
0
0
0
0
0
0
0
10.9749
0
0
0
0
0
0
0
0
0
0
0
0
0
0
0
0
0
0
0
0
0
0
0
0
0
0
0
0
0
0
0
0
0
0
0
0
0
0
0
0
0
0
0
0
0
0
0
0
0
0
0
0
-330.61
0
0
0
0
0
0
0
0
0
0
0
0
0
0
0
0
0
0
0
0
0
0
0
0
0
0
0
0
0
0
0
0
0
0
-30727.3
0
0
0
0
0
0
0
0
0
0
0
0
0
0
0
0
0
0
0
0
0
0
0
0
0
0
0
0
0
0
0
0
0
0
0
0
0
0
0
0
0
0
0
0
0
0
0
0
0
0
0
0
0
0
0
0
0
0
0
0
0
0
0
0
0
0
0
0
0
0
0
-9.93995
0
0
0
0
0
0
0
0
0
0
0
0
0
0
0
0
0
0
0
0
0
0
0
0
0
0
0
0
0
0
0
0
0
0
0
0
0
0
0
0
0
0
0
0
0
0
0
0
0
0
0
0
0
0
0
0
0
0
0
0
0
0
0
0
0
0
0
0
0
0
0
0
0
0
0
0
0
0
0
0
0
0
0
0
0
0
0
0
0
0
0
0
0
0
0
0
0
0
0
0
0
0
0
0
0
0
0
0
0
0
0
0
0
0
0
0
0
0
0
0
0
0
106.974
0
0
0
0
0
0
0
0
0
0
0
-1.81886
0
0
0
0
0
0
0
0
0
-645.497
0
0
0
16.5194
0
0
0
0
0
0
0
0
0
0
0
0
0
0
0
0
0
0
0
0
0
0
0
0
0
0
0
0
0
0
0
0
0
0
0
0
0
0
0
0
0
0
0
0
0
0
0
0
0
0
0
0
0
0
0
0
0
0
0
0
0
0
0
0
0
0
0
0
0
0
0
0
0
-169.425
0
0
0
0
0
0
0
0
0
0
0
0
0
0
0
0
0
0
0
0
0
0
0
0
0
0
0
0
0
0
0
0
0
0
0
0
0
0
0
0
0
0
0
0
0
0
0
0
0
0
0
0
0
0
0
0
0
0
0
0
0
0
0
0
0
0
0
0
0
0
0
0
0
0
0
0
0
0
0
0
0
0
0
0
0
0
0
0
0
0
0
0
0
0
0
0
0
0
0
0
0
0
0
0
0
0
0
0
0
0
0
0
0
0
0
0
0
0
0
0
0
0
-6.09158
0
0
0
0
0
0
0
0
0
0
0
0
0
0
0
0
0
0
0
0
0
0
0
0
0
0
0
0
0
0
0
0
0
0
0
0
0
0
0
0
0
0
0
0
0
0
0
0
0
0
0
0
0
0
0
0
0
0
0
0
0
0
0
-652.785
0
0
0
0
0
0
0
0
0
0
0
0
0
0
0
0
0
0
0
0
0
0
0
0
0
0
0
0
3.43834
0
0
0
0
0
0
0
0
0
0
0
0
0
0
0
0
0
0
0
0
0
0
0
0
0
0
0
0
0
0
0
-11.0397
0
0
0
0
0
0
0
0
0
0
0
0
0
0
0
0
0
0
0
0
0
0
0
0
0
0
0
0
0
0
0
0
0
0
0
0
0
0
0
0
0
0
0
0
0
0
0
0
0
0
0
0
0
0
0
0
0
0
0
0
0
0
0
0
0
0
0
0
0
0
0
0
0
0
0
0
0
0
0
0
0
0
0
0
0
0
0
0
0
0
0
0
0
0
0
0
0
0
0
0
0
0
0
0
0
0
0
0
0
0
0
0
0
0
0
0
0
0
0
0
0
0
0
0
0
0
0
0
0
0
0
0
0
0
0
0
0
0
0
0
0
0
0
0
0
0
0
0
0
0
0
0
0
0
0
0
0
0
0
0
0
0
0
0
0
0
0
0
0
0
0
0
0
0
0
0
0
0
0
0
0
104.287
0
0
0
0
0
0
0
0
0
0
0
0
0
0
0
0
0
0
0
0
0
0
0
0
0
0
0
0
0
0
0
0
0
0
2.39447
0
0
0
0
0
0
0
0
0
0
0
0
0
0
0
0
-12.9087
0
0
0
0
0
0
0
0
0
0
0
0
0
0
0
0
0
0
0
0
0
0
0
0
0
0
0
0
0
0
0
0
0
0
0
0
0
0
0
0
0
0
0
0
0
0
0
0
0
0
0
0
0
0
0
0
0
0
0
0
0
0
0
0
0
0
0
0
0
0
0
0
0
0
0
0
0
0
0
0
0
0
0
-7.65313
0
0
0
0
0
0
-208.044
0
2.46959
0
0
0
0
0
0
0
0
0
0
0
0
0
0
0
0
0
0
0
0
0
0
0
0
0
0
0
0
0
0
0
0
0
0
0
0
0
0
0
0
0
-33138.7
