booster[0]:
bias:
-1869.52
weight:
0
0
0
0
0
0
0
0
3083.25
-30.9669
-1433.34
0
-15907.6
-2.47267e+06
-12652.6
-19805.9
1381.04
0
0
-6.42695e+06
-18819.2
-1.0473e+06
29.3735
1.06038e+07
1869.34
-1280.21
-396551
-74641.1
6859.82
-4.67709e+07
0
0
-2.68998e+06
15212
1001.09
0
1649.69
-748632
20416.1
-185139
3.32325e+06
-211.482
1.68674e+07
-13386.5
-6529.85
0
0
-647.69
116.44
-1.50209e+06
182.098
-6718.21
0
0
-1.65603e+06
12248.6
3190.47
-18205.5
1902.83
-3069.39
398.651
-1429.4
1825.75
0
182.011
14581.2
566.94
751669
-7.9449e+06
-1205.93
-5.06265e+06
768602
-137735
0
78015.8
-19691.1
9757.8
2.40417e+06
1434.05
-20262.7
-588.38
-170491
-773.885
425.272
50513.4
8.82293e+06
-159556
31033.3
-303612
15979.1
13651.3
1517.66
0
68176.9
-47520.1
-2199.97
13731.2
-2470.54
0
0
1627.95
23686.9
-3040.58
16983.9
1.97418e+06
239.912
293245
-767.884
-1.02753e+06
-1102.61
1445.37
1.61427e+06
174.815
-551285
80.4538
483.758
-618.744
80957.4
-319568
94420.2
583.243
2323.23
186.525
0
-6000.65
1929.38
0
0
-21621.8
765.494
265363
2249.21
-3627.8
3952.15
2.76163e+06
-131.768
0
0
52.4864
0
4503.12
1383.05
-82382.1
3917.01
0
24108.8
86.8656
-984675
729.026
38490.3
638.925
4.41958e+06
9554.5
272818
4830.56
0
-32.3327
1205.88
-601535
400.672
-304.994
0
0
3.51121e+06
587.187
18483.8
-270.363
1.93896e+06
418.157
85247.6
0
-887.46
413.861
-1364.81
-1119.43
16696.7
-1083.76
-457.791
0
-1387.93
0
444838
3.29592e+06
1737.08
1532.84
-1719.03
-2134.13
-225.53
2472.38
-820.429
0
373549
3.26529
546.394
0
353.718
364118
-668.649
-1021.76
98.5549
112.013
1072.34
4306.27
602.89
50859.6
2237.99
-26761.3
23703.6
-11067.7
97.8094
71.8918
82.3175
249.868
111.743
708.444
15869.5
0
-47.269
0
2154.82
409.944
0
1160.43
109.71
26956.4
361.623
49163.8
0
110.957
-340194
0
-79370.2
1.40688e+07
74325.1
95.9137
-33724.4
-93864.9
-18.4572
0
108.903
75719.4
649.327
19630.5
80.624
1.55111e+06
111.486
114.946
462771
7046.49
0
45733.1
473.36
-175.217
0
33243.1
2596.81
484.832
0
98.857
63.4554
-1298.8
0
-246188
-1524.27
-22921.9
11872.6
9836.28
631.311
118467
-54055.5
-159343
3067.14
3.03309e+06
3849.26
385.041
997422
110.312
0
20827.5
-5500.09
2206.76
4356.4
-2423.36
114.976
-177.423
0
111.117
1172.62
0
86.6988
-2021
-81724.7
0
113.842
-755241
58.9069
0
2455.18
13490.4
0
279.612
-12068.2
0
-2147.44
0
0
-64965.9
0
-257838
0
19026.6
0
209001
0
1867.64
-73345.5
-8708.4
-413.052
-662.336
-2472.17
1089.47
379.903
0
0
774.264
115.581
29416
0
-4.24478e+06
119577
0
4385.88
54507.6
3365.69
0
5444.32
0
229.852
0
-22659.1
-280512
8640.88
0
123567
0
116.304
346.684
0
-4.35774e+06
-70809.5
-73.426
739.563
19632.4
0
0
154011
80388.9
0
0
-11241.1
2323.42
989.787
15767.7
0
0
7276.74
80.7774
2272.96
81683.1
301.762
-5145.37
-172.137
2915.76
0
-10131.4
0
0
546.745
-5370.82
3168.9
2164.52
-365.443
0
0
0
83306
16363.8
306.765
99.9592
0
-6659.45
0
0
498.485
0
-29156.3
0
0
0
783.844
-5.1013e+06
0
-554135
0
0
86.5836
925.453
0
0
-75116.9
-82031
0
0
0
0
0
1898.69
1.42643e+06
-8119.23
0
903.293
108.102
0
-7233.98
0
-283.295
0
-19819.2
14292.9
-47.2499
0
0
0
0
0
0
-85.1251
0
-186.608
0
-95.134
0
142365
0
0
0
0
0
0
0
0
0
23875.5
0
0
0
1198.83
90568.9
-2685.27
0
-198.01
0
-4.14632e+06
0
0
0
0
0
0
0
1295.58
0
0
0
34130.4
114.082
0
723120
0
0
0
-44.6484
975.572
0
0
0
0
267.498
0
0
0
0
0
0
0
0
0
0
0
0
0
43.8004
0
0
0
0
0
116.681
0
0
0
0
0
0
0
0
0
0
-21.0064
0
0
2734.28
-13667.1
-1.59358e+06
0
0
0
0
0
0
0
0
0
0
0
0
0
670.508
0
0
0
0
0
107.783
1.73822e+06
0
0
0
0
0
0
0
0
0
0
0
0
111.028
0
0
0
0
-39.3851
0
0
0
0
0
-1.8864
0
0
0
0
159.334
0
0
0
-569.582
-12789.4
85.6184
0
0
-447.07
0
0
0
0
-125.267
0
0
813.962
0
0
0
0
0
0
0
0
0
63.7912
0
0
0
0
0
0
0
0
0
-14788.5
-45.1385
0
0
0
0
0
0
0
0
0
0
8247.19
0
0
0
0
0
0
0
0
0
0
0
0
0
0
0
0
0
-1885.74
0
0
0
100.589
0
0
0
-393.682
728.384
0
0
0
0
566.546
0
0
0
14950
0
0
0
0
0
0
0
0
0
0
0
0
0
0
0
0
-119.685
0
0
0
364.875
0
0
0
0
0
0
0
0
0
0
0
589.186
865.682
0
0
0
0
0
0
0
0
0
0
0
0
3089.63
833.7
0
-199.426
0
0
0
0
0
0
0
0
561.09
0
0
0
0
0
0
0
0
0
0
0
0
0
0
0
0
0
0
0
0
0
0
0
0
0
0
1587.25
0
0
0
0
0
0
0
0
0
0
0
0
0
2027.26
0
0
0
0
0
0
0
0
0
-12106.4
0
0
0
0
-2728.52
0
0
0
0
0
0
0
0
0
-63524.3
0
0
0
0
-540.388
0
0
0
0
0
0
0
0
0
0
0
0
0
0
0
0
0
0
0
0
0
0
457.552
0
0
0
0
0
0
0
0
0
0
0
0
0
0
0
0
0
0
0
0
0
0
0
0
0
0
0
0
0
224752
0
0
0
0
0
0
0
0
0
0
0
0
0
0
0
0
0
0
0
0
0
0
0
0
0
0
0
0
0
0
0
0
0
0
0
0
0
0
0
0
77.3478
0
0
0
0
0
0
0
1765.79
0
0
0
0
0
0
0
0
0
0
0
0
0
0
0
0
0
0
0
0
0
0
0
0
0
0
0
0
0
0
51.3196
0
0
-77.7268
0
0
0
0
0
0
0
-42.764
0
0
-43.007
0
0
0
59.5608
0
0
0
0
673.587
0
0
-54024.2
0
0
0
0
0
0
0
0
0
0
0
0
0
0
0
0
0
0
715.221
0
0
0
0
0
0
0
0
0
0
0
0
0
0
0
0
0
0
0
0
79.0278
0
0
0
0
0
0
329089
0
0
150.177
0
9070.11
0
0
0
0
0
0
0
0
0
59.489
0
0
0
0
0
0
648.546
686.523
0
0
0
0
0
-9986.76
0
0
0
0
0
0
0
0
0
0
0
0
0
0
0
0
129.316
0
0
0
0
0
0
0
0
0
0
0
0
7206.43
695.18
0
0
0
0
0
0
113998
0
0
0
0
0
0
0
0
0
0
0
0
0
0
0
610719
0
0
0
0
0
-125177
0
0
0
0
0
0
0
0
0
0
0
384.573
0
0
0
0
0
0
0
0
0
0
0
-459.161
0
0
0
0
0
0
0
19.3204
0
0
0
0
0
0
0
0
0
0
-1759.3
59346
0
0
0
-67.4706
0
0
0
0
0
0
0
0
0
0
0
0
0
-97522.6
0
0
0
0
0
0
0
0
0
0
-10.5171
-30.257
0
0
0
0
0
0
-73332.4
0
0
0
0
0
0
0
-4122.33
0
0
0
0
0
0
0
0
0
0
0
0
117.571
-300.008
299621
0
0
0
0
0
0
0
0
0
0
-33.5635
0
0
0
0
0
0
0
0
9676.41
0
0
0
0
0
0
0
0
0
0
0
0
0
0
0
0
0
0
0
7437.56
0
0
0
0
0
0
-8.76461
0
0
0
0
0
0
0
0
0
0
0
0
0
0
0
176.643
0
0
0
0
0
0
0
0
0
0
0
0
0
0
0
0
0
0
0
0
0
0
0
0
0
0
0
0
2277.77
0
0
377.027
0
0
0
0
0
0
0.900736
0
0
0
0
0
0
0
0
0
0
0
0
0
0
68.336
0
0
15.7451
0
0
0
0
0
0
0
0
0
0
0
0
0
0
0
-16664.4
0
0
0
0
0
0
0
0
0
0
0
0
0
0
0
0
0
0
0
0
0
0
0
0
0
-10.4267
0
0
0
-13298.1
0
0
0
0
0
0
0
0
0
0
0
0
23.6854
0
0
252.198
0
0
0
0
0
0
0
0
0
0
0
0
0
21646.1
0
0
0
0
0
0
0
0
0
0
0
0
0
0
0
0
0
0
0
0
0
0
0
0
0
0
0
0
44.554
0
0
0
0
0
0
0
0
0
0
0
0
0
0
0
0
0
0
0
0
0
0
0
0
0
0
0
0
0
0
0
0
0
-4882.17
0
0
0
0
0
0
0
0
0
201.012
0
0
0
0
0
0
0
0
0
0
0
0
0
0
0
0
0
0
0
0
0
0
0
16.7999
0
0
0
0
0
0
0
0
0
0
0
0
0
0
0
0
0
0
0
0
0
0
0
0
0
0
0
0
0
0
0
0
0
0
0
-135.88
102.734
0
0
0
0
0
0
0
0
0
0
0
0
0
0
0
0
0
0
0
0
0
0
0
0
0
0
0
0
0
0
0
0
0
0
7.98575
0
0
0
0
0
0
0
0
0
0
0
0
0
0
0
0
0
0
0
-56737.7
0
-29952.9
0
0
0
0
0
0
0
0
0
0
0
8.78846
0
0
0
0
0
0
0
0
0
0
0
0
13.3063
0
0
0
0
0
0
0
7.75432
0
0
0
0
0
0
0
0
0
0
0
0
0
0
0
-706.685
0
0
0
0
0
0
0
0
0
0
0
0
0
0
0
0
0
0
0
0
0
0
0
0
0
0
0
0
7769.17
0
0
0
0
0
0
0
0
0
0
-12.9633
0
0
0
0
0
0
0
0
0
0
0
0
0
0
556.307
0
0
0
0
0
948.015
0
0
0
0
0
0
0
0
0
0
0
0
0
0.00461602
0
0
-5917.09
0
0
0
0
0
0
0
0
0
0
0
0
0
0
0
-9.48071
0
0
0
0
-125.322
-787.192
0
0
0
0
0
0
0
0
0
0
0
0
0
0
0
0
0
10667.2
0
0
0
0
0
50.453
0
0
0
0
0
0
0
0
0
0
0
0
0
30.4458
0
0
0
0
0
0
0
0
0
0
0
0
0
0
-991.386
0
0
0
0
0
0
0
0
0
0
0
0
0
0
0
0
0
0
0
0
0
0
7.15415
0
0
0
0
0
0
0
0
0
0
0
0
0
0
0
0
0
0
0
0
0
0
0
0
0
0
0
0
0
0
0
0
0
0
0
0
0
0
0
0
0
0
0
0
0
0
0
0
0
0
0
0
0
0
0
0
0
0
0
0
0
0
0
0
0
28.3233
0
0
0
0
0
0
0
0
0
0
0
0
0
0
0
0
0
0
0
962.951
0
0
0
0
0
0
0
9.88484
0
0
0
0
0
0
0
0
0
0
0
0
0
0
0
0
0
0
0
0
0
0
0
0
0
0
0
0
0
0
0
0
0
6.31138
0
0
0
0
0
0
0
0
0
0
0
56.8708
0
0
0
0
0
0
0
0
0
0
0
0
0
0
0
0
0
0
0
0
0
0
0
0
-4539.19
0
0
0
0
0
0
0
35.5968
0
0
-64.9587
0
0
0
0
0
0
0
0
0
0
0
0
0
0
0
0
0
0
0
0
0
0
0
0
0
0
0
0
0
0
0
0
0
0
0
0
0
0
0
0
0
0
0
0
0
0
0
0
0
0
0
0
0
0
0
0
0
0
0
0
84256.6
0
0
0
0
0
0
0
0
0
0
0
3.11613
-72.9972
0
0
0
0
0
0
0
0
0
0
0
0
0
0
0
0
0
0
0
0
-21913.7
0
0
0
0
0
0
0
0
0
0
0
0
0
0
0
0
0
0
0
0
0
0
0
0
0
0
0
0
0
0
0
0
0
0
0
0
0
0
0
0
0
0
0
0
0
0
0
0
0
0
-3954.42
0
0
0
0
0
-2172.06
0
0
0
0
0
0
0
0
0
0
0
0
0
0
0
0
60.2847
0
0
0
0
-130.624
0
0
0
0
0
0
0
0
0
0
0
0
0
0
0
0
0
0
0
0
0
0
-511.167
0
0
0
0
0
0
-18176
0
0
0
0
0
0
0
0
0
0
-23.0198
0
0
0
0
0
0
0
0
0
0
0
0
0
0
-15976.3
0
0
0
0
0
0
0
0
0
0
0
0
0
0
-475.797
0
0
231.018
0
0
0
0
0
0
0
0
0
0
0
0
0
0
0
0
0
0
0
0
0
0
0
0
3.81207
0
0
0
0
0
0
0
0
0
0
0
0
0
0
0
0
0
0
2.20741
0
0
0
0
-110.171
-199.872
0
0
0
0
0
0
0
0
0
0
-2397.27
0
0
0
0
0
0
0
0
0
0
0
0
-18.8404
0
0
0
0
0
0
0
0
0
0
-385.11
0
0
0
0
0
0
0
0
0
0
0
0
0
0
0
0
0
0
0
0
0
0
0
0
0
0
0
0
0
0
0
0
0
-427.818
0
0
0
0
0
0
0
0
0
0
0
0
0
0
0
0
0
0
0
0
0
0
0
0
0
0
1.28548
0
0
0
0
0
0
0
0
0
0
0
0
0
0
0
0
0
0
0
0
0
0
0
0
0
1709.24
0
0
0
0
0
0
0
0
0
0
0
0
0
0
0
0
0
0
0
0
0
0
0
0
0
0
0
0
0
0
0
0
0
0
0
0
0
0
0
-425.625
0
0
0
0
0
278.733
0
0
0
0
0
0
0
0
0
0
0
0
0
0
0
0
0
0
0
0
0
0
0
0
0
0
0
0
0
0
0
0
0
0
321.314
0
0
0
0
0
0
0
0
0
0
5495.61
0
0
0
0
0
0
0
0
0
0
0
0
0
0
0
0
0
0
0
0
0
0
0
0
0
0
0
0
0
0
0
0
0
0
0
0
0
0
-6.57554
0
0
0
0
0
0
0
0
0
0
0
0
0
0
0
0
0
0
0
0
0
0
0
0
0
0
0
0
0
0
0
0
0
0
0
0
0
0
0
0
0
0
0
0
0
0
-22.3109
0
0
0
0
-283.719
0
0
0
0
0
0
0
0
0
0
0
0
0
0
0
0
0
0
0
0
0
0
0
0
0
0
0
0
0
0
0
0
0
0
-399.307
0
0
0
0
0
0
-11.9042
0
0
0
-1275.66
-36.7579
0
0
0
0
0
-730.768
412.825
0
-13.4594
0
0
0
0
0
0
0
0
0
0
0
0
0
0
0
0
0
0
0
0
0
0
0
0
0
0
0
0
0
0
0
0
0
0
0
0
0
0
0
0
0
0
0
0
0
0
0
0
0
0
0
0
0
0
0
0
0
0
0
0
0
0
0
0
0
0
0
0
0
-10.5473
0
0
0
0
0
0
0
0
0
0
0
0
0
0
0
0
0
46.7051
0
0
0
0
0
0
0
0
0
0
0
0
0
0
0
0
0
0
0
0
0
0
0
0
0
0
0
0
0
0
0
0
0
0
0
0
0
0
0
0
0
0
0
0
0
0
0
0
0
0
0
0
0
0
0
0
0
0
0
0
-173.906
0
0
0
141.85
0
0
0
0
0
-39.6614
0
0
0
0
0
0
0
0
-27054.5
0
0
0
0
-51.0183
0
0
-229.495
0
0
15.5021
0
0
0
0
0
0
0
0
0
0
0
0
0
0
0
0
0
0
-24.9503
0
0
0
-2444.99
0
0
0
0
0
0
0
0
0
5.306
0
0
0
0
0
-889.641
0
0
0
0
-321.189
0
0
0
0
0
0
0
0
0
0
0
0
0
0
0
0
0
0
0
0
0
0
0
-1913.39
0
0
0
0
0
0
0
0
0
0
0
0
0
0
0
0
0
0
0
0
0
0
0
0
0
0
0
0
0
63.0561
0
0
0
0
0
0
0
0
0
0
0
0
0
0
0
-42.0577
0
0
0
0
0
0
0
0
0
0
0
0
0
-12.7774
0
0
0
0
0
0
0
0
0
0
0
0
0
0
4493.61
0
0
0
0
0
0
0
0
0
0
0
0
0
0
0
0
0
0
0
0
0
0
0
6.49546
0
0
0
0
0
0
0
0
0
0
0
0
0
0
5.24559
0
-11.2834
0
0
0
0
0
0
0
0
0
0
0
0
0
0
0
0
0
0
-14.1412
0
0
0
0
0
0
0
0
0
0
2107.75
0
0
0
0
0
0
0
0
0
0
12.6407
0
0
0
0
0
0
0
0
0
0
0
0
0
0
0
62.7331
0
0
0
0
0
0
0
0
0
152.39
0
0
0
0
0
0
0
0
0
0
0
0
0
0
0
0
0
0
0
-250.909
0
0
0
0
0
0
0
0
0
0
0
0
0
0
0
0
0
0
0
0
0
0
0
0
0
0
0
0
0
0
0
0
0
0
0
0
0
0
0
0
0
0
0
0
0
0
0
0
-78.889
0
0
0
0
0
0
0
0
0
0
0
0
0
0
0
0
0
0
0
0
0
0
0
0
0
0
0
0
0
0
0
0
0
0
0
0
0
0
0
0
0
0
0
0
0
0
0
0
0
0
5236.05
0
0
0
0
0
0
0
0
0
0
0
0
0
0
0
0
0
0
0
0
0
0
0
0
0
0
0
0
0
0
0
0
0
0
0
0
-244.007
0
0
0
0
0
0
0
0
319.046
0
0
0
0
0
0
0
0
0
0
0
0
0
0
0
0
0
0
0
0
-6.87204
0
0
0
0
0
0
0
0
0
0
0
0
0
0
0
-8.65666
0
0
0
0
0
0
0
0
0
0
0
0
3.47078
0
0
0
0
-8.50601
0
0
0
0
-4.06548
0
0
0
0
0
0
0
0
0
0
0
0
0
-2.506
0
-21.5662
0
0
0
0
0
0
0
0
0
0
0
0
0
0
0
0
0
0
0
0
0
0
0
0
0
0
0
0
0
0
0
0
0
0
0
0
0
0
0
0
0
0
0
0
0
0
0
0
0
0
0
0
0
0
0
0
0
13.6219
0
0
0
0
0
0
0
0
0
-21.2341
0
0
0
0
0
0
0
0
0
0
0
0
0
0
0
0
0
0
0
0
0
0
0
0
0
0
0
0
0
0
0
0
0
0
0
0
-4492.53
0
0
0
0
0
-12474.5
0
0
0
0
0
-12.0361
0
0
0
0
-1.11794
0
0
0
0
0
0
0
0
0
0
0
0
0
0
0
0
0
0
0
0
0
0
-114.723
0
0
0
0
0
0
0
0
0
0
0
0
0
0
0
0
0
0
0
0
0
-17.6621
0
0
0
0
0
0
0
0
0
0
0
0
0
0
0
0
0
0
0
0
0
0
0
0
0
0
0
0
0
-104.826
0
-3.15641
0
0
0
0
0
0
0
0
0
0
0
0
0
0
0
0
-1230.01
0
0
0
0
0
0
0
0
0
0
0
0
0
0
0
0
0
0
0
0
0
0
-25.8793
0
0
0
0
0
0
0
0
0
0
0
0
0
0
0
0
0
0
0
0
0
0
0
0
0
0
0
0
0
0
0
0
0
0
0
0
0
0
0
0
0
0
0
0
0
0
0
0
0
0
0
-1064.03
0
0
0
0
0
0
0
0
0
0
0
0
0
0
0
0
0
0
0
0
0
0
0
0
0
0
0
0
0
0
0
0
0
0
0
0
0
0
0
-1620.53
0
0
0
0
-3721.01
0
0
0
0
0
0
0
0
0
0
0
-1220.95
0
0
0
0
0
0
0
0
0
0
0
0
0
0
0
0
0
0
0
0
0
0
0
0
-2.70475
0
0
0
0
0
0
0
0
0
0
0
0
0
0
0
0
0
0
0
0
0
0
0
0
15639.5
0
0
0
0
-3.45219
0
0
0
0
0
0
0
0
0
0
0
0
0
0
0
0
0
0
0
0
0
0
0
0
0
0
0
0
0
0
0
0
0
0
0
0
0
0
0
0
0
0
0
0
0
0
0
0
0
0
0
0
0
-6071.89
0
0
0
0
0
0
0
0
0
0
0
0
0
0
0
-0.811482
1.84758
0
0
0
0
0
-13.1025
-57.1793
0
0
0
0
0
0
0
0
0
-320.249
0
0
0
0
0
0
0
0
-26046.7
0
-3.33428
0
0
0
0
0
0
0
-614.607
0
0
0
0
0
0
0
0
0
0
0
0
0
0
0
0
0
0
0
0
0
-71.3609
0
0
0
0
0
0
0
0
0
0
0
0
-279.602
0
0
0
0
0
0
0
0
0
0
0
0
0
0
0
0
0
0
0
0
0
0
0
0
0
-119.926
1.53506
0
0
0
0
0
0
0
0
0
0
0
0
0
0
0
0
0
0
0
0
0
0
0
0
0
0
0
0
0
0
-7444.76
0
0
0
0
0
0
0
0
0
0
0
0
0
-3.1331
0
0
0
0
0
0
0
0
0
0
0
0
0
0
0
0
0
0
0
0
0
0
0
0
0
0
0
0
0
0
0
0
0
0
0
0
0
0
-199.86
0
0
0
0
0
0
0
0
0
0
0
0
0
0
0
0
0
0
0
0
0
0
0
-8.51396
0
0
0
0
0
0
0
0
0
0
0
0
0
0
0
0
0
0
0
0
0
0
0
0
0
0
0
0
0
0
0
0
0
0
0
0
0
0
0
0
-12.3979
0
0
0
0
0
0
0
0
0
0
0
0
0
0
0
0
0
0
-220.965
0
0
0
0
-9.43895
0
0
0
0
0
0
8.96634
0
0
0
0
0
0
0
0
0
-34.5979
0
0
0
-10.0299
0
0
0
0
0
0
0
-5947.51
0
0
0
0
0
0
0
0
0
0
0
0
0
0
0
0
0
0
0
0
0
0
0
0
0
0
0
0
0
0
0
0
0
0
0
0
0
0
0
0
0
0
0
0
0
0
0
0
0
0
0
0
-157.319
0
0
0
0
0
0
0
0
0
0
0
0
-4.21201
0
0
0
0
0
-29.1693
0
0
0
0
0
0
0
0
0
0
0
0
0
0
0
0
0
0
0
0
0
0
0
0
0
0
0
0
0
0
0
0
0
0
0
0
0
0
0
0
0
0
0
0
0
0
0
0
0
0
0
0
0
0
0
0
0
0
0
0
0
0
0
0
0
0
0
0
0
0
0
-22.1187
0
0
0
0
0
0
0
0
0
0
0
0
0
0
0
-66.1018
0
0
0
0
0
0
0
0
0
0
0
0
0
0
-19.1816
0
0
0
0
0
61.6272
0
0
0
0
-5312.91
0
0
-459.898
0
-4.61644
0
0
0
0
0
0
0
0
0
0
0
0
0
0
0
0
0
0
0
0
0
0
0
0
0
0
0
0
0
0
0
-1.91454
0
0
0
0
0
0
0
0
0
0
0
0
0
0
0
0
0
0
0
0
0
0
0
0
0
0
0
0
0
-805.226
0
0
0
0
0
10.4851
0
0
0
0
0
0
0
0
0
0
0
0
0
0
0
0
0
0
0
0
0
0
-382.159
0
0
0
0
0
0
0
0
0
0
0
0
0
0
0
0
0
0
0
0
0
0
0
0
0
0
0
0
0
0
0
-5.61792
0
0
0
0
0
0
0
-968.278
0
0
0
0
0
0
0
0
0
0
0
0
0
0
0
0
0
0
0
-8.34946
0
0
0
-15.3825
0
0
0
0
0
0
0
0
0
0.0553275
0
0
0
0
-1.90843
0
0
0
0
0
0
0
0
0
0
0
0
0
0
0
0
0
0
0
0
0
0
0
0
0
0
0
0
0
0
0
0
0
0
0
0
0
0
0
0
0
0
0
0
0
0
0
0
0
0
0
0
0
0
0
0
0
1.43616
0
0
0
0
0
0
0
0
0
0
-191.59
0
0
0
0
0
0
0
0
0
0
0
0
0
0
0
0
0
0
0
0
0
0
0
0
0
0
0
0
0
0
0
0
0
0
0
0
0
0
0
0
0
0
0
0
0
0
0
0
0
0
0
0
0
0
0
0
0
0
0
0
0
0
0
0
0
52.1073
0
0
0
0
0
0
0
-2.53186
0
0
0
0
0
0
0
0
0
0
0
0
0
0
0
0
0
0
0
0
0
0
0
0
0
0
-13.2299
0
0
0
0
0
0
0
21204
49084
0
0
0
0
0
0
0
-16.1318
0
0
0
0
0
0
0
0
0
0
0
0
0
0
0
0
0
0
0
0
0
-112.885
0
0
0
-14.6939
0
0
0
0
0
0
0
0
0
0
0
0
0
-20270.9
0
0
0
0
0
0
0
0
0
0
0
0
0
0
0
0
0
0
0
0
0
0
0
0
0
0
0
0
0
0
0
0
0
0
0
0
0
0
0
0
0
0
0
-29.6094
0
0
-4.30093
0
0
0
60.7915
0
9.68886
0
0
-31.2632
0
0
0
0
0
0
0
0
0
0
0
0
0
0
0
0
0
0
0
0
0
0
0
0
0
0
0
0
0
0
0
0
0
0
0
0
0
0
-6.41623
