booster[0]:
bias:
-227.251
weight:
39.0545
43.1543
-11475.2
5243.39
0
0
-1526.47
0
-25887.1
0
-281.321
-433.612
13782.7
14.6724
219.07
-15467.6
3655.21
-167780
-41.2028
6970.07
147.675
-41184.9
149.251
-46334
150.532
-25300.4
312.207
5839.4
1543.71
-2261.59
-2859.8
0
2376.82
-49265.7
-822383
0
159.67
1587.86
-3468.99
145.886
192976
163.795
-15942.1
23977.2
-25580.9
124679
0
272259
192.53
149.163
1377.88
4905.91
-4087.07
0
-1144.51
19446.7
1.42813e+06
154.125
71.0493
-243015
-653785
-1.38313e+06
132.607
0
160.649
-16258.7
1042.28
1.3171e+06
0
77.4197
885.64
38.0263
1601.78
-11966.2
-19048.5
-795494
-431355
30575.5
-149885
1867.32
127.821
146.621
1012.09
147.296
-603.011
442774
-134.377
1033.02
4229.13
23106.1
925.792
6650.73
0
14378.3
695.716
-2316.18
-222551
1016.2
0
0
-32011.3
35571.8
-9243.35
-602.109
-998715
-21353
7283.35
3825.36
1689.83
15278.7
-10469.9
572.535
1035.62
-967892
6438.12
269875
-286336
-121.655
48474.9
136103
3.14987e+06
-17444.2
-17946.6
0
869.304
-477303
0
0
5239.55
-549.408
-3939.13
-8148.59
-9.34863
10124.5
-113298
144.458
0
0
-8621.56
0
5861.08
-140865
-120.098
-2211.1
0
1116.8
-2.00869e+07
18137.2
-2702.42
-11163.2
3434.94
1493.6
137155
156379
446.347
0
-81.1023
1611.58
-83475.2
-722.836
1244.58
0
0
1884.83
-3219.17
-325397
-346419
174.549
1209.4
1075.22
0
-1.69227e+06
817.15
4.11907e+06
-551.421
-619.43
-83.4323
3149.73
0
23.2666
0
349.125
-16916.6
-3775.04
8183.97
5461.75
-7248.53
21282.4
-1845.36
583.577
0
727.332
-318.999
-981874
0
53072.7
6134.22
690.795
-35013.3
504.192
-3473.21
318159
1.27468e+06
770.52
567.937
4560.52
2.19888e+06
752677
296725
527.525
891.648
-19902.5
120036
77793.3
55345.7
331.127
0
26945.3
0
-108184
163.68
0
228.705
6331.01
56222.6
2489.7
128.058
0
9643.13
53934.5
174892
108748
573.66
-26423.1
522699
861.115
210508
122.805
0
-496244
1275.44
574.068
142519
1076.98
756.379
2351.89
4719.78
4091.4
1447.21
0
1349.75
5867.08
-866.194
0
321.646
749.822
251.25
0
220.271
424.177
33884.6
-3774.39
116.636
901.75
2480.05
64994.9
5390.29
667.753
5378.78
-595.56
8598.41
918.403
435.998
1.56912e+06
-767.029
1.21876e+06
2954.99
0
718.987
251.61
56636.1
2.37356e+06
5.82202e+06
291.915
-616.674
0
-16.9917
3284.65
0
681.273
-1.82356e+06
-900.292
0
947.457
442.681
-3981.81
0
96387.2
1820.36
0
154.429
1489.7
0
234.438
0
0
-4136.76
0
1754.51
0
899.619
0
399.099
0
144.77
1095.45
204.307
-326762
8011.04
269691
97614.1
166861
0
0
35558.8
-92379.5
108694
0
306.983
11602.8
0
3842
233085
401.397
0
2376.29
0
1135.87
0
-237501
2964.36
-905.857
0
40712.1
0
1015.32
2870
0
29707.8
134.141
351.968
609.125
-7206.6
0
0
206.651
196497
0
0
2387.82
20918.9
-2281.14
38852.9
0
0
117.852
345.594
-120.075
38.5867
596675
7112.17
-1376.75
22749.7
0
1.36147e+06
0
0
1726.99
6767.9
8221.04
115.695
6322.49
0
0
0
164.205
-70.0991
2621.33
373.195
0
1061.22
0
0
284.192
0
9874.03
0
6581.79
0
810.006
0
0
-2665.38
0
0
1572.7
1862.56
0
0
1763.62
-121.407
0
0
0
0
0
1280.18
78018.2
122704
362772
38230.5
799292
0
406396
0
91459.6
0
-31305.3
242892
431.484
0
0
0
0
0
0
-174600
0
-2320.89
0
-2696.62
0
404.59
0
0
0
0
0
0
0
0
0
189874
0
0
0
769096
17445.5
149.812
0
1999.63
0
246867
0
0
0
0
0
0
0
349.503
0
0
0
185880
11403.2
0
-25.7755
0
0
0
15712.1
235769
0
0
0
0
1.35026e+06
0
0
0
0
0
0
0
0
0
0
0
0
0
5195.52
0
0
0
0
0
237.088
0
0
0
0
0
0
0
0
0
0
362.639
0
0
333.293
807.606
368.123
0
0
0
0
0
0
0
0
0
0
0
0
0
612.179
0
0
0
0
0
12506.5
22701.3
0
0
0
0
0
0
0
0
0
0
0
0
136371
0
0
0
0
-560.817
0
0
0
0
0
218.507
0
0
0
0
476.47
0
0
0
27086.4
12586
-65414.6
0
0
109.209
0
0
0
0
60298.8
0
0
78.9688
0
0
0
0
0
0
0
0
0
1297.38
0
0
0
0
0
0
0
0
0
-9128.3
-255467
0
0
0
0
0
0
0
0
0
0
104892
0
0
0
0
0
0
0
0
0
0
0
0
0
0
0
0
0
252.961
0
0
0
683888
0
0
0
123.271
-1343.87
0
0
0
0
646.518
0
0
0
378.792
0
0
0
0
0
0
0
0
0
0
0
0
0
0
0
0
28.5107
0
0
0
-172.285
0
0
0
0
0
0
0
0
0
0
0
126.389
17804.1
0
0
0
0
-49.6132
0
0
0
0
0
0
0
0
859.447
0
-1888.43
0
0
0
0
0
0
0
0
371568
0
0
0
0
0
0
0
0
0
0
0
0
0
0
0
0
0
0
0
0
0
0
0
0
0
0
32785.3
0
0
0
0
0
0
0
0
0
0
0
0
0
37.2982
0
0
0
0
0
0
0
0
0
3230.54
0
0
0
0
-45571.2
0
0
0
0
0
0
0
0
0
64.9758
0
0
0
0
177.027
0
0
0
0
0
0
0
0
0
0
0
0
0
0
0
0
0
0
0
0
0
0
155381
0
0
0
0
0
0
0
0
0
0
0
0
0
0
0
0
0
0
0
0
0
0
0
0
0
0
0
0
0
0
0
0
0
0
0
0
0
0
0
0
0
0
0
-84444.5
0
0
0
0
0
0
0
0
0
0
0
0
0
0
0
0
0
0
0
0
0
0
0
0
0
0
2391.81
0
0
0
0
0
0
0
503.434
0
0
0
0
0
0
0
0
0
0
0
0
0
0
0
0
0
0
0
0
0
0
0
0
0
0
0
0
0
0
83381.5
0
0
-8.07262
0
0
0
0
0
0
0
11929.4
0
0
54142.9
0
0
0
0
0
0
0
0
-69.8693
0
0
126.601
0
0
0
0
0
0
0
0
0
0
0
0
0
0
0
0
0
0
0
0
0
0
0
0
0
0
0
0
0
0
0
0
0
0
0
0
0
0
0
0
0
0
0
0
0
0
125.836
0
0
0
0
-3246.24
0
0
0
0
0
0
0
0
0
175.011
0
0
0
0
0
0
2036.87
0
0
0
0
0
0
-219.058
0
0
0
0
0
0
0
0
0
0
0
0
0
0
0
0
-168.879
0
0
0
0
0
0
0
0
0
0
0
0
0
242018
0
0
0
0
0
0
82.0981
0
0
0
0
0
0
0
0
0
0
0
0
0
0
0
0
0
0
0
0
0
-260.362
0
0
0
0
0
0
0
0
0
0
0
-30.2404
0
0
0
0
0
0
0
0
0
0
0
23652
0
0
0
0
0
0
0
15.4554
0
0
0
0
0
0
0
0
0
0
2.42368
0
0
0
0
-7.94151
0
0
0
0
0
0
0
0
0
0
0
0
0
30635.7
0
0
0
0
0
0
0
0
0
0
-102.926
-6.39577
0
0
0
0
0
0
4652.66
0
0
0
0
0
0
0
-6147.14
0
0
0
0
0
0
0
0
0
0
0
0
22449.5
0
437.368
0
0
0
0
0
0
0
0
0
0
-375.575
0
0
0
0
0
0
0
0
4.69485
0.213606
0
0
0
0
0
0
0
0
0
0
0
0
0
0
0
0
0
0
4.18511
0
0
0
0
0
0
-51.214
0
0
0
0
0
0
0
0
0
0
0
0
0
0
0
424345
0
0
0
0
0
0
0
0
0
0
0
0
0
0
0
0
0
0
0
0
0
0
0
0
0
0
0
0
0
0
0
-752.931
0
0
0
0
0
0
6.44105
0
0
0
0
0
0
0
0
0
0
0
0
0
0
4433.16
0
0
0
0
0
0
0
0
0
0
0
0
0
0
0
0
0
0
4.87615
0
0
0
0
0
0
0
0
0
0
0
0
0
0
0
0
0
0
0
0
0
0
0
0
0
484.167
0
0
0
9173.29
0
0
0
0
0
0
0
0
0
0
0
0
0
0
0
-17884.6
0
0
0
0
0
0
0
0
0
0
0
0
0
6699.51
0
0
0
0
0
0
0
0
0
0
0
0
0
0
0
0
0
0
0
0
0
0
0
0
0
0
0
0
5467.59
0
0
0
0
0
0
0
0
0
0
0
0
0
0
0
0
0
0
0
0
0
0
0
0
0
0
0
0
0
0
0
0
0
14296
0
0
0
0
0
0
0
0
0
10505.7
0
0
0
0
0
0
0
0
0
0
0
0
0
0
0
0
0
0
0
0
0
0
0
0
0
0
0
0
0
0
0
0
0
0
0
0
0
0
0
0
0
0
0
0
0
0
0
0
0
0
0
0
0
0
0
0
0
0
0
17.3253
220.665
0
0
0
0
0
0
0
0
0
0
0
0
0
0
0
0
0
0
0
0
0
0
0
0
0
0
0
0
0
0
0
0
0
0
11.5969
0
0
0
0
0
0
0
0
0
0
0
0
0
0
0
0
0
0
0
508.206
0
0
0
0
0
0
0
0
0
0
0
0
0
0
0
0
0
0
0
0
0
0
0
0
0
0
0
0
0
0
0
0
0
0
0
0
0
0
0
0
0
0
0
0
0
0
0
0
0
0
1.478
0
0
0
0
0
0
0
0
0
0
0
0
0
0
0
0
0
0
0
0
0
0
0
0
0
0
0
0
-119.941
0
0
0
0
0
0
0
0
0
0
-7.15561
0
0
0
0
0
0
0
0
0
0
0
0
0
0
2.90454
0
0
0
0
0
0
0
0
0
0
0
0
0
0
0
0
0
0
0
-2461.42
0
0
0
0
0
0
0
0
0
0
0
0
0
0
0
0
0
0
405.869
0
0
0
0
-0.635202
3.5033
0
0
0
0
0
0
0
0
0
0
0
0
0
0
0
0
0
-1032.63
0
0
0
0
0
-10335.9
0
0
0
0
0
0
0
0
0
0
0
0
0
0
0
0
0
0
0
0
0
0
0
0
0
0
0
0
13166.3
0
0
0
0
0
0
0
0
0
0
0
0
0
0
0
0
0
0
0
0
0
0
0
0
0
0
0
0
0
0
0
0
0
0
0
0
0
0
0
0
0
0
0
0
0
0
0
0
0
0
0
0
0
0
0
0
0
0
0
0
0
0
0
0
0
0
0
0
0
0
0
0
0
0
0
0
0
0
0
0
0
0
0
0
0
0
0
0
0
0
0
0
0
0
0
0
0
0
0
0
0
0
0
0
0
0
0
0
-318.197
0
0
0
0
0
0
0
0
0
0
0
0
0
0
0
0
0
0
0
0
0
0
0
0
0
0
0
0
0
0
0
0
0
0
0
0
0
0
0
0
0
0
0
0
0
0
0
0
0
0
0
0
0
301.791
0
0
0
0
0
0
0
0
0
0
0
0
0
0
0
0
0
0
0
0
0
0
0
0
-190.754
0
0
0
0
0
0
0
2569.82
0
0
17031.1
0
0
0
0
0
0
0
0
0
0
0
0
0
0
0
0
0
0
0
0
0
0
0
0
0
0
0
0
0
0
0
0
0
0
0
0
0
0
0
0
0
0
0
0
0
0
0
0
0
0
0
0
0
0
0
0
0
0
0
0
20.3128
0
0
0
0
0
0
0
0
0
0
0
0.654322
5.31246
0
0
0
0
0
0
0
0
0
0
0
0
0
0
0
0
0
0
0
0
0
0
0
0
0
0
0
0
0
0
0
0
0
0
0
0
0
0
0
0
0
0
0
0
0
0
0
0
0
0
0
0
0
0
0
0
0
0
0
0
0
0
0
0
0
0
0
0
0
0
0
-92.6263
0
0
0
0
0
-1114.17
0
0
0
0
0
0
0
0
0
0
0
0
0
0
0
0
-8053.53
0
0
0
0
0
0
0
0
0
0
0
0
0
0
0
0
0
0
0
0
0
0
0
0
0
0
0
3.81209
0
0
0
0
0
0
-31.5586
0
0
0
0
0
0
0
0
0
0
7.49586
0
0
0
0
0
0
0
0
0
0
0
0
0
0
-1.08368
0
0
0
0
0
0
0
0
0
0
0
0
0
0
0
0
0
67.9103
0
0
0
0
0
0
0
0
0
0
0
0
0
0
0
0
0
0
0
0
0
0
0
0
0
0
0
0
0
0
0
0
0
0
0
0
0
0
0
0
0
0
0
0
0
0
0
0
-559.047
-1034.42
0
0
0
0
0
0
0
0
0
0
0
0
0
0
0
0
0
0
0
0
0
0
0
0
0
0
0
0
0
0
0
0
0
0
-67.3237
0
0
0
0
0
0
0
0
0
0
0
0
0
0
0
0
0
0
0
0
0
0
0
0
0
0
0
0
0
0
0
0
0
43.0651
0
0
0
0
0
0
0
0
0
0
0
0
0
0
0
0
0
0
0
0
0
0
0
0
0
0
0
0
0
0
0
0
0
0
0
0
0
0
0
0
0
0
0
0
0
0
0
0
0
0
0
0
-635.148
0
0
0
0
0
0
0
0
0
0
0
0
0
0
0
0
0
0
0
0
0
0
0
0
0
0
0
0
0
0
0
0
0
0
0
0
0
0
0
0
0
0
0
0
0
6.15352
0
0
0
0
0
0
0
0
0
0
0
0
0
0
0
0
0
0
0
0
0
0
0
0
0
0
0
0
0
0
0
0
0
0
-33020.4
0
0
0
0
0
0
0
0
0
0
-163.848
0
0
0
0
0
0
0
0
0
0
0
0
0
0
0
0
0
0
0
0
0
0
0
0
0
0
0
0
0
0
0
0
0
0
0
0
0
0
-3075.16
0
0
0
0
0
0
0
0
0
0
0
0
0
0
0
0
0
0
0
0
0
0
0
0
0
0
0
0
0
0
0
0
0
0
0
0
0
0
0
0
0
0
0
0
0
0
0
0
0
0
0
-7504.84
0
0
0
0
0
0
0
0
0
0
0
0
0
0
0
0
0
0
0
0
0
0
0
0
0
0
0
0
0
0
0
0
0
0
0
0
0
0
0
0
0
0
0
0
0
-177.267
0
0
0
0
0
0
0
8175.88
0
-3.49608
0
0
0
0
0
0
0
0
0
0
0
0
0
0
0
0
0
0
0
0
0
0
0
0
0
0
0
0
0
0
0
0
0
0
0
0
0
0
0
0
0
0
0
0
0
0
0
0
0
0
0
0
0
0
0
0
0
0
0
0
0
0
0
0
0
0
0
0
0
0
0
0
0
0
0
0
0
0
0
0
0
0
0
0
0
0
0
-3.47868
0
0
0
0
0
0
0
0
0
0
0
0
0
0
0
0
0
0
0
0
0
0
0
0
0
0
0
0
0
0
0
0
0
0
0
0
0
0
0
0
0
0
0
0
0
0
0
0
0
0
0
0
0
0
0
0
0
0
0
0
1084.87
0
0
0
0
0
0
0
0
0
0
0
0
0
0
0
0
0
0
0
0
0
0
0
-91.3569
0
0
-90.1365
0
0
0
0
0
0
0
0
0
0
0
0
0
0
0
0
0
0
0
0
0
6.07669
0
0
0
0
0
0
0
0
0
0
0
0
0
0
0
0
0
0
0
-38.1795
0
0
0
0
0
0
0
0
0
0
0
0
0
0
0
0
0
0
0
0
0
0
0
0
0
0
0
0
0
0
0
0
0
0
0
0
0
0
0
0
0
0
0
0
0
0
0
0
0
0
0
0
0
0
0
0
0
0
-5.62665
0
0
0
0
0
0
0
0
0
0
0
0
0
0
0
0.250644
0
0
0
0
0
0
0
0
0
0
0
0
0
-5.58694
0
0
0
0
0
0
0
0
0
0
0
0
0
0
0
0
0
0
0
0
0
0
0
0
0
0
0
0
0
0
0
0
0
0
0
0
0
0
0
0
0
0
0
0
0
0
0
0
0
0
0
0
0
0
0
0
0
0
0
0
0
0
0
0
0
0
0
0
0
0
0
0
0
0
77822
0
0
0
0
0
0
0
0
0
0
1.81996
0
0
0
0
0
0
0
0
0
0
1686.85
0
0
0
0
0
0
0
0
0
0
0
0
0
0
0
0
0
0
0
0
0
0
0
0
0
1724.39
0
0
0
0
0
0
0
0
0
0
0
0
0
0
0
0
0
0
0
-135.574
0
0
0
0
0
0
0
0
0
0
0
0
0
0
0
0
0
0
0
0
0
0
0
0
0
0
0
0
0
0
0
0
0
0
0
0
0
0
0
0
0
0
0
0
0
0
0
0
0
0
0
0
0
0
0
0
0
0
0
0
0
0
0
0
0
0
0
0
0
0
0
0
0
0
0
0
0
0
0
0
0
0
0
0
0
0
0
0
0
0
0
0
0
0
0
0
0
0
0
-275.956
0
0
0
0
0
0
0
0
0
0
0
0
0
0
0
0
0
0
0
0
0
0
0
0
0
0
0
0
0
0
0
0
0
0
0
0
0
0
0
0
0
0
0
0
0
0
0
0
0
0
0
0
0
0
0
0
0
0
0
0
0
0
0
0
0
0
0
0
0
0
0
0
0
0
0
0
0
0
0
0
0
0
-3.66943
0
0
0
0
0
0
0
0
0
0
0
0
0
0
0
0
0
-2.62847
0
0
0
0
0
0
0
0
0
0
0
0
0
0
0
0
0
0
-3.43811
0
1741.86
0
0
0
0
0
0
0
0
0
0
0
0
0
0
0
0
0
0
0
0
0
0
0
0
0
0
0
0
0
0
0
0
0
0
0
0
0
0
0
0
0
0
0
0
0
0
0
0
0
0
0
0
0
0
0
0
0
0
0
0
0
0
0
0
0
0
0
-244.658
0
0
0
0
0
0
0
0
0
0
0
0
0
0
0
0
0
0
0
0
0
0
0
0
0
0
0
0
0
0
0
0
0
0
0
0
-24457.1
0
0
0
0
0
0
0
0
0
0
0
-6.66895
0
0
0
0
0
0
0
0
0
0
0
0
0
0
0
0
0
0
0
0
0
0
0
0
0
0
0
0
0
0
0
0
0
0
0
0
0
0
0
0
0
0
0
0
0
0
0
0
0
-13.2609
0
0
0
0
0
0
0
0
0
0
0
0
0
0
0
0
0
0
0
0
0
0
0
0
0
0
0
0
0
-489.348
0
0
0
0
0
0
0
0
0
0
0
0
0
0
0
0
0
0
0
0
0
0
0
0
0
0
0
0
0
0
0
0
0
0
0
0
0
0
0
0
0
0
0
0
0
0
0
0
0
0
0
0
0
0
0
0
0
0
0
0
0
0
0
0
0
0
0
0
0
0
0
0
0
0
0
0
0
0
0
0
0
0
0
0
0
0
0
0
0
0
0
0
0
0
0
0
0
0
0
0
0
0
0
0
0
0
0
0
0
0
0
0
0
0
0
0
0
0
0
0
0
0
0
0
0
0
0
0
0
0
0
0
0
-1.32524
0
0
0
0
0
0
0
0
0
0
0
0
0
0
0
0
0
0
0
0
0
0
0
0
0
0
0
0
0
0
0
0
0
0
0
0
0
0
0
0
0
0
0
0
0
0
0
0
0
0
0
0
0
0
0
0
0
0
0
0
0
0
0
0
0
0
0
0
0
0
0
0
0
0
0
0
0
0
0
0
0
0
0
0
0
0
0
0
0
0
0
0
0
0
0
0
0
0
0
0
0
0
0
0
0
0
0
0
0
0
0
0
0
0
0
0
0
0
0
0
0
0
0
0
0
-908.494
0
0
0
0
0
0
0
0
0
0
0
0
0
0
0
0
0
0
0
0
0
0
0
0
0
0
0
0
0
0
0
0
0
0
0
0
0
0
0
0
0
0
0
0
0
0
0
0
0
0
0
0
-18981.2
0
0
0
0
0
0
0
0
0
0
0
0
0
0
0
0
0
0
0
0
0
0
0
0
0
0
0
0
0
0
0
0
0
0
2.88744
0
0
0
0
0
0
0
0
0
0
0
0
0
0
0
0
0
0
0
0
0
0
0
0
0
0
0
0
0
0
0
0
0
0
0
0
0
0
0
0
0
0
0
0
0
0
0
0
0
0
0
0
0
0
0
0
0
0
0
0
0
0
0
0
0
0
0
0
0
0
0
-13.9402
0
0
0
0
0
0
0
0
0
0
0
0
0
0
0
0
0
0
0
0
0
0
0
0
0
0
0
0
0
0
0
0
0
0
0
0
0
0
0
0
0
0
0
0
0
0
0
0
0
0
0
0
0
0
0
0
0
0
0
0
0
0
0
0
0
0
0
0
0
0
0
0
0
0
0
0
0
0
0
0
0
0
0
0
0
0
0
0
0
0
0
0
0
0
0
0
0
0
0
0
0
0
0
2.26162
0
0
0
0
0
0
0
0
0
0
0
0
0
0
0
0
0
0
-43.8781
0
0
0
0
0
0
0
0
0
0
0
-5.83305
0
0
0
0
0
0
0
0
0
-70490.3
0
0
0
-2.92877
0
0
0
0
0
0
0
0
0
0
0
0
0
0
0
0
0
0
0
0
0
0
0
0
0
0
0
0
0
0
0
0
0
0
0
0
0
0
0
0
0
0
0
0
0
0
0
0
0
0
0
0
0
0
0
0
0
0
0
0
0
0
0
0
0
0
0
0
0
0
0
0
0
71.7959
0
0
0
0
0
0
0
0
0
0
0
0
0
0
0
0
0
0
0
0
0
0
0
0
0
0
0
0
0
0
0
0
0
0
0
0
0
0
0
0
0
0
0
0
0
0
0
0
0
0
0
0
0
0
0
0
0
0
0
0
0
0
0
0
0
0
0
0
0
0
0
0
0
0
0
0
0
0
0
0
0
0
0
0
0
0
0
0
0
0
0
0
0
0
0
0
0
0
0
0
0
0
0
0
0
0
0
0
0
0
0
0
0
0
0
0
0
0
0
0
0
0
3.13898
0
0
0
0
0
0
0
0
0
0
0
0
0
0
0
0
0
0
0
0
0
0
0
0
0
0
0
0
0
0
0
0
0
0
0
0
0
0
0
0
0
0
0
0
0
0
0
0
0
0
0
0
0
0
0
0
0
0
0
0
0
0
0
-7.39226
0
0
0
0
0
0
0
0
0
0
0
0
0
0
0
0
0
0
0
0
0
0
0
0
0
0
0
0
-3.71069
0
0
0
0
0
0
0
0
0
0
0
0
0
0
0
0
0
0
0
0
0
0
0
0
0
0
0
0
0
0
0
-13.0121
0
0
0
0
0
0
0
0
0
0
0
0
0
0
0
0
0
0
0
0
0
0
0
0
0
0
0
0
0
0
0
0
0
0
0
0
0
0
0
0
0
0
0
0
0
0
0
0
0
0
0
0
0
0
0
0
0
0
0
0
0
0
0
0
0
0
0
0
0
0
0
0
0
0
0
0
0
0
0
0
0
0
0
0
0
0
0
0
0
0
0
0
0
0
0
0
0
0
0
0
0
0
0
0
0
0
0
0
0
0
0
0
0
0
0
0
0
0
0
0
0
0
0
0
0
0
0
0
0
0
0
0
0
0
0
0
0
0
0
0
0
0
0
0
0
0
0
0
0
0
0
0
0
0
0
0
0
0
0
0
0
0
0
0
0
0
0
0
0
0
0
0
0
0
0
0
0
0
0
0
0
-39.0739
0
0
0
0
0
0
0
0
0
0
0
0
0
0
0
0
0
0
0
0
0
0
0
0
0
0
0
0
0
0
0
0
0
0
-3.97416
0
0
0
0
0
0
0
0
0
0
0
0
0
0
0
0
-6.54098
0
0
0
0
0
0
0
0
0
0
0
0
0
0
0
0
0
0
0
0
0
0
0
0
0
0
0
0
0
0
0
0
0
0
0
0
0
0
0
0
0
0
0
0
0
0
0
0
0
0
0
0
0
0
0
0
0
0
0
0
0
0
0
0
0
0
0
0
0
0
0
0
0
0
0
0
0
0
0
0
0
0
0
-11.6037
0
0
0
0
0
0
-1599.08
0
-1.42465
0
0
4.35627
0
0
0
0
0
0
0
0
0
0
0
0
0
0
0
0
0
0
0
0
0
0
0
0
0
0
0
0
0
0
0
0
0
0
0
0
0
0
-4.60304
