booster[0]:
bias:
-9.71153
weight:
5.16687
-0.5594
-3190.58
0
5.16698
4.83253
0
6.20763
0
0
0
0
0
0
0
0
0
0
0
0
0
0
0
0
0
0
0
0
0
0
0
7.00351
0
0
0
5.22027
0
0
0
0
0
0
0
0
0
0
3047.99
0
0
0
0
0
0
6.54475
0
0
0
0
0
0
0
0
0
85.3356
0
0
0
0
0
0
0
0
0
0
0
0
0
0
0
0
0
0
0
0
0
0
0
0
0
0
0
0
7.85533
0
0
0
0
0
-43880.3
2.15525e+06
0
0
0
0
0
0
0
0
0
0
0
0
0
0
0
0
0
0
0
0
0
0
0
8.80926
0
0
336.732
8.17347
0
0
0
0
0
0
0
0
659.395
7.25237
0
210.021
0
0
0
0
1404.61
0
0
0
0
0
0
0
0
0
0
5.05662
0
0
0
0
0
-3165.88
-12589.3
0
0
0
0
0
0
0
-4894.55
0
0
0
0
0
0
0
2349.31
0
328.91
0
0
0
0
0
0
0
0
0
5.21479
0
0
0
-218.065
0
0
0
0
0
0
0
0
0
0
0
0
0
0
0
0
0
0
0
0
0
535.779
0
176.85
0
0
-54553.9
0
0
0
0
0
925.05
0
0
0
0
0
0
0
0
0
0
9495.7
0
0
0
0
0
0
0
0
0
0
4.46178
0
0
0
-216.75
0
0
0
113213
0
0
0
0
0
0
0
0
0
0
0
0
0
0
0
0
0
0
0
-250.003
0
0
0
0
0
0
0
-5.12462
0
0
4.4173
0
0
0
-4.554
0
0
0
6.66985
0
0
-4.98508
0
0
242023
0
-4.67371
-6.95136
0
2.78888
0
-3.63095
0
121.002
0
-4.0683
0
0
0
0
0
0
0
0
-10.7006
6.27845
0
0
0
6.74917
0
0
6.9374
0
0
0
-37.6728
0
-28.4904
0
27.55
0
0
0
1.03808e+06
0
-838.894
0
0
15770.8
0
0
0
0
0
54.2584
-3.88397
0
0
-6.22311
-18.4439
0
0
0
0
430.047
74.1413
0
0
0
0
0
0
0
0
-3.83582
0
-885.67
-6.65871
0
0
0
0
0
-5.06014
1501.96
685168
0
0
0
0
-19.9914
0
-4.209
34756.2
0
-175373
0
-4.60756
0
-224674
0
0
995.498
0
-4.14915
-1.96873e+06
0
0
8.79917
-41307.8
0
0
9.51707
1121.02
-73.2145
6892.37
8.66652
0
0
0
0
0
0
-10.2285
0
770.958
0
-3.85522
0
0
0
-4.7116
-5.33196
24764
-364.014
-6.01093
-7.41836
0
-1.63899
0
-3.88719
0
0.793987
0
-26.9102
48.8138
0.701395
-4.13111
70.6066
61.3669
574.823
1295.05
-5.9578
0
-6.21296
-11.0068
-282745
0
0
0
9.47567
0
-18.8816
0
427.878
104.565
-59.5491
238.057
-10.0768
7.75103
-173.724
0
-5.59588
4548.56
-5.80983
0
0
4978.44
0
-9638.17
60541.6
9940.24
0
0
380.682
53.2025
-23818.5
-7.80672
0
-55911.8
-140.101
-26.2117
190391
-59142.8
-4.74779
-6.56183
46999.6
-4.16103
-41939.8
-3.99045
-83.9811
-13.6369
0
0.761584
-1101.51
-7.43013
-14775.6
51.8385
0
-22.0874
-7.06481
1.11502
2.43652
6410.59
1832.17
9.46062
-9.40285
62.9295
98.4867
0
645012
-8170.11
0
0
0
-31.8063
-83.0379
0.124828
18.7122
-23.671
243.48
7.10926
-1054.2
-3.94163
43.6494
-236.234
464162
8.95794
0
-5.89869
-27150.6
42.8357
-5134.14
28.5211
0
0
32.7279
50.4261
35.7802
-9850.9
-6.6861
-4.34861
-7.18457
1121.82
22.5534
-31.2131
-33.5238
-9.43871
0
-7.16255
-774.565
7786.03
537.326
0
63649.5
135.657
-13.4037
97962.2
-482082
0
537760
-4.38569
397.82
7.22386
0
-1997.07
10461.7
-15.3419
0
0
0
8.98899
-29.9686
0
-326.437
26.3034
-2724.61
-12.6683
0
-296.354
-37.5947
0
1.81389
9.52331
-555306
-1034.71
0.951729
118.42
-3.10904
-5.40323
476.186
0
-436.652
1031
-8.94076
-7.52021
-215.327
-9.01027
-3151.3
-15.0374
-4.27662
0
0
-686.232
-6.16499
5.86425
-12.1043
-5.36412
19791.4
-82065
441.767
4894.93
-15.0867
0
173.991
-10.1811
583.911
-315.258
97.3403
30.1658
2.41129
26.691
174.776
5249.4
-66036.4
-19.8571
57.2786
27.5442
-41.3662
0.678824
292.996
0
-10.8303
847.009
458.29
0
-9.4752
-14.255
-564568
0
0
-13.6752
-35.5834
-6.19676
9886.43
0
7889.53
14104.4
49.8023
0
-34.3972
-54146.8
31.6717
262.243
-0.648101
-17104.6
7.62118
-14.4586
1161.71
98.653
-455.466
62120
3.19343
320.337
-465.086
741881
0
-19.2837
107268
-63.9279
0
306.941
-45.4672
-153.161
-516199
-343.86
-40.215
1.79978
-0.180298
-36510.5
-43.656
-4.42491
0
0
4.80483
16.6861
667.767
993.618
0
157053
-61.9179
5878.35
5727
-6.37376
-152.909
254.66
0
0
-1117.93
0
-117.699
-304.395
893.668
-63.8659
-653.804
-8.42332
-67.8269
13.7648
0
353.334
-709.818
-134.56
-22.7242
101.012
-399.735
-0.346358
-7.55075
-98.6696
-1580.73
-35.8157
-34.4476
112.281
-23.43
-9.91253
0.640658
-0.187663
40.4049
-307.677
-24.3035
-68729.4
-165.288
-66038.2
-15.4812
-5.29927
-307.48
0
-10.8685
-1014.78
-24.4801
13454.6
-13355.5
-5.64119
-9.14286
236.832
-954.594
24453.5
-0.367374
-86.0606
0.695637
0
-236.53
-5130.88
1004.3
37569.8
-17.022
-0.496802
57.1539
-45.0249
-17591.9
0
29712.5
-215.553
571.159
28.9934
0
217.879
149.909
-6.08045
0.767315
-21.192
-2217
668.558
2.02624
-13.2318
0
-34.8085
-10.0576
-10.2685
159671
0
-40.7677
-648.98
34.7524
-59.7767
455.694
94.8016
44.5479
-8.36236
-514226
-4.7196
-15.0033
-1539.11
-28.099
-167.232
-860002
-2914.53
2.41036
-5.12254
-1312.39
-5428.21
-531.73
50.7439
0
34.948
-3.53006
175.188
-4.96545
-5.55337
-3.16464
21.4135
-89.9306
-23.7975
-536.058
44.9045
-160.591
164.822
186900
-16312.6
-4114.64
-47370
-1504.18
2.02785
-5.00352
-43.3779
377.327
1.77143
-81.4157
44.4347
-366.489
43.4559
4.135
-8.15372
0
-173.402
64.6721
-2.01004
-359.693
-24.2438
5.83914
-9.72744
1.49013
-70.7204
81701.8
40.6042
-15788.3
-22908.1
0
41.5292
-67.8233
-0.650409
1925.42
60.6621
3.33359
-8.44682
-59341.3
-25.9748
-10.1999
6.61176
-5.55007
6.02837
-0.392117
-438.18
-60.3132
-12.3633
23.8313
-5.69765
-3525.45
5.34326
-8.57452
22.8246
-0.349484
-8.68899
-8561.55
0
-56.8518
0.891821
-282.304
-7.0109
-5.80018
-18.8477
7.94293
0
-5.50088
-370.778
804.679
-101.82
8111.32
-17.6864
-2009.44
-1.53637
-54760.6
47.9742
-10.5319
8.25037
-453.768
-1136.13
-123.993
-44369.4
58.744
73.1067
18.2503
1971.16
-2042.61
868.267
17335.8
-24760.9
-7.6322
63.6948
-205.145
-949.825
-5.95713
-5.65029
0
-14.5147
4562.59
0
78857.2
-25962.9
-175968
107.775
-128.491
75.5735
-626.1
0
1850
149.856
0
-77.013
46100.7
54845.2
0
-200.101
4.38979
1043.51
1270.36
0
490.674
-188.883
0
-6.69408
-12.0309
76.8583
-7.6777
-46.8057
-183.614
-193.164
-1.21499
129691
52.5787
3128.24
21.6731
-11.1452
45.4142
-59.8189
-291.075
-8.91852
-8.89616
0
129.275
50.1848
-1904.38
-223.584
-710.642
27.4402
50.5227
49.0169
-191.417
107.897
-288.803
40.8471
1771.02
-45.3022
204.263
-40.9639
-126.393
-2690.67
-654.692
-298.54
0
-26.5165
-731.99
-178.695
-8583.27
-76.3456
-7.09403
0
-361.696
-11833.3
0
127.136
0
-21.1274
-23.9071
-261.121
-312.604
0.806739
-6.55281
4752.43
10.1249
117786
0
5.70906
4.02879
10.2582
-64.6393
-47.3569
37.6696
0
0
-2.34001
-41.4873
-53.2995
322660
-7.8626
0
36.3391
-13.5021
455540
-8.64393
-6.49861
-49032.9
-776.213
-6.65469
112.403
220.746
410.909
20.7355
39.9824
68.1186
-14131.1
50858.8
0
29.8021
10229.7
-8718.16
372.923
-16.5069
-191.753
-106.371
-1603.74
236.754
8.96077
-3480.22
-27572.9
0
0
-23.5606
9192.34
-701.735
29513.1
525.025
2325.37
0
-107.373
-29.2079
-509.54
-1324
-49.3345
-845.94
45.7784
-140.192
-9.48134
-20198.1
-556.726
-2519.66
-52.0421
-132.847
-0.520681
0
-45.2924
-48.8277
556.072
-138.038
-2897.44
0
319.327
-32.0656
-9.91369
3671.74
17.3716
1208.6
0.97474
3.3527
2.01874
-5.55689
-10.0749
0
-10.4915
-5380.61
529.249
-39.6731
-41.4908
-1334.75
-288.244
-498.513
22.2152
-4814.68
-31.7101
0
-50.2031
-7.93467
-41381.8
28.3772
-44604.3
-17.858
3.67024
0
170790
-18.3196
171.957
-596.975
-296138
-146.44
-235.864
-6.01342
-6.87341
-8.38975
0
0
-5232.66
-1.31046
34.9891
0
-7.83213
-10.3017
-19421.1
8.35194
-49.8734
130.352
44.1704
-8.1099
-3.93306
1006.3
16480.2
-99.1052
188.424
0
-1012.61
-4214.1
128.896
-209.266
-8.13939
-8.9691
0.269528
-0.257012
-5.59569
1.60932
0
0
-67.1955
-382.031
1425.04
-1.84601
-7.78363
-8.81817
0
-170.211
-90.5716
-47.44
1046.94
-0.312372
23830.8
-46.0817
0
-38.9158
-37053.6
-50.2489
-83.898
1569.34
206.957
-6284.86
5430.22
-9.86119
0.134443
-121563
-42.3408
0
0
0
-42.6903
-25.0661
654.36
-26.0583
1.1876
-39.5757
-1323.48
-52.9339
-6588.89
80.3223
0
-69.5952
13.1856
-88982.5
21.4368
-6437.09
-5981.23
-11.7437
8.43386
0
0
-400.971
23.3971
-25.791
-8.73854
8626.22
-56.4314
-108.066
94791.1
-27.2691
30.2389
65.4596
49.1243
-57.7592
55.1013
25.9972
11625.4
-0.298858
-983.488
0
13.2736
8.42586
-12.6945
246.931
-3697.85
71.5986
0
0.610181
-2482.04
153945
26029.1
39.145
-1835.38
-251.743
-1.01767
-17.0808
-52.8027
-121.495
-8.3737
62.0289
24.9096
0.121265
0
45.4447
-10665.8
-39.7752
-1284.42
-130.93
-6.30922
-9.36749
116.468
-18.4919
9.08451
-371.515
246.173
92.87
75.3339
-2.33918
1.25757
56.9184
-4.99995
16.0268
2860.64
5.4216
24.1365
-171.187
-134.631
-30.7157
-47.6009
3077.88
-1283.89
0
-5.35335
9739.99
0
-11.2409
-8261.26
177.807
48.9275
-0.482457
-190.092
0
52.4342
50.7649
-43813.5
86.1139
-3.22312
122.706
-12.7561
-4.00683
-17.9701
-35784.3
-13.2142
17701.4
2.33818
-14.4015
0
1038.38
-24.8448
0
26.2754
-1640.94
-14.3828
-207060
-1.64093
-45.2003
-58.2397
-4.64977
2.60197
2.34371
-11.8546
-10.9365
-827.679
28.8042
-14.4266
0
-52162.8
0.635932
-31.557
157.845
330.423
-55239
-238.481
-83.6494
-14.1005
-10.1701
875.715
-78.2158
-7.62227
-179.903
-29.4007
525.286
27542.4
-845.018
-1475.09
0.627001
754.206
-353.02
-14.2979
-226.927
-8388.58
0
-67.0653
0.108659
14.57
0
-10.8458
-15.8408
-2.21906
4.22158
-9.53538
-66.2493
11809.1
-1217.89
3.24252
-48.5281
-21.7742
-18.7261
0
26.5196
3338.48
0
-3.23516
-2827.58
-1044.95
3.67097
-351.155
30.8978
95.2888
-20.7385
1.02501
-15.6826
5.67496
1447.59
0.569678
0
-95.3493
197329
-11126.6
352222
3988.08
0.400985
-59.186
1578.28
6.80935
3221.98
2448.44
-34139.3
-104.506
5.05763
-27122.5
-1071.74
0.344462
-15303.4
-10.7738
-7.86953
46.2822
-58326.5
-2.57558
3.27775
-7.22546
3920.92
45951.3
-3319.27
0
-100.696
-16.0917
1.62175
3.22902
-8.33991
-2.08502
9586.14
-10.5704
10579.3
3.53416
-2468.75
-12.4978
-14.5085
-90.3739
-1.07753
3117.96
-22.5999
-11.1993
-3.71506
129.273
11.359
-19.6356
7.39039
22.5813
6.73369
-9.35202
1.59352
-3293.62
1.14974
-800.923
-84.9605
-28.3017
-288.666
0
-24.1099
-16.028
1.36598
-3.46697
12.1465
-13059
50.9587
-1352.74
-9280.01
0
13592.7
-27.9508
152.042
-17316.9
-560.089
-20444.9
-11.9942
-26953.2
45297.6
-32.3221
37.3
952.051
-2429.64
-10.1701
-0.702451
-100.87
10.0669
-1421.77
-270.96
-166.739
145.353
0.265169
7.56939
0
-7.68877
73.9466
6.19367
98.4897
-12.4678
-102.294
-4.1047
-11.8291
50.1081
76.8309
-68.5314
-440.123
-1090.91
-21.5585
-2883.2
-85.5046
-8.92409
-6236.78
-2144.84
-1.72107
69.4696
-11.2858
-22.1971
-14.9572
-13.0253
285548
-45.4471
-316.368
-42176.3
10.3953
-12.0984
-15.885
-80.9491
5.77714
-19.7411
0
0
-1090.91
15.5009
0.11462
11792.4
-4.36045
481.618
-23.1467
-2129.26
-97705.9
2.30372
-72928.4
119581
163271
19.502
-357.038
-24.4557
35387.3
-24.6892
1840.28
-24183.2
10.0121
74.4808
148.328
-9144.97
-897.849
-1.0382
-2.52933
22.5149
180405
0.522737
-362.909
-12.5858
-4111.07
55.0353
0
70848
-42.1166
-1293.12
-35404.3
-51.4775
-14832.8
1.68893
-36.6405
445.227
-42.5414
8209.75
29.3291
14.2186
-81.5987
-508.293
-17.2636
-93766.6
-39125.8
994.065
0
17.268
0
262.921
-5.75565
11.8249
-8.81474
-10.2345
29.6164
150.13
-571.782
59.3461
11.0878
-1016.89
0
-72332.5
0.62849
297.858
-0.180699
-18.6974
4.78244
-31.9065
2.63202
1693.88
-31.0027
-11.7096
0.0720635
0
78.7893
-10.7827
-122.569
-238.337
35.1327
-1161.68
-30.2725
0
-10446
2.65709
1.25007
57.7705
24.0174
1.39701
-1057.73
-37298.2
103.576
-20.2525
159902
-106.875
-14.4358
-1877.47
-2582.16
0
390.63
1351.53
-1429.69
-23.5196
5.38167
-10.4141
39.336
-184.791
-19.4357
-229.905
4.45891
-5.71599
-98.7915
-9685.6
47.714
-2.74617
132.402
312.626
-3074.47
-12.4901
-22.3517
0.448209
-12509.9
-9.71222
47.0697
316.93
5.09347
-0.428458
0
-21.1427
1367.34
0.549881
-17.7988
3.04263
-30.1057
-53.8237
-28.0273
-15.4686
-309.012
0
-192.848
-10.4825
32.0378
-85.9638
-823.277
-0.471131
-1.48466
180419
29.4647
-101.512
-68171.4
-18.5588
-34.3586
-0.459854
0
-14.3561
3.1612
-1636.81
-8446.57
-7.32368
0
-4.31106
0.109272
-12874.4
14.5777
-16.8323
2160.66
-12.2476
-59.8575
2.17818
12378
5.25727
-1224.22
-5509.01
0
-13.0755
-2.10391
0
266404
-991.157
-20.2115
477.29
-3.47293
0.863241
1417.51
-8.20975
-283.677
1.5572
-823.565
-10918.9
-88.2987
-181.229
-14797
0
206.694
-32.5431
-861.545
1056.15
0
0
-1777.21
-223.108
-3.51808
-132.959
0.359552
-40509.6
-0.0969935
-12.1267
-4.70793
15.2855
-38.5886
0.449766
30961.4
-2846.94
-1919.25
-10.2125
-12934.2
0
33.7221
33996.2
38.4448
-9.53804
88794.3
0
9.21378
-1209.05
-11.4096
1.63867
-4707.11
-9.70358
76830.3
-7.97535
38.3124
72.659
4.45213
-28.0333
-47129
0
-57.0833
304.137
-119.824
6.3263
28.2448
0.245214
7.34882
-46416.7
298.675
-27862.8
17.253
-16783.7
-9.22415
-924.227
0
41.7568
-19.8691
-4.93698
-13.2371
-95.6758
-1187.37
-97418.6
6296.13
-3.24698
-97520
-69.6559
-11.3627
-4781.59
-60.3979
-65.7535
-36146.9
-3239.65
-8.65415
-27.0124
-0.673259
-145.961
236.13
0
45.297
-17652.2
-17.3964
-9.28557
64.8798
-3370.39
5932.9
-11.9729
8.27345
16.05
4.8427
-253.149
9.69443
-125.111
10502.3
-2213.6
263.526
607.646
11.8852
28.7584
101.294
-67.5676
-1176.06
-20.0812
14.0093
7.48202
-13.9357
-0.87133
37.9826
-42.1759
-8.26671
24.7418
-2056.2
1132.43
-2082.09
29651.5
7864.7
-1398.5
-3.42802
-3.88209
-7823.79
27.1152
-1.23853
12.4664
-10.8721
10663.9
12304.6
255.244
-10.6914
21.3658
-12.8255
-1.19465
8881.29
-720.4
-1838.24
-27.3027
299.217
-181.936
25.9934
-10.2936
17655.8
-19.6158
-121.237
-2719.35
-1954.13
0
-9.539
-1.3942
-31.4951
22417.6
-30.9921
735.03
9.7329
5.17217
-93.8892
-17.6023
40.7575
-10.9259
-400.242
-18.0632
-8330.1
7.48355
0.51901
38.0343
-3878.44
0
137.769
183.385
-7.18196
-97.4272
-15.8128
-1888.77
2.26271
0
17713
-45.0833
-0.15597
-0.209987
19563.5
18.2645
38887.5
2.0203
-16.2613
-686.776
1.12216
-4.54258
130.235
-376.788
2.2444
-11.871
-89222
-121.36
-2375.7
-629.519
18.1381
-10.8992
-181.717
-7.4802
-10.384
16.9596
-24019.5
-115.208
-46.2904
-23191
-14.4362
-36.0674
-1935.09
0
-90565.2
-2.83072
-59.7218
-133.012
-9.81959
-12.4658
2.60994
474.113
-17.5001
-34.1428
7.10645
0
168.264
7.39258
0.40979
823.508
0.12789
-10.2491
-758.665
-28.9468
20.8248
-32070.8
0.357633
-154.143
5.34463
-27.0894
-248.094
72.3259
-142.404
-3983.06
0.882009
-63.5193
-38275.2
-201.443
-8143.9
-671.889
0
-4268.26
-646.882
-8.5673
3.5248
-44.804
148.952
-35.1239
0
39.6639
12.9662
0
-217.038
-6.24085
-58.6773
0.228467
-1435.77
1117.83
1.17229
-208.417
-23.7777
-22.3462
49.3795
-9.12788
-323.015
227035
-284.723
-1903.93
0.936224
6.39089
194.234
-52.1195
-106.448
5238.41
43.2568
-443.806
-13835
-49.7722
1.25873
-33.0763
0.208208
-8.90894
331.074
-17.6071
0.256663
22.3321
-1163.81
5871.85
975.524
1491.16
1.52257
-71682.5
-575.281
3.2188
-22.8377
-953.494
-8684.59
-4.28036
-1462.09
-33206.5
-2.05133
-64.3467
-8.91843
-74.7952
-102.395
3.41994
318.791
-61215.7
532.897
0.278638
-40.3686
282781
0
38.6117
5.94118
-25.7762
-472.843
67.4189
282.404
-603.724
-3069.83
-2058.45
-2029.62
-0.585289
0
0
-905.399
-0.00168626
8.39784
330.706
1.0903
-4.08471
-95.9137
1590.92
25.9314
3429.15
-90.0664
-9.77106
0.65486
-2699.29
6.96206
-280.913
-23064.6
-203.167
-445.522
-48.8692
0
-11032.9
18836.4
-1431.33
-3.95666
-8.78472
-0.587791
-44.8953
23.4989
-4348.61
0.296462
14.9629
-9.25824
-162.834
-45.362
28.6445
-21540.6
-44.5812
0.462186
-144.854
-14.7423
4.62472
-320.541
1878.26
-43259.9
-13.8242
729.572
-2117.83
-2.01328
-62587.8
-5.53312
0.0446851
5.52784
-13.2668
-5.6543
984.019
8487.75
-14.9594
-138.112
-9.20737
-1319.12
-137.708
14.9247
67.5973
-1.55554
-88672.5
-5.14671
-10.8917
-9.13488
-9.01215
25.8056
0
-13.0919
-381.737
-13.1287
0.989383
-30.605
0
13.3122
-11756.7
13.1366
-38548.1
-1770.09
35.3787
-1.73827
13.3787
-644.742
-69.898
-82.7793
0.331304
-15.5563
4.16724
5.02468
-8.90381
0
-11.3727
-694.963
-45239
-199.593
0
-692.246
-16.6451
-23717.7
-7.02278
-62.9946
-9.95297
-33527.5
1.33689
-11.2242
8.35298
-224.024
-7.72617
-5179.87
180698
-13.4962
27521
-56.7783
-773.686
-177.229
0.745197
-11.9588
-13.7519
0
-0.419047
-2.8775
0.534515
11.0694
-14.5549
-18.5926
0
33.5406
565.878
2.2215
14021.7
-55.2556
44.6979
28.8639
3.10645
-9.02329
0.954015
0
74.7912
-8.34954
-889.069
13.7191
-1064.9
-2.20549
-0.618048
-176.975
-13.3727
-1021.05
-18.9559
4.35435
-9.23691
1.87962
0
-14.1349
425.095
-6.25542
50507.1
24.0659
16.49
1.50047
-22.7765
-1804.7
-42.4549
-9.58166
-841.285
7.81318
-8.34534
0
11079.8
-7.01845
0
-10.1062
-69884.3
4.23915
5.09563
-22.7772
-8017.9
-8.548
-5076.13
-58.4934
57.9226
-370.937
1.50891
1.02834
0.0837265
-10.5632
133.417
11.6466
14.8281
-273.881
296.864
9.68574
-2882.3
-13397.4
-78.6376
0
-1018.66
-30611.9
-93.4961
11.038
-85.1593
18.5204
-31.5392
-11.7285
-17.4629
-5.25444
-12.1787
-0.402063
54.6942
-22.9645
184.069
5.84437
1753.25
-9616.1
0
30.3958
-220.347
-9.71833
-296.437
0
0
-4361.82
2.12199
1672.5
-791.805
-238.261
-1.64114
-31.1636
517.52
-44767.2
2.66973
0
50.9781
0.673819
17687
-1.01031
-268.604
-1082.07
190.884
241.611
-5930.92
-10.1681
-5.99054
0.685961
0
9.89796
-0.254333
-70.2438
-0.620404
-8.36926
-0.258932
217.209
-10.9349
-1.40141
-61.9094
0
0
-82676.3
-8.45611
59.9302
0.180018
-403.275
10.539
-12.5626
0.260623
17.0015
-19123.1
-8265.56
4.87557
12.5964
-48.951
-576.957
-48.4357
-13.2906
-64856.5
0.00105809
-1.19341
-0.931561
-116.592
82.3358
118.976
1.10475
-24.5267
-16.4185
557.07
-83.5056
-11.6624
-22.1459
70.6907
0
-0.391801
-385.015
977.91
-115.023
1.14268
-376.373
-512.323
-101.151
268.847
-17.1377
-122.951
5.47794
-12.9811
-88.7954
129062
-0.0018213
-1.73506
-6.6193
-3.90301
1912.33
-11.2558
-59.7958
-12.4021
-3.41525
64.0861
-45.5474
0
-1.93011
2.87293
0.599207
-0.412926
-0.134556
4883.66
-16.803
49.6305
-22.0606
13.3763
6892.66
173.044
-3.53452
-11.9966
-90.3337
13.7266
-9.55307
-6.91682
-3340.17
-0.055832
334.344
392.495
-0.115446
-1435.5
-2127.63
0
-776.212
-604.438
-406.39
-16436.7
-52.4465
-83040.3
0.483579
-7287.4
0.241683
4.55231
-2907.5
-3413.73
-2770.71
-35.263
-5599.63
-13.2829
-0.144254
-532.202
-3.66971
-18.598
54.5674
-14.3857
-10.2261
-6377.96
-9.52679
-0.522694
-1.35993
-4.96735
-5603
-1.43791
670.442
-60.5762
1.15834
-9.63368
1.06074
-0.458752
-19.6771
-8.37853
14.1506
0
5.40679
-27900.3
3.30262
-118097
-10301.8
0
32.3846
-1686.1
85557
-117.605
-16416.9
-7791.55
-12.0599
-11.5673
-18.9731
42.6619
1.62045
-21.9301
-138.249
-479.699
1.09792
-7.35816
-1.3303
14.0332
1.66302
-21.1797
79898.2
-79.7087
-30.0267
-1.02259
-50733.2
-1.83327
1.87389
949.018
-45.8621
-16.1163
-9.79885
-102.049
53.5437
-0.463955
0
-8.75366
12.5147
-179.64
50.7361
-1468.89
1.92596
1392.56
4.73451
-69.4585
-83.9075
0
-10247.7
-9.11604
-1805.42
-12154.9
0.859856
-99442.9
564.195
-17283.7
-1.06698
-33799.7
-8.2215
10.4949
0.118114
1169.48
-9.14518
136.788
-13.2953
-30.5873
-44.7727
-0.30492
-7.57232
-21.5819
-43162
-111.353
0.583099
-10.1999
-9412.7
25.0384
-0.275665
2147.38
-313.486
-12.1371
-3545.83
5248.71
-30.5058
-200.507
0.0594918
1055.49
0
-151.895
-253.69
-1.32985
-66.7703
51.9504
-45.6581
-2006.58
-18.2748
8.44642
0.629452
14.0372
-67629.3
-1444.59
-32.5015
0.102636
35214.2
338.805
-1122.28
-0.440965
1873.23
-2629.45
-936.026
19688.4
-17688.9
0.697232
-88.3216
-6.00432
-94.7823
-6.06939
1.74827
-8.27004
-0.304913
-0.0734291
-23.6541
-13.3827
-8.55663
-196.678
-205.862
-363.136
0.22551
61.7717
-10.3999
-65.0691
10489.8
-1459.34
-29510.8
0
-1351.94
-14.0961
-16.6976
-12.9835
0
-0.976254
3.03684
0.376322
-3.17339
-897.313
-832.398
95291.4
12.2167
-3792.32
-87.3933
-9.62958
0.463591
8.85517
-11.1277
-31.7841
-8.02564
13.3799
-10.8138
0.145479
0.42353
-65.063
-21657.7
-1.88721
-765.641
-40.8638
-8.42946
3.5548
-45.4689
0.912601
0.0430257
-0.652411
0.112787
7151.01
-30.411
0
-61.5962
1.18403
-1.7864
-12.1558
4.28188
-1.44733
0
-0.690165
-10078.4
1234.11
0
0
-7.81071
-14.3297
-15.0306
4.48931
-8.6615
0
0
-40925.9
0
-1151.85
-0.489035
-17.169
-112.772
-0.297228
-92.2953
-32.9157
30.2052
-9.2147
7.19154
-57.2589
-45995.7
-16.7419
3.29841
-20.8718
0.604054
-12.2741
-16.6199
-8.72769
-12954.4
442.337
-14.298
-11567.5
10.9736
-63.0346
1.48201
-1803.64
33787.8
-8.4287
-2.49206
-8.26103
-1.29225
-12.0668
-12.2781
1.08204
-74.2441
-18.2351
-4309.7
-21.8316
-18.3398
-53.1466
-212.183
11.6659
0.610788
-1274.77
-6.30364
97.5076
1.86221
-190.009
-50185.5
-1919.65
5.40672
-1.16651
-8.89896
-203.838
0.34546
-0.876524
-1664.72
-15.1737
-13.7399
-25.3147
1285.49
-238.897
64.5631
-11.5521
-15.2824
-8.31382
0.381079
0
0
-313.926
-7.02416
-10.1701
-89696.3
-2793.12
-3824.84
-9.62271
-12.6088
-1.6053
-5.75979
-10288.5
-20.1325
14.8829
-13.4092
-14.8782
-13.1538
-11.7811
0
0.268847
-0.870436
-1138.28
-13.153
0.245466
4.02096
-25.3889
-0.631023
-9.60511
-9.30585
-970.308
-43.5553
-158.507
26.3584
-9.21063
-9093.65
17.9129
-2301.88
-173.923
15.8962
-9.81959
-5528.54
-0.559419
-86773
996.998
-1.26925
-6084.58
-94625.7
-8.45732
80.7335
1.24695
1.23917
-11129
-8.22269
-779.078
-23.6186
-14.2696
-3369.28
-39.884
18.8007
0.687796
53.3709
-298.818
-14992.4
-4.17491
12936.1
-0.20281
-317.703
-12.4332
-41679.1
-18.6864
-9.41136
-51235.7
476.863
276.074
-52.349
-8.94814
-53402.5
0.463628
-15.6945
0
-17.0518
-0.0920997
-14.2762
0
-96.5483
-231.554
33.7262
-1.44805
2.79105
0
-16.1155
-0.00639649
28.2689
78.2567
-56.4835
0.671872
-4.04543
-106.168
0
-23.4534
12.9713
3543.22
1670.99
0
212.986
-35.6468
0
-0.525775
-3.70214
0
1.85575
-2
-7.91848
-273.656
0.616812
-16.5615
67.5163
-2.75102
-110.194
-44.4925
-28.1606
-11.5321
-2110.84
1.64274
-2.67848
12.4887
-1.12579
-0.981702
0
-21.6679
-2.90989
3.01191
0
-161.094
-8650.84
-8.35445
-6331.58
-15.5481
-1392.28
-12.1217
5832.87
-0.468409
0
-77.3858
-13.6277
-7.16723
-15984.3
-6706.48
0
-4.10986
-27269.5
101.09
-1849.5
0
-1147.55
-992.994
-10.8364
-80.5376
-13.4317
-2.0882
130.832
-89.2182
-0.822558
-1.67823
-2455.24
-15.4765
-12.8307
-1744.72
-15147.2
-4.47252
-10.2358
-0.522084
-1.39195
0.294495
-10.1701
-0.883195
10.3595
0
-2452.01
-114.186
3.58141
-0.984567
-3499.04
73.4105
-4.39004
-2.96136
3.44664
15.2588
5.67248
21.5478
-4.37111
-0.354838
-12394.7
-9.02158
-18.7845
-394.496
0.173912
14.9652
-10.5136
-17906.9
-0.208812
-13604
-866.945
-15788.3
-3049.99
-2.71857
-13.5904
0
-1845.45
-39.9487
0.623028
-4.64447
-7.6785
44.8926
-2179.43
-41.0009
30.5811
-36.8119
-17.7598
-1.33653
-5.36284
-148.178
0.312913
0
1.01376
-517.359
0.573386
-123.381
-1984.36
-3919.52
-16.009
-1.01247
21.8065
-2.21849
-33143.9
-8.19458
-57.3422
0
-1877.6
-8.30977
-9.47733
-0.231842
-9.64795
-1083.36
0.368603
-1.27095
0.773416
-10.0206
-72.041
-1.60263
-19.3281
-39162.8
0
-7.76817
-658.23
-1556.88
-29.4358
57.9531
1.11171
-7.78834
-241.814
297.359
7.64432
-0.69433
-0.0973018
-1.97884
0.203152
-8.6347
-472.193
-67945.5
-16152.5
-6.18998
-61218.3
-5.41331
-0.27815
-67297.2
0
-1458.01
3670.54
4.66738
-9.56075
-9.39217
-9.21252
-0.102329
-19.4948
-1336.14
-6.60338
-89724.1
-6.77945
-10690
-13.5365
0
-100.67
0
0.0424576
-22440.5
-64.7365
0.32838
-4891.84
-12.8636
-0.206286
0.435879
-39.1471
474.792
-247.687
-11.8938
-11.5545
9.42083
-944.785
-1469.13
-317.259
-10.1909
0
25189.8
-1.73031
-27.5741
-28.4294
0.888888
4.56785
4.16282
-95.7159
0.823614
26198.8
0
-12.8752
-1366.64
-32.1746
9.90124
-3.18611
-4.90913
14.0769
-8.34295
2.93728
-119.08
0
0.799397
-8.38762
11.546
-2.40452
-5.13931
-14.8667
0.825887
-1.92207
-3140.38
-46076.5
-59405.6
72.1911
-9.35799
1.4114
2.11883
0
-1.82669
-0.928945
-7.58462
-10.0191
-50832.5
-10.2335
-0.71528
6.87238
-1886.35
0
-1.29915
-58.7225
-1.42043
-6.99922
-1282.72
-10.222
-8271.91
7.51661
-67592.4
-39.9932
-22.8645
-0.356681
-7.91147
-1.81039
-366.335
-6535.17
-58.5634
-32940.5
-10.5593
0
-1292.57
-0.577607
-0.0562301
-34.1184
-57.6957
-2431.39
-0.0993482
0.315094
-34.1608
1.21336
-3.65664
-20.163
4.88357
-3.92383
-1.07999
-465.101
-9.97915
-1942.92
-12.9786
-4.07363
-9.60966
-12.3836
22.0757
-8.87662
2.81782
0.167884
-4245.66
-11379.5
-15.0363
-101.325
0.0614005
-42.2904
1.12215
-92.4513
-9.27921
-0.794867
-0.146525
-2.75135
-0.209471
-50.1738
-10.1701
2168.91
-8.17598
-10.9334
-20130.1
-641.084
-0.937211
-2273.22
0
-9.63228
0.34774
-17.3264
44974.9
0.931208
6.50664
-37590.9
-35161.8
1.9323
15419.2
-296.597
0.594766
-27407.4
-5.04833
-0.298564
-0.492863
-598.54
-3.55549
0.561613
-11.2242
5.95939
7.00358
-4.39564
-9057.17
-9.95604
-8090.26
2.65283
-25661.9
-0.988921
-392.15
-11.083
-127.937
49.3175
-10.4536
-9.57908
-113.375
2.30152
29.8524
-14.6924
-7.95234
-17.9384
-9.36276
-26.4817
-55026.8
-3.85892
-34.2299
-0.227246
30652.2
-46.0942
-9.91819
0
-3.00084
-21532.3
-97.7928
-981.339
-21.2723
14.7097
-5.54072
-1.10114
-8.83352
0.188306
-7115.51
-6.70784
-7.71501
28307.8
-12.6192
-10.2682
-10.6786
-0.324766
4.95786
-10.2766
-8.69589
-2153.88
-8.42914
-1.78023
-53.6754
0.145202
-44230.3
16.6384
0.361408
-9.65744
2.47209
-1.77268
-3.52241
9188.98
-0.18299
-27.5803
0
-12.6589
1.52318
-21.7328
-5.77961
1777.34
-9.2778
-44.1487
-83.3256
0
-308.699
66.2807
-0.65097
-58.4429
2.265
-10.8221
-186.011
-2290.91
-62.4552
0.0280638
-60.5773
-26.3046
-1822.66
-4.24174
-0.767917
-4313.81
-11.2843
-0.356542
-4546.47
-6.68729
0
-0.713211
3.97576
-27.5374
-12.6554
-3383.69
-10.2489
-30.3125
-58.2904
17.5376
-11.9787
128.221
-40.9069
-7.72801
-25.7987
-0.389945
0
-99260.9
-13.4858
3.84397
-47448.2
-7.56157
-27.5829
-44.2656
-2.64389
-19311.2
-5906.89
-190.405
1.1446
0
-5490.64
-14.3879
-21.6041
-6.54768
0
-4.47559
-9.8102
-117.926
-38.0945
0
4.5348
-847.758
-0.139325
-8049.54
-15.1988
-3.39854
241.959
1847.45
-6.62374
-22.2604
-17.3963
-11.2161
-0.984827
0
-14.3604
0
22.1094
12.129
-10.1701
-68.1457
-33.8969
-422.118
-1.85936
0.595293
-9.09321
-37608.3
1.63203
-3.48925
-27.7368
2.9189
-9.47923
-182.878
-11.6769
-634.116
-19485.9
-797.106
-0.3641
0.974474
-32.5274
-1.22469
-14140.4
0.367968
-69151.7
-9.86956
36.4262
-7.78294
44.9758
-189.978
-766.819
-3.75278
0.35316
-2.19769
-8.2413
-3.50739
-16.195
-43.7692
-13.5813
-29508.9
-209.57
-65.0192
-49.0777
-12.4481
-12.0893
24.4579
-6.94127
-0.226798
-28056.7
-11.8649
-182.166
-17.4997
0.196511
-2.07291
-5161.82
0
-0.247672
-76.7978
-254.768
-9.63813
-7.68459
-1.90714
-0.124174
0.16918
-15.7717
0
-10.0706
0.543937
-0.562828
-0.181852
0.259291
-14.7619
-9.37935
-32166
-9.0376
-0.423988
0.651501
-3.71266
-1.22646
-785.417
-14.7447
-11.1823
-182.216
-25.3637
-6574.09
-7.24763
-969.076
0.891653
-9784.08
50.2991
-0.0304973
-2.05556
0.0293389
-10.542
0.401177
-30180.4
-274.624
-3.1994
-13518.2
-5.20349
-82119.3
-41.7066
0
-8.28694
-0.0463788
0.231511
21.5533
-12.9747
0
-0.144254
12.3641
0.637428
-30.3076
-5.51028
0
-46.5424
1.12678
-11.9681
-7.90943
0
0.443462
-8.81772
-3.8414
-2865.79
-22.455
-2243.23
-3737.55
-9.40617
-9.51944
-25.4799
-48.6022
1.94775
-75.1716
-18933.7
-53.3596
1.1094
0.648938
-236.943
-2.49667
-11.0305
-0.0837265
50.0112
0
-518.627
-8.69027
-2.18379
-1.23412
-27.2272
-12750.9
0.509667
-2024.72
-2.60775
-16.4479
-9.17657
1.08297
-9.39504
-10.4672
-9.13394
-0.447706
-9.56206
-1.3358
-3.5117
2.04365
-6.85534
0
0.642977
-2.37189
-166.162
-1941.76
-6895.52
-3.50616
-11.5784
-16.9385
0.680672
0
-142.544
2.37152
0.181586
-4814.14
1905.36
-383.372
7.95028
-49.4485
-24.9046
-1847.59
3.01812
0.726577
-34522.9
-242.469
-1.98662
-92.8028
-1884.83
0.81304
-40.7812
0
-0.284424
0
-13.2949
-0.654718
-17710.9
-7.061
-12.7329
-1.02357
-76240.9
3.77932
-0.236166
-1.89078
-12677.9
-7925.25
-28.1982
-85672.7
-10.1681
-19.1267
0
-11.4561
1836.79
-13.3862
-5076.81
-1.03816
-0.499435
-6015.65
82.0847
-16051.1
2.04185
-0.565934
-6.23997
-2.60655
-2.40469
-33.3911
-14.4233
1.63899
-6.16851
-8.38405
-0.137822
-10.3996
0.180018
0
362.705
-11.8459
0.401177
-2.26692
-8.11879
-7.96328
15.8801
-15.006
-0.079213
-9.47358
-46870.4
1.45842
-29.9765
-15.1087
-40.1499
0.65952
-7.35645
-11.2464
-1.19042
-16.3477
1.2714
-294.231
-0.675685
-43.9568
-0.300526
-0.545888
137.99
-11.423
46.7815
-69.9633
-7726.71
52.4486
-38.289
-14482.6
-16.5261
-0.0865803
-9.52692
0.876465
-10.1934
46.5463
-0.643621
-27551
-1853.43
-14.843
-6.91044
-6378.33
-0.822612
-0.125561
-1711.86
0.108501
183.85
0
15.0965
-25.1642
0.533069
-760.117
0.0225516
0.098674
-0.344754
0.537412
0.379316
-2.40264
1.37726
-8265.56
-41.7828
-20.6277
-20.143
-16695.3
0.272093
0.579156
-27.7166
-17583.3
-83.1394
-3564.53
-3.85575
-2.60542
-24.3082
-1.31529
-3.90274
1.54972
-24.8134
54.386
-28.4429
-32412.6
-54.3722
-28412.6
-22.2927
-2471.94
-9.33266
-15.5716
1016.74
0
-42.8952
0.199778
-27.1391
-7.23459
0
-1384.08
-24.1104
-69151.7
14.822
-1.52572
16.9102
-277.696
-16.6412
-25921.8
1.83076
-1.39071
0
-44.1402
-0.83094
-4.60427
-100.547
-89.6991
0.363046
5.40942
1.49163
-93.835
-32713.8
-10.7613
-32739
3.103
0.266431
0
2.6608
-39.9932
-1.07616
-8.41757
25109.4
0.196885
-9.1493
-16.1832
-45.2414
0
172.977
-102.26
-6.53278
1.06612
-21258.2
-10.1701
16.4254
0.852093
2.32864
-9.03166
-8.92925
-10.4999
46.6719
-1.86044
0.421984
-0.00410998
-17.7339
-184.102
-9.97915
2.10997
-530.259
-17.7895
-14.9767
-45.9759
0
-8.03654
-20.5064
-784.643
-13.0396
0
-93171
17698.4
-9.00005
-5.05806
-0.838544
-81862.8
0.542556
-81.0657
-27836.5
-9486.49
-9.27921
-6.92052
-2.31315
0.432697
-0.643382
-0.59488
-4.72042
-13.0117
0.555587
-22.7467
-9.88148
-8.58381
-4.87153
1.18801
-32651.3
-2.14076
-277.611
-25.1273
0.527022
-15.551
0
-115.044
13.6405
-0.770243
-0.514974
-12.9354
-42.7633
-1.34253
-244.742
-0.122532
0.0395065
-0.0835259
-12.5716
-0.178984
-0.779432
-12.8364
-60.0227
0.936227
-10.0553
-0.304902
-3.17443
-8.48887
-1.39325
0
-7.5629
-45113.6
0.0536208
-13.3801
-54.348
-663.194
-11.083
-9.47325
-6.49078
-34.1262
-10.4536
-22.4038
-9.57908
-105.264
-14.2696
0
0
-3.8536
-5.70638
-0.127409
-1050.76
-9.36276
0
0
-44.368
-1.96798
1.05611
-13.102
-0.775766
1.34358
11.1094
1.01455
-9.91819
0
0.144254
0
-10.1701
-0.128397
-7.08264
0.0820359
45.2304
-11.242
0
-8.69904
0
-0.0018213
-45648.7
-11.1623
0.242473
-8.84298
-12.6784
-0.0897188
0
-35.3099
-17.4521
-22.4389
-1.39181
-17.4581
-25.6963
-49.0544
-0.868867
-10.1999
-53.1574
-26.4141
-10.7656
-7608.05
-4.82983
2.65684
-18.1791
-10.9581
1.42099
-740.192
-45.317
0.957345
0
-91.2405
-4.79118
-2349.5
3.01191
-0.212109
-0.549271
-7.87309
-1145.21
-32.4955
-8732.23
-7.70041
-58.4761
0
69.904
-38.774
-18.7295
-6746.98
-269.071
-7.19754
-0.84754
4.03617
2.01666
-74.5277
2.14463
-13.4756
-0.983845
-44.3442
-6576.02
-15538.2
111.065
-9.34486
-10386.8
-9.05427
-0.266388
-13.7643
-8.62778
2.2545
-444.232
0
0
-94.9786
3.51649
-0.725246
-9.15838
-8049.54
-17.2429
1.2359
-11.5356
-17.8412
105.678
-13.2692
-8.05962
-9.65389
-3.81883
-4236.21
-24.1464
-25.8632
-4.39481
-8.04071
-49804.9
-10.8672
-0.46914
-9.60582
16.9053
-39.8121
-11.3035
-0.698867
-2.62698
-396.052
0.158305
0
-7.29023
-1.60909
-34.5539
-39.8748
-7.80224
-66452.4
-0.222112
-1.63833
14.7749
-0.404947
-26.7533
-7.95604
-5.06979
0
-6.70062
1.6279
-57.9451
-991.237
-33.3837
-85.1616
-9186.57
-9.84835
-1.49377
-0.0729901
-9.00253
-103.453
-3.42972
-3424.38
-23.1981
-0.155679
-7.61185
-0.971606
-18.2748
-9.61383
5.96218
-0.21216
-0.239165
-0.654025
-21.2475
0.819721
-89.306
-8.42164
0.0680912
0.224426
5.70465
-65.5458
-13.4786
-99.8096
-106.541
-0.167993
-32.3349
0.797092
0
0.610095
-47.7892
-5.13545
-8.27484
-18.4892
-10.0862
-8.63123
-10.0649
0.14986
3.31462
-10.1701
-23.2297
-43.7738
-8.37135
-362.939
-0.145679
-0.368488
-28980.5
-2.55964
-0.188216
-24.4532
0.262207
-12.8029
0
-9243.27
0.871428
-1.68626
-7.68263
-10.513
0.351848
-0.216454
-0.423198
0.117353
0.762735
-0.823715
1.36208
-5.61828
-9.35671
-3.61924
-20.4265
0.548954
-9.67264
-6.99648
-8.90779
-10.3713
-0.26097
9.19237
-6.315
0.943267
5.80304
-165.444
-32.3592
25221.4
-23.0758
-38.4043
-147.584
-15.8939
-0.676466
4.22475
-5.79801
908.876
-1.95648
-19.0128
-9.44282
0
3.18033
-17.7225
-47.31
-71.074
-0.236182
-22.2672
-5.31156
3.7553
-13.7809
-3.34058
-16.1513
7.40374
-1.57201
0.328882
-4.98756
1.32116
-29.9768
-12.7371
0
-10.404
1.20157
-21.7924
-14.3082
0
-44.3611
0.292387
-19.5296
1.90709
-1.39935
2.07438
0
-21.531
-11.589
-58200.7
1.30207
-0.813589
-1.85176
0.0892325
-0.227234
-25.7277
0
-30.1509
-2.09853
-3.36032
0
-4356.02
0.144254
-5.34128
-215.926
-1.86416
-16.5388
-26.4273
0
11.2289
-2.13734
-1838.24
1.2292
-65.0326
1.39804
-9.08786
-1.19013
-2349.33
11.1668
-83.709
-18.3398
-17.862
3.07942
1.46719
-12.4003
-23.6738
-0.207142
-134.277
-13.8081
14115.7
3.10003
-19319.1
1.86221
-3.62328
-756.201
-12.3485
-14680.6
0.294671
-0.986064
-46.1928
-38323.3
-12.119
-13.113
0.778652
-15.1737
-12.6618
0.0503815
-9.17092
-15.6709
-88754.4
-144.14
-0.117798
0.66272
-84.4652
-8.82281
-8.0499
-18.9665
-8.08226
-8.67415
-4.25501
0.954208
0
-1.93464
1.99159
-24.3633
0.519682
0.0984694
-5.49075
-4.87094
-14.8782
-2.09192
0
-8.4458
-0.870436
0
-8.09742
168.026
-2.91089
-2.30629
-677.184
0
-10.7541
-7.19019
0.126469
-0.923471
2895.87
11.3613
-6.0561
-5.3886
0.263821
-0.334146
0.472084
-77.0154
1.40245
-1.56741
-4210.28
-9.3623
-34.3748
-0.0918339
-8.21478
0.393448
-54863.9
1.8347
-8.80862
0.239132
-15.1383
-8.28731
-8.22269
-11.2703
-39.0409
-31.4848
-17.0781
0.540267
0.622769
-110.371
-10771.5
-67881.1
-7.86954
5553.04
-40339.6
-10.1934
2.21834
-18.1087
1.51994
-0.28038
-0.19114
-108.728
-0.386215
-26.1089
-108.5
-64.9699
-1.37512
-9.45536
-5.36145
-61134.1
-9.75759
0.324704
-14.8045
-11.877
-98690.4
-18.0926
-8.64937
-8.54243
-6.02299
-0.225586
0.27356
1.51759
1
-10.8066
-26.7381
-40.7905
3.75643
0
-1044.43
-31.3282
-8.91354
-0.0910944
-3.89234
-75.0173
5.49371
-6.12739
3.98379
-1804.98
-8.67923
0.894073
0
-68.9275
-1.2066
0
1.29173
0.692598
-217.875
-28.9045
-18.0539
0.145883
-11.2609
0.949529
-1084.72
-17.4156
-25202
2.52565
1.04544
-23.4494
0
-43.7442
-1.5123
-4.51887
-10.1701
-1.22831
0
0.0513243
-0.941041
-22.2618
-0.461649
0
0.53231
-1.24032
0
-6.51376
0
-33386.4
-10.7831
-6.7616
-3.22813
-309.97
-7.64745
-15737.3
1.50002
-1.92202
-17.9875
-1.07309
-0.145248
-10.0617
-8.24573
-3.03656
0
2.06218
-925.809
-2.06267
2.45901
-16.6967
-4293.13
-24.9456
-7.84579
-59.4741
-51242.9
-12.9057
-27.4596
-17.5455
-24.953
-1.31342
0
-0.642906
3.01442
1.32024
-15.4428
5.23552
-4833.41
1.29864
-3.54955
1.10613
-0.995751
-15.2218
7.47743
-769.239
-0.65931
-7.81592
1.79949
-9.73373
-13.4097
-10.1701
0.046366
-12.9022
-10.2415
0.569792
-2657.8
-7.09473
12.7478
-48.6781
-11.0702
-434.948
0
-23.8917
-17.1216
-7.56579
-0.551338
-0.356113
0
0.525853
2.56148
-32.2532
-106.325
-19683
-5.24744
-8.90713
0.119718
1.35636
-4.29586
0.600577
-6.41046
-0.83487
-0.26006
-42218.2
-9.58034
-2.6131
-27.8804
0.388369
-218.386
-18.1585
0.42675
0
-24.8948
-0.899493
47.5514
-0.285617
-20.9214
1594.46
-12.7428
-12.288
-432014
-17.2654
-122.819
-13.8384
-1.87606
-13.3827
-18.2518
-1.71993
-29.3417
-0.411947
-55.9176
-1.21398
1.22819
-9.70062
0.0152391
-9.90083
-2413.42
-8561.94
-11.943
-18.8542
-1.65368
-1.19667
0.304734
0
-0.0717729
-1.10906
-1885.28
-11.7178
-18.0351
-116.67
-11.9355
0
-13.8842
-17.796
-0.559618
-442.416
-7.88344
-1.24407
-122.8
-12.7113
-0.496431
-90.7102
-54439.7
-2.50781
-8.11401
0.52752
-0.614287
-0.144254
-23.1091
-10.1701
-11.611
0
-22.1638
1.06343
-4.213
0
-29.753
-2.09469
-0.605089
-100.589
5.49371
-6.12739
-1042.27
1.92768
-2479.69
0
-12.0939
-9.52977
-0.888718
-93057.3
0
-17.9834
-10.0606
1.31344
-274.257
-20.1199
0.210213
0.739588
-10.5909
-10.7035
0.204577
-44147.1
-4.38085
-28.7365
1.24232
-35022.7
-6.56998
-1.26835
-220.856
-37.5937
0.509667
3.01683
-2.4284
0.0513243
-13.0671
0.716904
-2.82347
-42078.3
1.13506
-0.386851
-12.0438
-12954.4
-1.74897
-0.457645
-8.81935
8.03094
-7.30522
-1.02117
-9.60602
3.36766
-131.357
-8.92147
-98771.6
76.6072
-11.1908
-942.035
115.94
-32.5756
-12.2987
-46.1646
-1.88414
-4703.52
-33420.1
-0.556833
-28.8888
-20.9673
-59.4741
1.62576
0
60.1275
-8.67499
-1.54877
0.739711
-0.628517
-1.17101
-15.1867
1.65425
-2955.7
-0.84368
0
-26.9636
47.0456
-13.6742
-53244.3
2.02634
-3434.95
-2.36502
75.5567
-38.2122
0.383912
-11.1625
1.10545
-21.6528
-0.408472
-9.83589
-60.4263
0.346292
-8.84161
-43.7643
21.3571
-189.574
0.125312
-8.54573
0
-32.7436
1.78768
-11.6139
-15754.2
-13.7093
-42.461
-15.0183
-75.3598
1.3376
-4.39255
-701.406
0.365932
-9.13907
-292.767
1.35636
-13.8447
0.580716
-17711.3
-0.760268
6.66378
0.924043
-1.06557
-2155.41
0.923219
-9.15764
-8.15662
0.326544
-99.9862
-1.10942
-8.72603
0.832545
-2.47063
13.3805
-8.30163
-0.90481
10.8846
0.47934
3.71348
-0.0767233
-20.172
-89.4793
0
0.234837
-10.2312
-17.0135
-13.877
14.4489
-10.1999
3.94368
0
-0.730736
-33446.1
-186.13
0.113775
-10.1057
1.96941
-0.03075
-6.67288
-20.1168
-1.24929
-5473.65
-1.19667
-3.51005
-0.0277497
-3333.73
-183.513
-18.0351
-69151.7
-9.86956
-6.52721
-0.341792
-5.43893
-0.559618
-8.72597
-0.509699
-12.4899
0
-0.31255
-0.578679
-50820.7
-0.496431
-9.64018
120.325
-8.40955
0
0
-2.31562
-22.6992
-4.13558
38.2008
2.13105
-1.21987
-2.18463
0
-10.9075
-113.244
-3.61977
-1780.45
-10.3666
-11.5321
-17.3341
-71.5555
-15.0001
1.1533
3.23492
-2.13564
-125.347
-0.212109
-20.669
-18.0539
2.27097
-2.63068
-7.85756
-7.63346
16841.2
0
-12272.5
-5292.79
-13.8462
0
0.053144
-1063.97
-32.1076
-55.8371
-1.63479
2.67976
-2.36457
-4.145
-13339
-1.71658
-0.564442
0.403281
-54.2697
0
-2603.47
-55410.5
4747.9
-1.8289
0.966567
-10.1701
-11146.5
949.018
15973
-13.8348
0.42809
-2213.91
-9.04611
-10.9661
-0.858546
-23.6681
0.649137
-31.5392
-7.94582
0.39975
0.638917
-1.02591
-19.9496
-304.297
-2.13815
0.534098
-159.394
-46992.9
-9.67243
-7.83918
-4996.21
-0.0742735
-13.0647
-8.23273
1.59132
-11.1681
-32.3258
-32332.6
-10375.4
0.158305
-0.628522
-60613.4
-3.02683
0
-80140.8
-54.2568
0
-0.536184
0.0839353
-66.0807
0
-36.3785
0
-1.85685
-10.5751
0
1.07972
-0.458539
-8.83442
-14.6483
-7447.31
-21.9436
163.219
-13.7113
0.0244112
-28.98
0.2958
-27.3411
-5.45135
-8.73218
0.814532
-0.0502442
-0.155679
-4.60425
-20.8711
-14.0155
-607.262
-1.22872
0.564957
-160.324
-0.350483
1.04576
-7.94337
-7.29342
-8.96445
0.224426
-18.8408
-60148.4
-3.23969
-7.85288
-11.687
-10.911
-10.6461
-15.3951
0
-5.92215
0.41014
-12.9682
1.53402
-6.35751
-0.0534983
-14.477
0.541176
-9.39571
-0.606714
0.381332
0.0564008
-9.16495
-0.372829
0.390707
-11.4459
-11.3011
-0.0535543
-8.89718
-12.6415
0.172426
-15.4753
-10162.7
-64856.5
5.54556
0.263262
-10.1481
-10.1095
-9.05925
-5593.92
0.425558
-5.16146
-14.0193
-0.916416
-22.5017
-8.91455
-0.183345
-14.3096
-1.98541
-5303.03
-12.9539
-69151.7
0.0721268
0.0161168
-22.8904
0.260964
-0.0424699
-0.10636
-9.16376
-94251.8
-176.531
-0.207591
-18.5457
-5.39212
