booster[0]:
bias:
-8.34742
weight:
13.8111
-3.35501
-61473.7
0
15.8164
15.6547
0
16.6446
0
-5.94729
0
0
0
0
0
0
0
0
0
0
0
0
0
0
0
0
0
0
0
0
0
17.759
0
0
0
17.1382
0
0
0
0
0
0
0
0
0
0
170.503
0
0
0
0
0
0
17.7879
0
0
0
0
0
0
0
0
0
152.693
0
0
0
0
-23.6516
0
0
0
0
0
0
0
0
0
0
0
0
0
0
0
0
0
0
0
0
0
0
0
18.4627
0
0
0
0
0
-43642.1
17.9188
0
0
0
0
0
0
0
0
0
0
0
0
0
0
0
0
0
0
0
0
0
0
0
19.332
0
0
-308869
18.8248
0
0
0
0
0
0
0
0
40388.4
-2643.57
0
61690.9
0
0
0
0
10016.1
0
0
0
0
0
0
0
0
0
0
19.1716
0
0
0
0
0
20.6576
95.4651
0
0
0
0
0
0
0
19.1978
0
0
0
0
0
0
0
20283.9
0
20.6672
0
0
0
0
0
0
0
0
0
17.4946
0
0
0
409.93
0
0
0
0
0
0
0
0
0
0
0
0
0
0
0
0
0
0
0
0
0
151.987
0
428.337
0
0
-47.8756
0
0
0
0
0
11638.3
0
0
0
0
0
0
0
0
0
0
4963.68
0
0
0
0
0
0
0
0
0
0
15.782
0
0
0
454588
0
0
0
5206.03
0
0
0
0
0
0
0
0
0
0
0
0
0
0
0
0
0
0
0
-2501.99
0
0
0
0
0
0
0
-11.5458
0
0
-14.6388
0
0
0
-40296.6
0
0
0
17.0968
0
0
-17.4853
0
0
-196.116
0
-7.1976
-24.9333
0
75.1988
0
-4.8108
0
17.3211
0
-6.40088
0
0
0
0
0
0
0
0
-140.159
-693.944
0
0
0
256561
0
0
16.7582
0
0
0
277.798
0
-112.02
0
-425.514
0
0
0
-95.3776
0
20.5213
0
0
413551
0
0
0
0
0
103.091
-4.456
0
0
-20.865
-23.0423
0
0
0
0
4544.94
17.3931
0
0
0
0
0
0
0
0
-4.28562
0
-10.616
-23.7638
0
0
0
0
0
-7.65677
25.0622
-55.754
0
0
0
0
219.835
0
-6.87697
221.017
0
19.3773
0
-7.694
0
-1810.48
0
-34.9469
41029.9
0
-6.08879
19.7602
0
0
17.4127
-243.492
0
0
17.9262
436.919
-30421.9
56896.6
18.1104
0
0
0
0
0
0
-130.081
0
-13164.1
0
-5.21404
0
0
0
-5.97137
-11.9635
-40.7717
-74881.4
-15.1582
-37.7336
0
0.664711
0
-6.42263
0
-0.37467
0
-571.074
1167.66
-0.264633
-6.65142
449.424
1075.59
509555
84.4304
-15.6917
0
-18.7367
-109.161
37.0672
0
0
0
17.7242
0
-538.095
0
-1998.21
181404
-6934.44
18.0836
-9.45913
17.4917
475.602
0
-13.9078
-22446.3
-14.5349
0
0
102.826
0
162.907
-42.5094
188.534
0
0
2929.36
1105.26
55682.4
-34.6368
0
31.7816
-10.3606
3680.23
552.539
327.289
-8.18768
-20.3728
415.483
-7.32081
-30.8289
-5.29402
-611642
-53.455
0
0.379884
-6.42491
-31.6617
-958667
152.755
0
-405.61
-25.5087
0.390604
-190625
41.8698
24324.5
132.838
-52.3613
-52.8415
-60778.8
0
-24219.9
-45.678
0
0
0
-878.241
19.1856
0.440026
143549
-9.40147
191.331
16.1663
-20511
-1.77797
43.913
-92032.2
-35.5443
17.266
0
-10.4161
12168.9
157.519
-893.728
9193.05
0
0
57.8778
-15228.5
-546.824
880.278
-24.1381
298.743
-29.5515
-24442.8
3315.39
-604.233
-1225.96
-60.3752
0
-4.55807
-5366.21
6403.22
4.42347
0
348.298
192129
-49.5891
148.229
755.084
0
-44791.2
-8.38332
-355.983
79.618
0
18.0985
134.324
-36024.9
0
0
0
16.7179
559.399
0
-10.9561
-52641.3
35506.5
-286760
0
-29621.9
-1741.4
0
1.42581
16.8624
19.949
3589.22
-0.299366
49653.2
-53.2274
-6.34238
419865
0
43.8496
653.515
-59.5166
-33.1563
-86.1724
-41.707
-0.160855
-95.7408
-7.63873
0
0
-8.92807
-18.6647
-39.9152
-118.608
-2366.73
-781.237
-154.264
72.7089
37643.9
-41.6828
0
38.543
-79.3651
573.44
175.124
2304.55
-57.6697
7.50824
-558.967
-51451.1
42.5391
142.667
-420.995
-217.123
1389.46
-911.88
2.77118
93.4103
0
789.229
-29.315
64.2435
0
-59.4168
-266.253
106617
0
0
-143.734
15.5774
-18.3932
17.5331
0
35.7059
2112.68
-5.71325
0
-3781.67
488.183
27.9525
-4627.92
0.396598
129.631
2263.79
-128.23
-88.3815
8.47355
-21058.6
160.102
1.28887
41.1376
-4.76363
2137.96
0
-167.885
221.516
-17062.3
0
709.074
238.989
-359.649
-1393.81
-9.35226
-1756.87
-1.17361
0.123717
293.751
-1774.45
-6.67306
0
0
0.211197
-14.864
24347.3
841.944
0
62.8215
-68.5069
991.381
534899
-19.7304
-34407.1
128.696
81.4839
0
-15.0995
0
21.1609
-9.59166
2979.48
-5360.81
-10.1994
-27.2889
-35.007
-2561.47
0
225526
-37145.7
-5500.41
-62.5737
780364
-9.2343
1.55363
-32.7414
-26164
-11.7088
-948.394
-821.413
-5209.65
-319.925
-74.2668
-0.980925
0.0538827
661.08
-9.46209
-34.4979
-402.029
-6096.75
698.638
-254.021
0.165327
-8546.99
0
-119.5
-13.3815
-511.485
547.735
-25.1137
-13.3957
-52.5584
-194.863
-11.4262
226146
-3.51423
-38404.9
0.278889
0
-55.5578
-19.0746
-194.804
533.724
-45.3764
0.84584
404.414
-45.4142
-34.0542
0
164.646
136.523
2367.1
-137.699
0
1095.87
73.2061
-16.841
0.794466
-370.654
-131.761
-653.005
3419.37
-25.1069
0
-35.2882
-21.9736
10.197
68961.4
0
-1707.9
127308
599.125
-3009.43
66.5981
17.4565
8.42264
-54.7415
-131.849
-9.21666
-6115.06
-14.2168
-547.424
267.418
139.74
-9.75924
95.9617
-10.5793
-9.66318
-138.964
-21.1207
2683.53
0
907.359
-155.257
950.416
-10.6268
-13.1304
5.99885
140.818
-233.403
-454.038
-64013.6
253.331
25.7045
-70.4475
34.5979
-18.8508
-11.7466
128431
-8.42679
0.933398
-2.19747
-1521.46
17705.4
0
-9.85521
104.967
-8909.11
41.8894
-2.56213
-54.1263
16364.5
23661
79.373
0.479677
325.68
-1.96554
1.50371
-18.537
-0.0194806
-1175.86
77839.8
-986.102
-21.1885
-18.2248
0
-570.925
-6314.96
0.777823
599.78
304.855
19.5972
-38.9202
76.1011
-767.617
-10.975
116.503
-7.95071
16.3706
1.83957
-5685.28
0.0960984
-22204.6
-3651.12
-13.0749
-12.6434
-764578
-19.7646
88.8075
0.71862
-33.3973
-41.1497
0
-36278.2
2.36039
-4065.13
-101.941
-14.8684
-97.2117
-30.1662
0
-9.87609
5.1629
3058.05
1751
135.6
-130.181
-14.6757
-49.7959
2828.72
-9382.43
-84.8511
18.5295
0.0578204
32839.5
-9.69874
35.7893
111.251
1667.05
95.8253
-22400
361.535
83496.1
-50.727
28.2159
-29.5621
-62.2164
-207.236
-8.86892
-13.9344
-13.3726
0
-43.7509
2613.25
0
-9835.17
-12.1703
-60.9987
72.0982
-189.035
14.9943
-8.41224
0
1.58795
-351.928
0
-3092.54
-17.3129
206.058
69.4129
-9.10483
140.407
-164.275
30.2204
0
-25715.9
-9.41337
0
0.0705989
-20.1475
162.166
-22.8077
98721.5
-9.08514
-39.6068
-324.752
34.8737
1265.77
189.041
-68.6879
-102.475
43.2313
-124.482
-49070.3
-18.7759
-17.3262
232.551
-11.701
8487.1
-13.2726
-4611.62
-14.4635
-39253.8
-240.449
488.57
-796.276
1188.88
110.657
1285.87
-69.1321
-21.5681
923189
-517.529
-2096.83
-11.709
-9.02217
-46.7709
13322.7
-846.344
-56.0719
-43412.6
66.4474
-3839.73
-23.1962
0
171222
-300.034
5656.4
74689.9
0
-456.517
63768.3
-11.7328
-10.1323
-6.88275
-21.9372
1012.29
16.9408
5801.81
0
1.41435
72.0585
9.31479
-20.2694
-1191.12
-8.48954
0
849718
-50.2177
-1624.55
-261.566
11173.8
-20.8462
0
85.7493
-46.4448
36.3009
-61.1331
-23.9892
22.5627
-1975.96
-22.1177
12.8834
1949.06
64.1158
20688.8
5.49413
149488
-98659.3
2.65041
0
-77.2699
27636.9
79.9672
-559.059
-186.845
-10.1863
30.4728
-16.8248
-24.323
1.04482
-29.1964
-85.2652
20496
0
-50.1398
78.0938
-14.0186
7763.52
-2740.26
-624.338
0
-15866.2
463837
-10.6345
38.2461
17.298
-8.97079
826.946
-65136.3
-28.523
-10.2159
-45.6477
-12.1485
20.134
-10.1444
1.67672
3703.16
-2180.2
9344.69
25948.3
-13.2753
-9.82991
0
1922.26
-934.774
-68.7993
-10587.1
31.835
62.7657
-5.5646
0.305144
0.196044
-14.1119
-4.95073
0
103.853
-30.4417
-69.0722
-1238.03
-506.139
-10.6187
-9.57284
845.941
94.3034
163.463
-1275.64
0
-10.0729
-24.7536
-15.3225
-12.219
-8320.23
-74.3446
7267.96
0
70.3675
7.34597
-4.97246
-8.58604
-19.4035
14871.4
416.818
33.0542
-25.8112
-50.2492
0
79.5794
-31.1205
-18.8406
64.6206
0
-9.23995
-110.683
-185.778
1.63359
-1632.61
748.28
16.4168
-43.0361
-1.31376
151.097
10.028
159.404
172.07
0
41.4627
-13.4366
927.22
-21562
-11798.2
-8.21739
-0.238523
-30.8685
-11239.7
0.486682
0
0
-3072.2
-143370
-33.6477
-1.08412
-32.8543
-19.1375
0
109.89
-10379.2
-55.6292
-11.3834
2248.8
7915.16
-31.9579
0
-678.945
-17.4704
-11.5525
-14636.8
-955.602
-15233.2
-11.1952
-132.885
-70.4604
0.166846
-19.7877
-816.464
0
3662.55
0
-1679.76
6628.52
-79555.9
-1429.94
-0.951594
-30.4979
6484.15
-26.6679
-22.4712
-17.0533
0
51.9968
568.524
-41.2885
30.4728
-15.7336
-15.7875
-0.289854
-31.422
0
0
-32750
52.9166
-321.028
-15.031
145.524
-1.3143
-6323.5
42.1449
-107.388
8.26272
95.9487
-2.85079
-91.9311
755.7
21343.1
13859.4
-0.864967
7.74297
0
20.7592
98.2211
-63.4322
-12394.8
369.937
300.298
0
3.89614
-31.2442
-94226.2
-15925.5
-253.984
-10179.8
-14.6832
0.646211
175.439
-10655.6
-44.6326
-36.5317
-2.45608
52429.7
-0.629745
0
-70.3061
12.2546
80.4422
48248
-14.5413
-135.199
-52.2806
3.61171
-206.037
13.8048
-10.7924
79.3666
2424.31
8875.01
174.789
-116.424
2908.5
-3.78148
-431.983
-2.97707
-12.9748
-47.7471
-1752.32
-9.19876
-1736.35
-7.47525
2.02967
-59.1105
186.823
1416.95
20.7662
0
-31.8569
-13.5023
-24.529
-14109.8
-7.7527
-84832.8
0
75.0809
52.0416
-84.129
95.2905
-15.7215
-32.3101
-1.32539
9.23883
-208.335
-54.6505
-48.8654
2862.63
-1166.18
-18.1711
0
12677.1
12054.8
191.17
-4.6374
-15.7841
-27.6622
0.896097
22.986
-7067.47
-3969.57
-44.0956
17.7112
-84.155
-14.3714
-100.441
-18.2368
75.8692
-29.2239
0
-13376.6
-0.750079
-1680.05
575.684
376.565
-11.9196
-863.218
-3403.12
-179.945
-32.8896
24.1731
1.2017
-104.175
-9624.79
1477.34
-16.1279
17.2566
-10.6825
130.912
1.23901
94.3209
-18.1623
-36.0189
-63667
-16.0632
0
-5969.94
-0.599958
399.432
0
-47.4055
-137.551
0.0789749
-0.691495
-166.602
-10352.6
35250.2
-11.6647
42.2478
-27.8901
-35.1136
-219.616
97.1778
-1002.17
-180772
0
836.153
-14.5355
1277.43
2360.16
-63393.7
-318.865
5977.23
-13306.4
-2.7413
-9.67781
-0.999867
-25319.6
0.434678
0
-6399.59
7003.43
208.182
12.3727
-81.1664
11.0315
-1247.48
127730
1871.33
90572.4
2785.78
-37.1431
-42747
12.353
-19.8956
-10.6964
-2.17112
2.30688
-97.8461
-34.3721
-9.27449
-16.963
-0.181096
2846.48
-1434.13
-81584.5
-197.728
-8.63308
0
-53.636
-164.566
-9.30999
-32.015
-28.0267
621.905
33.1761
-11.0087
12.4122
44.8853
11662
-222.521
-14.796
-16544.9
0.434742
57.3724
-278.622
-42.6495
129.708
21.273
33.3419
-8.71461
-8.7682
728.294
-1083.97
-30.2633
7.66798
-29.005
3.61193
-0.583603
-11.6983
-26397.4
-10.4985
0
45.9736
-113343
0.942822
1.74925
-47.1587
-59.8772
469.345
-8.51356
-7.9399
0
134.552
-60.9113
49.6147
-33.9991
-9.80649
-14.4112
-163.726
-14.6135
-7.38777
15.4824
37.9074
30319.9
-48.9876
-44.9203
-3.50987
-332.176
-65.4617
-39.3755
-11.4325
-42500.6
13.5323
-2.29196
8153.24
13801.1
-98.6956
2293.53
68.9086
54.6651
-22.4905
-21.3938
-18.9359
-54.0311
1173.08
3.93906
-29.7182
-12888.3
-9.96401
-50.6689
-14.8059
-4035
-21.1477
-15.9242
-14.1771
-18.1687
230.166
-31.7252
-222.372
-228760
7.82345
31.0742
-19155.4
-10.1632
-17.4572
-0.0405997
28.1744
-390.348
-26848.7
-9.75161
-497.515
0
0
-11.4958
-17261.5
-1.22944
-4990.69
0.10842
-37.6843
-33.5515
-730.279
-12.0317
-83.8251
-51.2437
-904.303
151.902
20811.4
-16.3916
-95.1763
1452.56
-608.842
-316.464
-2132.33
12.5711
-196043
58621.9
18.5038
-11.6805
3331.75
-1.52544
-90.1177
-19.5535
0.52361
-9.62481
-29.395
-16.3302
7145.91
0
50.344
-26364.1
-10.7711
-1.06708
112.332
-27.8108
0.0897113
4.73897
50.4106
-572.576
13226.7
-195.673
5.22083
-22509
-9.53895
-135.682
-41.9897
2972.5
4686.24
0
5337.38
8.47257
-9.87737
3.21182
12.6901
-20.1581
-19.3592
-41.6522
-42.2249
-8.91947
-142.2
-0.439534
24.2593
70.7877
21.6748
2.17284
961.417
-1.71443
-487.936
-3.60641
58542.3
-9.42191
-1.38346
-893.386
-35.5892
-0.486957
315.048
-25.1227
-28.4298
-14851.3
-9.72819
2767.52
79.0839
-966.744
91.2453
-46.5135
-1748.15
-0.119606
-5947.16
-5.24257
-1.26182
1237.68
-913.434
5327.29
275.768
318.684
-17055.7
-12.1204
-22.6364
-73096.4
0
22.0164
-17.1967
-14.8118
-46.0983
-28.3229
-8.6393
157.536
-157.759
99.5092
20.4701
1.75033
-9.09303
-87.4757
25.7004
-29.5627
4405.09
27.2874
3.23127
-70.563
-3123.46
-16.5287
1.69436
-16.6862
-14.1982
97.4518
5686.21
1.68926
0
0
-403.061
259.406
8.1126
44.1518
-1.61613
-1951.51
-73.7509
-809.631
-1187.32
-9.00305
0
970.842
-11.1968
1482.3
-13656.8
-11.8137
-15.9441
2.30225
143.295
-0.412134
-33261.7
-31.314
-23.5949
243.039
-1.81497
0
-3937.21
-64.1981
-90460.4
-11.265
-11375.6
8530.58
-15.0634
3.79715
-33.3215
-2689.86
-184.557
1.60192
-2.22138
-4874.48
-39.2833
16779.5
-5320.3
-1661.92
-14.0741
0
-20.2609
164.454
315536
-2.97052
-1.04955
-194.265
-26.7882
-88.2726
-1.49551
134.931
-1.42382
-16.8751
-1.0207
-80660.6
-54.6505
-4115.04
-8.50954
-12.2145
0
-119.932
-1358.6
-9.46582
-3938.2
0
0
-486.593
0.361299
-70.142
-45874.3
0.381942
-12.0006
0.308442
-58.3773
7.66273
13.3152
-22.9331
1.11744
-23.2414
-13142.6
-18.8416
-0.656512
-12.5157
0
-131.382
2515.69
-54096
-27.78
9740.77
0
-25.8488
-13.8406
38897.8
2.20548
-16.9944
-23.2017
-24.8585
-31.0956
3299.54
102.576
-5541.25
-13.0603
136137
1717.51
-6247.56
-98659.5
-15577.3
-31.4361
200.697
-0.458825
6277.46
-46.0535
177824
-36.5974
-37.2973
-12.3557
-35.1683
-16.8885
0
-97.4263
-306.58
-5.87514
-2.42985
-592.958
-52.6559
-59.3938
15323.8
-72.5132
1.33366
-393.859
-27.868
-16.29
441.768
-13463.9
-31.5085
-20.6588
-27.8116
-54.0178
-0.0888472
-8.88148
-69.4972
13077.3
20.9995
-37.1564
-22.2061
-18.6157
-45.6215
-51.4001
16.7518
-23.0657
10535.8
26.7334
-2.18132
17975.2
98.1129
-725.965
-1028.58
-18.7081
1.50262
30.9216
8668.91
155.215
66.2163
-34.0022
362.341
-23.1294
-1.58373
1066.34
-43.2946
-11779.6
43.4526
-474.179
8288.24
-15779.3
-25.9432
3189.99
-62.3182
2.99027
-2056.33
-29.7205
0.38023
4927.18
2.12868
-22.6333
-252.535
-6.77082
-42.3377
144.087
23.8458
-47.0882
-52.1245
127.1
-0.526891
-0.120449
-60330.2
-27.4999
-33.5526
-896.929
-674.25
-250.265
-4.61231
-58.8781
-1002.48
-22.5468
397.582
-12.5285
-8.89097
33.8026
-71.9884
-0.428923
-9.47244
-31.885
36149.1
12.0839
-330.973
-7.50502
-215.377
-10.6811
263.899
-137.187
910.366
-32.4961
-104.333
55.2722
-0.468305
8.55868
-7129.63
0
74.6612
79.4151
-1.34287
10.6267
0.55155
-31.8569
35.8542
57519
-2134.33
-23.8973
-0.614159
1.98505
-136.924
61.2895
-1853.54
-2.55387
-65.9957
4173.85
0.933067
-4.98087
529.7
-10.7996
-775.375
-47.1495
-1591.67
-46248.1
-13.8668
-9.21959
687.805
-26.7168
-11109.9
-20.8536
-5.69817
0.426741
-35.3386
82.5883
-3817.78
-15.0626
-24.6521
-10.6065
-26.8042
7.02042
4694.24
1052.67
-12941
5670.13
-22.461
-83.7677
0.447587
-13.5689
1.77237
-242.271
1.24496
0
-85.2102
-0.893451
-2.21489
1.03369
2.21374
-30.2359
-15.9677
2337.45
-50.3551
-15006.2
6.47003
117.979
2.41579
-12.8005
-38.0147
1291.53
-10861
-25.7219
-7.95949
3.94694
-23.6681
-9.00412
-98.3918
-9.11086
0
-9.69361
-158.092
-31.9579
-11.261
-28.2525
-1.63977
-1162.94
0
-96.9019
24.0113
0
-32686.9
-98.3209
-2790.3
-4.44852
27.8081
357471
-0.378638
-21.2859
-10.4884
-612.813
7.91773
-882.013
-13.0817
-12.2783
-184.645
-64.8561
2.0398
11714
-274.36
-78.4044
2527.37
97808.8
-17.1238
-10.1225
-13.6808
-56.572
0.0608735
-18571.3
68.9188
-24.5855
-9.93952
-143.937
-0.515291
-159.786
-21332.5
5.49086
-14.3145
-104.782
5.94339
-1456.81
-99418
-2.69761
-128.016
-163.741
-63.5633
-17.0766
-79124
-11.8848
-1.84316
-11.4707
43.307
-8420.08
2513.17
89.73
66.7063
384.083
-390.308
4.24632
-13.223
-96407.2
0
13.9164
4741.11
4396.62
-51.8201
-13.3739
14082.9
-14.4779
-11.7937
-10.6665
-11.6936
-28.2099
0
0
-574.723
0.11714
4700.17
-85.4559
-81.847
-18.5495
-36.6976
-17.6102
-27.9252
-9.05474
-13949.7
-96.2512
-12.9917
-13.0971
-43.1288
-10.4
-20.9101
-10259.6
-8.87912
-2278.35
5.58622
-83.4851
-95.2402
-245.188
-8.9726
2.90926
1.65004
13.6955
-4.72441
-12.3906
-0.391455
4246.41
-56.7209
-120.335
82.5599
31.9554
-19722.4
-1473.28
-22.6064
-13.4296
-13.9669
-4.63848
-116.068
1.36793
-14.4486
-48.0888
59.2967
-21.3064
3.94172
-80.7379
-6.58632
4457.86
897.962
-4.57713
-1.14519
-587.297
61.1618
-183.925
-13.8708
-31.5139
56.8945
2332.68
47983.6
556.098
-32.4266
-52.848
-25.8217
3799.12
-13.6801
-36.6821
-126131
0
-13.7942
-10.3602
-7728.59
-1.48319
-0.0197949
0
-102.264
-18.2067
-28.6502
-11.307
-11.3203
-34.9761
-0.245523
120.307
-13.8545
-4239.92
976.892
-1.62577
-30.4131
2874.3
-1279.27
-37.0839
0
-114.811
5672.6
-56.0008
-21.8016
-26.6195
88.5969
-18.0991
-10.1071
40.6938
-125.507
-43.7246
-38.3454
0.280766
-25.1644
-1461.63
-77.1335
-28.7589
-13.1741
329.247
0.534599
-918.487
-5295.65
-85.9538
-9.09555
26.5115
-136138
55.4596
0
-1.1188
11662.1
0.982927
-173.507
-12.8321
-43.0433
0
-382144
-92.6578
-5537.85
-4.55936
-2534.01
21.7939
202.447
-49.6952
-76.6366
-1.31336
0
-178496
-25713.5
-5.04541
3750.03
-71206.9
33.0366
-0.697271
-91.7179
-22.6142
-12.522
-32.3904
28.3469
2.37412
-6.15659
0
-117.744
-87.7941
0.19463
-72.8894
-69.7472
-44.2626
-662.495
-51.8384
-41.881
-24.0593
-67.2093
-54037.3
195.537
-19.2537
349.897
9.65609
-26.2028
0
-33.8862
-26.1004
-26.7464
12.754
-0.532833
22.501
-31.7081
-48.7125
-18.24
-6.11234
-20.1219
-1.73754
2.80576
-2.97381
-47.8145
-11973.5
7.69402
0.669387
-37771.3
-8.35939
-105.393
-17.8344
-19.9921
1213.51
10.3234
-72.1297
137.172
590.708
0.349296
-38953.5
-1.54989
-297.628
-20128.8
-6118.72
61.0007
-22.4988
0.356158
34.2564
10.939
-76.945
-3.87785
4552.89
-71.4455
-10.9586
-4396.92
-29.856
-0.785269
-7.77435
0
0
-12.447
-2.17104
95.8345
-9.49864
-17.7676
-0.51494
-3831.94
4189.13
-13.7599
-1195.04
19.2233
-4.38407
0.927481
-8.72883
-13.4087
-13.5762
-14.7094
-36.1979
2.1671
196031
-26.9652
-13.923
-1.3772
-446.789
-28.5094
-2.64022
-18595.8
2.40972
1.2989
-16.2549
-6.77301
-16.1662
-0.439493
6800.53
0
1.17211
-94.0134
-14.4121
4.838
-0.229575
-88.6952
-2.53554
-50.3687
-5.20392
17.0499
-21.1536
-15.0772
1.10055
-42.1973
-70.2141
-11.4084
95.2983
-54.2461
-30.4954
-0.167888
-27.5028
0.643362
-13.647
13.6242
-7.29869
1.73441
-80.2625
3008.85
-979.686
-3356.33
-57.4193
2281.12
116.535
0
0.32168
-88.5205
-103.206
-10819.5
0.796655
-2690.05
180.095
-5959.71
-1391.87
-0.492841
-19.8256
358.098
828.841
7.80399
-10.9357
-0.573013
0.807944
-36019.2
50.6346
-12.2029
-20.3056
798.671
-68.9585
-21.4516
13.59
49.5725
-431.171
3.26586
0.951083
0.167472
-0.748413
0.686756
-83.8785
-2.5127
-38.7989
-19.8326
4.93302
-17.7477
-3.07111
8.22186
-14.8451
-17932.1
-2.89874
-53.2569
-28.2061
-17.78
-9.41281
-23.2304
-158.847
-0.798365
-17.1781
-18.7515
0
-11.3573
785.993
-10.1727
-19.7254
22.4821
-6066.35
1.74297
-11.8576
58.3718
-64.165
44.1788
12374.6
-12.9483
-1071.06
-14.218
41.3375
-2.39181
-30169.2
26.2977
4489.69
62.0528
-45.4013
-32.2682
-59.1149
-45.3254
1.72429
-298.442
-22.6154
-14.8616
-5.88856
-4.05651
-9.40779
17.4203
-29.3082
-5.12749
1.14537
-30.5172
0.85414
-174.379
-3.10501
-2.4943
-33.6802
2.72339
45271.6
-15.7331
0
1.73753
-24.6018
-2.25954
-272.206
-13.7482
-21.5851
-41.9575
-7.35139
-51.7356
1137.21
3.54017
-23.7069
-27.0162
-12.4849
4.63673
-234.374
-0.346617
-1.47077
-2.10554
-4300.89
-6.65171
-8.47924
-159.251
-2.43034
-15.1805
1.02206
-614.83
10370.5
12.8721
-0.606032
-67.9185
2757.11
32.6823
0.387754
0
-14.3197
0.72103
-1.32047
-2232.97
-8.35429
-314.81
31.7351
-38.3485
35.3437
-476.754
0
-36626.8
-22.7542
-22178.1
-8.96589
0.56255
-45.9759
7.62987
4375.46
-7.0499
-21.2339
-30.1354
2.04838
-0.56869
-321.174
-102.573
165140
-52.014
-146.884
-44.372
-0.528143
-14.9688
-52.5704
-17.6976
-34.8993
1.51315
-24.686
-5513.05
30843.6
-35.4631
-3.73637
-50834.9
-196.817
-13.411
-27.5532
-46888
-27539.1
1.96206
224.376
0
-52.1374
-118.13
0.616988
-11.2886
-25449.6
-155.278
-16.7654
-32.2081
-17.2056
0.16793
-11437.9
-1294.89
-14.0114
5.73808
2.39344
-859.431
-3495.23
-9.5053
-1.2849
13894.7
-9.57819
-11.5925
4512.2
-62.8876
1.7515
-15.113
-1.10436
31584.5
0.406361
0.284104
-11.0945
-0.122667
-3.05544
-12.3195
-69.4956
-30.4578
-9.58012
-35.3961
-15.8748
-1.62991
-52.1981
-37.609
-57352.4
-348.112
-111.746
-45.1735
-60.6962
-14.0729
-3.14363
-44.9181
-26.3233
0
-30.76
-24.76
-0.320083
-60.4421
-15.1588
-9.26647
7.74516
-2.89769
-54.3151
11.6837
-37.738
-0.811496
-39.073
-86.1347
322.983
-20.7383
-10.3406
-27.721
-0.628386
2.02055
-77.3035
-16.4031
0.0721268
-11753.4
-30.0422
-26.9031
947.846
1153.78
1.34993
-1.53736
0.516264
-2.48178
-8030.09
-59.3599
251.993
-785.717
-31.8382
-13.4479
-11.8849
9471.87
9.71339
-95.0121
-2.41281
53.8647
128.881
0
-416.305
-211.302
-59254.2
-218.678
6.6125
-26.0588
-21.9177
0
-14.4943
0
-15.0404
6.35454
96.9317
-11.3892
0.148495
-185.654
-3.57925
-451.015
-16.3004
-15.1913
-5.46346
-92.6005
-40.9051
-151.078
-5.29931
-0.398562
-1147.5
-12.522
-28.227
-37.0127
-7.41492
-724.404
-16.3496
-0.977872
2.62803
1.15186
-20.2897
-13.7326
-1375.78
-0.599362
-30.0648
-7.97746
-13.8452
-9477.39
-1.29095
-13.7979
0.918263
-17.0721
-14.8551
-35.4581
-140.537
-14.7161
18975.5
0.817359
-10.0875
-96.7883
55.7064
0.885962
-24.3075
-19.3833
-10680.5
-1.00174
-0.686925
-19.5914
-71352.6
-1.16684
0
-10.8483
-22.6384
-16.2728
-17.1747
4.60015
-325.862
20.3287
-110.274
-4.60239
-16.0294
-2.28172
3.97814
-9407.38
-5.11759
2.02096
-41.8128
-31.1981
-15.7824
-10.2353
-13.6783
1.39349
-0.231439
-22.081
-20.3675
-11.1246
-10.765
-88.8671
-50.822
0.653419
38.4285
0
-0.836014
-0.737152
-21.6881
-159.911
-29.9239
-1.91974
-31.2899
1.31726
-26.0459
-31.592
-29.572
-80.0941
-102.969
-11.4782
-35.1665
-14.9722
-33.9747
-32.2081
-6691.16
-2.16848
-46.7859
-20.6274
-1.2009
-14.1694
67.0389
0.726234
-31.9579
-18.9962
-14.925
-1660.12
0.165899
1.03603
-29.7588
-29.1618
-11.7902
-3825.22
-30.9161
-30.5227
-7124.15
0.788792
-0.613616
-15.4119
-71.8216
1141.43
-1.80362
-11.1303
1.90201
-24.777
56.6891
-13.47
11.6126
-19.3502
-17.4122
32.1098
-153905
-96.263
-854.833
-39.0443
-0.674884
0.417295
0
1.21984
0.913226
1.45836
899.522
-24342.3
-12.0346
-13.524
-2.78976
48.2548
-17.9098
-32.04
-3.25392
-6.76211
33.8501
-125.424
-3.03633
2.38322
-65.0759
-9.25978
-152.202
-0.201363
197.41
-115.688
0
-35495.3
-6117.71
0
10176.3
-9.03194
15914.8
296.439
-2.30417
-23.5504
2.06188
293.092
-178.767
2887.79
-301.43
-146.474
-33.5843
-66.6597
-55.6721
-40.6085
1.18122
1.06308
102.026
-13.2065
-30.0039
0
1270.76
-85.604
-0.617266
-18.4281
-89.2848
-11.3654
-14.5508
-15.6666
-1188.72
-17.1357
-29.3825
-10.675
1096.24
-2.4822
-157.698
-14.5821
-774.99
-30884.7
-7.61648
0
-22.2123
-36.5279
-3.30533
-44.5961
-1065.45
-21.6209
-23.2096
-44.7857
108.151
-4.06281
-159.124
99.6304
-0.742632
0.513658
1.34317
-24.8692
-39.5794
-17.8458
-10.2527
-19.2204
-8.03348
1.16586
1.12911
0.835386
1.90374
-28.8787
0.332006
-38.3125
141927
-34.6718
32.8559
2558.14
2.54618
-14.7441
85.1315
0.771833
-14.7378
-16.5458
0.781585
-6.4906
-11231.2
-1.94032
-1.71539
-391.711
1.31335
-59.9191
-76909.8
9.06945
-12.2224
-13.3081
-14.1892
0.589615
-30.1244
-59.2166
-17.9025
15.3702
0.194325
-2.02575
0
-15.6971
234.869
-0.59105
-2.30686
0.268164
-3.89794
-72.1277
-29.9518
59.7156
-72.9718
-15.1303
148.039
-22.8988
-45.5017
311.841
0
-0.306736
67862.3
-0.77461
-23739.8
-13.8603
-13.1257
-47.3293
-0.672975
0.675799
1.61919
25.6957
2.17225
-190.154
0
-9.48643
-64.9623
0.839486
-2.17355
-16.3259
-10.4543
-0.272561
-1094.55
0.233548
-2.61592
-51.1103
0.269577
-0.789496
-40.6259
-13.3779
-1.63176
-15.2565
-16.1468
-54.7108
-29.7772
-0.688282
102.801
-52.0227
-19.7642
-31.5411
-1.2378
-0.0289087
-12.9243
-0.967348
-21.7459
335.517
-14.429
-18.7199
-11.2554
-45.5186
-8.51998
0.952207
-42.2989
-9.52349
-14.9531
-10.5741
49.5017
-0.149874
0.625855
-28.1982
0.227076
-24.2887
-43.7601
-16.0555
-22.0245
-58.3185
-45.9041
-91.6642
-14.5002
-23.7382
-0.209277
0.120668
-43.1798
-7.76596
1.60728
19.1054
-9.53839
-0.602638
0.460139
-30.5665
11.4223
-9.57575
1.77862
-13.183
-61.1991
-8.77119
-48.2557
-11.2269
-28.3256
0
-1558.01
-3460.75
-1557.08
2888.08
0.187027
-14.6385
-270.706
-76.0145
1.72429
83.9365
0
-162.659
-14.8212
-13.068
-15.035
13.9931
-56.4401
3.47303
-34.1423
-3.3516
-17.7724
0
5.98465
-12.5431
0.127444
-413.246
0.791838
-0.321956
-0.113452
0
-26.117
257.603
-13.4564
2322.72
-26.6956
1.68889
-2.73077
4.60865
1.29534
7.2817
-80994.5
-63.368
-9.49677
-36.7864
1.99729
151.862
-10.9726
0
-2.56851
18.7557
0.18622
-28.2015
-13.6357
0.464373
-13.7373
248.858
-93.5931
-15.1805
-17.3593
-3.03237
-37.0935
2.09021
-9.17601
-18.0205
-31.7222
-37.1916
-1193.68
0
-10.2352
-0.472986
19.7719
-0.538492
-68.7939
-51.3857
-1.07811
1.56306
-67.237
0.957492
-5.39053
-12.2123
-2.26606
-14.6158
-24.8958
-10.5075
-26.8847
-30.6894
-11.5805
-3466.79
-0.632594
-5.25939
-100.716
-32.7877
-6.21226
-1.6501
-54.0841
-34.7233
-29.4718
-2.04213
2.62042
-69.4997
2.47004
27.9409
-11.8874
0.918656
-0.630741
-2.00398
2.90316
-35.2137
-120.175
-530.37
-22.292
-34.1061
-9.67371
-8.46893
3.21344
-14.6769
-29.6732
-19.0035
0.616988
-11.8705
4056.39
-38.8057
0.711942
-19.8479
-17.8969
-6.2606
-190.148
-25.4238
0.62237
-27.6762
-24.5565
-0.543468
-0.322746
22303.1
47.9818
-0.866553
-14.6825
0.058271
-22.1258
-1369.75
-22.5721
-32.3803
-10.0488
0.417766
-18.8494
-2.10012
-9.17552
-26.7033
12.4025
734.952
-31.5245
-30.8204
-2685.83
1.55777
-102.015
-55.7036
-86.5415
-36.9991
-47.3389
-167.893
-23586.1
-0.901854
-272.898
-0.4165
-74.473
-42.5653
-45.1735
0
-26157.3
-16.8026
-212.719
-11.0434
-57.5137
-0.719548
-158.682
-11.97
-56.8289
-0.949261
-14.1689
-13.6983
0.731439
-11.379
-19.5228
-29.4258
-26.1489
1.80624
-13.2696
-242.313
-35.3908
-132.064
-30.5439
-0.329956
8.48829
-25.5955
-12.7971
-108.079
-0.245299
-14.8899
0.111831
-48.9105
-5.69428
-7.22712
-5.79503
-9.00704
4.313
-3.03272
3.98773
-348.579
-18.3113
-474.371
-11.7352
3.10585
8337.82
11687.7
-23.4936
2.10569
-16.1821
-42.3894
14.2132
-12.6193
-15.4373
-438.918
-56.8028
2.06289
-22.0071
-32.2608
-28.6775
-1068.46
-1.1286
-26.3033
-17.0779
0.412022
-16.5391
-341.555
-8.08328
-130.01
-7.21671
-2.65641
-75.5713
-17.3635
-13.7679
-0.57264
176.975
-1147.72
-41.9679
-361.249
-63.7086
-40.6039
-35.5877
3.81394
0
-71360.4
-85.3551
-0.0978507
-142.105
-2.87292
-24.9115
1.31436
-1.38364
-11.9929
0.532323
1.68522
3.58649
-32.5199
-681.941
45.6585
0.150416
0.152317
0
-12.6515
-17.9554
-8.60246
-12.5339
3.41201
1.59637
-14.0723
21.2166
-55.7936
-22.6119
-9.02808
-6.75957
339.028
0.429151
-90.4245
-23.2327
-11.7616
-0.814424
0
-0.279013
0
-36.3096
-0.62386
-22.772
-2362.68
-3.10515
-500.886
-10.4268
-3.75424
-34.6048
-15.4487
-4.50025
-0.933504
-83.3361
316.607
-58.4532
-65.2742
0.195944
-23.9055
-15.2588
-6.42809
-3.91035
2.51585
-55.9729
-9.57521
-18.1233
-0.063855
-41.8817
-50.7713
0.194758
-28.3839
-23.2772
-6.69834
-11.4871
-0.36193
0.740205
-2.15052
-18.6299
-2390.9
-357.335
-15.1481
-94.0135
37610.8
-15.9105
-1.12571
20.0278
-16.6967
-45.2257
-22.4868
-22.3236
0.0846735
-27.636
-29.2827
-420.488
-8086.91
-1.39329
-21.0556
-8.61861
540.501
-0.239885
-48.6926
-7.92148
-11.2242
-74.199
-45.9555
-1.40387
0.354258
-0.3234
0
-25.5639
-0.405885
0.175241
1.45612
-0.187448
6.96419
-0.513862
-26.4855
-24.9802
-2.22006
-3.008
-75.3974
2.65642
-255.204
-60.8285
-55.3462
42073
-126.997
-9.63692
0.476282
-18.1111
-1.59273
-10.92
-275.473
-0.0189984
-0.339806
6.04637
-17.6951
-1.16079
-33.8161
-272.542
-1.28701
-15.9284
-86.1981
-15.7227
-0.326985
0
-36.4496
-1.52572
0.177835
-0.130062
-29.8781
-49.1437
-8.38751
17.8905
-0.548367
-160.854
-12.6471
0
-88.0322
-281.356
-34.9717
-17.1993
-49740.2
-1.10534
-1.30797
1.09358
-12.83
-17.5748
-12.9604
-8.45664
-165.237
-59.6284
-65.3977
-1221.05
-11.0996
-36.9603
-51.5118
1.12795
-1.89544
2.82374
-41.6407
8.80697
5.49627
0.822429
-8.07189
-52.8332
-312.477
-23.9304
409.915
-0.608136
-2.22642
-14.03
0.293502
-31.9579
-1.25263
-19.6363
-37.3502
1.52899
-31.498
-22.8461
-23.7079
-2.99677
-1176.23
-41.2733
-0.0102601
4.67042
3.70502
0
1.45476
0.756865
-187.341
-14.5777
-10.2235
1.90165
-69.4492
-49.6437
-0.444931
-0.150369
-15.3314
0.661727
-2.71061
-8.90165
6.36904
840.141
-40.2533
-64.8133
-310.007
-39.7021
-0.511388
2.25781
2.89898
-20.2207
-1.1587
-508.684
-15.2747
0.321799
-0.132332
0
-0.625152
0.834293
-28.4624
0.950508
-11.3567
-27.3159
-20.6858
0.40054
-19.2801
1.00892
0.561298
31.4044
-23.2754
-4.43537
-19.7422
-35.5852
-13.1516
-29.0578
-5.04649
7.8559
-269.744
-98.1022
-68052.1
-0.72696
0.249029
-19.518
-301.995
-10.9408
-4407.3
0.242849
-9.99691
-4.14627
0.858866
-35.9916
-17.2195
0.735547
-3.43228
-16.7696
0.463592
-11.8867
0.999378
-70.2238
1043.7
-49.5478
-0.00773823
-7.38879
-21.4387
-11.581
-1164.2
-9.22867
1.25451
-29.5795
-12.4305
-10.9907
-1078.84
-1.26187
0.282401
1.28207
1.10315
-527.939
-1.59056
-2.37245
-6.87093
-659.729
-0.527493
-15.8556
1.43423
0.203888
13900.3
-0.578819
0.322563
-21.2759
-27.5836
2.52892
-17.4876
-14.2588
0.455392
-0.430282
-25.8325
-1.38201
-24.3298
59.3596
-0.496215
2.77917
-15.7841
-43.7666
-0.609234
-21.1359
0.605714
1.28391
-17.55
4.88062
-53.2578
-2843.36
-1.42087
0.174497
-0.476849
-26.3779
0.395592
2.07064
-0.990085
-0.292917
4.20174
-1.19542
-0.896482
-13.7559
-65.7102
-0.160043
-0.340686
-12.1617
-0.517052
0.447724
-42.2307
-15.9284
-26.7343
-523.675
-6.76893
-2.82818
-14.8553
2.90016
-7.0864
281.169
-803.222
-213.152
-138.086
-11.2122
-8.20098
-51.9328
-166.312
-211.302
-56.5498
-0.791003
-136.358
0
386.939
-2.48963
-1.49258
818.162
-2040.03
-14.1018
-12.9604
-12.7171
-385.666
-2.64559
-375.698
-10.201
-11.1428
-14.5456
-2.826
-6.27403
-35.8205
-2490.89
-3.58167
6.28078
-64.1919
-32.1548
2.12122
-1.85562
-2.83279
-31.2448
-45.8125
-7.51579
-9.66671
-2.83269
3.01864
2.24357
-1.81224
-26.0252
1.47523
-20.2897
-53.7243
5.08865
-7.30571
-15.6751
-0.13017
-8.72273
-3650.59
-20.552
-145.944
0.720452
-16.411
-29.523
-26.5394
0.38151
1.30881
-57.4492
-34.1446
89.4695
-204.84
-0.226511
2.07408
-2.10208
-2.36524
-284.018
-51.2933
-0.999771
-37.7477
-33.0054
-46.5715
-139.964
-4.68024
-517.748
-55.8876
-37.541
-12.8473
3536.88
-240.11
-1411.44
2.92278
-17.6088
-19.5836
-68.8124
0.18293
-32.2648
-25.7187
-73435.4
-89107
0.89809
-4.60881
0.472464
0
-0.200414
-4.68857
3.13055
-0.258279
-5.36913
-10.9756
-14.3065
-89.4262
-0.0691094
-23.2734
-2.05402
-20708.5
-28.1638
7.71367
-23.2843
-3.56353
-55.9976
-1040.95
0.933067
-1.3924
-107.781
-71.71
0.711695
-3.60907
-0.174449
0.0779133
-0.97437
-41.2275
-0.231268
0.0715281
-19.9309
-1.02206
-0.462365
-15.0328
0.457743
-4.67971
-57488.3
0.578616
0
-56.6948
-2.66303
-1.34487
-27.7411
-79.3905
-45.2204
-31.76
-32.4508
-29.8237
-1.93291
-26.1035
0.0589994
-42.0519
-47.7264
-24.0038
5.22879
-16.4994
-10.3186
-1.91175
-0.112416
-12760.1
-19.951
-5.57908
-88.1779
-43.4326
0.75044
0
-24.354
0.817088
-0.323057
-47.3871
0.144147
-16.1377
-195.056
1.87202
-0.574754
-37.2306
0.546616
0.043612
-0.575704
-68.0929
-32.0086
-38.7161
-33.0718
0.030461
-0.504129
-16.4031
-10.7993
-0.750317
-24.9017
-34.7776
0.491858
0
-60.9727
-69.942
-26.6926
-5.75084
-1.83666
-29.751
-8.60443
-2.00352
-30.4739
-60.8448
-26.5032
-28.2461
-801.431
-5.5246
0.0768037
-71.5174
11.6239
-0.637751
-13.8437
-33.5745
-1.66481
-102.256
-48.8894
-0.42752
-37.9767
-0.134917
-1.01082
1.12586
-4.67215
-9.74106
-12.4592
-65.056
-38.8058
-4448.83
0
-135.196
-22.9219
-14.9466
-19.0793
-217.124
-327.097
-1.29647
-0.65056
1.80545
-30.7628
-0.855263
1145.88
0
-37.9061
-12.8035
-98.9064
-41.1406
-12.1166
-25.228
-43.1226
-0.28347
-3029.37
-1.83824
2.74295
-327.297
-2.42394
-53.5499
-0.815791
2.74052
1.45658
-0.68006
-80.4401
-13.3049
-6.28238
-5699.75
-17.5751
-43.4206
-17.9862
-22.9974
-15.5248
1.88966
-11.2752
-108.123
-61.3243
-6.655
-47.2252
-24.3187
-40.94
0.612251
-46.9621
-623.526
-307.83
-56.663
-0.905023
0.57848
-1171.02
-0.463058
3.7975
-30.6517
-0.34358
-337.668
-28.5513
-13.096
-25.5405
0.588542
2.18264
-0.169793
0.0460681
-12.8793
-34.0042
-0.617955
0
17.8659
0.809499
-11014.1
-28.5239
-6.61123
-5401.35
-15.3151
-24.2224
0.162709
1.14345
-49.4022
-53.8737
13.31
-97541.4
-4.54453
0.0631809
-0.942229
-4.44956
-23.5201
-0.166192
-0.887156
0.200486
-2.89885
0.757848
2.25955
-2.88203
-19.5702
-49.7052
1.1395
-0.00283182
-68.9668
-132.116
-12.1947
-67.8162
-6.90032
0.453559
-9021.33
-2.33365
-10.0798
0.00132185
-4865.35
-0.997887
-29.326
-151.436
1.30639
-92.3855
-12.8963
0.254964
-2118.08
-20.055
-46.4185
-10.2843
0.155198
-6.87897
-19.2323
1.16092
-13.7335
-0.474464
0.208359
-3604.34
-2.33112
-1.18818
-4.65579
-11.2309
-1.24177
-1.83026
-7.56131
25.7476
0.117658
-1.01324
-0.572562
0.0871126
4.01854
-21.1039
-1.53184
-19.5265
-5.42604
-3.83547
-77.6692
0.0372979
-14.5734
-30.2316
-31.6554
-27.9262
1.06632
-2.36456
-15.1927
0.829416
-475.975
-19.6111
-17.8086
-2827.52
0.613695
-188.342
-973.697
-76.6951
16.7275
-69.4103
0.365984
-27.2844
-13.1929
-6.4236
-27.0241
0
-1.20905
-48.3418
2654.6
-8.69356
597.79
-51.5077
-13.8752
-0.824561
-29.1565
-11.3009
-11.4832
0.796401
-2.25326
-1.67061
-21.5628
0.0232879
-91.807
-47.7565
0
-21.7129
-12.9167
-73.8656
-18.3475
-1.62661
-21.234
-9481.22
-21.1279
0.724821
-0.83588
0.592534
0
-19.2043
-0.449586
-57.5845
-0.295979
-1.24817
30.1483
-1.42861
-2.58379
-10.7698
0
-57.5107
1.32102
-14.5095
0
-35.6007
-0.572881
-2.36164
-9.79842
-1.45109
-1.71908
-2283.36
-91.208
-2.94354
-1.34562
-20.8876
1.4362
-617.778
1.68151
48.8749
1.64575
-13.0023
-45.6803
-11.3286
-58.4569
-10.8508
0.324189
-0.778665
1.31269
-45.4751
-2.81634
-339.044
-16.1874
98680.9
3.77218
-22.1494
-0.690257
-238.762
-20.0253
-21.4864
-75.8814
1.0525
-0.29402
102.661
-19.9471
-4228.27
-2786.4
0.0524211
-31.9579
-124.125
0.24926
-39.0714
-14.5909
-27.8371
-102.718
5.6195
-7.05619
-13.5518
-23.1382
0.79108
-54.3585
0.2218
-88.7166
-0.573684
2.66792
-3.93737
-1.51858
1.44766
-12.2001
5.1011
-1.87466
0.714749
-70.4552
-25.2139
-5.31779
0
-30.6817
-0.0535851
0
-78.5699
-39755.8
-0.335755
-17.7983
-9.79769
-0.614689
1.57105
-1498.07
1.91391
-2.67979
-505.056
1.00246
-1.24666
-15.229
-5.51516
-0.143199
-0.618483
-74.646
-0.790278
1.57394
-16.7677
-17.8866
-63.3794
-10.0607
-94.3922
-0.76552
-14.7939
-0.188429
16.3746
-0.206067
-8.69373
-113.936
-50.1809
-10.8302
-373.022
-23.0408
-27.9712
-4.50399
2.08573
-88.3922
-29.5435
-34.7141
0.979036
-54.1827
-41.8522
-18.9225
0.171525
-0.65657
-0.0163778
0.361875
-0.137152
-0.305564
0.551537
-7.14917
-1.05227
-53.0113
0.563328
-28.7917
0.798766
-35.0501
-133.973
0.806101
-29.395
-34.9849
-25.08
-6.88071
-75.7554
-29.8651
-17.501
-44.844
-3.51367
4540.08
-0.97125
28.443
-71.3739
-165.338
-1.29234
18783.4
-144.436
-62.9298
-24.1916
-0.242299
-37.8586
-191.371
2.20554
-22.6229
-15.0364
-24.4441
-418.799
-0.0990323
-1.32614
-123.279
-4.72076
-16.5875
-1.4644
-4.07659
-26.8724
-40.6039
-26.0866
0.0988066
-35.1728
-1.74587
-1219.53
-2.15729
-8297.28
1.41397
-2.16935
-66.3278
-131.658
-27042.5
0.0926399
-23.6927
-11.5918
0.0845868
-149.115
-2.0059
0.18863
-56.8133
1.5351
-0.633158
-25.3307
2.04906
0
-0.412868
-6.29742
-38.8834
-16.2024
-8.17404
-11.3603
-0.119783
-37.1351
-19.5403
0.35986
-0.224628
-1501.36
-0.805482
0
-40.765
-517.414
-1.49444
1.16713
0.0580023
-20.2157
-282.087
-0.0212502
-27.6038
-78076.5
-3.00731
-68.0169
-83.485
-17.8476
-23.6225
-38.3785
-49.9649
-25.0804
1.14116
-1.39099
-0.636247
1.32243
3.67145
-68.8932
-7.05306
-11.3676
1.62954
3.05721
2.26198
-0.590419
-267.399
0.430451
-17.2655
-3.79013
-10.4609
-55.9289
-34.7233
-29.4708
-34.4298
0.204987
-41.2216
-24.7006
0.396598
-31.8811
220.611
-12.7204
-74.2909
-10.6791
-591.218
0
-9.13673
-37.186
-3.30093
-1.72315
0
-2.725
-0.2785
0.888642
-25.7627
-76.1407
-18.8221
-3.11806
-65.9957
-0.763317
-0.728803
-4.0508
0.575971
-48.1297
0.0754188
-2.14477
-15.7198
-32.4384
-3.45125
0.666363
-0.691083
-4830
-23.4216
0.742479
0
-780.193
-2.09357
-49.8676
-33.1039
0.304566
-25.9222
-31.33
-43.4919
-55.7279
-44.4441
-43.0755
0.220037
0.0270184
-23.3567
-18.7896
-0.597802
-114.611
-0.47899
-2893.19
-1052.96
-0.241048
-52.4313
-1.12017
-17.2577
0.642595
-25.4995
17.1355
-5.24611
-4.74923
-0.492777
1.27062
0
0.532909
0.0403059
-23.3168
-15.1824
-31.013
-3756.77
-23.8877
-385.223
-15.7888
-28.903
0.86327
8336.72
-1.09495
-0.0940579
-5.23595
-30.1077
0.418704
-581.37
-31.0212
-0.282807
-31.0765
1.12806
3.02716
-0.927873
-30.7519
-31.0303
27.1013
-6.96995
-39.3579
-2.69751
-1.01958
-16.3708
-1.26226
-24.5183
11.0278
-87.9698
-2.22873
-298.475
-680.599
-0.183675
-20.2894
593.65
-116.994
-24.8754
-0.381135
-14.3855
-43.6693
-7.52142
-31.8982
-0.680855
-2787.07
-148.304
0.661742
-1.84733
-31.9579
-27.7816
0.24582
-29.3007
1143.47
-59.0737
-3.74969
-41.3194
-639.125
-1.41892
-46.1939
-39.2263
3.84828
-1.05993
-0.923724
-1.38458
-105.537
1.12149
22.9917
-19.4373
0.723771
-0.365831
-259.015
-59.5563
-36.2509
1.45735
-23.0427
-52.6458
-69.6644
-30.7527
0.0751213
-0.117536
-50.5735
-25.761
-23.0507
-1085.46
15.004
-21.1185
-764.033
-333.726
-1.69466
-15.4187
-1.29421
-32.6184
-17.2403
-0.706948
-2874.85
-18.7242
-22.3316
-0.576124
0.73859
-38.5097
-22.9325
-1.42664
0.290176
-0.543967
0.968009
-54.9439
-2.37647
-272.741
-1.04561
-45.4406
-135.417
-30.9127
-62.2123
-38.8602
-6.6306
-26.9029
-1.02515
-1894.12
-85.0668
2.6861
-19.1749
-1.6403
-19.2159
-3.59483
-18.8876
-142.063
-49.6363
-2.27445
-165.173
-36133.5
4931.54
-1.09859
-20.5656
-2.55387
-32.8059
-7.25277
-13.9787
-216.215
-17.0062
-120.391
-31.2873
-29.1291
0.445733
-18.8397
-26.628
0.924383
-8.35153
9122.59
-1.14606
-38.4063
0.545131
-1420.03
-0.350691
-0.443292
-1.19937
0.0485387
-14.7228
-0.170827
-30.8367
-1.55725
2.60673
-2098.08
-1.07846
-25.112
-120.516
29.2123
3279.56
0.580392
-0.196191
-5992.28
-0.417647
-1.17324
-0.186366
-25.2556
0.03881
0
1.321
-38.396
-58.1329
-39.6513
1.00111
-33.7441
-0.356863
-62.078
2.52486
-22.1427
-320.077
2.60415
-28.5011
2.18943
-16092.8
-116.214
-26.2157
-2.6761
-42.2098
-2.42899
0.034426
-0.0494291
-28.2371
23607.3
-140.891
-17.4451
-24.8269
-7.431
1.95355
-8.14504
-0.674724
-97.5717
1.2959
-14.3546
0
0.120668
2.87732
-28.6136
2.18073
-31.9579
-28.1801
-1168.05
-1.74553
4.90276
-23.033
-144.802
-3.48976
-139.009
-115.346
-6.57267
0
0
-96.2894
-130.194
-282.941
-47.194
-39.9357
-71.7868
15.1926
-30.8769
-4.75243
14.9308
3.01165
-11.9771
-40.4807
-1.32098
-407.973
-45.7467
1.15718
0
-20.621
-0.056537
-9.63938
-31.6491
-41133.6
-31.9579
-2.21192
-5.89718
1.53306
-1190.93
-148.303
2.35898
-8.23502
-1.15041e-09
0.741159
0
-37.8153
-0.880405
0.146121
-1150.31
-15.0019
-1.8549
-10.8848
-106.869
-14.9607
-2.22291
1.59234
-314.128
-11.6728
9623.23
-351.522
-29.2017
-2.70125
-18.189
-28.2066
-14.7256
1.50529
0.224779
0.631893
-48.6181
-52.6084
0.504483
-22.2927
1.50755
-48.9238
-33.1821
-1.29765
0.316772
-453.027
-64.3262
-23.3635
-0.692541
-71603
-2.05759
-44.6199
-120.646
1.27568
1.69763
-27.7997
-36.5992
-15.5354
-1.15533
0.53022
-44.9203
-13.0359
0
-23.3067
-3.4298
-1.3631
-0.0239321
-2.64484
-140.328
0
-7.22065
0
-0.349714
3.3988
0
0.933932
-1.80544
-37.4116
-51.2728
-10.207
-124.708
-2287.13
-51.4954
-1.64282
0.518149
2.25112
-0.666183
-8.82727
-14.6178
2.67719
7.04878
6.6477
-0.221041
-66.9325
-12.7091
-430.697
0.179869
-344.617
-18.177
-0.124341
-46.0608
-17.1182
-3.62537
-50.6032
-2.67979
-34.3997
-100.961
0.872504
1.35465
-30.5169
-17.369
-65.0814
-1.21088
0
-115.635
-617.48
-3519.37
0.798474
0.614563
0.69525
-74.1801
-0.92237
-7.95045
0.474286
-2.45822
-7.50931
-1.5745
7.66423
-5.5421
-15.1854
-28.9239
0.195241
4.18435
0.360471
1.07976
-118.934
-71.8828
-58.4765
0.677821
-0.175635
-16.607
-3.64511
-15.3754
-29.3927
0.280791
-34.336
-35.1623
-0.806446
0.865008
-94.4657
-5.27452
-0.366317
-0.702823
-27.0102
0.400885
-21.1064
-0.263454
0.358363
0.39989
-21.9428
0.0692511
-3.05745
-30.6229
-30.378
-25.0802
-11.0943
-26.5106
1.14026
